{
  "columns": [
    784,
    16,
    10
  ],
  "activation_function": [
    "Sign",
    "Sign"
  ],
  "biases": [
    [
      [
        -0.12146282729152412
      ],
      [
        -0.00594687959330149
      ],
      [
        -0.020352751127429163
      ],
      [
        0.00226507290428561
      ],
      [
        0.21709341957614367
      ],
      [
        0.05377641537860119
      ],
      [
        -0.01252475260057499
      ],
      [
        -0.2679295162142933
      ],
      [
        0.005423669831055805
      ],
      [
        -0.010280419035661367
      ],
      [
        -0.3184063973709527
      ],
      [
        0.15469616401735925
      ],
      [
        -0.007663399496098296
      ],
      [
        0.007151558033324994
      ],
      [
        -0.3476721273588066
      ],
      [
        -0.2649795516185532
      ]
    ],
    [
      [
        -0.1500000000000001
      ],
      [
        -0.23200000000000015
      ],
      [
        -0.1400000000000001
      ],
      [
        -0.006
      ],
      [
        -0.2820000000000002
      ],
      [
        -0.24200000000000016
      ],
      [
        -0.17000000000000012
      ],
      [
        -0.06000000000000004
      ],
      [
        -0.07600000000000005
      ],
      [
        -0.1440000000000001
      ]
    ]
  ],
  "weights": [
    [
      [
        0.03387752820503853,
        0.05051918543913848,
        0.18671246195012034,
        0.09256697740891436,
        -0.025973706611458633,
        0.13446898909718738,
        0.09493430967593357,
        0.10078694603846673,
        0.05455742142996386,
        0.0902782902441761,
        0.14712183164540923,
        0.1666282521824576,
        0.03813199107281969,
        0.11063014406914644,
        0.013935147305081974,
        0.09027118765313812,
        0.10010844036508436,
        0.19400015225264602,
        0.17369529403509473,
        0.07736330639830062,
        0.20398934472816335,
        0.10813671275865398,
        0.13077060186285547,
        0.13956917143229156,
        0.09103465559551814,
        0.08539519652530538,
        0.050341114884596465,
        0.24606148047254492,
        0.1873477493202931,
        0.13524620652666344,
        0.09864902667164617,
        0.07855139907629062,
        0.022475748847951962,
        0.07768352368632957,
        0.12216251589149041,
        0.11024944289140963,
        0.1548035320425615,
        0.07507320204719299,
        0.053902401104809476,
        0.10995944934803799,
        0.17506731672904993,
        0.03672560446871797,
        0.03202914937451225,
        0.03488509165103021,
        0.17295317030378024,
        0.1261911298207196,
        0.147801320353007,
        0.16178726601046442,
        0.15818705467158498,
        0.09005515282351838,
        0.16664072335307764,
        0.16073648868799942,
        0.14764931415828833,
        0.13492775424675693,
        0.1292506467920945,
        0.1593289981342991,
        0.15573426108808416,
        0.15862725416409088,
        0.15574214051680227,
        0.056475735627736535,
        0.15451681337165887,
        0.13530822265259926,
        0.14978729554725065,
        0.031327529730463884,
        0.12772538668463312,
        0.15121554125627992,
        0.1263040931323346,
        0.1782055809103222,
        0.15089209533201633,
        0.21419649392982468,
        0.22470518249224905,
        0.1253122955609907,
        0.15463312658323383,
        0.1170325435262195,
        0.12374694179322983,
        0.16558756553657275,
        0.14012708944255262,
        0.13218751005790844,
        0.11531986096619407,
        0.09232885551931823,
        0.12680065623109857,
        0.040676096361191745,
        0.051367075367129054,
        0.08732750575178484,
        0.07435459366487644,
        0.157612159425032,
        0.1010427940864312,
        0.19895557130143235,
        0.06819432874960533,
        0.08735140869204962,
        0.10647092810792287,
        0.07896096837426604,
        0.045453852653590456,
        -0.061885716768195154,
        -0.06665822367901546,
        -0.02929412893328502,
        -0.049498571219726374,
        -0.07315233533585096,
        -0.0878165502695016,
        -0.018881475400232488,
        0.10152251003622555,
        0.07122958359968985,
        0.0893015148014863,
        0.09581791278576617,
        0.23419520735529228,
        0.16080740146554326,
        0.12506857864542537,
        0.1440132535529479,
        0.1484571218042625,
        0.07048899625946896,
        0.15480154348725791,
        0.14411433524586273,
        0.0730838526544972,
        0.09809845135674418,
        0.11376361276030954,
        0.08124378989163368,
        0.11785727682448202,
        0.08529053480995809,
        0.08168231464699717,
        0.07226175363946284,
        -0.04109588892813359,
        -0.1874874724216097,
        -0.2716839338640925,
        -0.34607230822059243,
        -0.33973674069483506,
        -0.4760979359753932,
        -0.4529887742893757,
        -0.2968204275342151,
        -0.1936872938781755,
        -0.1955768413817621,
        -0.1535643804253459,
        -0.011895094554729582,
        0.1434893142483569,
        0.20901127046617982,
        0.20059180239823923,
        0.16355610985971172,
        0.20062676534955345,
        0.21933626650524637,
        0.15939441726323364,
        0.19041089658029156,
        0.18753991400464,
        0.031237812500818286,
        0.11855853993401293,
        0.08467527295596429,
        0.24538711407080707,
        0.14232524595052834,
        0.04312635218172154,
        -0.14269240318475793,
        -0.25916535764295057,
        -0.298254892180412,
        -0.2872234596891142,
        -0.16032310404951414,
        -0.06365793122974155,
        0.6092997040514317,
        0.6842931037634191,
        0.8447205403225254,
        0.9395046628489768,
        0.799995949921091,
        0.5811709181160615,
        0.4193580898967326,
        0.33819104479958095,
        0.4057400594197287,
        0.5089578629726134,
        0.4052982786928431,
        0.33879649302485926,
        0.2399969548038651,
        0.17836805090337107,
        0.1645688827792112,
        0.18192610485099484,
        0.05762859967855709,
        0.08085317489697742,
        0.14814736343156484,
        0.1018809699227722,
        0.16789121194299853,
        0.051305006751381436,
        -0.16750147739711987,
        -0.12239253960545922,
        0.10653455760632953,
        0.3218538957713827,
        0.49825873917684527,
        0.8558703281691621,
        0.5915793581558134,
        0.22082504870914002,
        0.2846609237326533,
        0.16771936381481647,
        0.4136363651881223,
        0.47559563723300036,
        0.5850819955765992,
        0.6336919252058982,
        0.7262017261372676,
        0.8250798203184434,
        0.5860429939414379,
        0.3703024716423984,
        0.23813999179154619,
        0.16466183248790042,
        0.087775125809836,
        0.11488150772297803,
        0.07608975655086724,
        0.10109991558736652,
        0.18778327248216312,
        0.12322374118336432,
        0.12095037911159442,
        0.13643530172034815,
        0.15726384630163834,
        0.3525004247040492,
        0.6305947897458427,
        0.8237105423519436,
        0.8183146114905299,
        0.6982019021774647,
        0.16469187839074576,
        -0.21477274004822614,
        -0.681535703435726,
        -1.0025224275867728,
        -0.46830637881290205,
        0.09183758462903652,
        0.7038386286835382,
        0.8827029255345503,
        1.234098679191937,
        0.9739244361851437,
        0.7868123453251211,
        0.5628744185393152,
        0.25191794033729703,
        0.09014000712546859,
        0.16874003857453604,
        0.08147303256487402,
        0.16901998790760472,
        0.20238006145403878,
        0.25694765353365656,
        0.15568246024909696,
        0.28879467411021176,
        0.2601348419294808,
        0.39164759530710047,
        0.669387498267176,
        1.0469372008772506,
        1.1246237384842575,
        1.1638671814724786,
        0.9209490545027462,
        0.47377088283102187,
        -0.24622720795568132,
        -0.4973463382823379,
        -0.8413957158022646,
        -0.8806604270991977,
        -0.10055812818674602,
        0.956811018129046,
        1.3746047225129399,
        1.3722299517585317,
        1.2176354610166404,
        0.8581209545850822,
        0.6705766251754396,
        0.38205656316028447,
        0.2254651885354831,
        0.17567835147007435,
        0.09439628266391493,
        0.21024052163334947,
        0.11386096560596147,
        0.20208150477675593,
        0.35677605959263803,
        0.3148403275845776,
        0.528700230257184,
        0.6701033187265869,
        0.9121087254884827,
        1.0597428675834195,
        1.2059367499689293,
        1.5052462629106327,
        1.6976558746263921,
        1.2024287722082612,
        0.7103779772254485,
        0.09922208812346457,
        -0.6462009069125924,
        -0.6220193832243236,
        0.08418476102508206,
        1.1159339400324195,
        1.5671781786690488,
        1.6368084671217227,
        1.2906365235718391,
        0.9880709238341964,
        0.7479327760447062,
        0.480805745739288,
        0.12131534808867009,
        0.1368660681517002,
        0.0956810571007642,
        0.17571404919731096,
        0.05626757261915099,
        0.1028249497718363,
        0.32547847890023685,
        0.21502656080919633,
        0.6172561971530558,
        0.6048287940407581,
        0.5949830804380577,
        0.8375319204693025,
        1.4178070453042644,
        2.2562209862717295,
        2.385883109489042,
        1.8233143895043338,
        0.867359070269219,
        -0.07979074881073243,
        -0.4694701536357153,
        -0.7783118790161357,
        -0.15152035539949307,
        0.6105459019304668,
        1.353253406758696,
        1.5268232570711475,
        1.6117266375599153,
        1.0625029247558937,
        0.5925715510951045,
        0.2734914854513961,
        0.18487009327192463,
        0.10714045736987603,
        0.1135115195534193,
        0.08107471845917862,
        0.16859186769268744,
        0.1953845305275246,
        0.20748699655642325,
        0.2944310831585166,
        0.5393035585054945,
        0.4327330957084986,
        0.3736678969158983,
        0.8705718953090794,
        1.9665345156258367,
        3.0071712717090437,
        3.2081479383516416,
        1.956989428901054,
        0.4409213536517629,
        -0.764716678337635,
        -1.0372988601815119,
        -1.463869180679468,
        -0.9039921797654432,
        0.002855376761612784,
        0.8039592946555695,
        1.311740489307539,
        1.3535440931090787,
        0.9409642164866968,
        0.5084093091316347,
        0.08638638774301165,
        0.13616892909998365,
        0.18856523091931662,
        0.11818440230581907,
        0.018820185578243047,
        0.18402853222451684,
        0.1613102024872529,
        0.19914183877178274,
        0.3090360027401984,
        0.37567142351739646,
        0.03884561235885905,
        0.11868895299394144,
        0.856712087349044,
        2.305749589975305,
        3.2812133445472447,
        3.1527423161505523,
        1.3986117465311525,
        -0.17425413573784307,
        -0.9535434533980259,
        -1.4015592665907197,
        -1.6579705029474534,
        -1.214706729613992,
        -0.18663321491124643,
        0.7188167709643333,
        1.2400691328812987,
        1.228759855680673,
        0.8747346299002711,
        0.3870304735667468,
        0.07875830234883192,
        0.17852848605391833,
        0.07864467303907037,
        0.11808400886273675,
        0.008775292741212404,
        0.12361206970274644,
        -0.03878934269646967,
        0.16807021968892474,
        0.20873641431494508,
        0.3346191964480234,
        -0.023846440171538308,
        0.07790906625034162,
        0.6382024399674558,
        1.6109145185622518,
        2.2888314115527675,
        2.2141376201689478,
        0.6177159822964716,
        -1.0124723862523801,
        -1.3536273650774029,
        -1.468462593099183,
        -1.683395177189513,
        -1.4304886778855959,
        -0.25088846530865716,
        0.7306107918934576,
        1.1952218099895622,
        1.2068494899637223,
        0.9181890042373549,
        0.3677938288743864,
        0.16580645129399316,
        0.14267637388760215,
        0.08697870790500938,
        0.1410141269989815,
        0.14404679667065826,
        0.144306532607042,
        0.15227544128452145,
        0.17811918412166325,
        0.31822970301138087,
        0.3650369915905881,
        -0.13388171942114593,
        -0.35215157588383583,
        -0.09144125840209484,
        0.23277810226350373,
        0.8246586242371235,
        0.5458742089399037,
        -0.9598512274348027,
        -1.6508814663989309,
        -1.7198306013770293,
        -1.460906738729914,
        -1.950357481371131,
        -1.3411884150951459,
        0.1618185442475503,
        1.0581603121099632,
        1.2328733231546123,
        1.2159017154052445,
        0.8445609190825386,
        0.38899600623861996,
        0.13995168252492848,
        0.14378919911512708,
        0.03167589620465612,
        0.1673463678862345,
        0.1101216334712412,
        0.11533178111636858,
        0.06082194409424615,
        0.14612071225741788,
        0.3908274110016541,
        0.24947525311869242,
        -0.1187777008103539,
        -0.42759555957967155,
        -0.5915364309121033,
        -0.9181768612365079,
        -0.6242594952813455,
        -0.9255580838694178,
        -1.7408954094389262,
        -1.9848771721377345,
        -1.405630926014059,
        -1.463519967409194,
        -1.706270050824312,
        -0.9622012248846664,
        0.543346791838356,
        1.2472671612595674,
        1.2975103368555712,
        1.0354821498782274,
        0.7021110731544654,
        0.27657310759111253,
        -0.016072202928692998,
        0.04421520112525775,
        0.1740516384137615,
        0.11307492655785072,
        0.12811793788964715,
        0.0882121752820962,
        0.09199437672685117,
        0.12074378855910492,
        0.36460087077540604,
        0.3474132734685841,
        0.08257967460360817,
        -0.057686835953249714,
        -0.6816793963653852,
        -0.9159683041248264,
        -0.8003825468341849,
        -1.259998135314058,
        -1.7846796697788607,
        -1.6544322821435655,
        -1.390622176482682,
        -1.4042528872014055,
        -1.2813508163160499,
        -0.20425979498527616,
        0.8031973183651583,
        1.2028876646919902,
        1.3215565967706755,
        0.9583848063876573,
        0.43827639992927836,
        0.056077604377340905,
        0.1193690954682896,
        0.21725336264837816,
        0.0033235007876943924,
        0.08811092317551832,
        0.09967824746857902,
        0.11951832883627166,
        0.08834423391411116,
        0.038440717958125876,
        0.2559426344886945,
        0.2765880715257677,
        0.34085731441487743,
        0.5808772901798781,
        0.26678880791999204,
        0.08242805654829018,
        -0.30851067438441404,
        -1.0677156091403395,
        -1.4492746920130133,
        -1.4848794526489189,
        -1.4090265618847562,
        -1.0848147622412956,
        -0.5150336286863905,
        0.6137731289818585,
        1.1152161963888068,
        1.2166868404310918,
        0.9272896246860717,
        0.47985882386413947,
        0.20000209768021962,
        -0.08183701472398235,
        0.12322699615684968,
        0.06487022862502681,
        0.1720255291344228,
        0.18165058516222474,
        0.1290368149325478,
        0.21411299221632282,
        0.08495535814091594,
        -0.14465852143348198,
        0.20711843258281468,
        0.48291340158510476,
        0.7180053227160607,
        0.8959000598188936,
        0.9273837462727051,
        0.8950445531148069,
        0.365689389280909,
        -0.3433084545477534,
        -1.080104426158249,
        -1.0172237339719157,
        -0.8173592969622775,
        -0.6083531165403909,
        0.19752035922664954,
        0.8968249313213595,
        0.9818125096949225,
        0.7253677443286025,
        0.31579685592239404,
        0.1581923383869797,
        -0.241465316201857,
        -0.10627101457922138,
        0.06694995525589241,
        0.10400309371714554,
        0.09179773794316841,
        0.15666340705235657,
        0.05245921024817748,
        0.09050474291506223,
        0.0361014746260687,
        -0.1090542225970582,
        0.08059018392599225,
        0.239748141301625,
        0.709729439400096,
        1.07205060855597,
        1.4045456317904954,
        1.222172304640783,
        0.7622720607894539,
        0.04009649431607636,
        -0.472882408233658,
        -0.5566712312460197,
        -0.2019473467023111,
        0.00944029744788435,
        0.4120726413758673,
        0.8815613323514296,
        0.6094471814233214,
        0.30794410575424047,
        -0.0964472302880527,
        -0.4253904174906442,
        -0.3892763581098745,
        -0.08502421119948624,
        0.12417274194925734,
        0.06758161901806291,
        0.15472735297361193,
        0.10768901182084857,
        0.03993283235173605,
        0.2715447145082036,
        -0.01083226100829164,
        -0.12567605063042284,
        -0.23503189381079495,
        0.14343716119088987,
        0.5780887240042464,
        1.0955255581378287,
        1.2434484250939122,
        1.3885969940231855,
        1.2781301700382166,
        0.8628529667813895,
        0.29734567547335156,
        0.11018555940417711,
        0.34743787236055124,
        0.6635984547021826,
        0.8576000608700644,
        0.6558781623723938,
        0.21747176168327206,
        0.011897533326523017,
        -0.5465034719573981,
        -0.449345790542932,
        -0.19109841227265387,
        -0.052489909894624466,
        0.12479727222911703,
        0.21606712504778133,
        0.13360817532759836,
        0.19297613790218712,
        0.0895395515405719,
        0.1029880751618799,
        0.05729483320783878,
        -0.18864212868293864,
        -0.1823792541047435,
        -0.18864030778510685,
        0.18790788375783699,
        0.789723026735046,
        1.221111388387537,
        1.5131053780740162,
        1.77974823055229,
        1.6742943325551096,
        1.3108432478070429,
        1.1746670241936321,
        1.0722032404709245,
        1.006713708186387,
        0.8290430200705509,
        0.32436717758572764,
        0.13720194661098992,
        -0.2739571638582834,
        -0.3596125370472024,
        -0.3138826039887077,
        -0.18195648515357252,
        0.025281816602087274,
        0.06174478605029503,
        0.04917993697540537,
        0.14167304293027863,
        0.19625853850799688,
        0.0890129660275641,
        0.08986921705352276,
        0.1776660924673316,
        -0.08326375275507751,
        -0.22431049196316608,
        -0.1756585365966997,
        0.22460060083662323,
        0.5928149814535294,
        0.907567322589358,
        1.7438879176561988,
        2.4965477859764422,
        2.3892621835079493,
        2.484449258866294,
        1.8617559052095791,
        1.6327052398298039,
        1.1164995846230565,
        0.7685581888012037,
        0.19677844301444017,
        0.07659736553276399,
        -0.01054509779822282,
        -0.18709060337825037,
        -0.1751019630537786,
        0.040709050488776925,
        0.15148140842665955,
        0.08567967463085928,
        0.10417014684080235,
        0.08189837931430159,
        0.16579849676517142,
        0.1987599055581135,
        0.13402073142589901,
        0.16160001494071066,
        0.05551455031047973,
        -0.1023118173952907,
        -0.013127344469120821,
        0.1657064846045215,
        0.5667257914844336,
        0.9714111250505747,
        1.6951296146940316,
        2.463519565973153,
        2.8893110996198845,
        2.574487699839952,
        2.028634686225067,
        1.50238166863692,
        0.9011112351148794,
        0.49002421139323205,
        -0.014296035856172127,
        -0.1492765193121928,
        -0.16048574713905342,
        -0.019587062530849422,
        -0.06671005520200064,
        0.005530944862895113,
        -0.05126160232733743,
        0.1580015975310671,
        0.1451329844310101,
        0.19089472644363523,
        0.07611916357276706,
        0.1587226488150235,
        0.03755408585289236,
        0.042106205837113324,
        0.01660313022476436,
        0.06457216136136679,
        -0.04850612647986346,
        0.2375686729392922,
        0.2940667754224968,
        0.5521240949055074,
        0.8132496758604334,
        1.044338005497093,
        1.3519823385595189,
        1.258686600096478,
        0.7272652195610979,
        0.12346066122843247,
        -0.3155609734567669,
        -0.31977248634392264,
        -0.2328535661022262,
        -0.17193455144513567,
        -0.16044295519267118,
        0.0205477359614891,
        0.08885139871511143,
        0.04147386755191843,
        0.14102318565322217,
        0.0077535055149902,
        0.12282100153857292,
        0.16250320538250887,
        0.1714243663749697,
        0.13575723377227986,
        0.06932348554056787,
        0.17724474262360365,
        0.0988660562372446,
        0.19034816624385784,
        0.09756091162109888,
        0.18269878845599144,
        0.17979845251282053,
        0.18521025625392865,
        0.06152239213231549,
        -0.07403466670799676,
        -0.13698159711191474,
        -0.1668572233276708,
        -0.37175715799381814,
        -0.45710342067344867,
        -0.4149642493670497,
        -0.4310053263501973,
        -0.32265600620385104,
        -0.07637784476194272,
        -0.07933822774784553,
        -0.029904615491995717,
        0.10255932932652607,
        0.15006538127725935,
        0.14043386314094827,
        0.02492122368499764,
        0.12415773665819327,
        0.1559432645354352,
        0.10680175701397147,
        0.25321852732752176,
        0.03599013506198525,
        0.06910639756404204,
        0.10625568882806759,
        0.20804307075065706,
        0.09916606529715617,
        0.17214927716490078,
        0.20964720996784367,
        0.1509911690850517,
        0.1727605031713965,
        0.09039836657665005,
        0.1592937043840578,
        -0.01740207846674891,
        -0.014851293297961567,
        0.044863939000276194,
        -0.11552843376765355,
        0.02181113748901426,
        0.03998367656502958,
        0.10821555293545611,
        0.047545808601125235,
        0.05920458242396187,
        0.13359200269639035,
        0.1043931540344409,
        0.09805537832418722,
        0.17273824871236823,
        0.0932409313211897,
        0.14309633048307477,
        0.1209728862365679,
        0.1832690613224335,
        0.11600933652359384,
        0.16878030867351698,
        0.21510446232196048,
        0.15564590385822377,
        0.13612470814074926,
        0.09710380919620824,
        0.20099622784181723,
        0.14691946654182994,
        0.11936353265328635,
        0.12343955915570745,
        0.09804940491882581,
        0.1124398301121013,
        0.17353761698555378,
        0.22743306603475302,
        0.10099922816580885,
        0.2361396167183429,
        0.124633379834966,
        0.10066789837953556,
        0.09160403652810785,
        0.08998889047084029,
        0.025916801682783354,
        0.08593765494807899,
        0.1616476735094516,
        0.02452067533767735,
        0.07269676521184719,
        0.15027755130300738
      ],
      [
        0.08025201199076755,
        -0.09483759396055437,
        0.08462802654780709,
        0.08348798779960799,
        0.02585481261657162,
        -0.03561623591890961,
        -0.027986958337577132,
        -0.05502920300633539,
        0.009938467986155478,
        -0.028062580284781667,
        -0.08715846791449162,
        -0.02187082764415783,
        -0.028988582784326825,
        0.023822858706162985,
        -0.03160263767668833,
        -0.006098113658268516,
        -0.003319753143817827,
        0.00803262758137581,
        -0.011308691290544235,
        -0.0728624888718609,
        -0.04410016678513884,
        -0.06556836635397625,
        -0.04309498496892289,
        -0.043020943004195775,
        0.055298091947073774,
        -0.09170441395693298,
        0.07935525884716742,
        0.009614903049157098,
        -0.009269994129534992,
        0.023479810298521538,
        0.10119839697126258,
        -0.0492437783143824,
        0.035451764803596256,
        0.05188827356336863,
        -0.03692050744748292,
        -0.04857230128689358,
        0.0064726740057401595,
        -0.10180057009736905,
        -0.036368794575437,
        0.038574544622353255,
        0.018266589366176606,
        -0.003763623846759699,
        0.11208350274929481,
        -0.13341492497135268,
        -0.007799448057553448,
        0.015037385318184897,
        0.03535213771485919,
        0.007142844678920043,
        -0.013479966953225007,
        -0.005802850869499827,
        -0.05643910910814247,
        0.007348238497676895,
        0.017023212949277586,
        -0.05428257332024912,
        -0.014804994462220443,
        -0.016555206488615484,
        0.005035995903491748,
        0.051592767147703,
        0.02146199621957294,
        -0.004190600303611549,
        0.006867787557910047,
        0.06387436266555428,
        -0.01692152808419759,
        -0.07604980440582895,
        -0.002823215573481939,
        0.028513010736357626,
        0.06155823798821061,
        0.054795003441999834,
        -0.08214971298192299,
        -0.032838062426686646,
        -0.07875536515666183,
        -0.04710402085153778,
        -0.078807080611094,
        0.033900051377994324,
        -0.052595664613751564,
        0.021585977193076186,
        0.03990404554606562,
        -0.004794709893530937,
        0.07725840303600737,
        0.00039124241473938745,
        -0.046684711609102314,
        0.02829587303753637,
        -0.012688392067378871,
        0.00013734839453363615,
        0.05383118760764205,
        0.0198419608105862,
        -0.026437088480724336,
        -0.01892846712107173,
        -0.05867593785841228,
        -0.07620977114080274,
        -0.028175422740352594,
        -0.09055562881919955,
        -0.006859086146050645,
        0.001751383327220159,
        -0.036224880638290144,
        -0.057764232013368,
        -0.05630492868375357,
        -0.08569693822150105,
        -0.07476062283102426,
        -0.17786564671002833,
        -0.08766100815198498,
        -0.09373371404132007,
        -0.03944336228208738,
        -0.07233165862304403,
        -0.04019362632711147,
        -0.08735300327021916,
        -0.02780381962474953,
        -0.12988565821301326,
        0.006170696482545136,
        0.09220223687525965,
        -0.040941195833988794,
        0.0012820279346200246,
        0.016368122425556794,
        0.02519616892486911,
        -0.04339642047765345,
        0.06055433174299242,
        0.016436346829723388,
        -0.13986232731941298,
        0.0917505727618479,
        -0.08332972258875025,
        -0.020361416194684203,
        -0.16092338174678875,
        -0.12754658798864646,
        -0.4059589774395553,
        -0.23906001066931462,
        -0.21484762018593287,
        0.048735695170217155,
        0.07553037447406348,
        0.05098324569117069,
        7.286008117172733e-05,
        -0.19049726421270494,
        -0.327236392886389,
        -0.16095858286806838,
        -0.1400377753147538,
        -0.11997965488122923,
        -0.17193601966249197,
        0.017745076277894723,
        0.01002150689782809,
        0.06553756929950333,
        -0.04305971251859253,
        0.09968147214056415,
        0.0874461098093,
        -0.009364375356688564,
        0.011028005209697623,
        -0.058246069720938515,
        -0.043648919144069875,
        -0.047426789270557615,
        -0.17889816727458394,
        -0.1972761916178354,
        -0.2321261727488058,
        -0.1443289073588425,
        0.15581722274268847,
        0.4286689457735637,
        1.4847789136522163,
        1.7588134111632996,
        2.1156294838631915,
        2.2890710792555673,
        1.9147533135802546,
        1.0773928723420079,
        0.5464511868919278,
        -0.0866693552042193,
        -0.07885886889687994,
        -0.10437982283246565,
        -0.11526425388865945,
        0.04422819895283907,
        -0.04549479969934839,
        0.027412581729080975,
        -0.08591974955381938,
        -0.04361294912986341,
        -0.010927526871439495,
        0.013084028787074006,
        0.004065264361760069,
        -0.08991555727388557,
        -0.09429815477265542,
        -0.06951227483817868,
        -0.2058380989010257,
        -0.04227726319861762,
        -0.04952654673758698,
        0.31764799379565417,
        0.8674779496143867,
        1.7118084317965032,
        2.0438870808279552,
        2.2068846614641564,
        2.039820475988514,
        2.1071353901661185,
        1.8946817539477674,
        1.2521576907373226,
        0.6983558305301567,
        0.4163227863714745,
        0.1651988296920954,
        0.01794175308389602,
        -0.006629470230233179,
        -0.05622172185036997,
        0.049815091941989464,
        -0.08445271285739327,
        0.008606085951277714,
        0.04467889158365285,
        -0.03489836574079949,
        -0.05800829728536186,
        -0.10616464025466175,
        -0.1467062557800479,
        -0.09388817955098804,
        -0.13492496635718318,
        -0.2119181107865686,
        -0.12895745567715,
        0.408809530889443,
        0.8365973889128375,
        1.4467106927750526,
        1.5501711724773743,
        1.30619658205749,
        1.079874205625986,
        0.17134009721523893,
        -0.10918218848964649,
        0.02186382545924378,
        0.1912226406928533,
        0.8218996494318909,
        0.7116238792359761,
        0.770174017591805,
        0.39758758324904236,
        0.14512745037205674,
        -0.006731078554087008,
        -0.055454645870126495,
        0.06819674281535179,
        0.03581475569682821,
        0.022518481422251338,
        0.002018655787438517,
        -0.0941193528220468,
        0.03671106397654897,
        -0.0803894059306761,
        -0.11219186508683852,
        -0.043243950851051816,
        -0.14953020234021083,
        0.2819844409217059,
        0.6612590050443583,
        1.0976789885184206,
        1.3856970640937125,
        0.9583749323303137,
        -0.09033232479704326,
        -1.27122900195204,
        -1.5704716477598886,
        -1.5774313557376056,
        -1.3809906771921097,
        -0.221820732566259,
        0.9722268969732156,
        1.4032844174398915,
        1.1750674016512515,
        0.7671128716797297,
        0.3192758773543107,
        0.26134475841111743,
        0.1298501665091112,
        0.030323729214087068,
        -0.050522087702167484,
        0.05502559900739201,
        0.004265952964232798,
        0.0070898197901893304,
        -0.01503296581451828,
        -0.15575599021386752,
        0.05896148380277419,
        0.09741676648865723,
        0.17472822357375334,
        0.7372164454412586,
        1.2089824234781041,
        1.5910796098743545,
        1.4334212529999428,
        0.9002136745553231,
        -0.7274678357121489,
        -1.6611045320778468,
        -1.910425334830186,
        -1.7910191933853004,
        -0.9340602422230277,
        0.3132435367685093,
        1.4776397744241117,
        1.8670933850959337,
        1.4635126276970307,
        1.008522519206564,
        0.6451044020454314,
        0.39919768526152505,
        0.206743214896402,
        0.0787611953983836,
        0.04834335644179158,
        -0.04552665515537771,
        0.008883768327201546,
        -0.06744450942420804,
        -0.002055531593309664,
        -0.04132578085036258,
        0.13041648864122135,
        0.041372390874284445,
        0.17587257756997685,
        0.6376050229202613,
        1.338188978036875,
        1.6178300779649455,
        1.7134909029663221,
        0.8443458937098185,
        -0.6301254753036882,
        -1.2997969565758232,
        -1.3390747381175927,
        -0.5348712126605117,
        0.1575053458498654,
        1.259950673588851,
        2.0013898301188795,
        2.0793524063639466,
        1.727557464230289,
        1.1222725032716716,
        0.6417540613049135,
        0.2900595981943284,
        0.1280023446734561,
        0.06804753827644901,
        -0.09363560684001772,
        0.0212820505625667,
        0.00024131678448193839,
        -0.04054831466861826,
        -0.005216628939863257,
        0.016757017144119344,
        -0.0925042136744766,
        0.05931813004484279,
        0.023648981482654534,
        0.2906687289659618,
        0.7861104702230659,
        1.8213761213444666,
        2.1549445766256046,
        1.6532470290578976,
        0.35448605617207135,
        -0.316123791779645,
        -0.06573390339527815,
        0.7338816076260617,
        1.2223759086912558,
        1.9457601246343883,
        1.9139150972942074,
        1.8159083791264627,
        1.353035316727918,
        0.8070460203845033,
        0.34128417242761816,
        0.2737028760985665,
        0.13555084633957584,
        0.07072040895643339,
        -0.0174136097469606,
        0.00320331114658864,
        0.056906820932587796,
        0.09419113522004303,
        0.107152267453252,
        -0.027492779340303454,
        -0.04084243020316676,
        -0.28092125095131754,
        -0.43181669860659305,
        -0.3988158156468619,
        -0.023868736879898465,
        1.0374458374760138,
        2.2250514774852523,
        2.627032868745734,
        1.761361143243321,
        1.2271867530550378,
        1.4025300373095473,
        1.6375318348519154,
        1.673928488364335,
        1.4926793982245044,
        1.374443014211711,
        1.0383977860248104,
        0.5150746698753007,
        0.2682576163811496,
        0.06836283696354274,
        0.010227773293409842,
        -0.018926296688476837,
        -0.0511335547600552,
        0.035740156283282726,
        0.013168647422552788,
        0.026972101524724575,
        -0.012800672303329397,
        0.007155319775746942,
        0.03456669791867287,
        -0.25562069319046854,
        -0.4236934938924974,
        -0.8628538467403959,
        -1.2985617311970974,
        -0.8707355876626586,
        0.26034532890250234,
        1.9160781116894678,
        3.591163887964357,
        3.1087352962102943,
        2.477853887343338,
        2.4097900805997856,
        1.8208848269880218,
        0.9329427592442892,
        0.44664691799253936,
        0.22196187513925453,
        0.07742828723090463,
        -0.30467879344986387,
        -0.09785073325107681,
        -0.193249775324235,
        -0.024304233726497402,
        0.017620334451297546,
        0.029112345741708616,
        0.01707099835472756,
        -0.05643628609076025,
        -0.032609323228898035,
        0.054586428648342955,
        0.10631118889372275,
        -0.005752822198514979,
        -0.23879739833867436,
        -0.5230463456181429,
        -1.0389620459586373,
        -1.6467075398388442,
        -1.5716353785056507,
        -0.5441739496459009,
        1.8736451377986436,
        3.782107006541456,
        3.4295017603802087,
        3.2429691000319645,
        2.61240858558953,
        1.2293045522831245,
        -0.22177540681943642,
        -1.0111135455753852,
        -0.7904670736351356,
        -0.753210460843801,
        -0.6652149663567327,
        -0.49488507399881404,
        -0.4187545588538211,
        -0.10996671255176381,
        -0.011265443510556394,
        0.06066631464060275,
        0.031079474307674375,
        -0.009078468094264278,
        -0.027926554985937012,
        -0.12029817827880145,
        0.02283538825075246,
        -0.05251567522641533,
        -0.2507481853770572,
        -0.614084742020198,
        -1.0618550024393874,
        -1.3515993159077195,
        -1.1190737127907964,
        -0.052505295428737886,
        2.396215581100175,
        4.004858970310854,
        4.009380924357364,
        3.1456436577976854,
        2.0702316663128775,
        0.8136019477987794,
        -0.8140911193237694,
        -1.3111402454568852,
        -1.5112070757455955,
        -1.0628955841765804,
        -0.7690005015261261,
        -0.6210263998534838,
        -0.11279701838661664,
        -0.09333063352644046,
        -0.05548048413570923,
        0.05859217233495219,
        0.02848617323665211,
        -0.019063163588757728,
        -0.0707105922606773,
        0.04157988487000157,
        0.03681694917372391,
        -0.047578231395908485,
        -0.377189552579606,
        -0.36927028852535765,
        -0.7827336720276685,
        -0.7975614443142546,
        -0.06861273917210596,
        1.5479374068347955,
        3.6977374763782853,
        4.198118838689601,
        3.364759817003664,
        2.4184277924156046,
        1.4664787497223293,
        0.6471424094808365,
        -0.3377291240257579,
        -1.2971022521084599,
        -1.3356147480331306,
        -1.0773039299502398,
        -0.6715764881224091,
        -0.45400970600311236,
        -0.10322531726357369,
        -0.09174594801538928,
        -0.009282889438048213,
        -0.00399877355288603,
        -0.005716483238062386,
        -0.061138746580553856,
        -0.05492256868253832,
        -0.02794228995681263,
        0.021289001847954625,
        -0.13551847578894657,
        -0.4050977636137993,
        -0.588846206551827,
        -0.5562312802699686,
        0.17176254607924,
        1.4145486989415923,
        3.2289010305658516,
        4.292791378426893,
        3.529274316844954,
        2.174932516397947,
        1.1325136107454739,
        0.8679009219085935,
        0.6511276657210774,
        -0.05977138867655273,
        -0.45327610963109116,
        -1.0349196645189143,
        -0.8646721044894017,
        -0.549502142491524,
        -0.1711658243815968,
        -0.16477236135772208,
        -0.020884982661777903,
        -0.031155012354770917,
        -0.025745192164216606,
        0.0679022359223365,
        0.05536717587746097,
        -0.0035185585858341062,
        -0.012508760085195103,
        -0.06991381841103923,
        -0.1637827082235613,
        -0.402314561526033,
        -0.519168847168746,
        -0.16972640845865852,
        1.0343644702670618,
        2.1725651580514054,
        3.56734180433305,
        3.869597192674089,
        2.4963437141740688,
        0.6413914159098013,
        0.07856239636989608,
        0.16524481594996993,
        0.4740696678749266,
        0.2678749961749958,
        -0.17637320542584597,
        -0.5672698579575879,
        -0.6659877860303212,
        -0.41100051204029514,
        -0.24523887242930906,
        -0.15001779959810366,
        -0.04016035686922004,
        0.042711527139508876,
        -0.015517953072629919,
        0.03232519741645819,
        0.05329635395329313,
        0.02496979061388143,
        0.0467354365114777,
        -0.0885655868820892,
        -0.28257375860013795,
        -0.41136189710575083,
        -0.5972275144272814,
        -0.1572248874930532,
        1.0604084790036865,
        2.3535927914583326,
        3.102075169395097,
        2.6064130720741177,
        0.7939929981048717,
        -0.5115185156137136,
        -0.7621311060790315,
        -0.30884403830766033,
        0.06454804572491729,
        0.26145889920950766,
        0.11783662073315547,
        -0.2401573256622505,
        -0.4234382829849161,
        -0.2616699519659913,
        -0.1491842552575019,
        -0.07940096637905149,
        -0.008264768052159163,
        0.05109905837821986,
        0.009735125261873161,
        -0.07022880857242099,
        -0.007915344116786063,
        0.020811424111664423,
        0.03203493692939788,
        -0.06937469116882046,
        -0.14791078594375398,
        -0.4509822865451352,
        -0.48273850745838937,
        -0.10716699652268237,
        0.7809764133479808,
        1.7296247851952542,
        2.059822897375122,
        1.2418739133202255,
        -0.06172546071010532,
        -1.1000590482741341,
        -1.0348734254766743,
        -0.45526107122538867,
        0.11091547702669845,
        0.29152521390694525,
        0.4337662709098326,
        -0.00976914210424073,
        -0.0643948781268772,
        -0.16573444001018997,
        -0.12798272947672898,
        0.006496284870326521,
        0.024466861973736632,
        0.08387881976443533,
        -0.026868421822695172,
        0.047615003635795,
        -0.07165913128247701,
        0.0908383174354601,
        0.04025132988376168,
        -0.048886633858558834,
        -0.24544936310323015,
        -0.47310545302127055,
        -0.27803857559620065,
        -0.28393169575812577,
        0.4545207217477993,
        1.040137356196134,
        1.316737851503382,
        1.14820384362309,
        0.23505492615299534,
        -0.18364893555522335,
        -0.016453513422007484,
        0.20137060977605062,
        0.6252897362397561,
        0.7680405256329708,
        0.5983667523493619,
        0.5771913140350582,
        -0.040842258315516855,
        -0.13419312608915626,
        -0.10100118641311083,
        0.008377586217095877,
        -0.10561217747665592,
        -0.054186234240055337,
        0.0010862915724388275,
        0.046399324088563315,
        0.046622926800139824,
        0.06560276132129106,
        -0.056778396936412,
        -0.006612071946030287,
        -0.238764950992347,
        -0.2928206036733619,
        -0.4293524200417225,
        -0.28692714362803357,
        -0.020098427044128807,
        0.704540401982306,
        1.2348011846015732,
        1.7499856477168183,
        1.6552217420743471,
        2.039846892694625,
        1.640827828160482,
        1.5382293325985288,
        1.4624502347599735,
        1.2589217500485563,
        0.887085975050899,
        0.5389083665056742,
        0.12643725147788393,
        0.05374175627542693,
        -0.1056262672239797,
        -0.020793418001500225,
        0.03243315930652299,
        0.01927082611459808,
        -0.14701247310196677,
        -0.010090227968716272,
        0.029921393093539507,
        -0.03394233477719667,
        0.012231559914813879,
        0.020032150670403356,
        -0.03545361328788968,
        -0.20567362626515354,
        -0.19043544460760167,
        -0.11757233980395117,
        0.07162617125390376,
        0.4284830816696274,
        1.2238028573115685,
        2.2020829374578472,
        2.9580841837050618,
        2.706604664103702,
        2.5748583306059136,
        2.233589602216332,
        1.7515763031104663,
        1.1840820818120856,
        0.5604199403980005,
        0.2591645560865553,
        -0.01419930740712754,
        -0.08372055483089867,
        0.01416646775067053,
        0.03286047791468079,
        -0.030516718327381218,
        0.09086535500131367,
        0.05124542399089167,
        0.10835179377961866,
        -0.026132476011578802,
        -0.03795253357616939,
        -0.0229860293825976,
        -0.03911668774028314,
        0.006097995707630994,
        -0.1067263889546297,
        -0.1580528813544562,
        -0.03093410428631725,
        -0.07461745628022766,
        0.0812187021829531,
        0.5734925642406666,
        1.1053117968904784,
        1.7959002412721328,
        1.8787973814003818,
        1.424354730852505,
        0.8990074922455107,
        0.6584947419804645,
        0.2885800108449416,
        0.07402610002324422,
        -0.04304973189039195,
        0.02139819768595705,
        -0.09090181842717841,
        -0.11655054257909944,
        -0.015689556405124327,
        -0.06643345549337012,
        0.028692395731067133,
        0.011568822713835044,
        -0.02753773563834934,
        0.02915280062149244,
        -0.02208034746048657,
        0.04441515349498125,
        -0.012388694373016542,
        0.00961789963602742,
        -0.013338132285671945,
        -0.0388519475584754,
        -0.11895581812393315,
        -0.3486523537249327,
        -0.37308204321119404,
        -0.34527115831212657,
        -0.4845873048483795,
        -0.4852171234817106,
        -0.4043032171977255,
        -0.37926146366501495,
        -0.22276121511411243,
        -0.15553521203575169,
        -0.16437919508276502,
        -0.05736951735542603,
        0.03286063711345681,
        0.024519848873932028,
        0.053691688892709255,
        0.013157246492276271,
        0.04106599968294261,
        0.051153751890462465,
        0.020320149368185,
        -0.034889046001742544,
        0.08161257164142353,
        0.031478491269199466,
        -0.019275150705954595,
        0.019010209123326544,
        -0.03287318036382232,
        -0.028037574799269625,
        -0.01177879699283514,
        0.0705617558264929,
        -0.14877937535259847,
        -0.014421165182085747,
        -0.15007279865868414,
        -0.19453815506304903,
        -0.22413538816905662,
        -0.22741467199611812,
        -0.28664794009399447,
        -0.26359354771375326,
        -0.20260958679187827,
        -0.19750239567378383,
        -0.06696270514249177,
        -0.033361945660116105,
        -0.03076946184460961,
        0.05950547091290544,
        0.00684040093795558,
        -0.04245412275361064,
        0.03558274485577918,
        -0.018823737003694063,
        -0.014519607491760794,
        0.01891163874384484,
        -0.04784401304179861,
        -0.025831356429794027,
        -0.031154874914296235,
        -0.03240200980021404,
        -0.042245144605472046,
        -0.05454211831234955,
        -0.04933568220811582,
        0.004772892521761288,
        0.051878706973097474,
        -0.05152586538585953,
        -0.01495801409775734,
        -0.04003806694196155,
        0.09442174260300247,
        0.05783802103054396,
        0.045247359965282175,
        0.029610112035176113,
        -0.09062735422822137,
        -0.017045364945090742,
        -0.04220947213012641,
        0.031425044492466525,
        -0.06599687017001951,
        -0.03794700308234375,
        -0.08763343407698244,
        0.06146380580003771,
        0.05865719177697522,
        0.029388147665580212,
        -0.006340041659884396,
        0.035015935747099894,
        0.008060009029184094
      ],
      [
        -0.005076396266159761,
        0.08701134925782483,
        0.11269465792761132,
        0.06285958997201947,
        -0.020025627745641875,
        0.07230543008614643,
        0.028446779538339954,
        0.05422446286124059,
        -0.07028528521051186,
        0.12135175958103589,
        0.07292094282067452,
        -0.004576143398619982,
        0.03197684093275217,
        0.14595367531819892,
        0.006573666739070126,
        -0.009896037422324994,
        -0.03492772530927955,
        -0.10190431999090019,
        -0.03751406752725067,
        0.01581210355299129,
        0.04387025510772596,
        -0.049467691130495754,
        0.070787718960582,
        -0.011703818497368536,
        0.0660926804230204,
        0.004968098651276256,
        0.005298748386044699,
        0.0476747134084027,
        -0.014580732746075884,
        0.11248616098739511,
        -0.09728055292320584,
        -0.04614575595535831,
        -0.02559830683456275,
        -0.016751968461143463,
        0.03445336855094315,
        -0.009904999575031676,
        0.06456046908057944,
        0.0634292812484233,
        0.07535552115819247,
        0.04455120772091591,
        -0.04985950404228879,
        0.06351841191871478,
        0.06570976192785154,
        -0.05646657060980244,
        -0.008743418819949368,
        -0.06104496837890259,
        0.06498777013133648,
        0.09869298428645074,
        -0.013693117919513175,
        0.06413857905378095,
        -0.019526833471073302,
        -0.008538053428424546,
        -0.007777369126198575,
        0.05618640401735257,
        0.006076283332053969,
        -0.07042249775192083,
        0.05422446497988507,
        -0.0011183858278246217,
        0.08125947921726728,
        0.09108426923430699,
        0.009999926905530709,
        0.046687291568267515,
        0.10775004023504442,
        0.02520104629295049,
        -0.005186893629896418,
        0.017830287286180056,
        0.0640883876293997,
        0.05788925464815996,
        -0.04994896472652651,
        0.019678411831119815,
        -0.10090277738872794,
        0.007785573091330343,
        -0.007741112627724141,
        0.11464446166092535,
        0.054915720773259014,
        -0.028753233723797404,
        0.08049297388113336,
        0.00027642504937213595,
        -0.03171726215048863,
        0.09276901905852458,
        0.0292477501572953,
        -0.045777032125223945,
        -0.013047142223059069,
        0.0332589995202452,
        0.04345312804812055,
        -0.02747789003483794,
        0.06145410601729818,
        0.0009570383516154584,
        0.05020844866490377,
        0.019857559900000394,
        0.02580981742392623,
        0.011396949853707539,
        0.13140040328045102,
        0.031045472881488713,
        0.022497267557945868,
        -0.029348660705684575,
        -0.10426332714970307,
        -0.027346037779286462,
        -0.01654851306886146,
        -0.03229157627492508,
        0.056269721480279186,
        -0.04974889509263066,
        0.02833431546362879,
        0.06401731430221935,
        -0.0531212467500441,
        0.061262978160536934,
        0.02407863658443903,
        -0.01095712200293655,
        0.007043593909021035,
        0.047038380064385134,
        0.005876350443882922,
        0.02900315522589342,
        -0.011416689874278244,
        0.05349223901579498,
        0.010942367710398571,
        -0.012890132144610378,
        0.040895025756330784,
        -0.08814201814198311,
        0.046427514822056946,
        -0.08456491417057327,
        -0.3123459926545018,
        -0.38335705337914205,
        -0.5663975437189025,
        -0.8629609509733874,
        -1.0406252224578039,
        -1.011797653458155,
        -1.207463254866979,
        -1.2511787021169807,
        -1.062620922617123,
        -0.9169685219162368,
        -0.8400617178505135,
        -0.6084812146165415,
        -0.41798297190544087,
        -0.12401822557133833,
        -0.021681390194371267,
        0.08473141956431701,
        0.012828479800020606,
        0.05189809677137431,
        0.1078900865259648,
        0.07685962609915728,
        0.016435592580852223,
        0.10209868451076104,
        -0.0010822969645122452,
        -0.002812660232257083,
        -0.04683087524590309,
        -0.03984334984983907,
        -0.21673071967129187,
        -0.28130423505892854,
        -0.4865265508967055,
        -1.076600239063912,
        -1.5184037423402377,
        -1.839154303840682,
        -2.1994042706609416,
        -2.477875207337522,
        -2.7138982451525,
        -3.0575390425273787,
        -2.566932309664932,
        -2.279712730190321,
        -1.9231368589870865,
        -1.6176695500372598,
        -0.8770340148255767,
        -0.43229446758297996,
        -0.42653127114094413,
        -0.0737009993863198,
        0.0006968521454848779,
        -0.009990035038578513,
        0.04078694127431865,
        0.0472445103844942,
        -0.027846559605888953,
        0.05431302040339487,
        0.07553633316879127,
        -0.05005789138338535,
        -0.028441038328316768,
        -0.2947514955566819,
        -0.3943575175857731,
        -0.6889369828294681,
        -1.0475931247835295,
        -1.4826015800476247,
        -1.5365798513014364,
        -1.3882853464318783,
        -0.8193603661459893,
        -0.2802156083290047,
        -0.06656789024342306,
        -0.09881776701801323,
        -0.018358703074954928,
        -0.5937419656391739,
        -1.1216185385213973,
        -1.1183316244300663,
        -0.962587804664199,
        -0.7260494025999015,
        -0.5385607163225936,
        -0.2897858153876436,
        -0.08876326025857467,
        -0.011149196451630362,
        0.020387602431184582,
        0.09473256954029258,
        0.00487575142405346,
        0.11583677382164892,
        -0.027820121758979324,
        -0.002308844120537867,
        -0.13443102592814715,
        -0.2598686510204713,
        -0.3043744232282515,
        -0.6091883643139265,
        -0.6957052409294621,
        -0.6014638490150065,
        0.12488316922862928,
        1.3987625560245271,
        2.990051357121929,
        3.655967877926915,
        3.2203232600710288,
        3.1926289507376455,
        2.950750755478601,
        1.5827951027022793,
        0.5319163411603378,
        -0.3237389946112138,
        -0.4194827589559963,
        -0.5162714466585162,
        -0.5622819688737309,
        -0.337371952242271,
        -0.2661957205523263,
        -0.008701352907623291,
        0.00529769399499672,
        -0.005670897158799426,
        -0.04071225362302903,
        0.03511788969800561,
        0.08299806465454634,
        0.026334974930524533,
        0.004345944123576053,
        -0.176636434336767,
        -0.13198366682366147,
        -0.058077322638145565,
        0.2702387656644195,
        1.0692592449376133,
        2.704637777968981,
        4.200780814287359,
        4.920094983975396,
        4.262410658930033,
        2.598758305794337,
        1.7103962024665365,
        2.140621937260304,
        2.0308066274772876,
        1.4934953262907367,
        0.1075445106431819,
        -0.08776790659341879,
        -0.24285185401144058,
        -0.2688632062686336,
        -0.11178592515012525,
        -0.05415345044524309,
        0.014254147813175622,
        -0.007013966503875299,
        -0.013425001942644451,
        -0.0057707071999535085,
        -0.020945717366645213,
        -0.03290851029716754,
        0.032479092600766535,
        0.03053161757837418,
        0.008999386569903185,
        0.192224041897411,
        0.3209073425165372,
        1.2664014074786538,
        2.8360181023092816,
        4.339621903392328,
        5.023829631944061,
        4.05480166066182,
        1.938180918252524,
        -0.612259844560579,
        -1.889979025269272,
        -0.55572486605501,
        1.045075276770217,
        1.4713289015392401,
        0.9530449028534683,
        0.5640309939644703,
        0.024563984099242955,
        0.0012048052554853384,
        -0.04695596329863078,
        -0.09462137354808078,
        0.004930837619143976,
        0.07461419805535421,
        -0.051199576536371645,
        0.10911605634157329,
        -0.020672371794623907,
        0.08068718741017111,
        0.04299708451465344,
        -0.026694097035907364,
        0.10992810435759956,
        0.29201821236472036,
        1.072552934354855,
        2.359796395579688,
        4.207872688155499,
        4.882090954466978,
        3.698048723773271,
        1.5335031300656736,
        -1.154103915938591,
        -3.817787378463412,
        -4.128041207221676,
        -1.5925064721185087,
        1.2541828031135334,
        2.4944674819908346,
        2.373794883322995,
        1.3275298741936188,
        0.3386467032857573,
        0.08643694032743712,
        0.03565897927428076,
        -0.09886967980873082,
        0.027415542868033643,
        0.07020688574226824,
        -0.04406836251748931,
        -0.11020280386247244,
        -0.038851747165031064,
        -0.0411430014270654,
        0.10411253892008018,
        0.10245105181630934,
        0.14953346948857088,
        0.5271644634543434,
        1.5241792185195815,
        3.1447693458424744,
        4.336137351180312,
        3.67097958271616,
        1.7472356378255707,
        -0.7253847021024279,
        -3.204235082516415,
        -5.127778319489703,
        -4.173287905275072,
        -0.7895998707829265,
        2.6404746860903896,
        4.141885195041129,
        3.1149333096434666,
        1.7072301718243386,
        0.6806988507904251,
        0.29215293389650954,
        0.021376560429911335,
        0.011014066279364642,
        0.05794610764928415,
        0.03275633056949112,
        -0.06840740708656137,
        0.02612818029008435,
        0.019896327089484262,
        0.02886453961047862,
        0.060130191529844466,
        0.12164196248487813,
        0.12449677866224976,
        0.6966019407342566,
        2.0055985113107737,
        3.4042749780188077,
        3.717912013121467,
        2.3610973540772595,
        0.10598405274161463,
        -1.4304098604546789,
        -3.5113413947780185,
        -4.669103112547095,
        -3.1008653402611537,
        1.02601528804981,
        4.014316459609896,
        4.681167439898477,
        3.3775439406704444,
        1.4939751814477213,
        0.7069187956285473,
        0.2090786813038772,
        0.0834566710193353,
        -0.07898051030970693,
        0.15246849111357907,
        -0.06576347470768079,
        -0.02726022000856797,
        -0.005229346453680384,
        -0.03410169119431334,
        -0.014069698751116553,
        0.10963828048846067,
        0.0336467986639716,
        0.17474609643923644,
        0.7408521689363833,
        1.8743024735515912,
        2.9104369885272168,
        2.7579977427632225,
        1.7943105263070758,
        0.07685760907940728,
        -0.8595882996729332,
        -2.7155979847440155,
        -3.0183923831934405,
        -1.1451499906917235,
        2.673036198107211,
        4.644453555020036,
        4.234932917023632,
        2.3114149833293802,
        0.9588235370198658,
        0.22741620560790138,
        0.016348258873865002,
        -0.07123840765893003,
        -0.07438074213632251,
        -0.09488028327457232,
        -0.024258309712585715,
        -0.012056184075518634,
        0.005776289812888965,
        -0.00431212796237586,
        -0.013008436776123913,
        3.8547225515397855e-05,
        0.15730618243172678,
        0.176075445013194,
        0.6271027918974289,
        1.4192084010874468,
        2.77367342845309,
        3.0201039638643317,
        2.45383661023831,
        1.5946341049703399,
        0.828987137589965,
        -1.3942383093388304,
        -1.1593192487066408,
        0.7328254916667015,
        3.748497504617714,
        4.629928532910997,
        3.197873360851085,
        0.9036040810544795,
        0.05387837517268079,
        -0.11778507516845976,
        -0.22517696113742747,
        -0.19127884188832023,
        0.0353663659284457,
        -0.0728110812344604,
        0.07403094332433008,
        0.06496434226335142,
        0.11701964476017529,
        -0.05040442832203446,
        0.09305104676127152,
        0.11435402921479926,
        0.0832399726550368,
        0.0667305475165737,
        0.3255688834005849,
        0.9804138107312449,
        2.1749152218861716,
        2.8814243874602465,
        2.9426321792978487,
        2.6672592192237494,
        1.482575668500013,
        -0.3687739003950069,
        -0.6289601626687985,
        1.0722225340316036,
        4.25733132518451,
        4.218473580209665,
        1.9379777739668678,
        -0.2668402385209619,
        -0.5384699581808953,
        -0.5534747696795452,
        -0.3012434621924768,
        -0.14458947822389306,
        -0.014354929262388062,
        0.07368469312772602,
        0.091704585445163,
        0.05539388343233536,
        0.023243775687104746,
        0.022494763835535097,
        -0.03905305901391987,
        -0.021844151213302052,
        -0.0436420060477764,
        -0.06395562305793459,
        0.07276513828077427,
        0.46430979952040663,
        1.4186257803856488,
        2.0766700603371633,
        2.606996826124831,
        2.1707802437682244,
        0.9331127772795201,
        -1.0199785712231793,
        -1.107959714986895,
        1.54098300950646,
        4.4775822776665235,
        3.8048442698081693,
        0.9487122497346602,
        -0.8547879115168789,
        -1.0383407666026259,
        -0.63324138598725,
        -0.2981487134416344,
        -0.0412845165445434,
        -0.04245969183138681,
        -0.015919102532868986,
        -0.006223211113788554,
        -0.0025514052370733953,
        0.03531886945780252,
        0.02955862603425832,
        0.01836129248339786,
        0.025659939336854513,
        -0.08609387461281981,
        -0.08936236581750259,
        -0.1705427118911239,
        0.19046543061952748,
        0.5018978017713547,
        1.2951715410251687,
        1.574044354406776,
        1.0128164946492322,
        -0.13281993227852298,
        -1.551871935357856,
        -0.8267022425695477,
        2.4132798557942174,
        4.323615809867018,
        3.069674130687494,
        0.2703461866512198,
        -1.1803507262172583,
        -1.3317338228871274,
        -0.6637347914533499,
        -0.36209912365671326,
        -0.010070930533089741,
        0.06899031325177254,
        0.0352942413284308,
        0.005936876728269411,
        0.004704982233914735,
        -0.03200133784785866,
        -0.02660761157701747,
        0.026799719344045615,
        -0.022684923751621216,
        -0.20655700207338923,
        -0.18838675573478786,
        -0.270435990154058,
        -0.15516409478756987,
        0.09466875397783814,
        0.5348236254548163,
        0.515288533596388,
        -0.3263849798957231,
        -1.2002093368341078,
        -1.6752490047293735,
        -0.15106331832073738,
        2.5710528127244134,
        3.5659844478883334,
        2.0517757877228364,
        -0.16476083075386255,
        -1.2486609590873734,
        -1.0598379639387783,
        -0.5478998233367248,
        -0.15791344298915477,
        -0.017655358366532488,
        -0.017032434151032907,
        -0.012891753273057395,
        0.09319373388414909,
        0.029658383244849453,
        -0.07294788245278142,
        0.012478818267882063,
        0.0015708997460245665,
        -0.08655560970512177,
        -0.20015648502742,
        -0.21274437898075704,
        -0.5983615290798313,
        -0.5049275928758948,
        -0.4278130743823463,
        -0.5536337213511143,
        -0.7761754093672301,
        -1.2093724048041785,
        -1.45225330976969,
        -1.1656062978678052,
        0.5897226862752879,
        1.994734829448806,
        2.579595336314895,
        0.8539527471743434,
        -0.4931131232223409,
        -1.113269975375087,
        -0.8080521057105169,
        -0.33173679987985183,
        -0.08038035197497917,
        0.13412635098229614,
        0.09682552351781423,
        -6.745542333862214e-05,
        0.023889797924496827,
        0.07224977986976178,
        0.0455163323923518,
        -0.057339055586225596,
        -0.008095383975727215,
        -0.13138798851721079,
        -0.2049540090352001,
        -0.5555005981318866,
        -0.6287331900342624,
        -0.9938700436984108,
        -1.025880352286592,
        -1.3090750196009557,
        -1.6221642107876837,
        -1.7551525053742243,
        -1.7435274847959923,
        -0.8521175722308453,
        0.3110508796232701,
        0.9583598723091457,
        0.8301645339805829,
        -0.09464429360863627,
        -0.6051945345441879,
        -0.8248787243941268,
        -0.55227893435323,
        -0.10015105467402197,
        0.14714966884607883,
        0.07105035237126267,
        0.16500873608824806,
        -0.01703936285519972,
        0.03188070073543057,
        -0.06899129495301456,
        -0.0036989867271431977,
        0.01621523087672724,
        -0.06920904056885097,
        -0.13291521520432747,
        -0.19283041716240046,
        -0.5065515564078567,
        -0.6350796070969699,
        -1.3901044583118833,
        -1.9372872883011871,
        -2.0918988503059315,
        -2.3787775544057266,
        -2.482839351320029,
        -2.1911966179221074,
        -1.4852199148041623,
        -0.7321043352450026,
        -0.40522461261101717,
        -0.050865666562698184,
        -0.46166194498939905,
        -0.48006534848489846,
        -0.2373255803152089,
        -0.05265962497677871,
        0.016204729100063004,
        0.2169149412445459,
        0.2944770842655665,
        0.1419951542894637,
        0.0048607483766321714,
        0.02045651238752123,
        0.046379040519879906,
        0.03218185500291434,
        0.045956048429813705,
        0.15768207774455056,
        -0.062133652082955,
        -0.09864689992962711,
        -0.19778585238273344,
        -0.607524328774104,
        -1.1634856237019349,
        -1.7983961462918676,
        -2.459031446531599,
        -2.8676912958936405,
        -2.664567144007712,
        -2.363666939664974,
        -1.9123080057284025,
        -1.371585125501196,
        -0.832621511634558,
        -0.35320037698155593,
        -0.06665966913202359,
        0.1773664548874384,
        0.21620825290450346,
        0.12266852119778524,
        0.1419259700757025,
        0.22749920842329135,
        0.08494748164677685,
        0.0738210577605646,
        -0.03047808790094367,
        -0.03651018636614507,
        0.08022206562161824,
        -0.020400450333503708,
        0.009171575587228541,
        -0.008373547801681123,
        0.1105493397809863,
        -0.037626546437443474,
        -0.07792619835877951,
        -0.3454952843805542,
        -0.8704826637620439,
        -1.1690678475158272,
        -1.7943308696955278,
        -2.0207346249173237,
        -1.9114593486248455,
        -1.819850600877172,
        -1.4353880583914915,
        -0.8923097268047824,
        -0.37437185795094075,
        0.42381910298869574,
        0.7071068534012604,
        0.8229948911187369,
        0.632589253609075,
        0.37577756087807457,
        0.09600766056625096,
        0.184931855863314,
        0.08571215810056004,
        0.06885621895892835,
        0.05271779201349731,
        -0.047122262797088164,
        -0.06642761495999455,
        0.053736757799081165,
        0.026436938812973074,
        0.03791397059103676,
        0.005147910193161239,
        0.05869519110967107,
        0.03697968101806937,
        -0.12921955883872005,
        -0.1386212388222971,
        -0.2835051208088979,
        -0.0825239739689918,
        0.1420404402099099,
        0.4208493524384628,
        0.6869053191003046,
        0.9884316857377101,
        1.3576875698677726,
        1.5248498356083522,
        1.9032423636242994,
        1.508167185002007,
        0.9879743610952021,
        0.7002484293435011,
        0.321587148188071,
        0.27089053466895274,
        0.17014739760894398,
        0.09232963641708655,
        0.03519031955134687,
        -0.026186148248822937,
        0.03139822506348029,
        0.016271413650436762,
        -0.04833296935929924,
        -0.04713670108330232,
        0.05397733858387444,
        0.014715354476839162,
        -0.03160861200193099,
        0.05974742439420192,
        0.006893401770697287,
        0.16710086659792933,
        0.3242683675806768,
        0.5221266671004563,
        0.8536898694106122,
        1.5042437406003841,
        1.6689782312402401,
        1.8988818606948208,
        2.2169850177840904,
        1.7682701315622735,
        1.8177758518107294,
        1.6797377238176463,
        1.0358502771877025,
        0.5986245628095147,
        0.4513898274025089,
        0.26255637501850737,
        0.14450558600693747,
        0.025977990110879392,
        -0.03095043560539612,
        0.052450484099987656,
        -0.022816399022738364,
        0.1402084216150556,
        -0.0038941264987143714,
        -0.004744662056760298,
        -0.04090352825757421,
        0.04777767153459695,
        0.0016630277111552546,
        0.05036411868575521,
        0.1406478633932996,
        0.028468144308892836,
        0.12696709346905852,
        0.23489866876131876,
        0.279863251230416,
        0.41808843849016586,
        0.4321848461014669,
        0.5329309718830115,
        0.559073699018673,
        0.43454376723396326,
        0.5868796804631876,
        0.4171676643933958,
        0.3197012228716284,
        0.1590182180212057,
        0.20958855382896907,
        0.10394007409377642,
        0.07037062565320215,
        0.004886222165769567,
        0.11593456748737829,
        0.007649195034548136,
        0.08828283915843077,
        -0.02670703685539005,
        0.009313716269336064,
        0.008225842249242266,
        0.02437629498965738,
        0.04534621524178547,
        0.07738860003762696,
        0.014184685028601162,
        0.05652133690960853,
        0.04760302735589391,
        -0.0007279594284522799,
        -0.07452956641656167,
        -0.0587079140257075,
        0.02803991318253169,
        -0.0573117447099213,
        0.032016391904086755,
        0.022766822696697966,
        0.030681720490353663,
        0.09015481001272843,
        0.03626321355952223,
        0.08295991354567658,
        0.049628338638148216,
        0.0634335450987321,
        0.012818673278025893,
        -0.05409671621481959,
        0.039779219144330406,
        0.10201299101506273,
        3.490029789091591e-05,
        -0.0065409047083493654,
        0.01783815234234973
      ],
      [
        -0.05531002382491779,
        -0.09906558982199275,
        -0.027803867346891217,
        -0.01986457150247869,
        0.03281155213787086,
        0.0017039520593298565,
        0.025284418637048053,
        0.07154728085283758,
        0.03730135228851619,
        0.007457081431534139,
        0.027000909649949462,
        -0.02187901688109373,
        0.06556785505645281,
        0.035515044343416846,
        -0.06898258557282018,
        -0.012090924429254206,
        -0.06339166089410402,
        0.04561943701029213,
        0.0012876345257740764,
        0.0062395372666235365,
        0.01571190344005099,
        -0.011798913981814386,
        0.003722631925778302,
        -0.05461562964250892,
        0.07098266581138836,
        0.0334141268744088,
        -0.0759418101742197,
        0.04249587516124978,
        0.011796568922263972,
        -0.0217116990646018,
        0.12359032740297343,
        0.0017159212442565699,
        0.07711133415593259,
        0.053935282236732274,
        -0.0003188151381608228,
        -0.0190129925188938,
        0.0025330625872719346,
        0.0699205655104355,
        0.026255629527486852,
        -0.018964289075927506,
        0.19299150879443394,
        0.07785993719109043,
        0.16075074977443332,
        0.0665342231610949,
        -0.05071892129610871,
        0.10290593307456154,
        0.04612655366753132,
        -0.0582514939613166,
        -0.10435949876655067,
        -0.004911311777944579,
        0.06236201623172995,
        -0.019220287134718423,
        -0.09743255568199193,
        -0.12940006902120796,
        -0.00029602043344362195,
        -0.019134493412596324,
        0.029108803263066637,
        0.03222635366776799,
        -0.012863055249868026,
        -0.041472479950295696,
        -0.019617384658619026,
        -0.06588819675847982,
        0.022113373163444954,
        0.005186236794108107,
        0.1278559629563093,
        0.1839131021840908,
        0.278558999892666,
        0.4539694588832774,
        0.694863218916151,
        0.8230181054944279,
        0.877794799642353,
        0.8499310523809327,
        0.9248283112637088,
        0.7995178359500961,
        0.5547474552478152,
        0.46943462406086384,
        0.2958262805686848,
        0.2605069514274725,
        0.12724535555098931,
        0.031983905676172056,
        0.03552690058367344,
        0.04215102123120433,
        -0.039656020420597016,
        0.022977387450055144,
        -0.05987974222600692,
        -0.06985805557560718,
        0.051816088936911864,
        -0.012805674770081299,
        0.029335066195209644,
        0.003208569749360248,
        0.019617622165712823,
        0.019223026638004983,
        0.2231244091530733,
        0.20861884481214582,
        0.36195013916748414,
        0.6940791017097978,
        0.9586426164445925,
        1.181830837277421,
        1.423733510379418,
        1.7025681256146818,
        1.7425684811377031,
        1.75399558562487,
        1.5056222659984775,
        1.165182612808999,
        0.8379423312851848,
        0.5487064395778988,
        0.209736703936785,
        0.08799752942008203,
        0.044813999076342995,
        0.03309817635474127,
        -0.04461430121376517,
        0.011131197261794746,
        0.026941914993345546,
        0.059433649055448914,
        0.030908770486860387,
        0.09181099616227233,
        -0.02328678169805413,
        -0.08060277043582899,
        0.06609844022432897,
        -0.009291410876836067,
        0.010149887268095398,
        -0.02553064641471572,
        0.1709152124399151,
        0.3627988790494185,
        0.4449150703450873,
        0.42443253509644135,
        0.7758141641187157,
        0.9902411519071446,
        1.0549096081626137,
        0.9981366370411371,
        0.9354633100769182,
        1.0013904038436832,
        0.5830384444850607,
        0.20457100567700903,
        0.09827602717280311,
        0.04359044699730372,
        0.008301645180700314,
        0.025300061914731203,
        -0.06751639289495975,
        0.022767938461644443,
        -0.010157322704267936,
        -0.05926601405615671,
        0.012183279314373288,
        0.026698949800280956,
        0.017654636021046468,
        -0.08576731118004265,
        -0.165020656769852,
        -0.11803476915014934,
        -0.0993463741980574,
        -0.16689737992276132,
        -0.37420016318956656,
        -0.36776078983615407,
        -0.42113288981239866,
        -0.8833160347931541,
        -0.8883847609895501,
        -0.8018512704906018,
        -0.5572619323043096,
        -0.6068800549624436,
        -0.5556944575477627,
        -0.3903019561365062,
        -0.25900080557017313,
        -0.22054100178732922,
        -0.2689605660714877,
        -0.09673942331631795,
        0.06097315490429506,
        -0.010618799153427423,
        0.01840975619617521,
        0.019736674554341516,
        -0.04527186637433678,
        -0.06960154592187359,
        0.020516386169433843,
        0.029696963268616924,
        -0.06255902696542034,
        -0.13791212824960997,
        -0.2688806389266874,
        -0.2908273963615498,
        -0.3907424888976461,
        -0.3894553010134851,
        -0.34049889884491674,
        -0.406354635947304,
        -0.7268829067034364,
        -1.2017895472751337,
        -1.6116892095060418,
        -1.7069448002998844,
        -1.9039988633163116,
        -2.0415919216213765,
        -1.9300344744476539,
        -1.8908012620278554,
        -1.3388651082422036,
        -1.1061082115283931,
        -0.6524612390648683,
        -0.31665908329202,
        -0.16262706241516323,
        -0.1588710317535174,
        -0.0821626010753677,
        -0.042094901694314235,
        0.124579566150805,
        -0.008174527542281982,
        0.005009752313745564,
        -0.07664808346950165,
        -0.1714948844824804,
        -0.11031136964287387,
        -0.24746767431668346,
        -0.27007114655354386,
        -0.11108306942114508,
        -0.06423975338777496,
        -0.12435450390974016,
        -0.2231585451311197,
        -0.6065480661682565,
        -0.7017370155403946,
        -1.3146736808586017,
        -1.7949042329700056,
        -2.5665482542367535,
        -2.8158962272071326,
        -3.08671971321865,
        -2.765360046636466,
        -2.1581705470320283,
        -1.5576279615925712,
        -0.928662248351718,
        -0.4181855121846593,
        -0.382248886619953,
        -0.1363130902151557,
        -0.0007434106618641464,
        0.06339256447393424,
        -0.07441418391170458,
        0.03215829246533383,
        -0.05354695865156489,
        -0.006994231118908792,
        -0.09143284780559587,
        -0.061837899518656265,
        -0.16312816818409004,
        -0.02297909740405475,
        0.0360514531606078,
        0.1217601705894222,
        0.1250252758236529,
        0.17082206625144924,
        0.2821552943767074,
        0.049205226846413486,
        -0.7477749714925968,
        -1.7713191096061671,
        -2.404679566756584,
        -3.2021311790815776,
        -3.1978391305814178,
        -2.782624075255388,
        -2.167534357952474,
        -1.4935304097760553,
        -0.997892705999362,
        -0.43211283639545955,
        -0.3932597024860042,
        -0.16606714443348736,
        0.021073842433936254,
        -0.030023334620789207,
        0.013156308352681499,
        -0.06665776422241616,
        -0.07711704166148199,
        -0.08691838001828676,
        -0.002817181736391273,
        0.03709009879350904,
        -0.010071085506069395,
        0.033829443794202954,
        0.4061258703586054,
        0.36273869487842275,
        0.4534463490626928,
        0.83038264700386,
        1.0664494069482842,
        0.34173314310781616,
        -0.5569250532658175,
        -2.0056943681748187,
        -2.5513388337258958,
        -2.8680892155192295,
        -2.731349283836542,
        -2.354444765688582,
        -2.04157894675168,
        -1.2592567049060417,
        -0.8805380591525909,
        -0.48109750065805784,
        -0.2198614084850446,
        -0.10588563496678856,
        0.014088708250296718,
        -0.008656514544024158,
        -0.09087855403816979,
        -0.03214792898488094,
        -0.01246594699267361,
        -0.04756817516205343,
        -0.05890060656391877,
        -0.03310821837565046,
        0.10498660887364387,
        0.2914214788472029,
        0.5102311927225333,
        0.7297757294915244,
        1.039283052845578,
        1.4398933518808537,
        1.4372928634364033,
        0.37383825268499404,
        -1.2801492407354649,
        -2.326990554272496,
        -2.3939468793845484,
        -2.0956429866121185,
        -1.8398782612968898,
        -1.2036295101238204,
        -0.8944196061431127,
        -0.7458518510790785,
        -0.5277630467162033,
        -0.25135307679840835,
        -0.05832449141976978,
        -0.12625509852249187,
        -0.03143003979857157,
        0.02631108812556184,
        -0.06753412445765608,
        0.04214828658542903,
        0.019817003883459503,
        -0.00030901947450801307,
        0.016993705672939213,
        0.05697428897181819,
        0.0870815638541914,
        0.13398291151685138,
        0.5163464430749086,
        0.9611043155215968,
        1.2788796128564859,
        1.6942738697050033,
        0.9790991824095614,
        -0.5186806278933995,
        -2.1938658818933807,
        -2.4064455807298093,
        -1.8093102393818967,
        -0.9890223582462099,
        -0.5758465712096973,
        -0.18093808555473512,
        -0.21591565688221692,
        0.09140983236898755,
        -0.15227168807525587,
        0.03684537814846672,
        0.0031751062371284363,
        -0.027884423634483558,
        0.012794202059601347,
        -0.0006219817006130574,
        -0.020259603024399764,
        -0.0035962570640346247,
        -0.004133149494418999,
        0.06607862123658513,
        -0.014538247084412195,
        0.13012448845782992,
        0.17421154535541128,
        0.30925105881790965,
        0.9681503914297449,
        1.2426435736201364,
        1.7493086457833715,
        1.561126540397668,
        0.2779922410342784,
        -1.730560385074264,
        -2.4849518593350353,
        -2.1670547849210386,
        -0.3613563806198916,
        0.3437674797035058,
        0.8312642972463244,
        0.8792505748727117,
        0.9498896882754173,
        0.670487044510119,
        0.6260596437803969,
        0.21844358443100448,
        0.24123997865760416,
        0.1321510178060888,
        -0.0294350015301592,
        0.021101813399374513,
        -0.009110989535182577,
        -0.06255283095135086,
        -0.00648054250885706,
        0.004944117678687591,
        0.013964009524233953,
        0.13014183350848724,
        0.23797043168683904,
        0.581926348887297,
        1.2427206151994417,
        1.574812841183679,
        2.112234025592258,
        1.398806423015867,
        -0.26103104932122123,
        -1.583659364494271,
        -1.7599066888536015,
        -0.7250623416612973,
        0.6897095330100995,
        1.4614962051102698,
        1.711453642588743,
        1.9912818381341915,
        2.0124003150820613,
        1.6504771034637764,
        1.0196830042765967,
        0.7203003544250701,
        0.16675336375629374,
        0.1080371172336113,
        0.027438562010956156,
        0.027030677636272444,
        0.034606535294591095,
        0.004519924022486618,
        0.045796845345229625,
        -0.0026803673017967624,
        -0.004377324050829614,
        0.097163014185227,
        0.3248512234243725,
        0.9744438745195727,
        1.4995488376437447,
        2.305872983747043,
        2.332458315497493,
        1.4281591201581405,
        -0.17811299239770234,
        -0.8353902306422782,
        -0.24146319309863473,
        0.6968620626280502,
        1.7829501288577723,
        1.8126004406510139,
        1.9352735436517519,
        2.1925181650460934,
        2.582925363265785,
        2.3320458514674822,
        1.5681296976321557,
        1.0539466554731574,
        0.3330400248913667,
        0.06803820729463232,
        -0.03693504797900653,
        0.07670218893349841,
        -0.013797314192182024,
        0.038246742443685214,
        -0.045114293340902806,
        0.016873149821364057,
        -0.012673817704566133,
        -0.09724847491643883,
        0.24612679123852832,
        1.023587319152016,
        2.030287086826731,
        2.9533828317559285,
        2.5378557251766503,
        1.2647293465443503,
        0.20540864139951087,
        -0.054444353265588497,
        0.8408844796926849,
        1.3203177067502565,
        1.4853857118286504,
        0.9117467291233252,
        0.9841805598906583,
        1.7240474499062886,
        2.268901296223264,
        2.3785538399321786,
        1.8232650901385015,
        1.0109592924985884,
        0.4075663977370065,
        -0.048525689757508414,
        0.005980292762634014,
        0.009563342955768484,
        -0.015819164683151286,
        -0.00816530409767749,
        -0.07123334878428025,
        0.025337760555096216,
        -0.14496548476714993,
        -0.1617079665814754,
        -0.09321856522892354,
        0.8575712866159719,
        2.054122426938992,
        3.1307994276894604,
        2.83771294353631,
        2.110053961722501,
        1.0470871909904191,
        1.0177979436938964,
        1.2112456550666468,
        0.9636613382377794,
        0.20551079353388085,
        -0.2168359633884388,
        0.4543873248183998,
        1.450066836279252,
        2.10145602007025,
        2.116922777056606,
        1.5115520709809054,
        0.7985386361017399,
        0.1941463238473492,
        -0.13297539830589764,
        -0.035393176629537004,
        0.05486338771560073,
        0.016785150203469816,
        -0.03225828820352851,
        -0.05953595974699334,
        -0.15368138856400027,
        -0.37190803678162815,
        -0.48278400369530466,
        -0.3177934859795708,
        0.6768356487171725,
        1.8954230183884133,
        3.5241624745835916,
        3.5643634938743904,
        2.833867060479731,
        1.8082972640246522,
        1.399493255983493,
        1.2350232873476403,
        0.2894617869626448,
        -0.14061042412689376,
        0.0625662824592332,
        0.6346849804448899,
        1.6201578761027473,
        2.003165175748919,
        1.5278748823080603,
        0.9923779977811529,
        0.4423484731723983,
        0.05977173426137909,
        -0.07081680716939176,
        -0.03763639990114605,
        0.08694274751251542,
        -0.03620344803536911,
        0.0077275647802132405,
        0.01454506730008418,
        -0.24596744710789512,
        -0.500840712525295,
        -0.9429470878458976,
        -0.9347277532709966,
        0.08559047270664506,
        1.5891628667348014,
        3.0852775712466842,
        3.9717215193931494,
        3.5056454769277385,
        2.5879725126198654,
        1.7668506120723582,
        0.9669891787857001,
        0.7278221313290636,
        1.0582309555000264,
        1.2237980427761495,
        1.4750006751679299,
        1.78450294930459,
        1.472973435027577,
        0.739800610012727,
        0.3955502785213348,
        0.05094027713977686,
        -0.052085705617484185,
        -0.0989815460972905,
        -0.019635053771318762,
        0.009773162538380353,
        -0.012691930171007055,
        -0.012955612026546647,
        -0.005620076052206474,
        -0.13166655604172792,
        -0.5776929143343009,
        -1.1904256169466294,
        -1.5043848351665148,
        -0.8103679747601522,
        0.34432341368571334,
        1.9835905143384112,
        3.43139194701127,
        3.541944741857229,
        3.2445110808040587,
        2.4406949631034065,
        1.8888504481517814,
        1.8248194278589842,
        1.9605248454353343,
        2.082687384354918,
        1.8587293084024552,
        1.0379443013895755,
        0.47887114689970295,
        0.17486949598924706,
        -0.10781528340254463,
        -0.05654909903528425,
        -0.07305556543426761,
        -0.006752282059219025,
        0.00035632419192824975,
        -0.019024197629756417,
        0.00568516121826865,
        -0.1348274292013395,
        -0.07152983566521451,
        -0.1973023023007931,
        -0.5414382916966128,
        -1.1721834405343086,
        -1.686316885143101,
        -1.841641572793231,
        -0.8249563618061857,
        0.36283164082802283,
        1.9184408667393076,
        2.773343771567392,
        3.009512031844536,
        2.8685535226444427,
        2.1655394042151643,
        2.418147028206647,
        2.5708704887192027,
        1.6403889553735567,
        0.7625814794691115,
        0.06794835580005891,
        -0.3774622890636706,
        -0.37234737174094706,
        -0.37564959593503106,
        -0.08096485652938663,
        0.0006713608214345869,
        -0.08569829164071517,
        -0.016326280347938513,
        0.01225810478523096,
        0.04603563281329136,
        -0.07505994736464587,
        0.11253325078621663,
        -0.17691290972132218,
        -0.3552237918957217,
        -0.903179200829973,
        -1.6033464154587216,
        -2.144176688119748,
        -2.1762668609957774,
        -1.6081879713509613,
        -0.37608510071115325,
        0.6259017522692609,
        1.358368889887274,
        1.458526138645696,
        1.441013933464207,
        1.2855606979056422,
        0.3141977791635057,
        -0.15290084167205661,
        -0.7296572375334187,
        -0.7052802861482825,
        -0.5866493937404553,
        -0.3638699177593883,
        -0.05541804044966228,
        -0.08910371006379385,
        -0.07600619347180436,
        -0.06865995077620853,
        0.020857153602899577,
        -0.05775069304056328,
        -0.013978952885197725,
        0.016131420755571103,
        -0.017586231938930375,
        -0.03710837225900507,
        -0.21451630908982028,
        -0.5343092227934637,
        -1.0827528641098012,
        -1.6844964359513386,
        -2.1411778029198145,
        -2.551267865091495,
        -2.713367014422063,
        -2.3246976019080337,
        -2.22023959912373,
        -2.2638989744597584,
        -2.126081021203183,
        -2.1080421419350928,
        -1.688915296213448,
        -1.311050894715242,
        -1.0384440975739984,
        -0.5637683429209545,
        -0.3646344059545675,
        -0.18046960043399962,
        -0.16661088446241962,
        0.011033084788661633,
        0.017665032656745832,
        -0.08155705719504448,
        0.010604188194963027,
        -0.07203413189950347,
        -0.02085251159675273,
        -0.03842802517950944,
        -0.024456104406789334,
        0.024799084570839746,
        -0.02707175581742213,
        -0.1941575357224366,
        -0.39687634355908813,
        -0.9694218720468528,
        -1.3306590954058002,
        -1.9181831613060896,
        -2.3471257880474483,
        -2.957772655778813,
        -3.4085946106233678,
        -3.6702338566898707,
        -2.8839551008731217,
        -2.290438708090158,
        -1.5333830621060336,
        -0.8865382136074664,
        -0.45277045291681167,
        -0.2991666121192162,
        -0.07725325268169149,
        -0.08959724326962791,
        -0.18663461955241056,
        -0.037356540621928974,
        -0.0019087734999533542,
        -0.04605007311892309,
        -0.010493763965530013,
        0.027841748238852524,
        -0.03536272147118387,
        -0.030202873298306714,
        0.03250574878636096,
        -0.024777298833881866,
        0.03351405718719806,
        -0.0241691746802711,
        -0.10292363189821142,
        -0.18171064719365482,
        -0.3487835073116637,
        -0.5313209147106727,
        -0.8634793985605971,
        -1.1344842176562875,
        -1.4143071672027576,
        -1.3418770520442285,
        -1.1880209667075838,
        -0.8739641404425675,
        -0.7445486888128467,
        -0.3747336491695528,
        -0.12085195035151645,
        -0.04674638328037546,
        0.013089499336699372,
        -0.07659609768953034,
        0.048917614984469046,
        0.010858832518458953,
        -0.0257069842748119,
        0.03199008807046719,
        -0.0161648959855276,
        -0.044050845178216766,
        -0.03575661004299313,
        0.012805031528829598,
        -0.06642432559756548,
        -0.011089779715330634,
        -0.032257050272262916,
        -0.04326014310633022,
        -0.09841910406253011,
        -0.047869857168928096,
        -0.10773778425987147,
        -0.1619277408012295,
        -0.1831112596476796,
        -0.4022807446995181,
        -0.3463048546458603,
        -0.46242273566134934,
        -0.44547282794537174,
        -0.22128377468355886,
        -0.1651919770092805,
        -0.09854613589363669,
        -0.10144157897357924,
        -0.048599398254108916,
        0.020393376258271274,
        -0.05251512420744994,
        -0.09267542255872928,
        -0.04321507685987869,
        -0.07995718362208638,
        -0.08535141715699533,
        0.04867572161380665,
        -0.00259318134895788,
        0.04058748281495138,
        0.02182127146988577,
        -0.05287873916585527,
        0.06934076934353713,
        -0.018588423914736942,
        -0.04450207234267327,
        0.021703020708378467,
        0.011701802989229666,
        0.005580505341019819,
        -0.05986798962706544,
        -0.08062116568196813,
        -0.062299785819546205,
        -0.05998077181991025,
        -0.1155774142810284,
        -0.16339543770145065,
        -0.07384177592885517,
        -0.0511970868266208,
        -0.060190092106709864,
        0.01522759484680979,
        0.014585744740068412,
        -0.05518620697209553,
        0.1340856249381266,
        0.03910146246706479,
        -0.02139869983132805,
        -0.06915603869436301,
        -0.009507842216481033,
        -0.0015328158059295751,
        0.0009350571797241384,
        -0.015247595269490323,
        0.01032056811595552,
        0.003968221726821958,
        -0.05728589685203543,
        -0.02787605236134735,
        -0.039990887160557584,
        -0.03726535603184816,
        -0.07282593475458049,
        0.0030399111550638907,
        -0.005213237533355285,
        -0.14320956823539255,
        -0.0006552516104906602,
        0.0610168851977925,
        0.01813448302799497,
        0.023203424811642833,
        -0.05682859682278023,
        -0.06373009614491876,
        0.01638470584677469,
        -0.001378779856620676,
        -0.024716520169734146,
        -0.0632964559243444,
        0.04305248829702779,
        -0.005127712158885397,
        0.025993067283403202,
        -0.002984803652861256,
        -0.07983342955464125,
        -0.013211358562659628,
        0.08179019532791774
      ],
      [
        -0.2730636535782203,
        -0.20778344854639372,
        -0.22345045920395293,
        -0.24407526111675446,
        -0.16383935702736677,
        -0.23196800674901194,
        -0.17787594878907656,
        -0.2861042673522138,
        -0.32827667993822457,
        -0.22899713268500996,
        -0.1585218835794436,
        -0.2556679136497029,
        -0.24060140091002644,
        -0.16321737300124137,
        -0.1898794028129542,
        -0.27753249522572093,
        -0.18490111868502881,
        -0.26661143583652686,
        -0.2795116277122925,
        -0.22424056128431583,
        -0.2583790661483036,
        -0.11896267424873246,
        -0.21924096724224698,
        -0.28418061292866886,
        -0.281372761410737,
        -0.2817578723858633,
        -0.19314349463086708,
        -0.19861965143306873,
        -0.16721667233745227,
        -0.28932492767621526,
        -0.1379425620230216,
        -0.29034781737308396,
        -0.28871368829659366,
        -0.25561303446413103,
        -0.24036456164163264,
        -0.14644158437721935,
        -0.19905225895881554,
        -0.3418638511660969,
        -0.2555861854125529,
        -0.2112548922106174,
        -0.2314227413577333,
        -0.16467044210125134,
        -0.27942908896221413,
        -0.22244794675846316,
        -0.1830761100491979,
        -0.294412346999336,
        -0.1489593868108305,
        -0.2299706891871275,
        -0.17364486574317725,
        -0.2834694627594802,
        -0.22654313299246295,
        -0.2455637215016919,
        -0.1821737381311541,
        -0.1546307831830442,
        -0.285876877012541,
        -0.16012929841338283,
        -0.21197550590796402,
        -0.242961724418553,
        -0.25781310482477166,
        -0.15214221760829197,
        -0.14466527451786218,
        -0.18526795912152014,
        -0.1941534276550865,
        -0.2617447482415574,
        -0.149835209325087,
        -0.2365474564161296,
        -0.27930513861612866,
        -0.17093741795100428,
        -0.2836962657750128,
        -0.2154430239856636,
        -0.24928818117972085,
        -0.28163130778980366,
        -0.14185788241718375,
        -0.1694554860109723,
        -0.14171928659900887,
        -0.17422169889812486,
        -0.2759473131374974,
        -0.17196088118230288,
        -0.23293643809188033,
        -0.14111699529274355,
        -0.28371563629246205,
        -0.22868201899607052,
        -0.2211397908302775,
        -0.17828955469760963,
        -0.07420657952031681,
        -0.20666602888190486,
        -0.2346115087528898,
        -0.32092934812099155,
        -0.17133870600125076,
        -0.28909321409205385,
        -0.2139178005619549,
        -0.25707687146974284,
        -0.23195422262824641,
        -0.23178971934767664,
        -0.3335753509925265,
        -0.2712435939631999,
        -0.2954994596370681,
        -0.3965005916989503,
        -0.38228658824372036,
        -0.43123907510715326,
        -0.2619115431893529,
        -0.16639556291829158,
        -0.243581266767295,
        -0.1296721626272175,
        -0.1677852232670168,
        -0.09959926577302974,
        -0.2065807232891533,
        -0.2604448130074933,
        -0.28233580420072507,
        -0.22077233881757938,
        -0.2013948809877398,
        -0.16436596193436884,
        -0.20230944761652578,
        -0.19172434847057448,
        -0.2353908081647502,
        -0.22754092125583777,
        -0.19928235378187328,
        -0.2638890421893419,
        -0.18759628502452033,
        -0.21302187982014656,
        -0.33742690246709167,
        -0.4864743704411982,
        -0.701732298220888,
        -0.9355016993334835,
        -1.1198042756388518,
        -1.1090746288909032,
        -1.379482864740168,
        -1.332761930829787,
        -1.1201050440692204,
        -0.8830349712387839,
        -0.4108910015002563,
        -0.3091457431204266,
        -0.22903750521341973,
        -0.07738709160672713,
        -0.07834656541825843,
        -0.08002281578128209,
        -0.11690773317020807,
        -0.2656248602905719,
        -0.17121042984966908,
        -0.17596573708450722,
        -0.2996903070935299,
        -0.17365724649252992,
        -0.20471520584048222,
        -0.26199737673783013,
        -0.2935295063919337,
        -0.28194142633249825,
        -0.3385849339253178,
        -0.46653412871453154,
        -0.4980768291639671,
        -0.752915660465679,
        -1.2116729065491627,
        -1.418322312112794,
        -1.843069412273764,
        -2.2680910140810395,
        -2.5142701165970234,
        -2.5262095272599785,
        -2.2128539846275377,
        -1.8678472745796497,
        -1.3015372501198346,
        -0.8203378367409178,
        -0.3828794775234274,
        0.08681413373497571,
        0.16190486014935848,
        0.16208766006678113,
        -0.030566206803167798,
        -0.18334002573877298,
        -0.27327648706685387,
        -0.13967381343168558,
        -0.31043518773526974,
        -0.19788470166596214,
        -0.23628569326205254,
        -0.23549859260738362,
        -0.2900405946034454,
        -0.4739038893791132,
        -0.34539811073378285,
        -0.35131468794356485,
        -0.7198946782321725,
        -0.7665734593640658,
        -0.9348123617633064,
        -0.9520252745244455,
        -1.4462365013032696,
        -1.8460437403388423,
        -2.271553531662212,
        -2.2264232232538435,
        -2.241928220707554,
        -1.9381604366302196,
        -1.7682098384722817,
        -1.1009099392720672,
        -0.5687119641188277,
        -0.02799421483517552,
        0.33156607103689767,
        0.27653396705028094,
        0.10901131999568214,
        -0.0545752906369804,
        -0.22056098092039425,
        -0.25430124959591255,
        -0.204757057812853,
        -0.2761788465706371,
        -0.22809710668625413,
        -0.2334917495449342,
        -0.22875862068582528,
        -0.18632592642887805,
        -0.10560641028776169,
        0.0839064493635901,
        0.0734338330141818,
        0.35805107936905883,
        0.4665851662374085,
        0.44888030676963514,
        0.7043552082015447,
        0.32802229056000737,
        0.10412374708246418,
        -0.13492543974024043,
        -0.14309761870534407,
        -0.4549494294521335,
        -0.6368145451804352,
        -0.6533121762008991,
        -0.5858288907700675,
        -0.37357003431228314,
        0.10095633939115982,
        0.4863481895124054,
        0.3018200962475239,
        -0.008776632724748335,
        -0.15758269642547876,
        -0.2437172289840047,
        -0.3012099841311839,
        -0.2715870018521051,
        -0.16150477415537187,
        -0.03260594071972762,
        -0.14714273944397024,
        0.15131899206432056,
        0.5294608098356682,
        0.7597677504691653,
        1.098137098511156,
        1.6488495678256971,
        1.8182421389383234,
        2.1406163182280538,
        2.0840107035308337,
        2.294234984463894,
        2.088196916885484,
        1.6627999281202384,
        1.7068437249835335,
        1.123785778217791,
        0.3426881921483654,
        -0.5203242918347792,
        -0.656482741045955,
        -0.46542234518202213,
        -0.17531620108274917,
        0.23682399971980225,
        0.334960112773167,
        0.09765235037464196,
        -0.2103586395716283,
        -0.15476283372692465,
        -0.27081216878045405,
        -0.16732480896206783,
