{
  "columns": [
    784,
    56,
    10
  ],
  "activation_function": [
    "Sign",
    "Sign"
  ],
  "biases": [
    [
      [
        -0.008679362430355412
      ],
      [
        0.06710480047396669
      ],
      [
        0.02699515493580572
      ],
      [
        0.00029649768166857494
      ],
      [
        0.01565516560554556
      ],
      [
        0.09534291965423777
      ],
      [
        -0.02344462986488032
      ],
      [
        0.020773754613479443
      ],
      [
        0.14437044490684317
      ],
      [
        0.005215374636704748
      ],
      [
        -0.009746333019224535
      ],
      [
        0.001970902273709063
      ],
      [
        -0.011616058647855696
      ],
      [
        0.04069109669509913
      ],
      [
        -0.007217109857522348
      ],
      [
        0.06729651088269029
      ],
      [
        0.014382720282909874
      ],
      [
        0.004521006931895079
      ],
      [
        -0.0010130948082786527
      ],
      [
        0.010254619603982044
      ],
      [
        0.027945507497431236
      ],
      [
        -0.0016818292691182049
      ],
      [
        -0.007333168943308167
      ],
      [
        0.006124916006704344
      ],
      [
        -0.10796836017236983
      ],
      [
        -0.1855893787483609
      ],
      [
        -0.0035359097498103113
      ],
      [
        0.05547644466854294
      ],
      [
        0.11358260985211208
      ],
      [
        0.009903516607809242
      ],
      [
        0.19227134848329722
      ],
      [
        -0.008449947251090212
      ],
      [
        0.05325935053268999
      ],
      [
        -0.11149227267511912
      ],
      [
        0.05041894278808419
      ],
      [
        -0.013644960877589107
      ],
      [
        0.01721800289364315
      ],
      [
        0.01004160131941123
      ],
      [
        0.020439436682393095
      ],
      [
        0.001175156438947723
      ],
      [
        -0.04756754806465819
      ],
      [
        -0.007481145459882727
      ],
      [
        -0.01651464918861229
      ],
      [
        0.00013326620864100567
      ],
      [
        0.03926856012106228
      ],
      [
        -0.001170842742798451
      ],
      [
        0.11724392147821747
      ],
      [
        0.012888726295669384
      ],
      [
        -0.10825147247233473
      ],
      [
        0.003154174342351595
      ],
      [
        0.038936133080174594
      ],
      [
        -0.007948845340561565
      ],
      [
        0.0045892619049932495
      ],
      [
        0.003225752070774246
      ],
      [
        0.005850564637418668
      ],
      [
        -0.010481195892067937
      ]
    ],
    [
      [
        -0.1480000000000001
      ],
      [
        -0.1520000000000001
      ],
      [
        -0.09000000000000007
      ],
      [
        -0.10200000000000008
      ],
      [
        -0.10400000000000008
      ],
      [
        -0.09600000000000007
      ],
      [
        -0.11800000000000009
      ],
      [
        -0.12800000000000009
      ],
      [
        -0.1500000000000001
      ],
      [
        -0.08600000000000006
      ]
    ]
  ],
  "weights": [
    [
      [
        0.029040794931875984,
        0.026344861760355474,
        -0.01644174899163805,
        -0.037199252524274785,
        0.06105817031241632,
        0.028473895585417488,
        -0.025450106344338117,
        0.025222183697023285,
        0.06579059780603441,
        -0.01671235962329001,
        -0.029385744956363705,
        -0.027950746140646115,
        0.07334216882403963,
        -0.01390384645186191,
        0.06778555092839342,
        0.06624523272610608,
        0.05817073971632002,
        -0.04789081627045492,
        0.0016215975686768743,
        0.0478007931631144,
        0.020935936731198663,
        0.043072983235677355,
        0.03412042887263379,
        0.026776783084732973,
        -0.00951324265010189,
        0.032491560311970806,
        -0.05982060852598887,
        0.057082525404947355,
        0.0008091309756217321,
        -0.02389485321077944,
        -0.03456326612365292,
        -0.060379816173288976,
        0.04309641613549566,
        0.03688010543674202,
        0.07235194877847015,
        0.002779102591813596,
        -0.0009824471444274396,
        -0.11084490992645415,
        -0.038324361384077126,
        0.036813533340913675,
        0.02636649178542007,
        -0.03423661013127081,
        0.062814838782499,
        -0.01980752091865497,
        -0.043959531869583894,
        -0.028378515134796365,
        0.026444277241260836,
        -0.07740967078976127,
        -0.05037737654650084,
        -0.05229848529225719,
        0.06856687536887046,
        0.06343839080835595,
        -0.04559063257360054,
        -0.03195076130525619,
        -0.015973431384313997,
        0.04286264180994497,
        -0.043130047286922484,
        -0.029123844353734215,
        0.01120537717906497,
        -0.06185551372924436,
        -0.011433443742870475,
        -0.03417103682121802,
        0.04507310765661917,
        -0.021686706490716152,
        0.032805290322933334,
        0.0562828304599654,
        -0.013999289849514731,
        -0.03285125132940973,
        0.006089999857695889,
        0.032117240988518356,
        0.07890597472210761,
        -0.02953722163174972,
        0.01548589477778373,
        0.051472022068892474,
        -0.007106847295646906,
        0.031034816111081834,
        0.021515437318528657,
        0.025049349097623585,
        0.012843884392952507,
        0.01845175293351041,
        0.06369502251700693,
        0.04651210051756418,
        0.08438302395438368,
        0.0327615130782049,
        0.047590032341265666,
        0.05632594093827976,
        -0.031153938711139875,
        0.019138355943151296,
        0.024205268714315355,
        0.0024107163738919715,
        0.0541211816852868,
        -0.034653344771770074,
        -0.036147880851751975,
        0.017901759506232583,
        0.00412931294772916,
        -0.04636932591870293,
        -0.04506228640083757,
        -0.13091272775618387,
        -0.13527361281457825,
        -0.08498588410374905,
        -0.06492083066933574,
        -0.14668309009458666,
        -0.08559984511919216,
        -7.283398885823706e-05,
        -0.09796096550204511,
        -0.020441537394125634,
        0.013724892690876084,
        -0.05419485445217596,
        -0.019941966943978876,
        -0.061633705624915075,
        0.0862710725179508,
        -0.003003462543511613,
        -0.006673218370389394,
        0.03958697639119573,
        0.09548674117103395,
        0.08075788732727152,
        -0.02933292267944337,
        0.06032851538126189,
        -0.02983940073035357,
        0.029854162903085762,
        -0.04281766958923416,
        -0.06422796727042404,
        -0.013181837554492835,
        -0.027976588285757765,
        -0.030000263561239103,
        0.00749497460041549,
        0.04745144201618056,
        0.018142429237620075,
        -0.003175616362664825,
        -0.02022934595306449,
        -0.08172376856116098,
        -0.15339226901091632,
        -0.0375935133831757,
        -0.07225779596682011,
        -0.023101879435249873,
        0.008435284445444592,
        -0.05344028549786329,
        0.08760426402755372,
        0.016154676304105785,
        -0.06914398117386539,
        0.009474343243165161,
        0.0029544860102797815,
        0.016472816068234024,
        0.1194959551796296,
        0.020594169376987933,
        0.021252263685695532,
        -0.024349248257992343,
        -0.12886839381416035,
        0.01590190437095532,
        -0.021072143657966783,
        -0.030140737931725975,
        -0.09023180405854495,
        0.04001099866172251,
        0.13290918974710583,
        0.16545596233478402,
        0.18628091215755313,
        0.28287653890319164,
        0.20224162137834392,
        -0.03340802215415204,
        0.0008604941298436373,
        -0.08760848074842995,
        -0.13087082743016085,
        -0.02584214877648341,
        -0.016375833362629464,
        -0.01036674836809029,
        0.026521509891396674,
        -0.007300451866331024,
        0.07585428688243409,
        0.0026503153717932085,
        -0.067330190588373,
        0.026193890224760204,
        0.02801951875228349,
        -0.005710024266487458,
        -0.051905057150702545,
        0.02301649442131953,
        0.0012791553608734454,
        -0.04141941507928446,
        -0.013085274157486698,
        -0.058724310484332555,
        0.08996699176507811,
        0.065056292389052,
        0.15964720256756285,
        0.024426416445356303,
        0.08966018098120543,
        0.10956558293027202,
        0.15006576820699233,
        -0.032691701657620253,
        -0.0989305426515065,
        -0.08898931201562199,
        -0.12183414177511204,
        -0.02791364613933114,
        -0.018844919118808364,
        0.06786471695419477,
        0.003035854230744801,
        0.010023806633356183,
        -0.023985370225412122,
        -0.024886404710118912,
        0.1102502071949133,
        0.019045638559428577,
        0.02602753230574951,
        -0.011703931170134074,
        -0.016840628886433524,
        0.16833759490013203,
        -0.1026345614303219,
        0.0706849899020783,
        -0.07173906077335496,
        0.014142440139108339,
        -0.048808145477691835,
        0.021853471281422805,
        0.0648165824523266,
        0.21724355616230315,
        -0.0364318041099886,
        -0.04906070833070949,
        -0.035912144789939204,
        -0.02973374249462636,
        0.13951840983579114,
        -0.03351726537185192,
        0.07579141773958883,
        0.004789812224090089,
        -0.017531851955005295,
        0.015847832812180482,
        0.005804766716022912,
        0.028414823346295196,
        -0.027981071375387887,
        0.07573693620785843,
        -0.011524947862250612,
        0.005176015896335769,
        -0.016059540314434618,
        -0.024375718541381163,
        0.057962979292677345,
        0.034155667580831495,
        0.0012636516265294323,
        0.05655592420336946,
        0.16989988090197786,
        0.1327629780065457,
        0.05497901021877339,
        0.060710285585581066,
        0.0014383607515685468,
        -0.019263027641870423,
        -0.10984397769705423,
        -0.11861146586844326,
        -0.19029689406627012,
        -0.036075231936787557,
        0.16890670452235138,
        0.08601403079349723,
        0.2591112236766411,
        0.07299427276210654,
        0.11109444767716845,
        0.05934952959133203,
        0.06516388879487324,
        -0.0007033173781182079,
        0.022958746816316145,
        -0.01895886451991705,
        -0.04476732868482048,
        -0.021344842009212283,
        0.014572988665978278,
        0.04578161097725642,
        0.017903999821788145,
        0.027498960933537684,
        0.07501351263547593,
        0.11331384537093256,
        0.19563762851161812,
        0.1907590711333679,
        0.13500272936684393,
        0.12926223677271745,
        -0.03405778052317367,
        -0.07670384191852639,
        -0.11583514091747851,
        -0.0707010428112724,
        -0.06488270129177748,
        0.09000335712096807,
        0.08963811987621312,
        0.09120941376221156,
        0.2518382737653744,
        0.22937470511595273,
        0.11102598480204212,
        0.10771125833375719,
        0.02060911814060577,
        0.09364539784392709,
        0.06431903559863737,
        -0.001198916899769538,
        -0.010768174156549563,
        0.03260360702790235,
        0.1007234295831749,
        0.09284481634243211,
        0.03872498268208995,
        0.20007806184889163,
        0.027334564955353132,
        0.10570027359312228,
        0.27372764306855757,
        0.2996422821288186,
        0.38792403191252034,
        0.1242236654696917,
        -0.00879715445817066,
        -0.01303878467339726,
        -0.13470419588705543,
        0.07647797982480348,
        0.04596476635847462,
        0.2207157845012229,
        0.22011275033370617,
        0.33948709884144135,
        0.3985298241374753,
        0.11022441083264856,
        0.1563715499318766,
        0.004267706976357033,
        0.032223770205021256,
        0.03557827922691403,
        -0.005170243137234701,
        -0.021286152503413407,
        0.000680610009274456,
        -0.0706014435076458,
        0.010386127644761236,
        -0.008797197497907985,
        -0.017818733715950264,
        -0.0027276927416202555,
        0.046069106927948016,
        0.058811708898847966,
        0.1034022841810483,
        0.2971789302985852,
        0.33616250282746674,
        0.32488053856075017,
        0.25124715024556143,
        0.17069847518021822,
        0.3114092253683982,
        0.32083582355640494,
        0.25758991417131577,
        0.22088705116367927,
        0.2962929677989389,
        0.3273605776299575,
        0.370987168817717,
        0.20128536636444663,
        0.01859613731246098,
        -0.006787442962242658,
        0.020521854971037052,
        -0.07082541723407193,
        0.03532630736837534,
        -0.027303472867801593,
        0.023994639373485418,
        -0.038775699488763436,
        -0.06597670186154442,
        0.03204319765763204,
        -0.06849887918766598,
        -0.07373714332248058,
        -0.023241529869760646,
        -0.053295249619659806,
        0.06973930966854822,
        0.056974924084856944,
        0.25384794882235323,
        0.6198857688584041,
        0.5323812513188764,
        0.6839488318098375,
        0.4565723885381654,
        0.42673155340328894,
        0.3848474776381976,
        0.14636399437141154,
        0.3048623866632374,
        0.3535334673791771,
        0.21823150931407845,
        -0.014773966579764819,
        0.03031365373843452,
        -0.0011267517938637027,
        0.021573614131513857,
        0.04845974968736285,
        -0.09728107515578446,
        0.020695797648224098,
        -0.0449047343340977,
        0.03343453024627233,
        -0.012181665254246597,
        -0.02010469605968254,
        0.0355428006015884,
        -0.0392128310118855,
        -0.18155456156595814,
        -0.2602257147347538,
        -0.32767136026745936,
        -0.10908232112426317,
        0.21410835895991506,
        0.8123271366353231,
        0.7068339512473076,
        0.6440647177717649,
        0.47618435680631677,
        0.3547705811985088,
        0.11850534566321402,
        0.07225058607128126,
        0.10690114114805851,
        0.012132967536536716,
        -0.027119486097243083,
        -0.0041286099717509975,
        -0.19311500918307892,
        -0.0122582250033113,
        0.004722313176208838,
        -0.009775439297222663,
        0.015397031003795438,
        0.003661718492076298,
        -0.006375673689821591,
        0.001549636175790965,
        0.09748765703668089,
        -0.03941444830384331,
        -0.12065726178689576,
        -0.17370941576053203,
        -0.24331614231325385,
        -0.4965076240593651,
        -0.44516651595842294,
        -0.32788420698832454,
        0.12766938456886132,
        0.6266116120237175,
        0.5656014774010738,
        0.5213022836773334,
        0.49975092022891543,
        0.27995487490246806,
        0.024799576178650008,
        -0.15851795302653235,
        -0.06781876336860376,
        -0.16130232056139462,
        -0.20770782692589915,
        -0.09285561275982954,
        -0.04491758484256752,
        0.028978546152306012,
        0.05558505611839095,
        0.008275341838997875,
        0.050678709278787266,
        0.10328648090316075,
        0.022106313122319882,
        0.001372590317283784,
        0.02086384905079847,
        0.016729645293884987,
        0.017043986842112155,
        -0.13134197917369986,
        -0.31760913262686674,
        -0.35637000565470656,
        -0.3964722457382742,
        -0.3750815698374981,
        0.2205272346513186,
        0.5497725751275655,
        0.5908971080999839,
        0.3835882033322221,
        0.2893126180833416,
        0.18588639523259462,
        0.02952280383904021,
        -0.07736138848531315,
        -0.15875103641003138,
        -0.24392247315895924,
        -0.2795999476531771,
        -0.16592387265636724,
        -0.013234911951096277,
        0.06025413031443704,
        -0.014601194930060395,
        0.08609646313389971,
        -0.0480558723208564,
        0.013517875430385969,
        -0.017359952537084312,
        0.016884993165739715,
        -0.010397057045750047,
        -0.01980226637801581,
        -0.1015454448197105,
        -0.10624009761113973,
        -0.3252132124263355,
        -0.1778319773028453,
        -0.1665819872973833,
        0.018359488628949518,
        0.5384425069039587,
        0.5596237909264964,
        0.4514334333406773,
        0.40426254583026744,
        0.16618491191498183,
        0.07854554457249929,
        -0.054904688309000554,
        -0.14188191632496092,
        -0.2793568026036234,
        -0.20487715999105707,
        -0.17820127313540815,
        -0.10086973430903992,
        -0.06311583642494653,
        -0.03134483093761149,
        0.0339750394873294,
        -0.034563750380350054,
        0.015849706130752463,
        0.06161049754838402,
        0.051036257739221956,
        -0.04618721773464487,
        0.03678882499841581,
        0.01178736554488263,
        -0.04816224901196844,
        -0.21702606853961146,
        -0.25225022590025575,
        0.03302087095538629,
        0.08901118049059117,
        0.3988471261733936,
        0.5595226913900222,
        0.5067023721703157,
        0.4607006706627854,
        0.38459704846677356,
        0.07929189733835709,
        -0.011812450918704191,
        -0.10057036674488379,
        -0.07871226276538895,
        -0.08278673002350331,
        -0.055525426638083984,
        -0.06466796004651085,
        -0.06774848777770476,
        -0.019915435888528146,
        -0.09289202335783822,
        -0.032354679493901355,
        0.013141990957972083,
        -0.0017670277020293678,
        0.0693282985635088,
        0.02586231396413993,
        0.03659975843763766,
        0.047985926911616024,
        -0.010684376853185823,
        -0.09369615992126218,
        -0.22755167153177783,
        -0.09516892660356346,
        0.1483243098598985,
        0.29761427788449374,
        0.3954556678200013,
        0.590006917778021,
        0.508774056632445,
        0.24968047815625583,
        0.04697207907385687,
        -0.11853033564828172,
        -0.10704203868668466,
        -0.006129261894499782,
        -0.05135203999609687,
        -0.09865994981580553,
        -0.20406080706525517,
        -0.16125996469166534,
        -0.11143564405656697,
        -0.04358598091852404,
        -0.060205533108505745,
        0.012369716888306792,
        0.031034143628158945,
        -0.04567417234800631,
        -0.06280409725697067,
        0.06170683625974846,
        -0.06749164943714275,
        0.07323618419312317,
        -0.06732673048824972,
        -0.052783501273226556,
        -0.1327841633202941,
        -0.005925127832824938,
        0.05525274969102097,
        0.16645929827187458,
        0.27076433733688415,
        0.3612307139197485,
        0.23632292441470695,
        -0.03252185114604193,
        -0.06712916264712249,
        -0.08657016328910938,
        -0.05598299137129818,
        0.00849804094041798,
        -0.04194702891164503,
        -0.16384644091061482,
        -0.14866127796088843,
        -0.04708904202804678,
        -0.07003777614573464,
        -0.11248055578294797,
        0.07703702883536168,
        0.08715212151409524,
        -0.0013148691012304075,
        0.05757411195399733,
        0.06050951258293045,
        -0.02621856527869205,
        0.005658385993691393,
        -0.031753598817032144,
        0.06557350434327637,
        -0.05885888962371433,
        -0.1327692343010313,
        0.04109238139566137,
        -0.06432526025345212,
        0.005548700707606862,
        0.085638518051561,
        0.05041717388185581,
        -0.008381518738131727,
        -0.07351925805258705,
        -0.14145387958956743,
        0.012916551964304544,
        -0.05061681267703733,
        0.014880820161735659,
        -0.0819371384936857,
        -0.14916294888313372,
        -0.15899135372032422,
        -0.13627528320749568,
        -0.010012883011659153,
        -0.049945125811438375,
        0.08514812036885339,
        -0.004076907098045075,
        0.024050495477825947,
        0.019048694330645023,
        -0.0536096340563186,
        -0.04422779471880759,
        -0.02898863416495673,
        0.0638525380706783,
        0.000916656227631271,
        -0.06806920455598794,
        0.0017376831834460713,
        -0.006160575981672191,
        -0.09505054887594316,
        -0.044718469540506255,
        0.13691738898061365,
        0.0680977329889996,
        0.11418238715406231,
        -0.018322456586122828,
        -0.020396811441020155,
        -0.018046358562294477,
        0.04896789520817319,
        0.014007176382333657,
        -0.034752699956020296,
        0.017467044848981112,
        -0.013507567317304531,
        -0.18657317312572583,
        -0.06729152339566458,
        -0.027434570027415162,
        -0.022184044368111184,
        -0.06355843170788439,
        -0.018249969234033794,
        0.006787805000698123,
        -0.0001689604553920367,
        0.00810013880841226,
        -0.04529486937126689,
        0.04661043561218752,
        -0.06689979609428723,
        -0.0007723279016276976,
        -0.008314352434969138,
        0.0746493717171344,
        0.029495536681698513,
        -0.01540076702116792,
        0.02279105319723404,
        0.20496919577691117,
        0.38777077838957075,
        0.33919161503076456,
        0.30641384525066684,
        0.2771095074690856,
        0.1717017716113525,
        0.06178416775653072,
        0.0435941691311336,
        -0.015051894060719537,
        -0.023986111529215873,
        -0.04889994867546454,
        0.013770190042684174,
        0.059798163600094066,
        -0.06735828921127801,
        0.04171142039768171,
        0.048062245433745536,
        -0.026303956696710203,
        -0.026216502337141023,
        0.08271047454528568,
        0.07611303193580984,
        -0.028965878788594943,
        -0.08158906475920069,
        -0.05432371636461148,
        0.12206653389920843,
        -0.014087157043990578,
        0.09098889173515026,
        -0.008604350544539584,
        0.1674834969106204,
        0.2854855988450543,
        0.5056410075794733,
        0.31409269215445135,
        0.5072768572729258,
        0.3040378719424198,
        0.2648250664357821,
        0.21613315424195798,
        0.10185631323401753,
        0.15649144083618835,
        -0.07458759373964974,
        0.010185748278602788,
        -0.019774239490673442,
        0.035846131306331006,
        0.051437387859861884,
        0.054731969041055005,
        0.056107752567768725,
        -0.022002308575475988,
        0.026999451762035467,
        -0.021629725382079783,
        0.03239909079806335,
        -0.04365673463776811,
        0.0038344936684418835,
        0.027182807844096584,
        -0.06883366594513618,
        -0.017294714180121875,
        0.03681372766569641,
        0.05296793054587027,
        0.03069634329977412,
        0.09234907775886905,
        0.30247889220929736,
        0.31448118631341826,
        0.17205603006708473,
        0.12419427726282903,
        0.28360317781028754,
        0.03877309576814208,
        -0.0008865793584696136,
        0.029930716655937106,
        -0.009448605569175594,
        -0.10305738746949267,
        -0.043723328347969694,
        -0.03160441206333503,
        0.01306277412687996,
        -0.004619717686880692,
        0.03152141411787228,
        0.033614722149716725,
        0.05062336843806702,
        -0.02003486501226449,
        0.035140350655076084,
        0.043338041466096246,
        0.007201138638731869,
        -0.02962861646470458,
        -0.002316780193363042,
        0.01902790692327732,
        -0.10583957473084463,
        -0.041915641280450826,
        -0.009540688067584156,
        0.06937800551062959,
        -0.03789572134460877,
        0.02213818951587108,
        0.027463191220892174,
        0.010752152382643754,
        0.0306595517196926,
        0.07978823591467796,
        -0.059460741206082725,
        -0.02523085580977639,
        0.08253125081397233,
        -0.06574637465312075,
        0.04639859803043122,
        0.0525553596152414,
        -0.020874595908953044,
        0.0757561812346477,
        0.07089702409279111,
        0.10137865168984417,
        0.03700064912427877,
        -0.036627146317417515,
        -0.00991072599048795,
        -0.020131884625030492,
        0.0018231942981913885,
        0.10686218235089842,
        0.0422761596103132,
        0.08241930188955512,
        0.02949168719637839,
        0.005844551504179096,
        0.06102041217316547,
        -0.10699825483102587,
        -0.0014261856775406572,
        -0.047794163606769156,
        -0.022686944557143058,
        0.030290077584212628,
        -0.0822298698317159,
        0.016196591583789964,
        -0.07285519211021702,
        0.030001007068529227,
        -0.04057198209772556,
        0.005430494584544348,
        0.06994574674296847,
        -0.018300380090505348,
        0.06699954876869915,
        0.02734959122892965,
        0.07160182212701816,
        0.024903119858356502,
        -0.01150533132794649,
        -0.09322741766826345,
        0.11169322210007607,
        0.025973636622825657,
        0.0021015808969916732,
        -0.04342663245535159,
        0.0388153431660107,
        -0.021513163360525823,
        -0.008589944483097852,
        -0.029477365802658886,
        0.11185554833618036,
        0.026148667650362178,
        -0.017143236740460355,
        -0.03142576733971637,
        -0.024754430739599386,
        -0.016789736762024113,
        0.017500421511549746,
        -0.08644463144775688,
        -0.05303859167172583,
        0.02848245710082053,
        0.05054774763321395,
        -0.02044154299505997,
        0.06716798221614903,
        -0.030356815783604635,
        -0.015079154642752755,
        0.08649683580801937,
        -0.030188603858177093,
        0.03421730445766774
      ],
      [
        -0.10279769851631673,
        -0.10535273281832858,
        -0.1110723955835812,
        -0.05243601420152585,
        -0.0722980722927776,
        0.0026471441455699607,
        -0.08681782027954613,
        0.039272800793417696,
        -0.06690381435099091,
        -0.11805857032246517,
        -0.10214041579260799,
        -0.08127343961932368,
        -0.19112710653620552,
        -0.08858931819645524,
        -0.0047554327072147065,
        -0.03392654003401744,
        -0.07719584542781055,
        -0.06596027620220576,
        0.021365737902259704,
        -0.08832605808205796,
        0.008509813847100924,
        -0.057211000116965054,
        -0.08389504443197171,
        -0.0662000437663284,
        -0.10012597198324039,
        -0.0564163425089813,
        -0.052785832973771284,
        -0.09583814134513308,
        0.027927163897116532,
        -0.12448974458257488,
        -0.04323051417657143,
        -0.0661748231415647,
        -0.12311034738292333,
        -0.060189711587162326,
        0.00040735313969283965,
        0.02488232799372544,
        -0.04106691967917347,
        -0.0017313082743400118,
        -0.05479378986017198,
        -0.11816387095627376,
        0.04784095773527867,
        -0.002562759790970391,
        -0.09452432435103522,
        -0.08203823160310239,
        -0.11156278930470634,
        -0.10777721683040273,
        -0.04277111388962789,
        -0.09075533302171435,
        -0.04705212780593331,
        -0.047923434857594045,
        -0.025281975983756023,
        -0.09211536037759396,
        -0.09515401009079669,
        -0.003966022887301667,
        -0.03696624552886115,
        0.05097877059869917,
        -0.024166774219780637,
        -0.0789521715587819,
        0.013349824828362363,
        0.04984951256017437,
        -0.04086005756827633,
        -0.1412882857074685,
        -0.0231704774852531,
        -0.08541789944614919,
        -0.10011845761946472,
        -0.03967331191964251,
        -0.008397544886881539,
        0.018333620071458206,
        -0.008661153005211452,
        0.018296800910290126,
        0.03389927731885999,
        -0.000550569757834642,
        -0.015534440137159999,
        0.0036717157111977607,
        0.03288554173352053,
        0.05527714476305711,
        -0.029187606056542515,
        -0.026113038137695225,
        -0.04001069806824433,
        -0.12098561090733467,
        -0.04973776734798351,
        -0.08047230615670137,
        -0.17224372746207262,
        -0.11698486820536377,
        -0.030471119647418516,
        -0.12298305717241144,
        -0.09274400004690861,
        -0.12132320432118304,
        -0.09073632455035843,
        -0.057401268806052695,
        -0.1280773638847276,
        -0.09768718240593274,
        -0.08060092300706989,
        0.07385014408539309,
        0.07778245850347307,
        0.10634733874970337,
        0.18623690935825893,
        0.10414935867559824,
        0.051655285984623454,
        0.09915064462663817,
        0.11827747488355365,
        0.0700725455462137,
        -0.0051042085884629084,
        0.05662699389566587,
        0.10037484704149749,
        -0.012603915815321646,
        -0.09166071656268929,
        -0.0370568356333466,
        0.01467142679037684,
        -0.054289668356480476,
        -0.08840999179244693,
        -0.026208616103446606,
        -0.07560858125959749,
        -0.04346592255466349,
        -0.12505912859909388,
        -0.020105183658112376,
        -0.011778461264603557,
        -0.027388498177779157,
        -0.04898817780787477,
        0.0014503687657992554,
        0.142117362560831,
        0.17196951121553083,
        0.3253122776668738,
        0.3832233997858912,
        0.2537532923287208,
        0.17281962999945347,
        -0.07079290512139572,
        -0.06797256940457286,
        0.006272762198895699,
        -0.07009762314903634,
        -0.156064115284907,
        -0.2513773123720937,
        -0.22297394353482392,
        -0.038532474124421005,
        -0.1278680598460034,
        -0.06762951014583325,
        -0.15583383731714884,
        -0.014315905969108244,
        -0.04365773250932193,
        -0.15655869570459435,
        -0.032403472647416935,
        -0.03679222947176585,
        -0.009414061210097783,
        -0.024615315613568226,
        -0.0688764656204827,
        0.019928308055252926,
        0.01475980966637006,
        0.10457169115229847,
        0.12985816103631673,
        0.3298785499290257,
        0.6011911406613989,
        0.49056512736214103,
        0.40530308321229874,
        0.1931660874228936,
        0.13728720988243742,
        0.02550356394538572,
        0.021036744082294043,
        -0.12954550515549967,
        -0.2535884351140067,
        -0.36241743276460153,
        -0.3355818847714298,
        -0.29258473641838056,
        -0.2788556381420067,
        -0.17077426118223732,
        -0.14402372755490406,
        -0.0316525789469202,
        -0.08868687544339196,
        -0.05823073986016938,
        -0.11947550955236932,
        -0.06781731053849922,
        -0.14811508435341336,
        -0.057389812811667267,
        0.03330430783433175,
        0.042806403364845765,
        0.17799432415295763,
        0.23434504328711575,
        0.3876394700587469,
        0.584391968789885,
        0.6466864328857,
        0.7656422187180258,
        0.47132044322313466,
        0.3558174321199566,
        0.389526656367511,
        0.3641324994848718,
        0.461858735500378,
        0.09917727563582837,
        -0.16560090952118817,
        -0.40286154342141806,
        -0.37547690735728506,
        -0.3030298789744083,
        -0.2871455178916899,
        -0.12372057150003235,
        -0.10050254101474707,
        -0.0964742961932496,
        -0.06539716333630763,
        -0.004707351237876267,
        -0.04802376830883288,
        -0.08231751514627086,
        -0.14738071876481829,
        -0.12692709339223784,
        -0.04677689138650736,
        0.07519360559282764,
        0.16714192053027016,
        0.1992968470870875,
        0.4278793218551747,
        0.6054355375842958,
        0.5638362731104737,
        0.5710816074667795,
        0.4498349121261083,
        0.2747495838597436,
        0.14068211845981143,
        0.34251084846661667,
        0.42999584671387453,
        0.08855178388686993,
        -0.07057431683991962,
        -0.26871799667442436,
        -0.21059546014987857,
        -0.11933381058118371,
        -0.148661176189878,
        -0.09509495623782102,
        -0.0489505263185489,
        -0.10557765104560862,
        -0.07242420935646718,
        -0.07194036925546973,
        0.016263794073690416,
        -0.11070922861823423,
        -0.047709755766961175,
        -0.002791402836208172,
        -0.013573776296533143,
        -0.021565726847082158,
        0.06505672791189183,
        0.10395651216885188,
        0.2993687926075916,
        0.5309791578972286,
        0.6512448402284773,
        0.5707016893491929,
        0.3470041950509963,
        0.026759238831149574,
        -0.11104563781555538,
        -0.06930521222438629,
        0.06160011381329436,
        0.0504089216622624,
        -0.0042292486624844776,
        -0.09697391796604832,
        0.010228083498297529,
        0.06050138865183367,
        -0.058347250423177725,
        -0.06940938587058659,
        0.0303380854317127,
        0.039946980396958355,
        -0.037149619016034675,
        0.014386715140307657,
        -0.0677302960354133,
        0.05397992085623333,
        -0.0736942898650642,
        -0.06516989943343698,
        -0.011316564847455005,
        -0.01959221372018062,
        0.11327230350546044,
        0.0514702158311184,
        0.23534260797447554,
        0.42166654478319804,
        0.4825064505757854,
        0.357873312038038,
        0.21143933492831513,
        -0.06358307967298128,
        -0.37338780019778073,
        -0.3961351944613058,
        0.20679292831582322,
        0.14252987296360248,
        0.32190529409110447,
        0.15795912981779964,
        0.3268492779011356,
        0.11059988589023492,
        0.05976086019951186,
        -0.06698915844119638,
        0.041758527755430576,
        -0.02919709673188822,
        -0.1047706743518691,
        -0.061936507374628955,
        -0.09624794678029844,
        -0.06507327048629695,
        -0.03875985216173102,
        -0.00018338953909470773,
        -0.015030712073453927,
        0.022671861681998477,
        -0.06779076892606982,
        -0.021031812312522397,
        0.04084988968896069,
        0.17471600502959955,
        0.2885488332743101,
        0.41922582998420604,
        0.14472311664326676,
        -0.1782955542438452,
        -0.7153757345124354,
        -0.6121718875746004,
        -0.03644471465940863,
        0.4516435934844098,
        0.4487278764898837,
        0.494455443501061,
        0.36194808432629433,
        0.1891757811566258,
        0.17008865197305678,
        0.06642448153258786,
        -0.03519672652818175,
        -0.0355315455052199,
        -0.07389734666348266,
        -0.09868673576952844,
        -0.03227735267397421,
        -0.029623484864648938,
        -0.09240906526745313,
        -0.0158231424138479,
        -0.047319125056040044,
        -0.03124516546476831,
        0.06664439305241239,
        -0.009959622337611296,
        0.050692084878890535,
        0.025578327578726075,
        0.3436737041107985,
        0.43586087753059727,
        0.6082969682634164,
        0.03476310824015096,
        -0.7596939062832591,
        -0.629009039781978,
        0.21112212370610497,
        0.6660548569055648,
        0.6370618313971727,
        0.42442150417075813,
        0.22660648053031257,
        0.12158951515209114,
        0.08081241346200072,
        0.1170913773246307,
        -0.06973424734581052,
        -0.0834834750967875,
        0.015965109404854155,
        -0.08658554132767979,
        0.0009593191244052484,
        -0.206589856956083,
        -0.13715004355562505,
        -0.05443731628635282,
        -0.031020243386378234,
        -0.07312805366380437,
        0.002444097580212378,
        0.05047703659386934,
        -0.0966685349314286,
        -0.006464707373425722,
        0.5781926574104812,
        1.043176323446458,
        1.0983550484292883,
        0.15670331840619478,
        -1.0245739332619526,
        -0.7079798261122788,
        0.4804057649336509,
        0.8605268953409368,
        0.5220675209038221,
        0.3334048112402223,
        0.23257252838174663,
        0.031404135556999196,
        0.07176667845872611,
        -0.02406164263084454,
        -0.08886481999169182,
        -0.012395225256890628,
        -0.05715271277548747,
        -0.1297119650895278,
        -0.09940212253524888,
        -0.14259009649508642,
        -0.019378140509561995,
        -0.07805187380989534,
        -0.1178364579305318,
        -0.08878018097325624,
        -0.10806514854996929,
        0.0059884847638039225,
        0.09627894915491425,
        0.15059453322693006,
        0.7815605307447635,
        1.4323398759850547,
        1.3124261033316091,
        -0.15797336784647875,
        -1.2094427721481156,
        -0.3771609420223898,
        0.6332129820654369,
        0.8514052902606599,
        0.5633816075586414,
        0.3094880793032085,
        0.0894411374314378,
        0.050901150738187094,
        0.10072782548239356,
        0.0742347759478792,
        -0.07688725201296304,
        0.04220113239688248,
        -0.10601668471034995,
        -0.07700005069744648,
        -0.05988265578626789,
        -0.026198512374617868,
        -0.048568891980978725,
        -0.02999651871676433,
        -0.05612049436053657,
        -0.09012503175891623,
        -0.07699751192713403,
        -0.0797997378916615,
        0.034040689032545667,
        0.36814462810903376,
        0.900822047998632,
        1.4477921625146946,
        1.035576701033597,
        -0.5532494429191231,
        -1.0211092621424305,
        -0.17079069513212902,
        0.9674512770312336,
        1.0003149494601413,
        0.6665590695107568,
        0.4923568192137087,
        0.23195140430547484,
        0.09065098677637123,
        0.05126655809768572,
        -0.033878346883111775,
        -0.004944854410533593,
        -0.05977064007565892,
        -0.1245728568460142,
        -0.0790817642084681,
        -0.08420511645277876,
        -0.1042043189317712,
        -0.11018741817951391,
        -0.09009772829373106,
        -0.09577387183936056,
        -0.13476680014030284,
        -0.0386035474401125,
        -0.01031181351194047,
        0.06761861580277295,
        0.36638452538997596,
        0.7227625723825107,
        1.1373888879750589,
        0.5777551925388599,
        -0.7114016507939587,
        -0.983639799128595,
        -0.09966767776696556,
        1.1421163889009174,
        1.0469444069161642,
        0.9500822202416543,
        0.6521051669131068,
        0.3044741645743509,
        0.19572519307199943,
        0.14420470893270898,
        8.499065324157216e-05,
        -0.06553783633211722,
        0.014522561357811372,
        0.00835505414456181,
        -0.050966982089654354,
        -0.09004053295091621,
        -0.08117330009781837,
        -0.07509712015815206,
        0.01914964871899832,
        -0.12132470892167099,
        -0.12972867553761677,
        0.012085540989243257,
        0.04493787736626401,
        0.11418601290572775,
        0.3334998064684341,
        0.6084398256495678,
        0.5825257533697652,
        -0.10195441497799045,
        -1.0376652668115134,
        -1.1761924451569006,
        -0.034699409486992704,
        0.7571911789212145,
        0.8144481229486811,
        0.8169707799425585,
        0.6252174010794502,
        0.4444670114165095,
        0.18629632459954704,
        0.12360054972990606,
        0.2042082095475551,
        -0.05613517223201021,
        0.004688867325076213,
        -0.11186275256478456,
        -0.06523588782108637,
        -0.04631790461334385,
        -0.07533244683772464,
        -0.10616639091814392,
        0.00729931062133745,
        -0.029918649271706642,
        -0.0652136706935188,
        0.1825107055877092,
        0.09894807249030219,
        0.11522492217854091,
        0.27217946452817776,
        0.4285175816204763,
        0.21625763731256384,
        -0.5054399635675413,
        -1.1753267241314824,
        -1.079034268529362,
        0.058131883757338056,
        0.5374302370691842,
        0.7236249178403515,
        0.745293628315221,
        0.6746917243887577,
        0.47887795556185225,
        0.22291347110007326,
        0.20012837995275284,
        -0.07389514972499589,
        0.028919352532260655,
        -0.007999085409595146,
        -0.022672630528221483,
        -0.0821950616092422,
        -0.06581041617868064,
        -0.0010227378580045224,
        -0.05988515702144924,
        -0.05352020180040134,
        0.03169716321881764,
        0.14059821512681492,
        0.08284188499879808,
        0.24638678351272286,
        0.08240634005162015,
        0.21913799095511588,
        0.1931693971379574,
        -0.009312953712155748,
        -0.5010369736672406,
        -1.1997788154922269,
        -0.8779108793438313,
        -0.2490051012199959,
        0.6811551772748654,
        0.7856418939795291,
        0.7088309511657069,
        0.6872569994498428,
        0.4066369383703818,
        0.29699024103222954,
        0.11178371822895677,
        -0.04885034179256526,
        0.008480227245088545,
        0.007745097192867912,
        -0.06536131204569208,
        -0.006822000418323571,
        -0.09969563157948605,
        -0.016077573889997403,
        -0.0662403434337074,
        0.017696524550223393,
        -0.04425479862027532,
        0.076697186442932,
        0.17657790751424313,
        0.1461991411304256,
        0.194243526846051,
        0.2841592688822968,
        0.12217626064137081,
        -0.1270149347924514,
        -0.3932561396134239,
        -0.7144620666788808,
        -0.34726637942652455,
        0.009879251965851375,
        0.5822879305849343,
        0.9342621990453945,
        0.6860037826518337,
        0.526674609928741,
        0.23072618346309387,
        0.18892752826514475,
        0.1221221180269226,
        0.0732420619418801,
        0.0007692609972746694,
        -0.024610879125757035,
        -0.01941852605569876,
        -0.032189114600615,
        0.017452732997595373,
        -0.14877619647651713,
        -0.062131099551406624,
        0.002764930917481524,
        0.06145132925176739,
        0.16244635377327665,
        0.08294065223969288,
        0.11100525521168511,
        0.10920965642140074,
        0.07395435473205338,
        0.09896950942128013,
        0.008731132242751077,
        0.24174823372886198,
        -0.018286231008668424,
        -0.09155736320460955,
        0.09984386841140062,
        0.5885538349513278,
        0.5440737707039132,
        0.5475562710682651,
        0.3457977554666303,
        0.160265221060568,
        -0.00254407624390777,
        0.08778851718828595,
        -0.07259839574430205,
        -0.08821552389917964,
        -0.06502357954488382,
        -0.03544353158587799,
        -0.11719898604035092,
        -0.12507554935351664,
        -0.05130902552671134,
        0.018011722065811316,
        0.005859991506436373,
        0.14904361380529685,
        0.13971357682826288,
        0.03319059388756529,
        0.060954117417807575,
        -0.08572364147324521,
        -0.001023681249816833,
        -0.07267442889699455,
        0.2753287707398273,
        0.3967631137359629,
        0.16603749516209432,
        0.15352193016267482,
        0.36644768634554054,
        0.2662008524122685,
        0.2764211337515304,
        0.2269371848443016,
        0.17069250520169987,
        0.1461193502793693,
        -0.06144696290138496,
        0.021303271201908076,
        -0.0048369208286486364,
        -0.010248211775647663,
        -0.01455000155207077,
        -0.09936196081294757,
        -0.07623057734474298,
        -0.041899059098532344,
        -0.07389506481446584,
        -0.062376335506656555,
        -0.07899940049962456,
        0.12132368349531106,
        0.05070775385946243,
        0.14099428291904165,
        -0.042194585297963404,
        -0.06800267206473898,
        -0.03384375625489485,
        0.16237234529537775,
        0.2567338140206256,
        0.46871551868287925,
        0.40140887214056836,
        0.11283963954745277,
        0.09656586124311453,
        0.003330491175444779,
        0.028906635266691936,
        0.0515618629036231,
        0.041987920712024236,
        0.03343582623772024,
        -0.06464027031869582,
        -0.07571586384255394,
        -0.03662861855347365,
        -0.03714239991569707,
        -0.058625500687042954,
        -0.03821596102125397,
        -0.09388254384161182,
        -0.04120511155608784,
        -0.08779035432685572,
        -0.0591760221826778,
        -0.0625740828362518,
        -0.017138703745164557,
        0.002864988338021487,
        -0.10265285638065766,
        -0.10293427163856084,
        0.006428660946012998,
        0.029808387363224928,
        0.08298632494888682,
        0.31944405483267374,
        0.5249853379861535,
        0.3485384919837548,
        -0.0719535590575556,
        -0.19651153443386898,
        -0.19733556020622944,
        -0.18322795023907384,
        -0.03802423904750057,
        0.07678769698435045,
        -0.025859122333122844,
        -0.01406690677917422,
        0.010183312469505967,
        -0.07339695625397462,
        -0.016080942777586083,
        -0.018247369556169155,
        -0.05963325024645763,
        -0.027561947661281325,
        -0.01303796596958019,
        -0.06459289141335031,
        -0.025731787811482765,
        -0.09114126310190868,
        -0.05666356048263511,
        0.02921559172679148,
        -0.07631451820762182,
        -0.051096596989539285,
        0.043099704405517504,
        0.161854853198653,
        0.10781194023820903,
        0.4832812459369598,
        0.5667876516491683,
        0.5240743245570646,
        0.4189861324901624,
        0.10677788355500968,
        0.14163107557163218,
        0.003619954902395571,
        -0.0405667793279532,
        0.06138712087276826,
        -0.0307337855772831,
        -0.1080772381642891,
        -0.07087219825005746,
        -0.07040890546946026,
        -0.04064009797348766,
        -0.09787879202894384,
        -0.006223912599098173,
        0.006192224502307058,
        -0.0363910662941087,
        -0.06221780440845212,
        -0.0008779476282938043,
        -0.08655746723507673,
        0.015158788831543661,
        0.020318152469907643,
        -0.028263793863117084,
        -0.015672952337734795,
        0.0849816197313546,
        0.025892662113609455,
        0.08293315195986795,
        0.12980081726891157,
        0.12362256540347857,
        0.03548022377569022,
        0.212100137005392,
        0.1077607800589967,
        -0.11554481132398539,
        0.05147946878450498,
        -0.02448880886073743,
        -0.06239142332145173,
        -0.03358540538511954,
        -0.20579974381210792,
        -0.029159439716070646,
        -0.0385345430729987,
        -0.07011382998368103,
        0.0120950203190841,
        -0.07237126364782512,
        -0.03534181619123442,
        -0.11839781404544528,
        -0.12975425983161132,
        -0.14491881536420598,
        -0.0471153248989632,
        -0.02661268227002679,
        -0.09033470273930863,
        -0.0760935884603196,
        -0.07672176139068479,
        -0.009475111905446665,
        -0.0952177059087076,
        -0.04034000033139023,
        0.02059586866921009,
        -0.03483890461937878,
        -0.015416438361181114,
        0.05932865752745419,
        -0.03896791101632257,
        0.01129639656017768,
        -0.07496585051189716,
        -0.08506539073178415,
        -0.11142348002892336,
        -0.10484787501069048,
        0.01872338073791102,
        -0.06595491125596097,
        -0.04473024949346544,
        -0.13868217680597056,
        -0.05833700641563493,
        -0.10396667478422608,
        -0.060396851515127886,
        -0.03302736884355897,
        -0.07243148034239186,
        -0.05790774434021897,
        -0.10100206735379033,
        -0.10193497521613315,
        -0.0843982801729874,
        -0.12072217647182558,
        -0.17880681183913927,
        -0.024511653301641043,
        -0.03987433689922996,
        -0.0636025692852839,
        -0.11162538818417145,
        -0.028708921519314038,
        -0.04075609118379476,
        -0.05854290386032374,
        -0.1540668612522289,
        -0.15569535343316676,
        -0.0584406726036636,
        -0.07354560869524497,
        -0.09725794932219722,
        -0.016170463377643222,
        -0.02646244957700077,
        -0.03805566845819642,
        -0.10872929280106475,
        -0.049692134731958,
        -0.06687465250049006,
        -0.09145880340960907,
        -0.061391408782419804
      ],
      [
        -0.0001745672534874836,
        -0.06488236101794694,
        -0.0027572299885237368,
        -0.026968189331368544,
        -0.023658307149396967,
        -0.10959731122674941,
        0.046380709732650904,
        -0.006367676198327241,
        -0.02048596242866377,
        0.03378248499034464,
        -0.041152521211839044,
        -0.08365657651027562,
        0.03203968419944284,
        -0.03309471800539207,
        0.020532229503678504,
        -0.02496877713707944,
        0.04825505396991353,
        -0.06444386094706614,
        -0.037196852170587824,
        0.0389198260360888,
        -0.07382183185544873,
        -0.12516903437987592,
        -0.14107124239008917,
        -0.010095589373174806,
        0.010839362470551787,
        -0.048225698883954296,
        -0.0661361237285255,
        -0.021660977099276387,
        -0.07191304010744053,
        -0.07218511282965444,
        -0.11375338553401364,
        -0.04597298746469568,
        -0.0302511382306084,
        -0.04316957668692352,
        -0.04799548588794497,
        0.0178237658748328,
        -0.06796469428708461,
        -0.011010646037111525,
        -0.09286385350544012,
        -0.08591977997073787,
        -0.048344328797224265,
        0.0021563280509419177,
        -0.04823203051843307,
        -0.019363580518966052,
        -0.028733052668163228,
        0.03159472998913555,
        -0.11480620619366332,
        0.05586466078360629,
        -0.05436897850754378,
        0.005236424142508984,
        -0.07750865634073019,
        -0.03827396951299056,
        -0.018206130561432683,
        -0.06150734890099929,
        -0.04694066126314439,
        -0.05791598566389375,
        -0.03057158920856406,
        0.046383039396539205,
        -0.004923424473882575,
        -0.056746180397821325,
        -0.054646883710726735,
        -0.004444166269671266,
        -0.09234350651617458,
        -0.09607734563490121,
        -0.015407384643304923,
        -0.08284863797825352,
        -0.1152643834584448,
        -0.1260222172310274,
        -0.08732317864875604,
        -0.10764062679732884,
        -0.053882433051154505,
        -0.11519802113378534,
        0.0643672295696545,
        -0.0064611993636259964,
        -0.12172652888737942,
        0.025575241980320674,
        -0.04456220203237575,
        -0.035546817668851524,
        0.0026990104697712583,
        -0.0003480799175535902,
        0.007190752193548989,
        -0.012514905602534055,
        -0.0039714966904742174,
        -0.04824860778062498,
        -0.01806342347850722,
        -0.09847800880806314,
        -0.03779089784039388,
        -0.02525864010692529,
        -0.0022342472496140837,
        -0.05677298352235326,
        -0.03608819091075216,
        -0.1071610048371631,
        -0.14968481350082452,
        -0.02114152696803649,
        -0.06014932166890785,
        -0.13778770372209231,
        -0.017706306474398425,
        -0.10467061161480772,
        0.00851587377158058,
        -0.027861227672376296,
        -0.04448356949714105,
        0.06303134891247338,
        -0.10071534005989184,
        -0.03498033797700245,
        -0.10572613687391717,
        -0.025651408452324363,
        -0.09731759131325458,
        -0.020266649366311933,
        -0.062653808230001,
        -0.026383503236335055,
        -0.03846773993773987,
        0.04540558483919441,
        -0.024027009557477826,
        -0.06271873015543251,
        -0.012793797242640171,
        -0.027270228274882322,
        0.02279325735786567,
        0.06387703289993754,
        -0.04223015394777968,
        -0.0031393971393390077,
        0.04694751734977878,
        0.0691383515638906,
        0.05442917830720319,
        0.02291579350824018,
        0.00450871185356187,
        0.03693394636295898,
        -0.10955141932024688,
        -0.15262220890341122,
        -0.008349648488216645,
        -0.13356169729469847,
        -0.1570471498178505,
        -0.0927297242820725,
        -0.1316729789049587,
        -0.0697609937060046,
        -0.1113891581318988,
        -0.12419078320179537,
        -0.043218761773490294,
        -0.15097853069624173,
        -0.025072601410776777,
        -0.1112309906201978,
        -0.007950290821582322,
        -0.07231134736718463,
        -0.09311826588262136,
        -0.0534228639460905,
        0.05179953629752773,
        0.05823142159102422,
        0.04948571107992583,
        -0.019391618263507115,
        -0.020041546038411604,
        0.0659118933108212,
        0.0821116569879836,
        0.15461150447986044,
        0.10389020640613268,
        0.0645841240791373,
        -0.011157422138696929,
        0.013718834220130226,
        -0.047202077069202486,
        -0.03016013104615879,
        -0.01987091447322339,
        -0.045260478448354596,
        -0.09229002134423624,
        -0.026195363371181182,
        -0.012249097076818422,
        -0.036116045296019736,
        0.02281606433563656,
        -0.026841619145783816,
        -0.021028591546344035,
        -0.1360347429207604,
        -0.05098910919138255,
        -0.0373065712912362,
        -0.012868063028638424,
        -0.0014230364971902249,
        0.016540964947527152,
        -0.005060725543575249,
        0.0027312484251444643,
        0.12808447204837878,
        0.14445571953977243,
        0.16065029253088298,
        0.052037746536609905,
        0.03790377755981206,
        0.01356862911140791,
        -0.0011877716053540828,
        0.00029590953753038643,
        -0.13350816733420173,
        -0.10395087898396967,
        -0.16671864183776403,
        -0.10695973891578149,
        0.08397899219059093,
        0.039439418412139146,
        -0.045959402713530176,
        0.0213392429817129,
        -0.07961965648314707,
        -0.017215710733343336,
        -0.077345863144014,
        -0.0015280573878249622,
        -0.007044781952936235,
        0.011017901922599318,
        -0.09891254302012596,
        0.05123860926877155,
        0.018494102982961492,
        0.03471036174888998,
        0.02216718743004911,
        0.14307865147234433,
        0.24353464480488912,
        0.21498589259854334,
        0.19584366996119512,
        0.04828233646405021,
        0.11691177865031165,
        -0.008486352674055847,
        -0.1929627167921466,
        -0.19163711893804003,
        -0.1651869029993126,
        -0.1314257723585491,
        0.05087207719920883,
        0.2246243469841337,
        0.1330877454348993,
        0.014980619121324349,
        0.05262412278912687,
        -0.14021472939599489,
        -0.12226981971358764,
        -0.07402134781807819,
        -0.18576396543156398,
        -0.05813823609961656,
        0.09272798143591827,
        0.022247582023700353,
        0.004320916181445552,
        0.05884154494360308,
        -0.0029394365351553924,
        0.13228026181798297,
        0.015004002003906803,
        0.1309316117366624,
        0.181354182025094,
        0.14334172814505336,
        0.050784012921850724,
        0.06371069319447765,
        0.14440980647426388,
        -0.03915439867288835,
        -0.09151001734449225,
        -0.047464101451874866,
        0.05167849104446319,
        0.17846416797259812,
        0.277141492608604,
        0.26545537101818595,
        0.2506195431112506,
        0.12403764829707155,
        0.1232930142970372,
        -0.0005559701844494802,
        -0.07252292990013098,
        -0.18028893992576922,
        -0.07243063444593038,
        -0.05298053828738371,
        -0.04741324201638375,
        -0.05748363090989467,
        0.04703479243257762,
        0.05574544199906324,
        0.10623392168826974,
        -0.001393839105493347,
        0.0793677263499596,
        0.08930195845682236,
        -0.001008139667189339,
        0.01977440005146827,
        0.00588730338215355,
        -0.004690481631475335,
        -0.21127258303782265,
        -0.19400381328796246,
        -0.05481669616372749,
        0.04114476673610902,
        0.35919118000565164,
        0.4976967478228502,
        0.5790717249525812,
        0.5357396253422506,
        0.3610618856924685,
        0.1531160241843269,
        0.10778633532997929,
        -0.018639999417936173,
        -0.08203815028882903,
        -0.08700671858893709,
        -0.11930471777711206,
        -0.06918771596216032,
        -0.08508591131781705,
        -0.06760592254838212,
        -0.010526666307139398,
        0.04218635408491947,
        -0.08649411041653175,
        0.002153931488461163,
        0.16452410277654994,
        0.05273185465401857,
        0.08194330256401995,
        -0.09170047212258249,
        0.011920044009981909,
        -0.23388216623503966,
        -0.12001361958770572,
        -0.13523703326262376,
        -0.07894779292230115,
        0.2558287421443098,
        0.5236860848893377,
        0.6821205469998263,
        0.5239110515044786,
        0.3827758789797266,
        0.32244845333058986,
        0.16602368537320972,
        0.03660802100001813,
        -0.22248734096949035,
        -0.1369906802258048,
        -0.04010430523951418,
        -0.05965360446914309,
        -0.02522570975124865,
        0.052118214979764654,
        -0.07534114504277102,
        0.02814519021678886,
        -0.034192995956860275,
        0.014298993477476363,
        0.03934350008919785,
        0.022830864363329307,
        -0.09789157270103295,
        -0.030398318418178163,
        -0.12324900980052392,
        -0.19718665546608743,
        -0.0835508862543938,
        -0.15437180562835429,
        -0.0870106123005929,
        0.04805029476207763,
        0.26206577422623395,
        0.37057614256123295,
        0.5322673671528536,
        0.4450624001998148,
        0.3756105313284383,
        0.2074951024211707,
        -0.012912974744033169,
        -0.07295973830811257,
        -0.06997433436648141,
        -0.16794897540692583,
        0.015492541289674177,
        -0.06936459764358964,
        0.039717631307232534,
        -0.10096138967550501,
        -0.05862211327212112,
        -0.01718583560946092,
        0.036460357125781495,
        -0.020161436623251507,
        -0.07108477579901966,
        -0.08201919410540119,
        0.005086654200808118,
        -0.023017311254466533,
        -0.13577896576798876,
        0.002054601347477304,
        -0.17977301097621273,
        -0.22432537691988857,
        -0.06258376434059457,
        -0.04155571421630494,
        0.11050541686944025,
        0.22404094942703295,
        0.2365317741855575,
        0.3979424486820962,
        0.21091689213580755,
        0.07342539405628352,
        0.06794982107014735,
        -0.13889314435608058,
        -0.15479374233904203,
        -0.07928345131719615,
        -0.07363479413402498,
        -0.0668959925220008,
        0.02382647421943732,
        -0.052934727721344194,
        -0.02805248611293046,
        -0.024202511082005423,
        0.001964714680487847,
        -0.02290704656264868,
        -0.026208394105269223,
        0.042135513767620175,
        0.014175265697962385,
        0.046448226677001644,
        -0.06974692674686796,
        -0.0890434407158844,
        -0.25195098480871003,
        -0.15948253473610202,
        0.08421949387847825,
        0.06575391477271396,
        -0.022955335717019184,
        0.1396779181769504,
        0.24120624308726302,
        0.2614538956275566,
        0.13102027551604312,
        0.027690852689535247,
        0.008558481628372992,
        -0.04900487155095869,
        -0.09889721376968609,
        -0.14790378381435593,
        -0.09294474315811636,
        -0.08238039589754821,
        -0.025651029215479185,
        0.0035768719028028556,
        -0.018351877432276256,
        0.004233726099145291,
        -0.08766036052324243,
        -0.01951868170000261,
        -0.04675819112375197,
        -0.03353247789723007,
        -0.026098314732277538,
        0.12278776093575729,
        0.042397376793144675,
        -0.07094339466967972,
        -0.32163839061523464,
        -0.20040035562978942,
        -0.01910043387798348,
        -0.013623824987374897,
        -0.2168908082138989,
        0.1103480357014704,
        0.2206866760461128,
        0.38089766304469996,
        0.26043190105999775,
        0.241849741595565,
        -0.01668270501590835,
        -0.1717892863051757,
        0.013534936727681142,
        -0.18499779726202698,
        -0.07855122756441478,
        0.055387652496033835,
        -0.0726862635843233,
        0.04419888919733518,
        -0.10156107701786353,
        0.029347225265287314,
        -0.024574960957904655,
        -0.035714160499415296,
        0.0593653924555161,
        -0.08112636626308613,
        0.1452622010201,
        0.02218344097077424,
        0.021757311889149828,
        -0.06554399805878003,
        -0.2745694541563437,
        -0.1362707519985154,
        -0.15788131861838234,
        -0.05163213600164522,
        -0.08183449493206758,
        0.19853222243643492,
        0.37401459771732126,
        0.31918587992992936,
        0.466374758981429,
        0.2800799611703658,
        0.028203716259250947,
        0.04316645453106249,
        -0.11074902013839104,
        0.03068026998902489,
        0.02470668041775306,
        -0.08561017959265559,
        -0.04398917845510672,
        0.005051509568533567,
        -0.06310169636438816,
        0.018361203936587134,
        -0.01718715469497768,
        -0.0704069576739169,
        0.010214046630423069,
        -0.05006787974082802,
        0.0059360018886326325,
        0.021530596760898583,
        -0.026730092433298585,
        -0.1493169944309709,
        -0.19926364509585093,
        -0.2622182659706738,
        -0.10880089941740638,
        -0.06598792152373467,
        -0.12431476522674961,
        0.07757811841625632,
        0.2518877731852161,
        0.3934078208385449,
        0.2783259467650583,
        0.08561630675351022,
        0.10980874853055243,
        -0.022517097823051068,
        -0.13054642722439688,
        -0.06954425835963572,
        -0.1134137122796078,
        -0.0492803622551824,
        -0.008688245964398648,
        -0.039215081248565375,
        0.02825869474771098,
        0.00042093764562160004,
        -0.11665376239696588,
        -0.08888483117274106,
        0.011267171769130058,
        -0.03749967937265597,
        -0.09794667150243395,
        -0.018046443248015482,
        -0.09531138522120695,
        -0.24613794053046212,
        -0.27369744407781893,
        -0.31839903660007646,
        -0.2936714558626865,
        -0.16167735497934665,
        -0.10864529726488849,
        0.023453602438722087,
        0.20050024353362855,
        0.24092571541463564,
        0.22958454207188622,
        0.049786852082045294,
        0.015262600824807564,
        -0.14804209727219214,
        -0.021901925341583073,
        -0.036594291273602336,
        -0.12020224770184723,
        -0.052906456348866315,
        -0.08950306278588062,
        -0.05223214681312678,
        -0.0720224606296835,
        -0.06453806062550024,
        0.0037099553913341227,
        -0.02345726654234852,
        0.0809791166229017,
        0.016306758452535604,
        -0.2012299305356411,
        -0.12572907298388894,
        -0.2036044521683651,
        -0.3596805021383146,
        -0.3683657403879927,
        -0.3197028802760396,
        -0.2998156319518413,
        -0.14203255446728924,
        -0.020573495269471092,
        -0.08050214029018626,
        -0.02143515051840361,
        0.11184923741763082,
        -0.07327185006975563,
        -0.10412744522222071,
        -0.21228859939666112,
        0.0033425699804500433,
        -0.1293262653092625,
        -0.06575877990806193,
        -0.06560534530798162,
        -0.09091139458202262,
        -0.032667085527669754,
        -0.048476367300108375,
        0.001333641616911303,
        -0.1072598043642325,
        -0.07964999266816318,
        0.07211003566311959,
        0.09138963521010994,
        -0.047684178428335305,
        -0.08943337771919267,
        -0.21082754956106892,
        -0.2669237904417683,
        -0.3756351103855478,
        -0.46225483688811964,
        -0.48267942380907936,
        -0.3108693467106195,
        -0.18986010630415678,
        -0.09666796314909003,
        -0.14540071700317247,
        -0.030778061531437466,
        -0.006072273154525373,
        -0.042661007978052806,
        -0.11703998816555404,
        -0.09341810600252994,
        -0.060168940053109465,
        -0.034973526937156024,
        -0.06130491646036763,
        -0.06106002120630687,
        -0.00023233229899686413,
        0.00971818612602102,
        0.014318628241205833,
        -0.055076115655311925,
        0.0781186114612784,
        -0.034015874433966115,
        0.028284454622016914,
        -0.004438388184893803,
        0.030850874194039066,
        -0.036670797777180464,
        -0.12432830062759878,
        -0.20332600112279325,
        -0.3111738688399278,
        -0.2409599203475321,
        -0.36169139982496884,
        -0.25643521548393927,
        -0.3690919654812847,
        -0.22582394115722632,
        -0.09448399631262268,
        -0.06537245658753663,
        -0.06399195501612236,
        -0.1196553926584961,
        -0.11919047879065052,
        -0.12897826882808217,
        -0.030617794812596726,
        0.05823224985507301,
        -0.14258796503505916,
        0.055083819572609036,
        -0.029568402661401243,
        -0.024981594699418876,
        0.06330138115353648,
        -0.14625566793161565,
        -0.0602596840042241,
        -0.05684881176967033,
        -0.018981498474219465,
        0.11205443186504678,
        0.08816795695137787,
        0.1483677838124982,
        -0.07478954735971897,
        0.031865900108174215,
        -0.12250472966362659,
        -0.18298569893989192,
        -0.1068076761680561,
        -0.16537480933445964,
        -0.1005774698970451,
        -0.13292831767005703,
        0.021713390241696457,
        0.08343699141359792,
        -0.04348218507615649,
        -0.053689072364197815,
        -0.11197035768135262,
        -0.19918976142443318,
        -0.11855728757999208,
        -0.1426839099030865,
        -0.026972029663991873,
        -0.05610108189540659,
        -0.04759067022625814,
        0.0804340512479886,
        0.0016146263213881265,
        -0.11163508719331718,
        0.0827620809514815,
        -0.013587021222280766,
        -0.06686854434205382,
        -0.02918825565367187,
        0.012784624625430448,
        0.1947083214196214,
        0.09422086068560252,
        -0.03591145288531812,
        0.11107106990707728,
        0.1658068358722405,
        0.10392882941029587,
        0.11643371299371848,
        0.05703300629990349,
        0.14504108592864734,
        0.09581260635228343,
        0.07675639922174243,
        -0.020390865193367923,
        0.0665769102867174,
        -0.02885020062721156,
        -0.044902903623772666,
        -0.04478574652147767,
        -0.05661475870901915,
        -0.012983778024173307,
        -0.03670069375557658,
        -0.0044572478740751206,
        -0.10395536756473513,
        -0.038011552210402824,
        -0.05430737947339723,
        -0.025924934925225424,
        -0.005052217496364933,
        0.02055359723566186,
        -0.06839914163626691,
        -0.012345151702864304,
        -0.013516436463147253,
        0.048654069979909315,
        0.06846541248509956,
        0.15173799869676413,
        0.1959138780797839,
        0.22719764739182507,
        0.17981445483056363,
        0.39881245801975007,
        0.3293834441134442,
        0.19129595075913997,
        0.10289976410715591,
        -0.05600241171928361,
        -0.0673895234156675,
        -0.07601406240957174,
        -0.08280829101807478,
        0.002558638157958158,
        0.016934081866630594,
        0.03130126527661236,
        -0.04335840166744952,
        -0.003101335390875249,
        -0.05271746455643887,
        0.03315193158986643,
        -0.10631098856156056,
        -0.022393385637178267,
        -0.019343902905118154,
        -0.0007336196063660373,
        -0.011659577107442125,
        0.09053991702235505,
        -0.003690950676820311,
        0.06104715948921403,
        0.0035049937196295344,
        0.11831818796744188,
        0.08454968862695049,
        0.19383718720196225,
        0.14320810855777844,
        0.27785952890367155,
        0.12233086088717916,
        0.13764431655251635,
        -0.056986942213613265,
        0.04411985599321851,
        -0.06722154001985887,
        -0.027576610084329142,
        -0.0515012917348292,
        -0.14013142245024734,
        0.004576583604230387,
        -0.0216984589160187,
        -0.014957527429804487,
        -0.02472444239238498,
        -0.08877085570439931,
        0.012887641260173562,
        -0.116513550494359,
        0.12426109379236307,
        0.0385678239126199,
        -0.000926956432660856,
        0.03481793437194105,
        -0.0513036254374412,
        0.02217390050111828,
        0.07855295627572677,
        0.034129493837699774,
        -0.010584629278679137,
        0.056091912675710634,
        0.04257209918955014,
        -0.04855725663567331,
        0.050331770758341804,
        0.08842739404135137,
        0.04785525493577006,
        -0.03731476962658345,
        -0.12245580616578197,
        0.017944850157219017,
        0.011219637916012899,
        -0.044911485205585175,
        -0.023381885372518046,
        -0.017152423240360985,
        0.013524921768528396,
        -0.09103942310744494,
        -0.03366924084261884,
        -0.04918006790743275,
        -0.16210626306128473,
        -0.037923989241731515,
        0.04066934545064273,
        -0.043060512126718006,
        0.004207460213030374,
        -0.013423284846490914,
        -0.09442883227180666,
        -0.057963017391823815,
        0.006996615428065952,
        -0.041511956523832855,
        0.023569535823784436,
        -0.014623954019622095,
        -0.024699979577667234,
        -0.019039210894089432,
        0.0037800519490410645,
        0.03609330748229435,
        -0.016074984333735342,
        -0.07403086749437927,
        -0.08131782883461992,
        0.0238902494883946,
        0.0536753243521728,
        -0.08858886037457638,
        0.036293556618389955,
        -0.00975622823377693,
        0.00873854763032029,
        -0.11581203488315885,
        -0.03720409374532348,
        -0.06426209944018743,
        0.06705555210868312,
        0.046430603975211995,
        -0.07286502541898772,
        -0.1551899540039684,
        -0.043861904339962815,
        -0.04266580065177748,
        -0.06962077577494634,
        -0.017795155158966697,
        -0.05364496378836621,
        0.03764517093471069,
        -0.1515704404331153,
        -0.01213240981731278,
        0.003613115265704965,
        0.0023521791970538795,
        -0.058998512613778684,
        -0.043627677289732894,
        -0.024044037917123017,
        -0.03818145248176984,
        0.07899565863699042,
        0.0004144907823689334,
        -0.11629510786906856,
        -0.1024099344426362,
        -0.029533347055413033,
        -0.06122287275861183,
        -0.06759916032010567,
        -0.08296296595382015,
        -0.07066981206949251,
        -0.031055749749671544,
        0.027962206953344945
      ],
      [
        0.013694981831308965,
        0.010768626705005425,
        0.016935828277279078,
        -0.007867532708559307,
        -0.019592486031946098,
        0.015703503603400996,
        -0.01935893299431405,
        0.015648733078353724,
        -0.007107716338649496,
        -0.01814994849002282,
        -0.01191459206075484,
        -0.07262318557279752,
        0.024202500149884336,
        0.015498321800621762,
        -0.014325360589284755,
        -0.0058956086337942325,
        0.02487456137257832,
        0.024168124991012285,
        0.03679072883089239,
        -0.0180542058154472,
        -0.057734042299266666,
        -0.02468845913908102,
        -0.058562680358486344,
        -0.018355147470890815,
        -0.03737979226384222,
        0.053612215467766636,
        -0.00701089167813942,
        -0.05871209414587826,
        -0.15922639838354943,
        -0.013252370851750468,
        8.030339821703272e-06,
        -0.05073016756611676,
        -0.0017289824560260498,
        0.017602389091191835,
        -0.10667455364908403,
        0.05098815092459308,
        0.007599357174118982,
        0.06509232220048024,
        0.059051729090484326,
        0.07177512120371084,
        -0.005814865478388248,
        -0.04679050361055517,
        -0.069305939868515,
        -0.06828026102559619,
        0.04507071987104397,
        -0.009724495085373173,
        -0.06589268083674792,
        0.011071092328892359,
        -0.09590086414675848,
        -0.08575078443486876,
        0.02007720211590997,
        3.4245441983714305e-05,
        0.08088065074137206,
        0.027623351249027574,
        -0.006964106755448172,
        0.017685903609002757,
        0.002596550608901657,
        -0.007650137338060204,
        -0.027640205713628217,
        0.015319587164520775,
        0.0030624209154379665,
        -0.006959337559494993,
        -0.01223037597492993,
        -0.008825032262615395,
        0.08135121046858383,
        -0.06650659606257218,
        -0.02170611527563821,
        0.07732340927118465,
        0.0022384646069141863,
        0.14262832400671718,
        0.02281692003749832,
        -0.005007002640095818,
        0.07111561829259984,
        0.01162776502977901,
        -0.03686686880769033,
        -0.004263052494916935,
        -0.02161396025950072,
        -0.017214824744827335,
        -0.04633272174113115,
        0.0813435236841515,
        0.08598356958695334,
        0.012672273377646166,
        -0.04498709207327613,
        -0.08502528907060335,
        -0.09881143643663289,
        0.03984441646275712,
        0.07244810525553373,
        -0.022549595885623393,
        -0.08459564937808393,
        0.05153578376912525,
        0.022759893721562632,
        -0.015479518023560448,
        0.03241609117776804,
        -0.037088831105219114,
        0.036560925658875906,
        0.08547345455246348,
        0.07935663560399271,
        0.2034475034097968,
        0.17329010784915214,
        0.23753103579624038,
        0.12501245244948767,
        0.050278026814513946,
        -0.033584914842737755,
        -0.01931717003119335,
        0.042315074703622974,
        0.023712037208661933,
        0.03297054292700916,
        -0.028043613054167086,
        -0.008111259027421831,
        0.0287932302220305,
        -0.0179210710415146,
        -0.0356043726396415,
        0.028922779497294812,
        0.06995717945911907,
        0.13267131088059028,
        0.02284703634375415,
        -0.04867919876289903,
        -0.013646283112673713,
        0.03545426018699358,
        0.024986362470722202,
        0.10958006099753943,
        0.16455129552879358,
        0.27082520239490315,
        0.2524054400896476,
        0.12521585796418153,
        0.3083316487882847,
        0.28360161821670515,
        0.1463248574234393,
        0.12801524918528503,
        0.181897314997209,
        0.030695018075485372,
        0.060223542737421025,
        0.06751372594074091,
        0.032126041078520226,
        -0.055539535602656676,
        0.03921837791994834,
        0.04217468618862093,
        -0.04744434953731841,
        0.09765377157913284,
        0.09032501152927837,
        -0.07930615797755557,
        -0.011118451593641589,
        0.0999671052319359,
        0.03884709229087363,
        -0.05704581020412014,
        -0.03210316075989169,
        -0.009626329363130688,
        0.055737831680918754,
        0.12609763052213568,
        0.12740493850472473,
        0.26069179291803024,
        0.28241616233205535,
        0.2672646241430961,
        0.21067596927004992,
        0.1940097480571019,
        0.1187936928761814,
        0.2070551385890023,
        0.22079529776874054,
        0.07807016724385303,
        -0.007503790230589584,
        0.09976238135517486,
        -0.11260724624691067,
        -0.11345172438799826,
        -0.08049764819674664,
        -0.06744835197569767,
        0.008142710439542823,
        0.05709271751959685,
        0.024855213944430306,
        0.07992929906087502,
        -0.08564551530099494,
        0.032910122691851854,
        -0.01561299795818642,
        0.006552825704615784,
        -0.07487996124235478,
        -0.05689809567535506,
        0.009620246631788301,
        0.15339491159946875,
        0.06898819070726986,
        0.023746880432777513,
        0.2876181507984907,
        0.14583512400116072,
        0.15041790144036868,
        0.2908838193917836,
        0.1426418747305065,
        0.2258340906315728,
        0.22914591851408514,
        0.08897906824732006,
        -0.007693832898448043,
        -0.0006516124110623793,
        -0.22255362191588454,
        -0.08651980356086879,
        -0.011990615442574914,
        0.03746756764913431,
        -0.0271008121189841,
        -0.02642748891145341,
        -0.003402717949740279,
        0.030957322036933035,
        0.03799710846508221,
        -0.007026231815412157,
        0.011208111727657732,
        0.02670392964135676,
        0.03345514012066176,
        -0.0028026530107232847,
        0.006678772795048008,
        0.1163895615550846,
        0.1359213682731687,
        0.1156047808256724,
        0.13185056643638546,
        0.06501203150493592,
        0.11872527368142018,
        0.15226081798632757,
        0.08502970020475668,
        0.2103047165476081,
        -0.09715623451300841,
        -0.19723857215282212,
        -0.04291065956744261,
        -0.1631225631235577,
        -0.11005094271902292,
        -0.033375174548179995,
        -0.08198287191617702,
        -0.07043739426964736,
        -0.004397086128673946,
        0.07741890688812338,
        -0.00816154298631943,
        -0.14249737817063665,
        -0.04195034146990946,
        -0.06697888352282662,
        0.009152085663219404,
        -0.06020614472677232,
        0.001247828394843501,
        0.04872316042014724,
        -0.08586671612562487,
        0.032350980408583446,
        0.016790642925574157,
        0.10685874267310509,
        0.054405961746714276,
        -0.01024880838027933,
        0.1022376411770438,
        -0.061097242163446176,
        0.031417555033537305,
        0.028184294837065166,
        -0.06793068559673425,
        -0.19978070676856893,
        -0.09285084192300279,
        -0.12598498765263336,
        -0.08145341937058152,
        -0.12638152201247535,
        -0.1306963377911278,
        -0.053920865641478646,
        -0.1051265755246912,
        0.020104721527750724,
        -0.02458344611936196,
        0.021037145018952937,
        -0.006222179091676033,
        0.013336098084631386,
        0.004689914756802874,
        0.0040110883878493155,
        0.1089994709334197,
        -0.03571713157118876,
        2.012455733022752e-05,
        0.04417781326041374,
        0.1473233272335445,
        0.03641865623698461,
        0.052282502067670086,
        0.02420855028830471,
        0.02108782401812704,
        -0.0981768557165293,
        -0.12538469069394798,
        -0.06455362478002324,
        -0.12723978842826525,
        -0.18160081447467022,
        -0.18875745285808418,
        -0.07782889456458285,
        -0.15500467075739052,
        -0.060648508921859474,
        0.019896700344147422,
        0.04279183668441114,
        -0.08200694511864963,
        -0.10261559191277218,
        0.07417461759717521,
        0.012910756800464648,
        0.09783229604979014,
        -0.02306206798394047,
        -0.06766707698330994,
        -0.052717564812278975,
        0.005352519218862886,
        0.00894042925809996,
        -0.10651620971086077,
        -0.024439463863672548,
        0.052224543956551,
        0.038440587267713724,
        -0.17604682344905817,
        -0.24096242467534576,
        -0.2957652691832632,
        -0.436202219726453,
        -0.41682225442740384,
        -0.2430723627768804,
        -0.04290725922906537,
        -0.13702440200413774,
        -0.09588655194724159,
        -0.044414837907835236,
        -0.04260537657753122,
        -0.033396955077734394,
        -0.14547796267998606,
        0.05768229220697636,
        0.03882677978029846,
        -0.017837948959900624,
        -0.03789046630709021,
        0.025482899506049476,
        0.025209630428799944,
        -0.04339102735208092,
        0.03791797642694966,
        -0.023357952777922318,
        -0.015481911977088437,
        -0.07262564142587737,
        -0.12596681714748226,
        -0.10071219768264787,
        -0.35369179160356656,
        -0.3251030122032139,
        -0.4462842458986853,
        -0.4662447254725196,
        -0.5938829258483878,
        -0.483103018730214,
        -0.4609458779290394,
        -0.1950326833648572,
        0.07873278781774683,
        0.07464633451541221,
        0.05148346641828355,
        0.010533061829313774,
        0.06171179911673851,
        -0.039429161837671256,
        0.0730379293389037,
        0.06029980336286336,
        0.008672848570827701,
        -0.02618247163426489,
        0.08286360998793983,
        -0.04927111293117764,
        -0.030083820214425575,
        -0.07459230436672336,
        0.047221311918622014,
        0.07043032050984328,
        -0.09477094000132343,
        -0.15686198519092195,
        -0.18540731999471108,
        -0.24461840830741213,
        -0.42943849550737667,
        -0.3809509367152081,
        -0.3255559606908086,
        -0.5332381325817904,
        -0.5316830590940539,
        -0.5170517486221287,
        -0.3826397198250151,
        -0.10988205820115317,
        0.05397908722151964,
        0.0650004769468842,
        0.04751799157144418,
        -0.008327314326722752,
        -0.03467602860080564,
        -0.12042521280335962,
        -0.03943343949825266,
        0.013850739260186755,
        -0.03455328164489037,
        -0.026663993934093806,
        -0.027138182554076653,
        -0.026963298051062415,
        -0.08172967240611755,
        -0.012769633077538423,
        0.04173896680481451,
        0.03341020839907628,
        -0.050673004096623134,
        -0.21782223206919646,
        -0.3150545929299786,
        -0.34976877387196936,
        -0.38833956189076035,
        -0.3032111052709161,
        -0.3611060175982528,
        -0.4346483271075927,
        -0.40987294096863414,
        -0.24020128594313125,
        -0.1207605216191518,
        -0.018679525173447332,
        0.08231789872493046,
        0.16055996929235675,
        0.05337346954951515,
        -0.09697179673064986,
        -0.10287870061135203,
        -0.1247247795306063,
        -0.04215762921275101,
        -0.00026091949738538123,
        0.04372213191552285,
        0.004745289070779524,
        0.016271784957819925,
        0.028110912179008747,
        0.027087052553507775,
        0.08560530361654596,
        -0.08330353461814081,
        0.015483437683564031,
        -0.10280490446180703,
        -0.2236710723608534,
        -0.3176681910479859,
        -0.34406163079278496,
        -0.3034934258705965,
        -0.09972463270356811,
        -0.12084409929599374,
        -0.07131055978430574,
        -0.16046601745163944,
        -0.06456241054667887,
        -0.08294682520220635,
        0.03564085236803322,
        0.020347146740756356,
        -0.005608630348927907,
        -0.16713361438498017,
        -0.23787784138732979,
        -0.13369843929137804,
        -0.1469214757004622,
        -0.06372848501966218,
        0.019583686024874494,
        -0.08462608391892266,
        -0.02081104022260767,
        0.05246888509261484,
        0.004125702509097056,
        0.004814214746044756,
        -0.002112036441502473,
        -0.055899885267711114,
        -0.04401902272996286,
        -0.09369148942175569,
        -0.13905504324470944,
        -0.0654022658443791,
        -0.061435017794470595,
        -0.02606258205426211,
        0.12254033348777936,
        0.31360292329129974,
        0.26207524081603145,
        0.18959568069732388,
        0.0702282237194526,
        0.07216475500848435,
        0.02044216902160287,
        -0.009214717740270688,
        -0.1563925720704412,
        -0.27348821138073304,
        -0.11126118935987343,
        -0.10059810014878691,
        -0.11210753348856413,
        0.018102875548113205,
        -0.04598997746265043,
        0.07490264212415325,
        0.007627694645437963,
        0.007865588571540533,
        -0.09945065758692757,
        0.00844660437601455,
        0.05647062732625145,
        -0.06314917043045395,
        0.011397935613958871,
        0.037881872402096534,
        -0.04297978097973476,
        -0.10719110984045095,
        -0.04024371601548739,
        0.16323138886128977,
        0.34640421273175137,
        0.38582208685565866,
        0.4088671968092744,
        0.42989245536403164,
        0.37554427158454007,
        0.21912262594114532,
        0.20305326713727836,
        -0.034122189611272516,
        -0.08199835755970779,
        -0.14247738212399283,
        0.003341310772485725,
        -0.05557972189681644,
        -0.05574475087613409,
        0.04212942705802865,
        0.016181716037870345,
        -0.011468582149907088,
        -0.07414980315093993,
        0.016637046785953135,
        -0.013636009040002714,
        -0.010707815829700495,
        0.04943350104666372,
        0.037222146294653105,
        -0.019369556830810077,
        0.04718903972749698,
        0.13433519014920234,
        0.13387053295745258,
        0.12599191003896826,
        0.29851230458760025,
        0.3368439997827687,
        0.43670404479188196,
        0.612122846883629,
        0.3835026057225732,
        0.44683655208307094,
        0.45691533233796244,
        0.17179770129244612,
        -0.0026840999952020255,
        -0.0038003560604307667,
        -0.021720617126639273,
        0.07130991814369546,
        0.04814048542443948,
        0.08964294048216635,
        0.17152103865032556,
        0.1624924368088709,
        0.023402272242448924,
        -0.008544464507877672,
        -0.04498968837096762,
        -0.014523342354145822,
        -0.008315947012979788,
        -0.0340314187515338,
        0.06359113188685636,
        0.07801821634947499,
        0.10972758833751926,
        0.11968133864194695,
        0.20333293296631547,
        0.3276656325505759,
        0.2754049685222134,
        0.3980691052310755,
        0.5194867998893736,
        0.6245096818319159,
        0.4248223897124842,
        0.377261239326126,
        0.3445311678507065,
        0.16803307035050094,
        0.010496357580906678,
        -0.1448869337117216,
        -0.0362814140161095,
        0.18322524536096388,
        0.17607272893937917,
        0.14952108556039323,
        0.14483653101376096,
        0.26970172053306773,
        0.1718469304119449,
        0.013928713592761259,
        -0.03978059450402566,
        0.04981215911169537,
        -0.036482745981081824,
        -0.06015188590198214,
        -0.02320538665465123,
        0.051758937258442675,
        0.1497744126895125,
        0.24413501060419804,
        0.11622289212362732,
        0.2918839561083885,
        0.25561115088355635,
        0.38223828269503646,
        0.38823514068180043,
        0.44355907774011727,
        0.2489226875876717,
        0.10956810469086496,
        0.15640265756706842,
        -0.011287769368409629,
        0.07610010253348355,
        0.13603734716071153,
        0.14298346532689793,
        0.2006455093262214,
        0.28726180241631855,
        0.3348967397994188,
        0.2967654486106027,
        0.15042257142739104,
        0.018208625757671012,
        0.09111915504978559,
        -0.020951911920051906,
        0.033366291829806036,
        0.029046174931415945,
        -0.02049970506607613,
        0.09995966009388503,
        0.08378048726239708,
        0.12192630600158676,
        0.16403629272156559,
        0.10981643627793485,
        0.18006407727805754,
        0.1845278243093826,
        0.2727455112682222,
        0.23132065858675419,
        0.21547569012545756,
        0.05607181289640644,
        0.10091378015626755,
        0.005351329384818051,
        0.031978970018262706,
        0.058810787839025505,
        0.08340328136295673,
        0.2965031400125365,
        0.20059876055667322,
        0.42443107308314454,
        0.23913825510643258,
        0.2281680069091804,
        0.10097606668616245,
        0.08084607108177998,
        -0.08589196879606716,
        -0.07876030709500394,
        -0.014155427651474498,
        -0.06242475833937931,
        -0.10799264789042877,
        0.08006733331035205,
        0.002784064298782465,
        0.05220976936505568,
        0.07483655434571972,
        0.13902718644709447,
        0.0908868829606314,
        0.014635653805479487,
        0.07410775835870105,
        -0.08773862232015826,
        -0.15131926542531382,
        -0.12519000523711274,
        -0.1321209325190231,
        -0.30407645373213876,
        -0.08257187000274256,
        0.06757467941714938,
        0.10404997801281153,
        0.24250438893897153,
        0.19884272429677788,
        0.19620531135887212,
        0.24159241880508672,
        0.19603831708822042,
        0.1090754782561829,
        0.02238343415889755,
        0.02538363886393242,
        0.06917379964821672,
        0.1049160473618531,
        0.021179007751373616,
        0.1016952766130275,
        0.0233846911763384,
        0.01604413905707594,
        0.08475613867295682,
        0.02046534056096964,
        0.0916522017753567,
        0.04022246102710063,
        -0.008767153350340617,
        -0.12188299225831035,
        -0.16075884438764376,
        -0.22889463591306944,
        -0.25208834826704984,
        -0.14637664045821247,
        -0.43329009929875784,
        -0.22361337409938628,
        -0.11694705061257914,
        0.02109152862165785,
        0.03451110173698387,
        0.09720878542771434,
        0.13057229774626056,
        0.07960518220840727,
        0.032272408307436364,
        0.05610696064591643,
        -0.0356122914749412,
        0.08587324561389535,
        0.03487202675882318,
        -0.04764803443496396,
        -0.036487349387331336,
        -0.024779134242104685,
        0.023550090348765755,
        0.03970824483233191,
        0.07494046336882225,
        0.04196445914999622,
        -0.0359781461350918,
        0.05028207327265066,
        -0.11792055334492464,
        -0.15703501465901437,
        -0.12970709520201715,
        -0.22651433482396813,
        -0.3225379366810129,
        -0.46230999145614426,
        -0.5387607687314196,
        -0.3208688341578845,
        -0.14723248685072746,
        -0.010219127878962474,
        0.12896903286299485,
        0.06514988518414434,
        0.08919443350023092,
        -0.07786912749541587,
        -0.08536933149107236,
        0.011507114013307052,
        0.04269633761260798,
        -0.03388910793467817,
        -0.08955496338487613,
        -0.0418522484435693,
        -0.04675151687430823,
        0.07594704852672084,
        -0.11445724113281593,
        -0.0012301103966336226,
        -0.04241319691808952,
        0.042427466810751074,
        -0.11212462052991466,
        0.06682825411710731,
        -0.14451048598110586,
        -0.010554505795818986,
        -0.1008010145925682,
        -0.18995398853433212,
        -0.2102761484897319,
        -0.21690021396641743,
        -0.17345444276804997,
        -0.11931603706281864,
        0.008835142923544495,
        -0.1083315987829437,
        -0.05978951149198212,
        -0.015658943660077328,
        0.007980088389653514,
        -0.013195568771805784,
        0.03836287236615715,
        -0.01602599004595937,
        0.04816492703687837,
        -0.03360711763431129,
        0.07678670139221018,
        -0.0016202195057209772,
        0.011960083043849792,
        0.05892985392521487,
        0.0010796933778238623,
        -0.02703260418087618,
        -0.041976272015028626,
        0.008893390334393281,
        -0.01307491483075459,
        -0.04273037274708523,
        -0.037072376807922344,
        -0.00969666399487501,
        0.0314542654859304,
        -0.029943149313437552,
        -0.035203800831077034,
        0.011705235082240702,
        0.04081114724024493,
        0.07226891174455881,
        0.06051159244885909,
        0.02372662705827363,
        0.006041826815636857,
        0.08817800095374605,
        0.04373904884247112,
        0.003090066441890712,
        -0.06677226125113252,
        0.0007256804761798117,
        -0.022585477379130837,
        -0.04431853322780317,
        0.021892635691102974,
        0.03547393218110858,
        -0.006091945463332736,
        -0.021919036349163305,
        0.07621308529526942,
        0.012529096881659187,
        -0.05849315991003731,
        -0.026773699381707962,
        -0.03250655008152513,
        -0.013876417767074958,
        -0.12508458562479938,
        -0.02569434610789227,
        0.020926459582767204,
        -0.022411764936714366,
        0.026511045033563656,
        -0.020260134650179264,
        -0.004783071099889999,
        0.025489323305081635,
        0.00422394917597326,
        0.08226969982006911,
        0.0049887377549478005,
        0.02589250590643262,
        -0.003428285136771774,
        -0.0008053220638051447,
        0.011593941501629075,
        -0.001954894396948085,
        -0.03382386446881715,
        0.06305537221930019,
        0.03420494463540364,
        -0.049263971047563984,
        -0.019428734577854753,
        0.003925438702527337,
        -0.06355677054550413,
        -0.032081877309094765,
        -0.019724696135117924,
        -0.08971114543218993,
        -0.04108088321277316,
        0.04825878178123924,
        -0.0556868868727856,
        -0.05495452186783681,
        -0.05388291720623675,
        0.008650500013724114,
        -0.08579890788016305,
        0.01417429426355972,
        -0.054925301368928175,
        0.059814719082643616,
        0.06231292627620825,
        0.12570491475674442,
        -0.05047323283436479,
        -0.012181003088834137,
        -0.010302043656121314,
        -0.016539292701340677,
        0.015064755573541384,
        -0.051183923208382234,
        0.037206893254588966,
        -0.10297121079928336,
        0.05894875906641875
      ],
      [
        0.03520699565799652,
        -0.02507814766377728,
        -0.08486661546024366,
        -0.1302403762260862,
        -0.02492003355379707,
        -0.02316516008789798,
        -0.04575756392358704,
        -0.09370794561554607,
        -0.06224083180500999,
        -0.03792868133996202,
        -0.007406357418316015,
        -0.004854294553516673,
        -0.01419533219272925,
        -0.004225646969842504,
        -0.0017165490444117336,
        -0.04274546157996195,
        -0.02847450828431206,
        0.017235816976460042,
        0.05007895745505185,
        -0.08644604129373643,
        0.010889908591743526,
        -0.019649430753237735,
        0.0422617614226288,
        -0.04258282419799135,
        0.05584100850737857,
        0.0011038411601929892,
        -0.0389837855759943,
        -0.0009370171525048933,
        0.04610876196395762,
        -0.007348615473507369,
        -0.1100525700847145,
        0.05984411757604803,
        -0.11988064687159036,
        0.007967223949713664,
        0.03889361936865343,
        -0.006532530999798,
        -0.058047749160368714,
        0.05672439064008858,
        -0.0078643443077447,
        0.09548894510787767,
        0.0042020187183047205,
        0.0007282464661630421,
        -0.040097252195484295,
        -0.1089701638967843,
        -0.04417271851511792,
        0.03238882342841014,
        -0.050525070970962246,
        -0.0652654936231182,
        -0.050854409785733884,
        -0.007896927558060561,
        0.005317007743491152,
        0.024587012614698592,
        0.010861778630148387,
        0.05343227427914475,
        -0.019335642023895826,
        -0.0063602891304464235,
        0.030520576721542885,
        -0.04857651183102324,
        0.03798077391016241,
        -0.03273997521442133,
        -0.08706071587765907,
        -0.009170047023683741,
        -0.025749777797456474,
        -0.08680606843799654,
        -0.08957521925972003,
        -0.024538818072386694,
        0.009649690601807301,
        -0.07383340120869147,
        -0.0880061955489577,
        -0.03966707433590769,
        0.03149499691779821,
        -0.023206385836164186,
        0.04193599841831988,
        0.014393296155914646,
        0.05341835696409715,
        -0.036817847529199116,
        -0.004414504273865706,
        0.020708499483725034,
        0.04637605919910018,
        -0.032542862094110676,
        -0.031314671779599894,
        -0.0012819646576267517,
        -0.050709975888035025,
        -0.07637600997809721,
        -0.030053411396822122,
        -0.03453707503741534,
        0.00035510236269498097,
        0.06587210875429803,
        0.0349291907356955,
        0.049065332992224195,
        0.01353967770834703,
        -0.016281868759422703,
        0.057771491222193265,
        -0.013530776184381883,
        -0.02980886921076781,
        0.04144388687110574,
        -0.08473919288094742,
        -0.1363060363570374,
        -0.03099498649734667,
        -0.08636266960245886,
        -0.040956319270332026,
        -0.018812996335100782,
        0.019869747125969752,
        0.03351799846799128,
        0.041823786897125625,
        0.05163681099308237,
        0.06211741896458538,
        -0.04822408741267532,
        -0.01770633451617405,
        -0.06033606395586534,
        -0.08516472037906378,
        -0.014664797792207234,
        0.028830900281976702,
        0.0006159666215386631,
        0.05178965091683277,
        -0.06725431261366155,
        0.005724009072919559,
        0.04564808607804417,
        -0.05994419560517612,
        -0.08132702511299267,
        0.038626478635820485,
        -0.06709504902339963,
        -0.009505638890208896,
