{
  "columns": [
    784,
    10,
    10
  ],
  "activation_function": [
    "Sign",
    "Sign"
  ],
  "biases": [
    [
      [
        -0.0019231608031123595
      ],
      [
        -0.04046306286042932
      ],
      [
        -0.03274418021662121
      ],
      [
        0.028507051862426632
      ],
      [
        -0.06078645591290026
      ],
      [
        0.6432644673340714
      ],
      [
        -1.0146932231900434
      ],
      [
        0.0006122007266420016
      ],
      [
        -0.6552635159960752
      ],
      [
        -0.31563036499180475
      ]
    ],
    [
      [
        -0.34600000000000025
      ],
      [
        -0.36600000000000027
      ],
      [
        -0.2660000000000002
      ],
      [
        -0.17400000000000013
      ],
      [
        -0.5660000000000004
      ],
      [
        -0.49800000000000033
      ],
      [
        -0.17800000000000013
      ],
      [
        -0.23800000000000018
      ],
      [
        -0.19800000000000015
      ],
      [
        -0.23600000000000018
      ]
    ]
  ],
  "weights": [
    [
      [
        0.010718344727625092,
        -0.015412192892854632,
        0.006340286004913396,
        0.05640140231746742,
        -0.04458186075260072,
        -0.023978371966538833,
        0.050866437385061414,
        0.01964488242328529,
        0.09258314084491988,
        0.0843628273124437,
        0.03073121258193055,
        0.03677142416175934,
        0.044716616174318324,
        0.01220631050065762,
        0.030469498812126395,
        0.043210502829023015,
        0.004008650336432622,
        0.013774393231651002,
        0.03175745819097168,
        0.0349755573138551,
        0.09088487203240468,
        0.039909547773769274,
        0.015262154759382923,
        -0.024128517925828562,
        -0.06428989735929469,
        -0.0203501424841471,
        -0.027516168924074602,
        0.03424300865755358,
        -0.03548183311813495,
        0.02483811701177334,
        -0.061571659264228,
        -0.08690265991257133,
        -0.027078296306204314,
        -0.01355652932590903,
        -0.05643746894757516,
        0.053502279765298866,
        0.0069340204179943596,
        0.01444948753532962,
        -0.022514653539808346,
        -0.07113644923014247,
        -0.08515331873818056,
        -0.08143278341910805,
        0.03816272426992087,
        -0.060819926764204724,
        -0.025726468045139922,
        0.038167934096251244,
        0.03892004276296816,
        -0.010427968841075807,
        -0.016859627286859507,
        -0.015554016203733496,
        -0.046500111192767965,
        -0.07075756822194611,
        -0.032632845636754906,
        -0.015248374791275696,
        -0.003612835841766025,
        -0.06848248354041948,
        0.037010732641168456,
        -0.019224844910578943,
        0.05870106024309292,
        0.04181115190326504,
        0.030699164280360337,
        0.007369363513753977,
        0.1221668568161097,
        0.029015104566888005,
        -0.05556152067897312,
        -0.032653134561029015,
        0.041571784185969296,
        0.07759577627482862,
        0.10466051865636587,
        0.10186313379313518,
        -0.037149626337219216,
        0.1446879073344972,
        0.1164713967945742,
        0.10481971105160197,
        0.09222333130358217,
        -0.033650342248625204,
        -0.025865920197218145,
        -0.010450704361811494,
        -0.018046271234006307,
        0.019664233515794792,
        -0.0007661500486737025,
        0.010477030372885466,
        0.005726159578135294,
        -0.03421948392725006,
        0.014462826067024143,
        0.05722431953048898,
        0.002147226565119741,
        0.04986388461212664,
        -0.004501294378305254,
        0.030148706035137616,
        0.09613502547235579,
        0.04186173815089893,
        0.2514755289377075,
        0.32251334489683825,
        0.5740686094252497,
        0.8629075454900813,
        1.2633856430911448,
        1.4328650775985836,
        1.4358151005731097,
        1.5334981885410368,
        1.1801294927056785,
        0.9262741750046876,
        0.7682413630664827,
        0.3812632524358809,
        0.1784576517416337,
        0.13388921320432295,
        0.010818268604516986,
        -0.032441762432668414,
        -0.047753520871088376,
        0.11522312169730513,
        0.06767300234621244,
        -0.04194641449989664,
        -0.0203735063891769,
        0.04067817095410865,
        -0.015098535924598002,
        0.08791626422308173,
        0.07030069133521301,
        0.028729655075321926,
        0.1337121293849391,
        0.29280657659984766,
        0.5945332141563263,
        1.0061090213173494,
        1.448225657432208,
        1.768436239722185,
        2.0257823863688853,
        2.565848279591012,
        2.7065525709810765,
        2.7385923654111894,
        2.8784212733189714,
        2.2160912523245018,
        1.4912299980849308,
        0.8349525134917114,
        0.34052187838967585,
        0.13280139469715685,
        -0.09339936448230972,
        0.05173136161428436,
        -0.042592482349337796,
        -0.0031669371810064094,
        0.01896445053778032,
        -0.03343673123353434,
        0.06525263127524657,
        -0.06574322259178758,
        -0.007632135797288898,
        -0.03857920010576976,
        -0.07514404558480077,
        -0.05174376104080396,
        0.12493339522640333,
        0.4481999386674952,
        0.9606831903769363,
        1.40168209067255,
        1.7681741557951756,
        1.9674764137531033,
        2.0501035545177766,
        1.5604984676974305,
        1.409482235861799,
        1.5103319358640412,
        2.0849909672757825,
        1.925595926777441,
        1.5062895473076576,
        1.0288067741577176,
        0.6011171697578069,
        0.2752320904478319,
        -0.07280174267294331,
        0.01677437708400684,
        0.0707593590129476,
        -0.01424143004026594,
        -0.09655718397604145,
        -0.038903050552254306,
        -0.01763297605813671,
        0.03827723013855035,
        -0.00040242203658666517,
        -0.05151825508322894,
        -0.07868442741740088,
        -0.11852453543209167,
        0.17182702468532368,
        0.5861153060877194,
        0.7800388466674796,
        1.0440994469367253,
        1.0300417787921086,
        1.3670778546505384,
        1.1322590083358675,
        0.5909567991587054,
        -0.14660550775186554,
        -0.38962643566957555,
        0.30167531111004764,
        0.9316502937227255,
        1.2605707714170404,
        0.7297057099443188,
        0.561487997123932,
        0.11374725038562856,
        -0.035190831898216174,
        -0.010773604126124643,
        -0.08193159155879397,
        0.017452413676830526,
        0.011898993470034775,
        0.02504037448941008,
        -0.0719849067702268,
        0.14026522030883654,
        0.07591944045708422,
        0.046976227611860225,
        -0.09301213767055515,
        0.08772880768043824,
        0.43237050856689996,
        0.7170259990593203,
        0.9157577138941541,
        1.2809353095457214,
        1.5718340950176573,
        1.522840968772201,
        0.7671269153220067,
        -0.3603169142065177,
        -1.2931131584039477,
        -1.3402091726975862,
        -0.5193480510846321,
        -0.011591694594305419,
        0.681210698760914,
        0.7048413666937153,
        0.5177168246547326,
        0.047579414428725944,
        -0.1421192319372721,
        -0.08354411673379362,
        -0.060201974447691306,
        -0.07655540319436398,
        0.0374603728829251,
        0.010640567164038004,
        -0.037398206879468335,
        0.058164019874957965,
        0.08747759263183656,
        -0.07476908448141283,
        0.018930719821434818,
        0.14710004951730027,
        0.40444951540561047,
        0.6794933043085641,
        1.2540164180019118,
        1.0811132243625294,
        1.270078080448831,
        0.632405936395558,
        0.08050406342168602,
        -0.7858526122979644,
        -1.6005688733303196,
        -1.6990346868830808,
        -0.7123601189566241,
        0.279517198558238,
        1.0903552417880509,
        0.9727054636261901,
        0.7610085100265792,
        0.024210602451032258,
        -0.1759732679928847,
        -0.03345440489931929,
        -0.049556335931947415,
        -0.04013267913632282,
        -0.07784499270725141,
        -0.04453059082402838,
        -0.0730107970045389,
        0.00761935616125487,
        0.020681706196216544,
        -0.06067208472835475,
        0.14423246278651808,
        0.33581405178828905,
        0.3572366473057814,
        0.5937334717262005,
        0.7233606677988337,
        0.5732337080576514,
        0.16780100565123213,
        0.09162020135169345,
        -0.37799428618300446,
        -0.9595551209574228,
        -1.83224277094092,
        -1.8471900381933164,
        -0.6018271308091921,
        0.8316315702036622,
        1.6653582900612491,
        1.4262045685324631,
        0.9978443644784752,
        0.21308780590224502,
        -0.021328741496568993,
        -0.30722103022125535,
        -0.14270955990543457,
        -0.10008855415406369,
        -0.02824261093068184,
        0.025800222497105056,
        0.06338177233316916,
        0.02468836473045328,
        0.060391501556328414,
        -0.06881611942125525,
        0.04302477443178275,
        0.21427189271653274,
        0.056616789395955436,
        0.04863203809962309,
        -0.18990037567427326,
        -0.5267581110808978,
        -0.9600833225478048,
        -1.0045844763313556,
        -1.0135557200063465,
        -2.076630508618141,
        -3.2838170117815406,
        -3.0690491607407293,
        -1.4379205100581043,
        0.9813238938870801,
        1.7606122352283706,
        1.6944818693968426,
        0.8725690696930087,
        0.18153277004874707,
        -0.25203613283373194,
        -0.3584517191213644,
        -0.23565101443255237,
        -0.0561522760413016,
        0.07101030027809678,
        -0.08571193213579671,
        -0.11553119316572542,
        0.006439466780784833,
        -0.029614516032916982,
        0.05187761185701335,
        -0.011765709225458162,
        0.12063424963002121,
        -0.26836288116510354,
        -0.5992255761192838,
        -0.8981599523519869,
        -1.5097699997262923,
        -1.8771597292765305,
        -1.9099941018005953,
        -2.450638863464503,
        -3.6902570062113456,
        -4.761331370749312,
        -4.017930129968167,
        -0.990646599103484,
        1.3100788520539481,
        1.9557578794627823,
        1.794526946314149,
        0.8153318756201168,
        0.027400785563371017,
        -0.2575397128252187,
        -0.3488384908213773,
        -0.21923825718782652,
        0.0059519873927205485,
        0.0925238204365492,
        0.029368809380423046,
        0.01743824106639499,
        0.04922650600708632,
        0.030658166053265015,
        -0.015331284561248135,
        -0.07939602583165041,
        -0.13787697318034295,
        -0.35193147994291984,
        -0.7875905654202605,
        -1.6008052703540607,
        -2.120766050677566,
        -2.610074255282901,
        -2.872234632283179,
        -3.5084991366304616,
        -4.867145049417264,
        -5.683155316024292,
        -4.064822733190172,
        -0.8790751319866349,
        1.069233077350165,
        1.6352061689445727,
        1.1821151042392497,
        0.7359308490609368,
        -0.1794493392170622,
        -0.44895353907143143,
        -0.279111440199593,
        -0.11626584118524373,
        0.04904197728899842,
        0.001297148404459442,
        -0.1283718982130765,
        0.034767908418156065,
        -0.05011073010947793,
        -0.0033021704233866748,
        0.1224375938759541,
        0.001516879338400129,
        -0.38287052346643424,
        -0.47141953131593173,
        -1.0657068059203227,
        -1.4063867149603597,
        -2.060191643610847,
        -2.466052927460747,
        -2.9326658023919925,
        -3.5650553009501764,
        -4.977737458450983,
        -4.864211976652699,
        -3.3031118452857275,
        -0.33264669080159626,
        1.1338303784112473,
        1.2847402310574285,
        1.1404512926470503,
        0.3178455079970617,
        -0.152899097285617,
        -0.39812363443654375,
        -0.3764048347080283,
        -0.1953423684371724,
        -0.03494020226606849,
        -0.03637261226053676,
        -0.001497496380684773,
        0.0282015636114258,
        -0.026456830117536828,
        0.10118786980687737,
        -0.02014556149585637,
        -0.021720001562401288,
        -0.3522453059499113,
        -0.6371767006058752,
        -0.8169193640170763,
        -1.2467021921760537,
        -1.3764284120229542,
        -1.1953448279187415,
        -1.3287873528974719,
        -1.7547740552640088,
        -3.1196336817945407,
        -3.12391082065566,
        -1.6519952746444195,
        0.9526151567355049,
        1.3133905168561966,
        0.8585931694285921,
        0.3443525453892855,
        -0.09140805884898794,
        -0.2700682823329177,
        -0.4602345237059362,
        -0.3418251830033239,
        -0.05968250255307446,
        0.03852135897408557,
        0.08468225512193421,
        0.02072591782802629,
        -0.02301761069640844,
        -0.03176264459788508,
        0.06918019011218733,
        0.05776430270226547,
        -0.005696321924535808,
        -0.0969981073255234,
        -0.01886772687948384,
        0.033570367489705155,
        0.1677216296094844,
        0.5061886579207814,
        1.1414474775964956,
        1.5422368978705414,
        0.7013205626780775,
        -0.5349986901692013,
        -0.7939559881820534,
        0.2976707709963805,
        1.995421806837689,
        1.603595040777726,
        0.6477962432864764,
        -0.11528637681883425,
        -0.4562056774400016,
        -0.4277714042464913,
        -0.39790587227022756,
        -0.09042153623075337,
        0.06679853615126825,
        0.1504287452796631,
        0.02703743936672369,
        0.017759519786454254,
        0.033342631636556604,
        0.07051289224259798,
        -0.020418583412993165,
        0.012242577039550286,
        0.14251971038407357,
        0.2805588582677271,
        0.8265488665701107,
        1.1886735802587378,
        1.5236832473470332,
        2.518967217028369,
        3.122457230863757,
        3.2181509106509707,
        2.5494937647425098,
        1.9432963641468515,
        1.3680911054517897,
        2.4404750317680155,
        2.4402172673872538,
        1.4892815954050578,
        0.541837753063153,
        0.005304126013764551,
        -0.26511118956836577,
        -0.19831192234836736,
        0.08630753643818671,
        0.19754263952703915,
        0.2916607300455263,
        0.2008828292314131,
        0.028255055571742033,
        -0.0025703433207417883,
        -0.0013335422653279023,
        -0.04312564379520316,
        0.05227120546741312,
        0.15693651431559913,
        0.37456697320564447,
        0.9293183818467979,
        1.7234139804240476,
        2.2876202688689666,
        2.915670232696569,
        3.5360521575092787,
        3.93189443721305,
        3.7729346345349204,
        3.566051963841336,
        2.507410013722289,
        2.4734820766840304,
        3.1245928409245223,
        2.755035451729093,
        1.580436483307242,
        0.5507235361270165,
        0.31356353530792025,
        0.5106930568135447,
        0.6830587456947556,
        0.8929656540232761,
        1.0484849400121632,
        0.6806168066331878,
        0.32684903325644177,
        0.04104506450962993,
        0.028398296950774202,
        0.026858955688666676,
        0.027605783795624984,
        0.014923533060956678,
        0.05958266626588296,
        0.7199581695081728,
        1.2593986568083948,
        2.104887891294499,
        2.8480357925205864,
        3.359708577576469,
        3.72153114100827,
        3.9805487092480503,
        4.096268737358869,
        3.4443339581022143,
        2.6851028883583385,
        2.6643363050987365,
        2.7481430308950885,
        2.623255438669418,
        1.6158085091796197,
        0.9557934976271997,
        0.9547113867601774,
        1.7312150351799889,
        1.7384952431449623,
        1.6083334780253877,
        1.4843593582864112,
        0.907256122956683,
        0.4232662420788813,
        -0.02331636074770542,
        -0.04062411127959306,
        0.026644814472267582,
        -0.08302629293905393,
        -0.0068517895560944505,
        0.16519916061615192,
        0.699222841890783,
        1.4681345451774632,
        2.2942050682363844,
        2.9578252789340502,
        3.631992214658125,
        3.873048315971426,
        4.294516428119142,
        4.159986480073976,
        3.4693921466929925,
        2.555341532917755,
        1.9600962406554014,
        2.036862292476305,
        1.5616433889505839,
        1.5985400046823734,
        1.39127045802261,
        1.8215850326238314,
        2.403253897310475,
        2.541552389477826,
        2.407910986180711,
        1.970791032783148,
        1.0014203896957192,
        0.3559688286091721,
        0.0765262803783587,
        0.05184313501331267,
        0.029512331750737707,
        0.04487123540724171,
        0.00174578718604406,
        0.11163522615112105,
        0.7075909784844753,
        1.5300960101929024,
        2.1146591141540907,
        2.8861891751990667,
        3.390810049677231,
        3.8032151172881346,
        3.8895303914135417,
        3.331377287892718,
        2.4713546815402014,
        1.343154298324392,
        0.6217901234959325,
        0.6437476115682398,
        0.22587946557087107,
        0.6604419599053556,
        1.1665773752544977,
        2.0641622878646846,
        2.4365755602890724,
        2.5278278782875305,
        2.1463168037055578,
        1.5162245027364185,
        0.7200431629211598,
        0.25310733540170666,
        0.02669139896229155,
        -0.015004899554227968,
        4.1858456424379145e-05,
        0.016370240655778894,
        -0.031377063216788154,
        0.14284551639317045,
        0.5655190792937751,
        1.0287375729134878,
        1.5118180152267553,
        2.1839819876642657,
        2.2845334398258026,
        2.3202862189600446,
        1.9074042794657258,
        1.3255758713606256,
        0.42588469627184866,
        -0.8118785858393375,
        -1.399629067381782,
        -1.6233563019542614,
        -1.0830691264597143,
        -0.16232496786200235,
        0.8160677314253705,
        1.3362521614959504,
        1.530500701589082,
        1.538066269182333,
        1.3087091318506268,
        0.7694243859081019,
        0.31180782686043007,
        0.03615653010351884,
        -0.07937285407339394,
        -0.07962072169235108,
        -0.002766599966247195,
        0.10095589584057173,
        -0.021986742908739053,
        -0.015488900724528815,
        0.04059176447726909,
        0.3903697761735153,
        0.5805102760401518,
        0.9391100040725054,
        0.8103492374341136,
        0.5891668234419641,
        -0.33954447690872847,
        -1.3417824603200397,
        -2.227722608807931,
        -3.0993373989152224,
        -3.1569529775559917,
        -2.9726059278312813,
        -2.266701271911072,
        -1.1287970554521989,
        -0.22422242159228792,
        0.4774749560539294,
        0.7383986433090596,
        0.8810959295431177,
        0.583238784512062,
        0.36529202178401954,
        0.13176772012522858,
        -0.009700015567438066,
        0.013073780873818852,
        0.06439835138986649,
        0.045363636095980264,
        0.05654981528398938,
        0.05467595588709223,
        0.0034382709781442724,
        0.04273701408982268,
        0.06931254299024629,
        0.11414557714106321,
        -0.26501024319790223,
        -0.3248887290254934,
        -1.1435795952244359,
        -1.7269286813891354,
        -2.803886083477916,
        -3.5328522644328912,
        -4.088054104349174,
        -4.066323180982168,
        -3.2379748830465647,
        -2.3093562527522997,
        -1.154162193776601,
        -0.1513450156478759,
        -0.015957259602078402,
        0.2472872462160512,
        0.18960089577187966,
        0.16387306217605058,
        0.06672160831966538,
        -0.007170839658017401,
        0.040659105149241134,
        0.060528909512086226,
        0.023349246398956934,
        -0.03000152583247273,
        0.0286022346668235,
        0.050655322993478274,
        0.025315913868206752,
        -0.02799584086084489,
        -0.08770416863665635,
        -0.1544828110563854,
        -0.3080841616007898,
        -0.45050796805307514,
        -0.7287733066045933,
        -1.0002211006668331,
        -1.3168410567374278,
        -1.6749067688127313,
        -1.7122996957719394,
        -1.472298276057003,
        -1.098351415468895,
        -0.8513513729705376,
        -0.4228187759248415,
        -0.23381671203751309,
        -0.13754916262077,
        -0.09545435683304619,
        -0.06222279000806322,
        0.08926478049913862,
        -0.014121284746672774,
        -0.040258836361382666,
        -0.010452209973639949,
        0.03617981377960079,
        -0.08966592839680938,
        -0.06026515007235646,
        0.08562387052847968,
        0.056305229198176654,
        0.03481656507842673,
        0.03866407961849004,
        -0.02746642857569296,
        -0.029672608047455654,
        -0.11771974761652292,
        -0.07308444899325352,
        -0.06904560482838162,
        0.05527783661385152,
        -0.1145946947016347,
        -0.020472289069836364,
        -0.13225220369403942,
        -0.16100605747793983,
        -0.04030980982051906,
        -0.12892835872273112,
        -0.21831738061306677,
        -0.18947911110134424,
        -0.08469142143726559,
        -0.13470570632468992,
        0.01565542598033751,
        -0.04873304921183895,
        -0.01786813625223366,
        0.03180759184440484,
        -0.013581623438035293,
        -0.08669266569491109,
        0.03559372147299149,
        0.06353688266651453,
        -0.013771297290258246,
        -0.013988703057538885,
        0.05432069398081428,
        0.09127515569924834,
        -0.09268729900197796,
        0.12220251348518191,
        -0.05171762961286917,
        0.015882920646301184,
        0.10510707869776194,
        0.08266551783749045,
        0.20541046030475202,
        0.1336677873174944,
        0.12699824576418245,
        0.16244085456990626,
        0.1460197902144153,
        0.0775055792854596,
        -0.08455383883101535,
        -0.13784853389078072,
        -0.029996100904851053,
        -0.04219750799356811,
        -0.05260572466356077,
        -0.05992200472822136,
        -0.10876993228056774,
        -0.0534849943304687,
        0.04747619239061765,
        -0.04740779979257512,
        0.10547754424842297,
        -0.028935111919774062,
        0.04707478213150931,
        0.0008298836915839606,
        0.03533096067529462,
        -0.003967829221447061,
        -0.09587849210887993,
        -0.03525360617948824,
        0.016067310579844844,
        0.06387234762414526,
        -0.1245782661652687,
        -0.038963234373517924,
        -0.027613349385563632,
        0.001609084867716053,
        0.051478282206845916,
        0.023813803649079653,
        -0.011746300644663626,
        0.07121971470504455,
        -0.043165140420168516,
        0.05215070723803743,
        0.10548438726914951,
        -0.0064398162631488735,
        -0.019018005533072438,
        0.06567453614859932,
        -0.031493958844211245,
        0.047361614988102846,
        0.010359793323112326,
        0.03384885702158568,
        0.025221395436767324
      ],
      [
        0.12165100669839105,
        0.09817429102030831,
        0.0014216418916861984,
        0.040518231012629774,
        0.06613224271933749,
        0.08033988005628812,
        -0.04271249917111815,
        0.03600052143709158,
        0.01434086225702694,
        -0.03538462854450028,
        -0.007721185336540348,
        0.08580818539757523,
        0.05613788900221427,
        0.11370014065808312,
        0.11986472897721343,
        0.14381504508302578,
        0.022366686092785207,
        0.01846575948741476,
        0.014722813378108997,
        0.04966579024588093,
        0.010904302321843883,
        0.08312903740590827,
        0.03202069265943895,
        0.13316582135214006,
        0.025453418068700787,
        -0.04294997077534762,
        0.09925816897466333,
        0.018685985533037124,
        0.06826514831151603,
        0.050270171301815145,
        -0.022143606483545478,
        0.08778365604342614,
        0.034495893287480484,
        0.026156797106312038,
        0.009809793531421855,
        -0.05467346139290931,
        0.08646705009369918,
        0.04473919686180053,
        0.08258612557984624,
        -0.047008066222254646,
        0.02930794828807823,
        0.05537158545160681,
        0.003229298201736062,
        -0.039932746655843496,
        0.033802710980816636,
        0.08266147406132976,
        0.03402631016546302,
        0.008822092510544942,
        0.03976330207647434,
        -0.027513298520813793,
        0.135450117643031,
        0.05422894504176472,
        0.11450770101779054,
        0.029084384852466165,
        0.03784720213304753,
        0.04546417309799128,
        0.03327574529673746,
        0.02989498696595417,
        0.05583082272397616,
        0.07699958366846288,
        0.10004965752129816,
        0.11351143657862273,
        0.006837884011663039,
        0.1504218650771152,
        -0.016726644169694375,
        -0.13698327599499394,
        -0.04998463435838686,
        -0.17999313626678504,
        -0.2110828518247781,
        -0.47089570033519274,
        -0.6705209963730892,
        -0.6248881992086113,
        -0.8521339332682891,
        -0.7842708139939496,
        -0.6462193380544825,
        -0.4044325909937369,
        -0.28827590866041614,
        -0.18927560616869527,
        -0.114411802185104,
        -0.022614428647321064,
        0.013504739826925485,
        0.02535067374825229,
        0.01499006105565464,
        0.050949745745076755,
        0.024109730214061285,
        0.06983144259919036,
        0.05793658465094732,
        0.06138258869760474,
        0.024525838442800506,
        0.13801303273388393,
        0.08335061385679254,
        -0.0603088760328808,
        -0.05165847400397529,
        -0.1756415090930883,
        -0.43837347031664414,
        -0.5812691365827876,
        -1.0104883411873713,
        -1.5364068819517074,
        -1.6454889390234169,
        -1.8916099933292603,
        -1.9045154974855285,
        -1.779565368217208,
        -1.7308209905384346,
        -1.138989081603128,
        -0.7498122725088068,
        -0.5469195653701375,
        -0.12496583813989268,
        0.050074254146241615,
        -0.009478139293985713,
        -0.06069733517030596,
        0.0785973323209257,
        0.04603151763088663,
        0.07505473890254435,
        -0.05732810182100615,
        0.036808904380115456,
        0.0380917421303123,
        0.05451917641369214,
        0.04332349418204136,
        -0.11471395217602126,
        -0.21350757927834063,
        -0.5029122545497586,
        -0.5301968516015574,
        -0.7674166406196321,
        -1.3417442325637674,
        -1.0585124992534225,
        -0.32369550946696674,
        -0.5572161338222734,
        -0.3504727758918637,
        -0.34980039900276066,
        -0.3166646106177206,
        -0.4621538291042188,
        -0.5530413916853312,
        -0.867734430499562,
        -0.4530459513097996,
        -0.5661414079330329,
        -0.4051316884079866,
        -0.11853618083002321,
        -0.04448205900319019,
        -0.005727605761815571,
        -0.005725738180775172,
        0.0406943106502409,
        0.032285152120198,
        0.04836310747256635,
        0.10463069729643737,
        0.1085265564269888,
        -0.018917310682322303,
        -0.3134007568289395,
        -0.5472615518153794,
        -0.9660654673608842,
        -1.2502333662267888,
        -1.466154543022015,
        -0.8983629339854979,
        0.06218989031870914,
        1.0222442876225393,
        2.1662272966374525,
        2.343337247021724,
        2.706752651630115,
        2.3537023313575522,
        1.9115587265191907,
        0.26197020686745287,
        -0.5326118816093686,
        -1.035669580342803,
        -1.2237604435399372,
        -1.0236176753595647,
        -0.3719974353657321,
        0.0030309094239013203,
        0.13397090327438144,
        0.0910075822678181,
        -0.05337957001804068,
        0.07915237697722366,
        0.09451558234018584,
        -0.025949293172769637,
        -0.09720137034225501,
        -0.06564075957226712,
        -0.5524031975472012,
        -0.787101317062886,
        -1.2362842601953121,
        -1.309266200574869,
        -1.1036522065070815,
        -0.7154008780460863,
        0.6189584930663123,
        1.3930382407107567,
        2.6716767144180533,
        3.6327296711853085,
        4.517052526980405,
        4.785330346892178,
        4.547559958121157,
        2.6560148889292376,
        0.8232015276348139,
        0.15315759589738867,
        -1.132173958844439,
        -1.3188186371450328,
        -1.0508122273414902,
        -0.08684241025099207,
        -0.06408593648600891,
        -0.020183858338845936,
        0.035245506652638744,
        0.06003919757148152,
        -0.06934354363261463,
        -0.02665685845011758,
        -0.10523125728163107,
        -0.20066896436332526,
        -0.553241520075779,
        -1.012626311685053,
        -1.1095648918209737,
        -1.348880540166251,
        -0.6238084258692682,
        -0.1656067461065595,
        -0.12872479597640793,
        0.9862942871670473,
        2.404912389389616,
        5.129119780498249,
        5.506820068930986,
        5.8949007023003475,
        6.633193048934194,
        4.862854462768274,
        3.567239961833625,
        2.5247665348722848,
        0.6541206416727037,
        -1.3110578522179133,
        -1.2245844171074947,
        -0.40869298092403245,
        -0.09120947174919503,
        -0.10687075495093204,
        0.02467292008637919,
        0.11424325293178403,
        -0.11830639533467333,
        -0.08477494160950683,
        -0.13590214538941742,
        -0.490152829963974,
        -0.9103359653977061,
        -0.6313911445442264,
        -0.7748877779208314,
        -0.4419926265776674,
        0.038811299649925676,
        0.42306326659592935,
        1.323163157121961,
        2.5914637988474603,
        2.3092064517126243,
        3.4617444727078626,
        4.855089976639804,
        5.993548998767031,
        6.719414806636157,
        7.637357562968508,
        7.411306858815884,
        4.997847245612794,
        3.4355700424834907,
        0.7050575658813159,
        -0.8698314743816427,
        -0.5940057875435747,
        -0.1058126656944558,
        0.08304697167869993,
        -0.1020177546890225,
        -0.013948937398284017,
        -0.06477796281947976,
        -0.2061902393851051,
        -0.2584628145747678,
        -0.7035310550748126,
        -0.3207043297497077,
        0.3092839804842043,
        -0.24636784945733273,
        1.0533867181824401,
        0.26557454198019875,
        2.0167098142655733,
        2.6159706806572087,
        2.1728833329434973,
        2.112554008765318,
        2.2451887159874877,
        1.7586966298366127,
        3.31395189444353,
        5.37879277250564,
        7.696225701735065,
        8.54530008997844,
        7.928849062443788,
        5.930208922458487,
        2.322344510714029,
        -0.425727543669939,
        -0.4729452077526026,
        -0.08575049973001295,
        0.03216146337033357,
        0.03182728708655577,
        0.04477199318457788,
        -0.0043211841121605175,
        -0.17961274196660154,
        -0.2521160486718051,
        -0.1763279398112642,
        0.43791522966025237,
        1.5273131036788719,
        2.031176899707796,
        1.023665479359314,
        1.9423480066167051,
        2.479563835349345,
        1.728508547852855,
        1.7173387040255412,
        0.947553167457948,
        -0.7170728806300779,
        -1.9462551639366072,
        -1.0429280665321075,
        2.005749219760582,
        5.468610067664659,
        9.157445782448812,
        8.941868123933027,
        8.382988572576535,
        4.524856626712388,
        0.9235041471594976,
        -0.28727798366979235,
        -0.12974814690078507,
        0.11174470534228265,
        0.09810648534624136,
        -0.007277050542701341,
        0.053377901681070816,
        -0.06377128802505344,
        -0.1571722012137861,
        0.551577140189293,
        1.9542515771403142,
        3.399206030542376,
        3.6735207199669997,
        2.4066320314880922,
        2.0057842397980785,
        1.077379059735423,
        0.7689489163292031,
        -0.6649705047920049,
        -2.353352286319505,
        -4.568723720650719,
        -5.023463174240739,
        -4.715774914196049,
        -1.704628359869765,
        3.074955513484201,
        8.36368905873503,
        9.561585692563542,
        9.563656232308338,
        6.045132453964995,
        1.999448524522032,
        -0.06730096422997497,
        0.08278372605017278,
        0.09456058052415053,
        0.10319270767789396,
        0.10092390925407663,
        -0.028567945465850418,
        -0.0009648203489430358,
        0.044512568445291764,
        1.3983198636649503,
        3.497292172570253,
        4.998728441462605,
        4.4491765025998875,
        2.6892632918337194,
        0.846964338029462,
        -0.648386563520136,
        -3.1294109273441437,
        -5.322661536617012,
        -7.982498087980247,
        -8.828774101797702,
        -9.391752231919817,
        -8.535784746040525,
        -4.593701534326295,
        1.0769161931725668,
        7.376657326281381,
        10.212865594583286,
        9.942643576789662,
        6.639392408524284,
        2.5194624952719007,
        0.07589273687169118,
        0.11516050898904742,
        0.07019039772402985,
        0.11097808789667007,
        0.019146341231431434,
        0.051515840214481426,
        0.02824145314185194,
        0.36694038419251535,
        2.3008852592896356,
        5.9390898671769925,
        6.387326423748078,
        5.871080129519966,
        3.6028496123163087,
        0.4169485754179562,
        -3.593595937272977,
        -6.383938924583665,
        -10.235629688093583,
        -12.106594878257134,
        -12.546951091333,
        -12.98707309919599,
        -11.760238392916278,
        -7.2865206079273745,
        -0.6171072757581115,
        5.99462272917457,
        9.6775380797217,
        9.781292203169118,
        7.037275767048953,
        2.27602711315207,
        0.05355962534649977,
        0.09351116960415792,
        0.10272193504726534,
        0.07365777247457903,
        0.09946737078697229,
        0.07482490883223927,
        0.05249250597649921,
        0.7445843612747833,
        3.876380996891432,
        7.244637388849808,
        7.716303263840713,
        6.656539315611849,
        4.121975053928489,
        -0.42764014782367443,
        -4.5368098819519656,
        -8.824799173767813,
        -12.1593370690495,
        -13.521118392092168,
        -14.295303808208198,
        -14.685662237284031,
        -13.051888806288744,
        -8.242869606347575,
        -0.44768615050283056,
        5.494288709957921,
        8.616926490562735,
        9.078943411469227,
        6.0646264972341015,
        2.030941161783717,
        0.1590997364927877,
        0.06951221763240527,
        0.10824653660605141,
        0.08946483484875103,
        0.04975146500832364,
        0.026928925663354635,
        0.06006001863726783,
        0.7411563078053585,
        5.371766723102037,
        7.949901134771007,
        8.621045975905242,
        7.512209180083329,
        4.4122833094889975,
        -0.5694242682148998,
        -5.289977124864307,
        -8.66689895466708,
        -11.024548106774596,
        -12.381766264475893,
        -13.009752045659232,
        -13.104231283326019,
        -11.348910352092897,
        -6.7741349206579855,
        0.8321431427877901,
        6.077537281524479,
        7.03920702092118,
        6.794697798672134,
        4.565157059532757,
        1.6884620881667172,
        0.09703266701696844,
        -0.031967011490729225,
        -0.03285521300272702,
        0.020945155714839014,
        0.03077339419208587,
        0.012500631616177212,
        -0.009528902784595296,
        1.0847135535967254,
        5.793801687811794,
        8.344712870939725,
        9.222762062971148,
        7.8865260396982775,
        3.728085171436316,
        -1.0236093608072665,
        -5.232635960524247,
        -7.928891025231951,
        -9.737133076258257,
        -10.754041553279949,
        -10.983874911135713,
        -9.837466073458137,
        -7.905802657914366,
        -2.728396907668425,
        2.0294315974352752,
        5.025095069472204,
        6.356976624863177,
        5.010244599032322,
        3.1297635733717764,
        0.5946894031645444,
        0.06904247181163337,
        0.02551372562209609,
        0.04765060557695458,
        0.14255153567904616,
        0.13946357607237253,
        0.05354517097783677,
        -0.046100159833569826,
        1.6570852131009193,
        5.685773558563049,
        8.258009546907303,
        8.78846541570538,
        7.338240766090171,
        3.389871781027159,
        -1.715263942447941,
        -4.790912613483151,
        -7.343018659566311,
        -8.01786882056223,
        -8.648440862537974,
        -7.664519422321162,
        -5.554805373107662,
        -2.5165922660146296,
        0.5328411953376225,
        2.0768598597026995,
        3.694663128760654,
        3.9359236163429836,
        3.1250380032410137,
        1.8434615959439677,
        0.16211330128538248,
        0.05637820437844629,
        0.14995844577433948,
        0.10583165487612842,
        -0.0034929697288858495,
        -0.016518365656293006,
        0.10148929387188399,
        -0.19401432546338826,
        1.0658253804839088,
        4.921129177102155,
        6.976623797054858,
        7.888660625037519,
        7.34516836542298,
        2.956478943206826,
        -0.37421349470070453,
        -4.223627123783577,
        -5.479492083400821,
        -5.552085603602363,
        -5.098653817492517,
        -3.9122399359353794,
        -2.0256375440392445,
        -0.05196302896783373,
        1.5752367407713133,
        1.661808182324145,
        2.3908535859208264,
        2.6422897667174157,
        1.9858863673948883,
        0.5353411842147262,
        -0.226278633247243,
        0.02502580593135583,
        0.03947005547606021,
        0.04016309251986161,
        0.05647281294906166,
        0.036628634216945094,
        0.02396222349918574,
        -0.2993895864171558,
        0.537469388331911,
        3.353873086538065,
        5.362040986932507,
        6.398686405050429,
        6.469546067972179,
        4.473758489275675,
        0.4685427315724378,
        -1.7822240240990574,
        -3.100220607145528,
        -2.7077769034240884,
        -1.9085076014620184,
        -0.7393801347839619,
        0.10185029079433477,
        0.6658712490091767,
        1.1413740634894272,
        0.5643715568691421,
        0.6790726615723128,
        0.7313042880954448,
        0.8132659660614707,
        0.21274321249334754,
        -0.22258240490745262,
        -0.056656986257445564,
        0.05617162606936006,
        0.048718837515265,
        0.11706449979740832,
        0.07272020330968954,
        0.015470501281483567,
        -0.25980468490553227,
        -0.24947661389215223,
        1.7119341893292475,
        4.057699332148139,
        5.949526650778507,
        6.311478204135443,
        4.515077433724773,
        3.274281033061528,
        1.2292817640568188,
        0.41465383081785406,
        0.27574694019999435,
        -0.4062797896644617,
        -0.44134405345453204,
        0.08573125171915064,
        -0.0922990228556004,
        -0.09992467096188126,
        -0.1259649088696857,
        0.5901844673599141,
        0.2948807369118847,
        0.3397127089585397,
        -0.27932936856249785,
        -0.05956336803269247,
        0.04881472113671667,
        0.06958597244596681,
        0.23278973588112606,
        0.07609871122495604,
        0.11083799285084706,
        -0.01147687592805084,
        -0.0099815717651998,
        -0.4515184138512874,
        0.530158185605153,
        2.2432796934027968,
        3.7658039380515644,
        5.603898840423076,
        6.312866601908979,
        4.941339138839893,
        3.3048624770344306,
        1.8010278778902482,
        1.1513347003305479,
        0.5490370872306909,
        0.11678592448714042,
        0.401055380232125,
        0.05016932960035002,
        -0.0332475226520821,
        0.12647250366583582,
        -0.17785065599853406,
        0.08852428942759155,
        0.016364732936687245,
        0.0723529016683307,
        0.022431805479776946,
        -0.002902311050722712,
        0.0013751992544253702,
        -0.015314361980910551,
        -0.023447575504129917,
        0.034944839390321766,
        0.11043134746799926,
        -0.1449799828535578,
        -0.28036972379319924,
        0.06150891908459817,
        1.108408366931151,
        1.9256750219833048,
        3.6269357712154218,
        4.446917140457433,
        5.765668639318853,
        6.271740266290743,
        4.411557529653072,
        3.7129020157374493,
        2.6546427929860776,
        1.6733805989457717,
        0.5389696804648147,
        0.019219949891546437,
        0.005697848991892595,
        0.11442176822459302,
        -0.03823846277258816,
        -0.0028749965930188713,
        0.05423470382350752,
        0.004960422103066687,
        -0.003300426047537341,
        0.05383326463763617,
        0.04162214091176779,
        0.03517770758044786,
        0.001013101048110067,
        0.06791407805407218,
        0.04331776225543245,
        -0.009674275450887572,
        -0.10093663140565176,
        -0.22008200623982632,
        0.2380065594191707,
        0.1793384895417826,
        1.1304466672594826,
        2.506718506871553,
        3.156512492160842,
        4.2246297358922975,
        4.437831505232317,
        3.194341929889826,
        1.7669244520603933,
        0.7014548105476386,
        0.05737726903191949,
        -0.03607130447007707,
        -0.08439626399203029,
        -0.3144207405382315,
        -0.12672120218551092,
        0.02840675135563217,
        -0.0021014629332791815,
        0.023051332658714986,
        0.05121594464761316,
        0.011223173132394956,
        0.13006467606036284,
        0.07553061918753845,
        0.08083803045019974,
        0.017571738464576263,
        -0.05737759945347249,
        0.047416148257285684,
        0.001763993503689434,
        -0.058930335992273965,
        -0.31771288932352787,
        -0.34862959824160084,
        -0.70920944920791,
        -0.3974235539634608,
        -0.430597158008523,
        -0.46124247036959726,
        -0.024957441299253307,
        -0.3777807003928482,
        -0.43782721346668957,
        -0.6389883939862555,
        -0.6702601280789522,
        -0.3972410716752323,
        -0.25284847725955045,
        -0.22964958944895453,
        -0.11728009696655778,
        -0.08165012435198485,
        0.0016797981337763057,
        0.04381120311189601,
        -0.020424443001028816,
        0.07732108556856077,
        -0.02577751337123641,
        -0.058433651189925086,
        0.04866050547075938,
        0.06144378392593344,
        0.0151401950237985,
        0.018224999400213646,
        0.01286903683910385,
        0.04852558487644687,
        -0.02499878763218332,
        -0.1257318917433362,
        -0.17903144316726544,
        -0.30873903932563146,
        -0.5113145559537222,
        -0.6250877104880181,
        -0.6923066186751137,
        -0.6619803223891219,
        -0.3722909556822887,
        -0.30239963858646196,
        -0.37652214117740895,
        -0.34976030018731324,
        -0.09529772963357425,
        -0.03638940428435335,
        -0.003947291670449356,
        0.03067451199990133,
        0.006149796991350158,
        0.06140412896646766,
        -0.034958579156910086,
        0.06187602425723662,
        -0.0010978508788060393,
        0.04178123799333566,
        0.042714135090938965,
        0.1130285918262948,
        0.09985737902019168,
        0.03551498077385258,
        0.019800148382588388,
        -0.002714854312888128,
        0.08234601734470082,
        0.03204531606514106,
        -0.05962559719307745,
        -0.1361657214958309,
        -0.1719815482927537,
        -0.1992989994999691,
        -0.23437975964648267,
        -0.18483403538787074,
        -0.2185207757472632,
        -0.09142453429300387,
        -0.17696771285991247,
        -0.11273154044549799,
        -0.08879479063934786,
        -0.03378098172509414,
        0.03473204653583355,
        0.05670162756921049,
        0.02365437197173082,
        0.02823984670149559,
        0.0736994406895437,
        0.03604693890969243,
        0.02648680139872061,
        0.08242820863469,
        0.013344244779114087,
        -0.013239981219328517,
        0.02667103217262292,
        0.12369714375036814,
        0.07998308020633643,
        0.05023765932220804,
        0.07458103198409777,
        0.10517983535108072,
        0.006402658783529662,
        0.04515976933708629,
        0.05609161803509928,
        0.031881792350738306,
        -0.04407790119136734,
        -0.009398596891097703,
        0.06288612969318932,
        0.008031514775412819,
        0.17399271029684193,
        -0.030582463447202897,
        0.00940097469804525,
        -0.036383965045201444,
        0.016074354253086794,
        0.029390672339534497,
        0.00909104548429873,
        0.038325731232925986,
        -0.021834155934422117,
        -0.0006715227383164955,
        0.0013173148801460463,
        0.11068400345078772
      ],
      [
        0.04076962611824964,
        -0.08599393945923894,
        0.07267315633483756,
        0.02539173654959844,
        0.03761762301653209,
        0.07858271095669397,
        0.03523875594324418,
        0.05164371944551243,
        0.16476512457548564,
        0.02814684591379024,
        0.018303923321677722,
        0.04362063622005052,
        -0.04331887232835193,
        0.09152969871760172,
        0.036705847400793266,
        0.01900111867682059,
        0.03020720535573861,
        -0.016446342401603718,
        0.08494885323085852,
        0.03328141250517299,
        -0.0024186095802128387,
        0.04569529270533581,
        -0.029543159645201846,
        0.05814424667355616,
        -0.009917967178381844,
        0.027845180544395474,
        0.08136637006249617,
        0.013620953363412928,
        0.02273141633441205,
        0.048010620110481635,
        -0.033622370596097566,
        0.06605232203895572,
        0.10830652261769019,
        0.11870718968644153,
        0.06813052096612646,
        0.01775349676366757,
        -0.014666616115747568,
        0.04895342650674387,
        0.14965142216997612,
        0.40624912620902054,
        0.5399597426179781,
        0.38524966752049816,
        0.5789290463743422,
        0.3817457921620975,
        0.10254424660944284,
        0.02434691372359349,
        0.1185609782477805,
        0.056846976241586585,
        0.012554975207481348,
        0.050015806689061824,
        -0.007122694117229909,
        0.11352423454810154,
        0.07243288312250465,
        0.10824796341487661,
        0.057583577933021664,
        -0.040198512861334905,
        0.059064837299275356,
        0.056267651378822885,
        0.027673837492266172,
        0.010685832124300913,
        0.08898246431486556,
        0.0015119502037601686,
        0.017904589873873108,
        -0.0395017125536574,
        0.2964348443804189,
        0.4839811970142589,
        0.6577602070076554,
        1.595402886547858,
        2.405683907099527,
        2.993228141201598,
        3.9818430374442197,
        3.6704127011211094,
        3.1783513192806376,
        3.2095727584106886,
        2.4609625368646526,
        2.067385799489147,
        1.4401659658985706,
        0.8210041250453026,
        0.35487975425729845,
        0.19895214560784696,
        -0.022654032467724218,
        -0.04902051171783322,
        -0.07023614508402812,
        0.027069505735095298,
        -0.024539777624510255,
        0.01145925504920696,
        0.05220026942874039,
        0.0717287182179662,
        0.006577258166429281,
        0.08051658229180442,
        -0.024516097924992666,
        0.26877886927966876,
        0.29881172608087236,
        0.09232510123519519,
        0.7969873800362444,
        1.7075211222347015,
        2.43155078414836,
        4.123306286983746,
        5.357740731421916,
        6.388835769151137,
        6.976666968326492,
        6.484619524578746,
        6.390522831483438,
        5.042188146752944,
        3.331846515860752,
        1.9837490156754047,
        0.9908528148919795,
        0.4583214537594621,
        0.1581408425353188,
        0.08750276949493035,
        0.12563850824398032,
        0.08047509085856985,
        -0.020419886614719898,
        0.14261280007207766,
        0.08021126284881791,
        0.03862625562906102,
        0.05544735964627182,
        0.10706308185616115,
        -0.15889938819149518,
        -0.2922594330993903,
        -0.44215487137690646,
        -0.34315106457299294,
        -0.4016219832782475,
        0.02981828941150178,
        0.8249417204775462,
        1.0438289632716877,
        2.378723940834419,
        3.7632466043119335,
        3.6519072699267863,
        4.800508705436104,
        5.001011737645206,
        4.808384173190794,
        2.7153670751261956,
        1.145266146759113,
        0.311020167839561,
        0.28035005210344,
        0.1653885889675007,
        0.028197630570815348,
        -0.002767079818797789,
        0.05516521775605115,
        0.04404376844437626,
        -0.0008779392752669046,
        -0.00024490752251692246,
        -0.03568050133524343,
        0.01430962255863284,
        -0.1708660593229972,
        -0.6819878403152815,
        -0.7194113828313646,
        -0.8422101410506506,
        -1.3718129951231182,
        -1.5941490207688724,
        -1.5420383787509373,
        -0.8150661698977113,
        -0.5764726758535879,
        -0.600150800464998,
        -0.12297711219476008,
        -0.11813429906598828,
        -0.6125108528523633,
        -1.0886342550093293,
        -0.5540351763911884,
        -1.028036538425671,
        -1.5062222188390633,
        -1.4682067985493485,
        -0.7582287169106265,
        -0.19841090918829574,
        -0.18811455831363383,
        0.024649986262707965,
        0.06952846434611587,
        0.0295326441629214,
        0.07233430339719049,
        0.07913800417948019,
        0.09633078011072316,
        -0.05572976010196926,
        -0.23759349764202026,
        -0.7695391925159603,
        -1.1237952533086257,
        -1.2671163181030571,
        -1.6623430243600554,
        -1.1754872259759697,
        -1.095967988326631,
        -0.911381793371146,
        -0.36490983019460155,
        -0.6495614474153344,
        -1.0154510396685235,
        -3.0360761554630393,
        -5.358647869649077,
        -6.738038625763337,
        -6.570985134002869,
        -5.478431464265131,
        -4.524092810969699,
        -2.9026401878356722,
        -1.704585765410996,
        -1.080119712876644,
        -0.36312737921374016,
        -0.05501730468893321,
        0.03116047591299734,
        -0.01881108274584132,
        0.042092322668953956,
        0.057411154614904904,
        -0.12699736046166807,
        -0.2569537294896963,
        -0.4932447303182086,
        -1.0116666706864714,
        -1.1887382152907542,
        -1.3589049048009019,
        -1.3420884754601976,
        -1.0161974517691574,
        0.024431039756511154,
        0.7098715183153157,
        2.0817012712376024,
        0.20863396483817725,
        -1.2328767007434174,
        -4.619739390620732,
        -8.238675693168565,
        -11.289155086900212,
        -10.670389535892632,
        -8.413284849055128,
        -6.0680708315658896,
        -3.669439114999867,
        -2.486929097410817,
        -1.4810285750482508,
        -0.4372110530305102,
        -0.007517865810182562,
        0.055021600227205474,
        0.12447894811164288,
        0.039244620785034566,
        0.11985340379274403,
        -0.13336252647851699,
        -0.33408953344799985,
        -0.6202924355022954,
        -1.0490732699646423,
        -1.1852781586523726,
        -1.4279113558567962,
        -1.0017574391682156,
        0.08678396924643561,
        1.6428614581273508,
        3.7254317382923636,
        3.225410358945041,
        1.21405039157871,
        -2.7336925850426397,
        -6.0923503172242475,
        -10.973406429695933,
        -13.184480255209754,
        -11.658605369761025,
        -9.421257410933682,
        -6.070321742429393,
        -3.8447168626255444,
        -2.3358603780973866,
        -1.3481750027237844,
        -0.5511633062055412,
        -0.11917638232358296,
        0.032079568631972,
        0.02461268139028175,
        -0.03729095554253869,
        -0.06737139537449527,
        -0.27328389214548776,
        -0.38760712074427006,
        -0.6461424150846133,
        -0.6174848379125748,
        -0.9705645867608441,
        -0.3749111069874893,
        0.01773047206881951,
        1.9111260915905108,
        4.204582851915176,
        5.339560298057147,
        3.3506179188331826,
        -0.2793261333947339,
        -4.913509586414432,
        -8.319848632822975,
        -11.860261183945005,
        -12.648534170611326,
        -11.742572674228883,
        -9.175369986400593,
        -5.912491259674433,
        -3.3626031020679346,
        -1.939448962370405,
        -0.9800829903803792,
        -0.4545637816212621,
        0.008829580382226122,
        -0.006636515697920105,
        -0.0031463470913766782,
        0.037649741275102934,
        -0.07188324387419623,
        -0.2070209469204759,
        -0.388038522934109,
        -0.5191134444969405,
        -0.6312042127687798,
        -0.12985406503448715,
        0.5184221300907665,
        2.152886024608883,
        4.269684160962881,
        6.1694979398669245,
        5.991135480740151,
        2.54953948299946,
        -2.4205632554849323,
        -5.9550792804388335,
        -8.341710268242903,
        -10.39105259465496,
        -11.08853919944851,
        -8.910599829222852,
        -6.2944314699955735,
        -3.6490518161803447,
        -1.9134477205666005,
        -0.7854953545784289,
        -0.3050042909690521,
        -0.1707886004772533,
        -0.1059891286927287,
        -0.037631738552700446,
        0.054393740912414716,
        0.03423425554936744,
        -0.011520996615948978,
        -0.1384690387299074,
        -0.31837715229470565,
        -0.4202364564617118,
        -0.04580300706124892,
        0.2152905367285785,
        1.3394986340367614,
        3.910869225467499,
        5.310921300331166,
        7.1731865801115395,
        4.259469155610698,
        0.15126060164015415,
        -4.800454579335342,
        -6.444414481905725,
        -6.466011029699447,
        -7.109880066024313,
        -7.4334002483184625,
        -4.889055763473739,
        -2.6263847383848926,
        -0.27927451880315224,
        -0.24302799737079245,
        0.3500273207320057,
        0.27817899156113524,
        -0.1463677331705906,
        0.007799979097031697,
        -0.04364238417629759,
        0.02270508730918481,
        -0.06133339793703746,
        -0.14997123680151997,
        -0.10249184263952321,
        -0.20407400371140022,
        0.007041235154629517,
        -0.15682072451790252,
        1.0989019300819611,
        3.6446810429011665,
        5.928487418011842,
        7.991596860729572,
        6.855260697401415,
        2.7021074518883808,
        -3.1745353435942665,
        -5.33888272264917,
        -4.9162678100649115,
        -1.6962199983036845,
        -2.648899459449673,
        -1.5887952385717223,
        0.01716046853655324,
        2.0270463831399494,
        3.1760847054380292,
        2.9499836433249413,
        1.542892461083962,
        0.7486180126945143,
        0.13199561852956382,
        0.020864382236064703,
        -0.028376114786458063,
        -0.07213095185351742,
        -0.029830564146868032,
        0.05268297771781059,
        -0.0017343043897576197,
        -0.11449127894869243,
        -0.16309606347898764,
        0.09618341467420866,
        2.2741075961501656,
        5.5832277821992,
        7.826452022275958,
        10.20614494021239,
        7.083954432584188,
        0.6642649536713781,
        -3.7143224482198143,
        -3.374170080630206,
        -0.18581429586353548,
        1.27655720075513,
        1.700709540864514,
        3.1986583723085715,
        5.611897510993452,
        7.80017538727459,
        7.163303184323104,
        4.8783308674127825,
        2.576407542727255,
        1.0777719159850003,
        0.17035591255233618,
        0.026475104785416856,
        -0.09135463447420095,
        -0.06827946458978143,
        -0.00917503738919856,
        0.05730403232674978,
        0.04966684214165971,
        -0.11950424621082298,
        -0.5054550464965494,
        0.34753462352097075,
        2.483139483551489,
        6.669439956327987,
        10.518062275672332,
        11.371516644110752,
        6.79872560761961,
        0.018178082669355354,
        -1.511955631196242,
        0.5455881064804311,
        3.1609033365748056,
        4.248026351258713,
        3.7139577221258815,
        5.256170945068212,
        6.879191286148772,
        9.505973693987187,
        9.853249716674556,
        6.650947437540585,
        4.034245422953977,
        1.5526783760206266,
        0.13707168086756777,
        -0.0848781753179649,
        0.020393514224793137,
        -0.0005568931935150631,
        0.08419210748548156,
        0.03815642414631854,
        0.04580493469025256,
        -0.4867612417012729,
        -1.2128752715327165,
        -0.37836087956329134,
        2.6186267787165534,
        7.274070542423769,
        11.154189628701744,
        10.100025786210352,
        4.723519884859303,
        -0.3580916560528373,
        0.0049116561738611585,
        1.928542706845534,
        2.6400897945340267,
        2.161983736708681,
        0.24491232399296226,
        2.422537187559427,
        6.185713752398514,
        9.132203094643303,
        10.157671526904977,
        7.076452075703837,
        4.107893905825036,
        1.3353394909702947,
        -0.012255630830338995,
        -0.08479610711580701,
        0.07292414908371236,
        0.005226843080584163,
        -0.008895229314940328,
        -0.05078195065604137,
        -0.05419943654170744,
        -0.9629363389182037,
        -1.4636384797521649,
        -0.9580565207197189,
        2.328988081054656,
        6.5518303567194875,
        10.472371179606279,
        8.320415649568401,
        3.085900241454312,
        -0.6974605304360701,
        -0.06427666114911391,
        -0.03445356280459531,
        -0.58256369410098,
        -3.7727165159232863,
        -4.02759642576686,
        0.17299916469623672,
        5.681545622812593,
        9.492667022011645,
        8.793998273886094,
        6.2346422216031785,
        2.9635252205607845,
        0.8157923795548765,
        -0.37789916489996145,
        0.0002695356086970858,
        0.02398600579991917,
        0.05197847108868856,
        0.007012979302089606,
        -0.07795885892860543,
        -0.3371120591013731,
        -1.4828239632602005,
        -2.2379184887340013,
        -1.9073844578294221,
        1.4187193555472846,
        5.555945930170016,
        10.566292539748101,
        8.858544940722243,
        4.627419341623123,
        0.8827216542319338,
        -0.8267209413364303,
        -0.9609592963690796,
        -3.7231497592409077,
        -4.715903659394262,
        -1.72124643217706,
        3.0744056372559294,
        7.813809453625818,
        9.029149191992854,
        6.514349948137643,
        3.6343241524579133,
        1.1176845978414172,
        -0.09475995851600752,
        -0.35189035114433553,
        0.058000636280633976,
        0.02766605721536814,
        -0.03054492895369555,
        -0.01005452191419642,
        -0.038998052580908694,
        -0.2748004416472196,
        -1.5834076914337556,
        -3.7272268421520627,
        -3.733149652442682,
        -0.7069949545174643,
        4.41832056893504,
        9.094625824606103,
        11.270037152306374,
        7.965100853853975,
        4.050679725822444,
        0.6804136631801185,
        -1.1571913220461643,
        -1.130038224571879,
        1.6622591008949195,
        4.300916224293771,
        7.761244201038902,
        8.724009404316343,
        6.321664612692222,
        2.755716515993302,
        0.8830174726039692,
        -0.16226297974552117,
        -0.32760137846174353,
        -0.3190089408633846,
        0.09683996956428775,
        -0.0390106087478903,
        0.046636141591334994,
        -0.014952100361124803,
        0.0002081199110371833,
        -0.32819703171238335,
        -1.5421065897940338,
        -3.8837906871517562,
        -4.989292404653516,
        -3.256287841341356,
        0.25990202651331495,
        5.426468584505698,
        10.319223045071261,
        10.60455335818922,
        8.026816165186762,
        4.882259980138371,
        4.44243403876519,
        5.641149958090975,
        8.111589301978048,
        9.661324172360418,
        9.522323487896022,
        5.502445736701509,
        2.5744586213572553,
        0.1693701107890893,
        -1.2222170392136282,
        -1.141595616138359,
        -0.7079944423996245,
        -0.2171663139165937,
        -0.0513754940961871,
        -0.06176995702258792,
        0.046896441903501444,
        0.07014357509072147,
        0.03403207887930035,
        -0.3340371400566212,
        -1.215541699441595,
        -3.336445835987229,
        -5.243614188259785,
        -5.743084518405046,
        -3.8795945034066963,
        0.7417162709998755,
        5.238342465673722,
        8.91839048776324,
        9.343169170683925,
        10.01941719405948,
        9.426124815274909,
        11.474362316361798,
        12.474740213166788,
        9.699901364368674,
        5.343675911241758,
        1.5610079171268214,
        -1.247233239124695,
        -2.028593926939303,
        -1.875275957640315,
        -0.97536196052772,
        -0.2851156968458458,
        -0.269473292731752,
        0.029384838493578928,
        0.03426506999234664,
        0.05227397323068068,
        -0.04461419693304073,
        -0.08876775981815777,
        -0.3102180970039575,
        -0.6627249123126375,
        -1.9634225069423932,
        -4.059151465115771,
        -6.70391644567876,
        -7.230535415342881,
        -5.764621987762104,
        -1.3623013906960952,
        1.6832245329832707,
        5.579042536077739,
        8.609827722452442,
        9.556750570572985,
        8.641249702111336,
        5.071307633202783,
        2.1922662027561546,
        -0.6685401722003528,
        -2.1850608848834696,
        -2.0839594410648585,
        -2.127398427030026,
        -1.2757262308459432,
        -0.8528846370067242,
        -0.33287807079952614,
        -0.031062471336111574,
        0.06916506435458727,
        -0.0060771444212732615,
        0.07717933007128155,
        0.05623244755180847,
        0.008383771668753287,
        -0.05995085767319659,
        -0.10073512056822984,
        -0.7952448784335062,
        -2.217380917050816,
        -4.382672696290062,
        -6.143398049441722,
        -8.27831292171362,
        -9.35650055998005,
        -7.2940712325082275,
        -5.401710939966626,
        -3.924550570729865,
        -3.6077880315471553,
        -4.247549628061491,
        -3.5643845435532633,
        -2.8051479526106613,
        -3.38128259085743,
        -2.537031834162371,
        -1.593581406885075,
        -1.0619724322452437,
        -0.6848448225904029,
        -0.438772423297656,
        -0.11007279009722282,
        0.03872186735442056,
        -0.023542068900696274,
        -0.010326502473093323,
        0.018216572675146616,
        -0.0168796310340519,
        0.19317168848594873,
        -0.031162112950217074,
        -0.03517388467939588,
        -0.1942498882677841,
        -0.677986781861887,
        -1.682208305210825,
        -3.187013068347272,
        -4.928510514195387,
        -6.926544071927652,
        -8.287944706374804,
        -8.92963313500546,
        -8.468173698805522,
        -7.549059199362513,
        -6.423786726103136,
        -4.729199022122031,
        -3.0819474582666304,
        -1.8608248995289463,
        -1.1214131396169391,
        -0.7432012723437191,
        -0.511391664204933,
        -0.3043278356240424,
        -0.07889299801315278,
        -0.0029709704936558743,
        -0.04295889489764781,
        0.015126393960376917,
        0.10246948579014187,
        0.04514800688634516,
        -0.004264307305999062,
        -0.006250235793404671,
        0.06613211598843155,
        -0.015802992111043013,
        -7.490070899519559e-05,
        -0.08206443948378161,
        -0.3467470471514065,
        -0.8222288289065958,
        -1.6444684295752448,
        -2.5687974474271504,
        -3.136763247704824,
        -3.3913482257763983,
        -3.2426512220315606,
        -2.979681381917417,
        -2.667343981726468,
        -1.6042747529364376,
        -0.7908633459329661,
        -0.5835910030523066,
        -0.2115082148312637,
        -0.16234742900615579,
        -0.17420116456619222,
        -0.04062395745672882,
        -0.05622410480014315,
        -0.033318885128415,
        0.07284988640981666,
        0.06525366664775327,
        0.05411140005735731,
        0.0867122619217898,
        0.03849232244782332,
        0.14695370629124965,
        0.05900393765596531,
        -0.002163481149887466,
        0.05546907213584618,
        -0.0086747154478445,
        -0.1718169858560168,
        -0.2399788272051282,
        -0.3691184654865425,
        -0.43801342960564604,
        -0.627624785364856,
        -0.5099278511407225,
        -0.40831259333806413,
        -0.3112297587859334,
        -0.3776398990361516,
        -0.13554367138073237,
        -0.05106042294740521,
        0.04783156774567642,
        -0.09148296695613584,
        -0.029445522207778307,
        -0.10159030223601237,
        0.009926188664822876,
        -0.0027762519264729235,
        0.012910771496080288,
        0.05343180746883864,
        -0.0003397823784832576,
        0.06915582633241277,
        -0.006446181475124046,
        0.09977463796165167,
        0.07314946224003438,
        -0.01211815101629507,
        0.058662745889060584,
        0.038883530780897256,
        -0.03687207348390072,
        -0.053554868357617295,
        -0.1117006245944703,
        -0.025579541333740345,
        0.02564821786113878,
        -0.03252757430965927,
        -0.04788688571535777,
        -0.12925718795340702,
        -0.16460898072267116,
        -0.12039162373950826,
        0.028325768536357963,
        0.07938775114659927,
        -0.01311564619740763,
        -0.01691605180518819,
        -0.020854687184725842,
        0.07435302137429081,
        0.01948620247719867,
        0.006455458400241603,
        0.03500434726231718,
        0.06226208255971163,
        -0.05036373931353145,
        0.058391088137673,
        0.030872668104478213,
        0.027028147283461763,
        0.11418039962860255,
        0.12314143593104561,
        0.08110851207100297,
        0.032346770927770226,
        0.0813196896429938,
        0.0656737343118588,
        -0.03615989930021541,
        0.001191696646115218,
        -0.055791827831090664,
        -0.13562254905711235,
        -0.013739314026388293,
        0.044955139395893594,
        0.027351188876492113,
        -0.0947475657663816,
        -0.0063828318513286545,
        -0.028003556374911462,
        0.023691718500291385,
        -0.035346003054125726,
        -0.10269549768173658,
        0.15712898290456728,
        0.014268289787067642,
        0.051603034677279856,
        0.0690130022879275,
        0.0012628299925143958,
        0.03473839898656637,
        -0.035583997150952985
      ],
      [
        -0.014074458514941322,
        -0.0018338218970691989,
        -0.019812014032817283,
        -0.05054170324621709,
        -0.04072827924714601,
        -0.035562630690184525,
        -0.032379015598705214,
        -0.01677540459392954,
        -0.047769209936875744,
        -0.08000368638304581,
        0.019862888715498527,
        -0.14494548253269898,
        -0.00686344123827396,
        -0.07370291670653989,
        -0.06322580796788443,
        -0.0920744758876097,
        -0.03127807735134482,
        -0.05894637530006803,
        -0.022272960862351896,
        0.025864003729435325,
        -0.01809866346153446,
        0.07328857205485975,
        0.03809023487471045,
        -0.03490364614962576,
        -0.05340971337345172,
        -0.01645733283586266,
        0.012263338972308448,
        -0.003581387743794821,
        -0.0625238749500255,
        -0.05974118890759,
        -0.022518266088613747,
        -0.11138168137578999,
        -0.05451444713738187,
        0.0036694663063072527,
        -0.09334615319088799,
        0.03732178146477393,
        -0.07885445667766225,
        -0.06465486665838072,
        -0.039871261936114656,
        -0.14194807099091086,
        -0.13106162288852882,
        -0.12155253421902082,
        -0.14799666451619173,
        -0.14063161192917698,
        -0.1365640841018769,
        -0.044077333259678976,
        -0.07648974280671966,
        0.10883759434958676,
        -0.1370306077091122,
        -0.01880300880733223,
        0.010151390819637056,
        0.024708142720752873,
        -0.04483618339140003,
        0.09306255284493645,
        3.7809499905706e-05,
        -0.014851117423874146,
        -0.03942459193616359,
        0.0012498318578213884,
        -0.033418268493337976,
        -0.06744548202176978,
        -0.04330012396932815,
        -0.08528895946561671,
        0.0018885777688369292,
        -0.011035231611262072,
        -0.08462918186195642,
        -0.22908688220644383,
        -0.25170727970863777,
        -0.49918995674823763,
        -0.6948444346157665,
        -0.9371085326309889,
        -1.080554077124772,
        -0.9891837856472527,
        -0.7928854846955802,
        -0.7385838805185065,
        -0.6591942024940931,
        -0.5490824256671676,
        -0.3633425149389756,
        -0.2362780210935783,
        -0.24069008510977377,
        0.020254384719209578,
        -0.0876266297402627,
        -0.07393991147872553,
        -0.09172268802020361,
        -0.053647030801500344,
        -0.016464774649715363,
        -0.026463071855524396,
        -0.12948072754832976,
        -0.05854053003930681,
        -0.04411677747242427,
        -0.026223419793411553,
        0.07022155013121675,
        -0.059740846492268886,
        -0.06155741969108465,
        -0.009881080652174523,
        -0.05994360011552576,
        -0.20901179041446058,
        -0.3993987438820237,
        -0.7664569049218284,
        -1.0557611545372687,
        -1.267975804482181,
        -1.4465971083328626,
        -1.5235704234376424,
        -1.60707302653814,
        -1.3477784951053782,
        -0.7746069914959812,
        -0.6130755790871747,
        -0.16296738522061757,
        -0.1847738629259151,
        -0.09660358266922764,
        0.014518900052592987,
        -0.043097768118233244,
        -0.028272555412084285,
        -0.09707806457763532,
        -0.085861178289874,
        0.01142919935407442,
        -0.060377422756886866,
        -0.054089317463880175,
        -0.059130633441153914,
        0.05609563047724372,
        0.18637911774339452,
        0.11498894757751235,
        0.16166807490414034,
        0.051736223190544946,
        -0.37866190063483196,
        -0.915589034394839,
        -0.9532565323898867,
        -1.3568986961110994,
        -1.8163598382456787,
        -1.6415000814271037,
        -1.775839167686019,
        -1.641506358666913,
        -1.3649349509859248,
        -0.4404553055460688,
        -0.0024507826043654885,
        0.26209398161697495,
        0.10437453964719806,
        -0.035475463208795154,
        -0.03288839341582492,
        -0.04960049134338281,
        -0.049067710583687564,
        -0.015624632953075772,
        -0.023885233845888528,
        -0.09710395538871405,
        -0.04694353463497599,
        -0.06862276566139214,
        -0.018517982749764853,
        -0.02493563337909239,
        0.013842095041839527,
        0.10244764540143667,
        0.16477485837791642,
        0.15114834610056646,
        -0.2507309824405748,
        -1.047815684262436,
        -1.544465584893559,
        -2.0608818255859473,
        -2.582430207669045,
        -2.206103564233315,
        -1.4765996449359073,
        -0.8927075851997333,
        0.06005017995470012,
        0.8865682067723333,
        1.5513137364019671,
        1.473673180539217,
        1.2913421656204116,
        0.48925394489105567,
        0.09600704589114945,
        0.029684700532822055,
        -0.04054909498211217,
        -0.12001827342505603,
        -0.029226680028479914,
        -0.07872770331832621,
        -0.06356784628567415,
        -0.11012341100114262,
        -0.1806495512914765,
        -0.11335857060926854,
        -0.1036092894969754,
        0.05934212746152253,
        0.15552284196714058,
        -0.15579869717089398,
        0.057939039391805246,
        -0.2581544906256407,
        -0.459282622765677,
        -0.7738640373962773,
        -0.7520378362658025,
        0.00275783212459406,
        0.5205917752684441,
        1.118694719514041,
        1.700486540687893,
        2.2097306089360416,
        2.6676172854901337,
        2.7876109322870715,
        1.9625308794028407,
        1.3021879117110158,
        0.41895897498412393,
        0.0953737982063087,
        0.050772970046785305,
        -0.07709389490049715,
        0.030532626608499567,
        -0.07296035091614625,
        0.030908039931789078,
        -0.08619664036827365,
        -0.18423478320769285,
        -0.002009700459056034,
        0.07143745665886864,
        0.20765878125160744,
        0.7775675790157044,
        0.901384355194438,
        1.5925927664735149,
        1.9666109691472882,
        1.519086813539593,
        1.576099820317664,
        1.7674624265844796,
        2.632901429398779,
        2.707121219453608,
        2.682249024785599,
        2.5919028435834264,
        2.77233802553274,
        2.5460300648926673,
        2.677108602620306,
        2.6030328458986602,
        1.7867523960275078,
        0.7269023514105797,
        0.09580885848654058,
        -0.012480154897825758,
        -0.038039948984484505,
        -0.027082142078949867,
        0.04095000882745469,
        -0.005876761131417285,
        0.02618044873817983,
        0.02417989172377565,
        0.2011045063031666,
        0.43550609081208225,
        1.164421701030361,
        1.885851464440934,
        2.2123370919102783,
        2.764221792670811,
        2.3272486392149263,
        2.1548838078652928,
        1.8986032943718534,
        1.8975650605258474,
        2.724628512722205,
        3.3108186787242033,
        3.1870191407307793,
        1.790300158647016,
        1.6729007552168136,
        1.7363849024101274,
        1.6774817919787084,
        1.9471687284164976,
        1.6652516854673676,
        0.994430283399832,
        0.28873611336562965,
        0.04722442313945551,
        -0.08958583961035288,
        -0.05316137819187008,
        -0.026667680510996213,
        0.1456782940375829,
        0.03089112702146084,
        0.20817386560741555,
        0.23527691940060844,
        0.5455844850765286,
        1.5001359310034286,
        2.352879711567514,
        3.12221053225496,
        2.389166545944277,
        1.6846293104891747,
        1.1405692491151715,
        0.34550400906305645,
        0.4805121491985931,
        1.7839705900763831,
        2.695368085328152,
        2.40224759103706,
        1.4140408134323976,
        0.9583610014633894,
        0.3481603117271907,
        0.5195258409811577,
        0.9084483166070016,
        1.203357607684733,
        0.6467985216377246,
        0.18439260557974516,
        -0.10138209008423305,
        -0.06145860692320186,
        -0.00892173397788637,
        -0.02855521613863844,
        -0.03905077290889165,
        0.07010260670884264,
        0.17891884208554767,
        0.09779096377102914,
        0.39576941104958596,
        1.2863913337388577,
        2.388511429394822,
        2.4100499471193153,
        1.2546180311644173,
        0.4969130564116661,
        -0.35217503396275573,
        -1.3178912617133094,
        -1.0343830122916076,
        0.7631527046843178,
        2.2433239669108183,
        2.6405979902120684,
        1.4791051613389963,
        -0.2681632403691142,
        -0.8436032059116525,
        -0.9304659423124821,
        -0.5176178293479345,
        0.24034831793362346,
        0.2835370918456136,
        0.08005440190441399,
        0.02203983564968685,
        -0.05982872518395665,
        -0.043206457420075235,
        0.007348442958903697,
        0.015074679548447652,
        0.06878525582591952,
        -0.10168919766403486,
        -0.23664258228060023,
        0.19483563197345846,
        1.0868840988354591,
        1.6809745515225696,
        1.333634615222343,
        0.5280801807139355,
        -0.27000442585429607,
        -0.986559092233859,
        -1.7256282739006157,
        -1.3643994033630291,
        0.5415633104028387,
        2.374146960161103,
        2.6600628236569124,
        0.9368638634415984,
        -1.273749429197949,
        -2.213192409836606,
        -1.9252176691478289,
        -1.3242092462751376,
        -0.5094503769397736,
        0.09761377609888977,
        0.01578947706537718,
        -0.005926113407458733,
        0.03654371327687104,
        -0.06519110382508495,
        -0.05139189543340451,
        -0.08044089010338845,
        0.024123269157524458,
        -0.5205498454158866,
        -0.5587481105334131,
        -0.421497262136893,
        -0.02559854711620377,
        0.4777730687677202,
        0.37034969499450954,
        -0.006909656990394181,
        0.676646300063336,
        0.43169867409184315,
        -0.5589730924362684,
        -0.37110492440630005,
        1.1921288191495847,
        2.7859989386534263,
        2.1165129209789795,
        -0.13585317396526217,
        -2.445981073380122,
        -3.177351371134291,
        -3.096087832981204,
        -2.0024159987882197,
        -0.8835269860025745,
        0.021095415773393505,
        -0.06200259397800137,
        -0.021969802439579075,
        -0.04353730936732574,
        -0.09366048034921232,
        0.023609105426476772,
        -0.09750246889965608,
        -0.04512058591040644,
        -0.50484431512833,
        -1.2748285444997947,
        -1.610193057833494,
        -1.5430866843721682,
        -1.1662902556028023,
        -1.0242313215640402,
        0.08644876869252155,
        1.2685090215060237,
        1.1362867709342306,
        0.1986163332332707,
        0.21554175889729574,
        2.297521221389462,
        2.463017184097696,
        1.2462762958789158,
        -1.5042559005076794,
        -4.1015979605495,
        -4.700654851248882,
        -3.8084462802247536,
        -2.3094407864501036,
        -0.9034224103920452,
        -0.07105104229146655,
        -0.0345325377030905,
        -0.11197631152716506,
        -0.11053629606986967,
        -0.008459730207856148,
        -0.15004901093302234,
        -0.021359801966362658,
        -0.20814137217482095,
        -0.9743480749947314,
        -1.947100857545667,
        -2.7042403167978843,
        -2.7638265583534602,
        -3.1105039429962735,
        -1.956529244092249,
        -0.15151910565515267,
        2.088187763578648,
        0.7554737004190679,
        -0.002551681576191885,
        0.5805468056533515,
        2.381647381044626,
        2.45263148399681,
        0.283630315166856,
        -2.797446866338861,
        -4.799158484180155,
        -5.510608334993159,
        -4.15733473983236,
        -2.6838008660937334,
        -1.0148204463854105,
        0.034132514872162394,
        -0.01013854331325758,
        0.03545347635007034,
        -0.0508670150207357,
        -0.03918113043905496,
        0.03111608180316452,
        -0.06792034433115451,
        -0.06389353826508819,
        -1.2164818705546903,
        -2.261209417454526,
        -3.389751129922524,
        -4.1920719217006885,
        -4.272378915974961,
        -2.455066399642458,
        0.2626667271756405,
        1.44178075738602,
        0.03884014028159704,
        -0.3357260233138808,
        1.110965873022525,
        3.6834949422599896,
        3.385683521395717,
        0.2506987366999774,
        -3.361193091397265,
        -5.231527665598482,
        -5.371082379343183,
        -3.971600129561197,
        -2.428961025156859,
        -0.7919428484900846,
        -0.011096793640137815,
        -0.024964328382449743,
        0.04197453148742778,
        -0.006986388803658729,
        -0.07994897496961847,
        0.016997390412734424,
        0.06145069045319744,
        -0.1613138927836202,
        -0.945676485772543,
        -1.9560554689830945,
        -3.333722394455182,
        -4.268211561692406,
        -4.287461434376154,
        -2.312158490451824,
        -0.24142096688479822,
        0.8545142235415715,
        -0.3541237984015785,
        -0.16101965776079594,
        2.348071142775691,
        5.3688751968599755,
        4.45100925351472,
        0.3660538070526822,
        -3.346006534686625,
        -5.061689635130517,
        -4.485843066550031,
        -3.228451001872388,
        -1.619161854383101,
        -0.34594928549316994,
        0.05594810190627838,
        0.05711934196607497,
        -0.20995451930462358,
        -0.025789927348283583,
        -0.023291705542877832,
        0.03049569038432001,
        0.002338058128200668,
        -0.06021295267862133,
        -0.47098530739040245,
        -1.3167158196597752,
        -2.4000237315855255,
        -3.3260824391859183,
        -4.15019577835669,
        -2.3759459551868414,
        -0.8396481602041626,
        0.2453157482341794,
        -0.037271819356972304,
        0.6664674070036085,
        3.513879346793826,
        4.82877224176262,
        2.423446604853675,
        -0.9863321657940183,
        -3.52854842364263,
        -4.34796165482923,
        -3.1938961984518075,
        -2.019509578936624,
        -0.7776151245410703,
        0.12781218144298281,
        0.2735484156523449,
        -0.033683735169730326,
        0.01107296011126047,
        0.0240319220782533,
        -0.019601663465448147,
        -0.09269579511193984,
        0.027930144541179692,
        0.18025066040327817,
        0.2902327573383737,
        0.20094726012567535,
        -0.8209361541869835,
        -2.588582576966168,
        -3.310030464412981,
        -3.1721474728521386,
        -1.944196799264619,
        -1.0940792020905412,
        -0.45368090693702634,
        1.0737286301375726,
        2.8029884764012722,
        1.9789020288837877,
        -0.00040151802896287963,
        -2.524810444660763,
        -3.3685120734826324,
        -2.589328592612026,
        -1.5100339403521057,
        -0.6080481434674263,
        0.07248440030039449,
        0.37476922458500306,
        0.15429559813157592,
        0.008976005905664816,
        0.007801182809085702,
        -0.07033806330457865,
        -0.050047774410707686,
        -0.02013645392186719,
        0.01700416228804561,
        0.23213791998366093,
        0.8787526296519006,
        1.2826367799303957,
        0.7766385277607735,
        -0.5190325481507995,
        -2.079225741468335,
        -2.9819693482571754,
        -2.6720139111970953,
        -2.0426837983733463,
        -1.1749992922343593,
        -0.24073948421537336,
        -0.10543834599424501,
        -1.0887614727138013,
        -2.626888704467291,
        -3.0554542199525168,
        -1.7811604000642423,
        -0.6499703791409919,
        0.03895410191820694,
        0.704153769032583,
        0.5938380196705004,
        0.40028443892179366,
        0.22185685309245604,
        0.004330253137651795,
        -0.07978134860559072,
        -0.06783284999509798,
        -0.06258567504000896,
        -0.054450642475733564,
        -0.01619176925942269,
        0.07960327319003593,
        0.6333447394172391,
        1.2312219561184274,
        1.5112976704625114,
        1.0363942527354146,
        -0.5153474208143958,
        -1.8109904707966666,
        -2.6433802203227525,
        -2.9123753721440595,
        -2.670911257969977,
        -2.4169761165974633,
        -3.0077904499415844,
        -3.6265477541810487,
        -3.014583019276758,
        -1.5813260509477904,
        -0.053504197122038584,
        0.8696425602178468,
        1.1342630040660426,
        0.9159573685219535,
        0.7049608584707185,
        0.28064184263402253,
        0.07200514130751604,
        0.03806528099884091,
        -0.024064768072262637,
        0.01746740499536614,
        -0.0031570689519371774,
        -0.028840036014135473,
        -0.09966339925607215,
        -0.010551691898046046,
        0.28355111456556004,
        0.7905671007613979,
        1.8406622925435585,
        1.587982317217237,
        0.7481137505684443,
        -0.5052802093578079,
        -1.43193326450675,
        -2.231871795363988,
        -3.0804856275241574,
        -3.226516637761316,
        -3.0056484730181685,
        -1.952344371894443,
        -0.7111232749979748,
        0.3410580113212218,
        1.1346743568170183,
        1.235502521487849,
        1.0433436039003163,
        0.6570487703552195,
        0.522322111944566,
        0.19885818239292088,
        -0.04189943898016959,
        -0.07204520071812154,
        0.027263004000245717,
        -0.10254737620125848,
        -0.00509942357689725,
        -0.10606471529423375,
        -0.06750570051073476,
        -0.12485533857513266,
        -0.15867233826790647,
        0.11964804589425306,
        0.9936281427964927,
        1.3547241631995426,
        1.4149374622826822,
        1.3137782612964515,
        0.5772935215282058,
        0.2368413108385294,
        0.13837725139603796,
        -0.13221640304471163,
        0.19088306463048146,
        0.4494492542510563,
        0.7749536407155988,
        1.473788875160994,
        1.0226019197386076,
        0.7299166826556502,
        0.4925933386745456,
        0.4525377026108458,
        0.19385016431630028,
        0.08653858450766186,
        0.07058448478353563,
        0.005438212177983212,
        -0.025615395216396126,
        -0.02098224674012208,
        -0.0901607666824652,
        0.009887415869318884,
        -0.10560291696034499,
        -0.06426722796528539,
        -0.09807658462182836,
        -0.11210939387080049,
        0.07723512817423159,
        0.4475571720420458,
        0.5424791792051302,
        0.9991602955208121,
        1.2945453895240375,
        1.733826258390078,
        2.126077580245023,
        1.5579687654328895,
        1.4204905012954885,
        1.41130079666792,
        1.3222944677172472,
        1.011331594126519,
        0.6728280292424815,
        0.2261114040462738,
        0.2797463965175987,
        0.1956074019236342,
        0.02883887227248359,
        0.11828161420884298,
        -0.04071878033515041,
        -0.04533022105163708,
        -0.03399777816380282,
        -0.020476682709656035,
        -0.007191309791577435,
        -0.02745611833954346,
        -0.11730330353048107,
        -0.05725788098529019,
        -0.0004677663564589649,
        -0.01610080794914803,
        0.17964209878941742,
        0.32574433062502983,
        0.9543171328912137,
        1.4247021671890436,
        2.0560155666037225,
        2.2693179019464456,
        2.3344357424175586,
        2.260554303696175,
        1.876131657147183,
        1.593140538909916,
        1.082728952522418,
        0.8472663095677506,
        0.37020727680691123,
        0.15805068283811588,
        0.10957941911222771,
        0.10997955386411062,
        -0.06785407224550691,
        0.03155333256682881,
        -0.03727645090405122,
        -0.05560056199308699,
        -0.024446174877063954,
        0.019038357079219467,
        -0.019549156770233476,
        -0.03183781632695099,
        0.002397195809169988,
        0.09062324742439831,
        0.021201703559529158,
        -0.041131542027083266,
        0.1657809531793629,
        0.39552776750568064,
        0.583682858625272,
        1.0902975600920428,
        1.5204141513359548,
        1.7391367500303152,
        1.7085451798452034,
        1.560392702012907,
        1.3755044811578003,
        1.2269948780669961,
        0.9072568568879886,
        0.46302094070078115,
        0.32686792937226183,
        0.25507362416048807,
        0.11621229335521566,
        -0.0004470724231654447,
        -0.017062821767768768,
        -0.02037524248923468,
        -0.049234099609052985,
        0.034988480307167814,
        -0.05440741037977661,
        0.0057757544365209515,
        -0.005512489488253975,
        -0.00552211877174437,
        -0.0797297465205801,
        -0.03938918938600316,
        0.02820954033486602,
        0.07436552578038835,
        0.07703821967145255,
        0.041567145339951754,
        0.2371744993594954,
        0.26997575249633454,
        0.5242033809543996,
        0.5701159257680892,
        0.6826083921505084,
        0.6116540776441113,
        0.42583727990835774,
        0.3555984615168878,
        0.31023939639616316,
        0.15281117543863246,
        0.07863414354377776,
        0.09128641708115032,
        -0.029291678113399295,
        -0.06412215782588322,
        0.04043599518936957,
        -0.08527676379999097,
        -0.03406111573565274,
        0.05754906195464416,
        -0.03661437276197813,
        -0.07547546641265651,
        -0.0933549897508581,
        -0.0634396701105442,
        0.06262588690939727,
        -0.0776959398202538,
        0.008882125061887396,
        -0.00011559882940960498,
        -0.09721722441228392,
        -0.044675233915519676,
        -0.07385385555110097,
        0.05575068534711753,
        -0.023245311615483117,
        -0.057146858199172944,
        -0.012454998042410566,
        0.006983660222378983,
        0.08412420432179371,
        -0.010635145204978672,
        0.0332279177200121,
        -0.05466971821617458,
        0.03381264334382233,
        -0.06273496702356393,
        -0.17671670460785074,
        -0.07512020739103939,
        -0.009739041232187357,
        -0.018207714743022217,
        0.019243742252223927,
        -0.05843960304618955,
        -0.03327611960261615
      ],
      [
        0.11686672780311085,
        0.09643168469060132,
        0.03923691068076007,
        0.1301569414081759,
        0.04937428530497681,
        0.10334099303534264,
        0.04141610727765549,
        0.04009449813628471,
        0.11673856289489269,
        0.13441101127741822,
        0.11882394060962927,
        0.119539634898731,
        0.07583913584972338,
        0.13550263700334014,
        0.0237468054502381,
        0.07459344633567852,
        0.12861033180399611,
        0.0009441950576203565,
        0.06797904205770955,
        0.08326407483889106,
        0.13435533355424945,
        0.03728863347002315,
        -0.04210926234205867,
        0.0435683650368594,
        0.046741365297947896,
        0.034306602833968164,
        0.09940685968959179,
        0.09892317642015017,
        0.027532059004836844,
        0.00024286160136097364,
        -0.0269225134385154,
        0.04195611730302476,
        0.0296338407150911,
        0.03570370884257776,
        0.09255642759990512,
        0.03267888609441558,
        -0.002187494891669197,
        0.008406857766055032,
        -0.02980996003228248,
        0.09575779815343397,
        -0.12674685328315952,
        -0.05740513426430657,
        -0.05797375521309406,
        -0.06796324450604756,
        -0.037135401779909205,
        0.15252869393262025,
        -0.04069991719818579,
        -0.020857340622225995,
        -0.00268529224350716,
        0.1192297374203939,
        0.06607213804862447,
        -0.0038875168252599642,
        0.049044814280520266,
        0.09392238078763884,
        0.13547175574090486,
        0.12095096286038999,
        0.038160155491087366,
        0.0701320504575054,
        0.07863944471220205,
        0.14685869960645243,
        0.09982993595004275,
        0.02111654172128942,
        0.012803772811207655,
        -0.03285975006334278,
        0.039470175324581636,
        -0.0212756637288454,
        -0.27932501048723096,
        -0.3653020487369136,
        -0.4511061784663966,
        -0.510331320672309,
        -0.8826664400104584,
        -0.9166045356493396,
        -0.5652160425375409,
        -0.4630524938725084,
        -0.39524239418053714,
        -0.15178952604114238,
        -0.14475163610970398,
        -0.16201506535604338,
        -0.08200572224759672,
        0.05918815784704669,
        0.17247349041631044,
        0.09377365233685381,
        0.005351409952535791,
        0.034690501352399664,
        0.026645293054418963,
        0.041929319795791176,
        0.03288876099832745,
        0.054068615789699084,
        0.08540007488071194,
        0.08720029179169381,
        -0.09723871113406704,
        0.0038996099112619544,
        -0.11638310710297128,
        -0.2420620472261611,
        -0.6032036230217396,
        -1.1103162109278688,
        -1.8006117896715461,
        -1.9218168248328886,
        -2.236675943748191,
        -2.553438817224818,
        -2.500515445694997,
        -1.9426289849855818,
        -1.5107214752753821,
        -0.9683752884323004,
        -0.72148775807116,
        -0.38716274330564543,
        -0.18507381100027476,
        -0.002291165724107784,
        0.06516461233887685,
        0.06513046368548939,
        0.14764124441281173,
        0.16194681462160787,
        0.13988849063470277,
        0.02433835323832654,
        0.047116488776470566,
        0.06201583160457068,
        0.018858725684059677,
        0.11226645295573945,
        -0.11954201292368813,
        -0.23810928897736328,
        -0.5470588327813813,
        -1.0890493557378715,
        -1.8628566494960903,
        -2.8843584420727715,
        -4.068738123193101,
        -5.1929038020654295,
        -6.583786876687227,
        -7.420437933117571,
        -7.027978945913209,
        -6.001526738885748,
        -4.859212634648713,
        -3.4083271398664174,
        -2.3649333263613497,
        -1.4196960801606184,
        -0.8726221803129751,
        -0.2964406244242516,
        -0.10873001354782003,
        0.08648014455911729,
        0.00033510393523592143,
        -0.0510189900959373,
        0.010558142933953699,
        0.15981988944062586,
        0.06751968415862547,
        0.10251643377286576,
        0.02152320298911793,
        -0.06403649381558742,
        -0.30747199665936403,
        -0.6879069963117624,
        -1.2417436387432292,
        -2.1506220170967922,
        -3.5298061309090483,
        -5.045825460470142,
        -6.685405484359467,
        -8.642953593109356,
        -10.648915565973711,
        -12.025994175772945,
        -11.94764760677205,
        -11.167587157899293,
        -9.619519476755817,
        -7.7215074048573795,
        -4.9805238314575915,
        -3.021953410812363,
        -1.8821744488727312,
        -1.1157633460320795,
        -0.4659947765774492,
        -0.05452851951028791,
        0.04367864413980621,
        0.08244298018471907,
        0.14959731843998209,
        0.11160587514118392,
        0.07718627774710812,
        -0.049386419454911845,
        -0.12630133072291683,
        -0.4125228690526756,
        -0.6389051349780518,
        -1.2819661585932465,
        -2.09085937830906,
        -3.2568749528678853,
        -4.216345291519674,
        -5.248397149010864,
        -4.649677251862035,
        -1.5463620265670068,
        1.2127983662149318,
        2.672966256547372,
        1.790442914577626,
        -0.8450806381772423,
        -3.518011095929688,
        -5.006203971729259,
        -5.022130036763515,
        -3.9245367501160096,
        -2.6879324828155116,
        -1.6055573664962373,
        -0.8707992440875097,
        -0.2705297580938313,
        0.0803569832833777,
        0.12940276933787914,
        0.014067378745301909,
        0.01331182912705222,
        0.05504120791968871,
        0.014595110507113887,
        -0.23242525904339517,
        -0.6088941028703215,
        -1.1404976552885964,
        -1.7868695756931856,
        -2.7404339326342986,
        -3.3014185251093173,
        -2.090946670967673,
        1.0230820127184372,
        7.102083122557416,
        12.165163985121387,
        14.777790583292179,
        17.040908270616793,
        17.013715668177202,
        10.993474723611298,
        4.723438555073682,
        -0.21838154042494165,
        -1.8792057073447852,
        -3.105432816369015,
        -2.4094723830761784,
        -1.977423299030365,
        -1.3513053135484283,
        -0.3359104880787818,
        -0.0073223417997797195,
        0.01201959281043729,
        0.005804355838818838,
        0.0703414121476551,
        -0.07823915128380157,
        -0.1835902934896398,
        -0.2442942991425211,
        -0.5165082720150237,
        -0.8692144066057669,
        -1.2274730054469953,
        -1.1113664397800493,
        0.5865207228965924,
        4.612119588410114,
        10.419508265581369,
        12.6763706458774,
        13.074203649959019,
        12.490274992894948,
        12.556179319584794,
        13.199250564706412,
        12.09077011303492,
        7.87347403306847,
        0.33567361527795425,
        -0.837863659003316,
        -2.1118793775546956,
        -1.347712236336929,
        -1.313611369224631,
        -0.9930945664969603,
        -0.6167120377579741,
        -0.08477799777095565,
        0.02008718040984099,
        0.16220405161602425,
        0.034386000283810794,
        0.027278826786622003,
        -0.14741514946685086,
        -0.4669437439064808,
        -0.6670783818302152,
        -0.5478552668789872,
        -0.352950140560722,
        2.521465805396891,
        6.924313583991782,
        10.446549467852916,
        11.535237332286469,
        8.1848197295413,
        4.068246199982726,
        0.5804094918656277,
        -0.5813425859267302,
        2.8325944432609016,
        5.106923511575055,
        5.915222761632843,
        2.2436150117305655,
        -0.13600269968861128,
        -1.276794703344147,
        -1.3269715838041345,
        -0.9175733899569934,
        -0.9432146124589803,
        -0.4835586734931903,
        -0.17379954502712108,
        0.07759131209713208,
        0.04204847208603901,
