{
  "columns": [
    784,
    32,
    10
  ],
  "activation_function": [
    "Sign",
    "Sign"
  ],
  "biases": [
    [
      [
        0.00465235179714881
      ],
      [
        -0.1042371783589604
      ],
      [
        0.026623957275577675
      ],
      [
        -0.1066317862850487
      ],
      [
        0.0043247482451729885
      ],
      [
        -0.01578259142373515
      ],
      [
        -0.0025317311843728423
      ],
      [
        0.2434008297079916
      ],
      [
        0.0033680780738093038
      ],
      [
        -0.014601249561149842
      ],
      [
        0.0173298840651696
      ],
      [
        -0.004645280713648844
      ],
      [
        -0.007025788956846556
      ],
      [
        0.062270745049877965
      ],
      [
        -0.08753049580731599
      ],
      [
        -0.14387317531044275
      ],
      [
        0.0013903789000443217
      ],
      [
        0.013678319603804076
      ],
      [
        -0.012632314055239862
      ],
      [
        -0.13100401545649354
      ],
      [
        -0.12995589803658053
      ],
      [
        -0.010471952548210614
      ],
      [
        -0.0655905806281485
      ],
      [
        -0.03767603042791425
      ],
      [
        0.014138078933386254
      ],
      [
        0.08786975919252031
      ],
      [
        -0.0014018796921732059
      ],
      [
        0.04102148510209918
      ],
      [
        0.15317811466786918
      ],
      [
        -0.011405193214686221
      ],
      [
        0.03166021360435798
      ],
      [
        0.13492755597556313
      ]
    ],
    [
      [
        -0.08800000000000006
      ],
      [
        -0.1380000000000001
      ],
      [
        -0.10800000000000008
      ],
      [
        -0.1400000000000001
      ],
      [
        -0.16600000000000012
      ],
      [
        -0.06000000000000004
      ],
      [
        -0.11200000000000009
      ],
      [
        -0.08400000000000006
      ],
      [
        -0.1320000000000001
      ],
      [
        -0.10000000000000007
      ]
    ]
  ],
  "weights": [
    [
      [
        0.04772348219794283,
        0.01705923436030056,
        0.03802118927269237,
        0.05099296458499444,
        -0.009297431232841517,
        -0.04660520238633289,
        -0.10241365293724598,
        0.018956388950257877,
        -0.028403276920772196,
        0.03195825207809746,
        -0.026500836668906326,
        0.07112365222422838,
        -0.02094081404853923,
        0.08942611032654825,
        -0.09384831047612381,
        0.027163969186119796,
        -0.03455518309015867,
        0.015755590946212407,
        -0.06624883258019933,
        -0.051777694176126106,
        0.058275401217856994,
        0.0416525854186569,
        -0.001322879596076584,
        0.01489572111728349,
        -0.03862852299398679,
        0.12132523502295921,
        0.0298456067774091,
        0.05178247065225378,
        -0.03147780719264146,
        0.038786089274117315,
        0.057019075510301755,
        0.02680263171766789,
        0.013878951625293826,
        0.010541536312079004,
        0.07298297313412698,
        0.014303709816928701,
        -0.03582532227782124,
        -0.05647281370942082,
        -0.015041877740188938,
        -0.08083305079123633,
        -0.08371292157963438,
        -0.00934802165499343,
        -0.05661219471744886,
        0.027392616445339697,
        -0.036052984178047635,
        -0.06051583614823568,
        -0.025401023011809902,
        -0.09737845015687106,
        0.012127108333246045,
        -0.03553417478022756,
        0.002113900147475834,
        0.053880649675496016,
        -0.07206822309622059,
        -0.04977170129031378,
        -0.040751839258881185,
        0.050975699299687184,
        0.1495038400141687,
        0.0598546379963461,
        0.005163631239694785,
        -0.05089132506061194,
        0.049132144475262145,
        -0.050433817775330854,
        0.017370014162327013,
        0.08497396193793345,
        -0.03520099598103182,
        0.04290260975484184,
        -0.0008514604678561749,
        -0.010639236864022595,
        0.006275930267351558,
        0.024314119636663578,
        -0.07171332539228902,
        0.010043635095323541,
        -0.033804205473460865,
        -0.023350972793317264,
        -0.01525171948432003,
        0.01120510254479135,
        -0.05089294788158671,
        0.021440802142847874,
        0.0011392705583465237,
        -0.004423528819085808,
        -0.06757260350702844,
        0.02869785607427488,
        0.01746784398765337,
        -0.03672929605558537,
        0.06905948530831126,
        0.0056140659604121575,
        -0.021782509011511894,
        0.02154720482483756,
        0.0342348486094801,
        -0.07666886893564341,
        -0.017212922427904218,
        -0.026206809232281178,
        -0.1028983510578214,
        0.04308567773499113,
        -0.03716179201263111,
        -0.022106782501643073,
        -0.06481934343557304,
        0.0022973394366781323,
        -0.018585535467502058,
        -0.012670830701722558,
        -0.10768192728286642,
        -0.08753365702201137,
        -0.059420223129857404,
        0.030744036787968908,
        -0.0552825927113628,
        0.007626473000049685,
        -0.023304147434996154,
        0.0021987462969733592,
        0.05892162062604988,
        0.03685779202954515,
        0.010372227306823424,
        -0.049092528321011956,
        0.029536741330831548,
        -0.018071818292935873,
        0.020105266202318027,
        0.06181456401122393,
        -0.07897513946231381,
        0.03027064072043125,
        0.024678613373702855,
        0.009697617731356302,
        -0.0011147395237337864,
        0.038278124362620354,
        0.09702518848477844,
        0.11914578523439666,
        0.14682789302859664,
        0.026638848172622763,
        -0.0626519779816297,
        -0.06181781741364504,
        -0.09347375378984728,
        -0.08658224029575991,
        -0.07151811398771961,
        -0.09920756867226817,
        -0.04649733820926869,
        -0.04539148288186922,
        -0.06283324367897379,
        -0.025400296905115957,
        -0.0659148654227245,
        -0.12027515970570822,
        -0.01974098660487448,
        0.05261689261390553,
        -0.060495167687199106,
        0.026019753242341022,
        -0.0058540396427610745,
        0.000253970931241629,
        -0.01830488607625002,
        0.04863361950220759,
        -0.0009632894058421099,
        0.11609335777363801,
        0.08207755914971888,
        0.21292903796463566,
        0.2305820128228154,
        0.1952382673079757,
        0.22107551188202593,
        0.0725689227954086,
        0.128522782489995,
        -0.04858900582344027,
        -0.14846398818946585,
        -0.2487051259271552,
        -0.18927471839927848,
        -0.22891259188224786,
        -0.2407151878049483,
        -0.059329587870390235,
        -0.05959235194785775,
        0.003000496190361348,
        -0.031539170320251664,
        0.03314956689699091,
        0.07238794124040655,
        -0.04546856792202799,
        -0.06551082322694197,
        0.010901713519677595,
        -0.03192577987374173,
        0.0032247196223035043,
        0.026790970591728816,
        0.09860309818730058,
        0.12333441372662172,
        0.12254465041557962,
        0.19494870870227496,
        0.2914220815884647,
        0.28043817586300834,
        0.22151948766641463,
        0.157580456180651,
        0.19821847435892062,
        0.09245013622080865,
        -0.02062342062596728,
        -0.07945958198741794,
        -0.15545938055370678,
        -0.18523949083479505,
        -0.19168612523813375,
        -0.193805933852953,
        -0.10667131861641428,
        -0.13472162743233515,
        -0.025313951619492212,
        0.050327737600180035,
        -0.015379369930681659,
        0.007876826878964757,
        -0.07425297669970525,
        -0.06453109401549746,
        -0.04878912964185187,
        -0.04557713236559801,
        0.07010008895458071,
        0.02258926820439079,
        0.1239390505746742,
        0.09105359242179979,
        0.1595392394900592,
        0.20902553236299284,
        0.11266931028396111,
        0.0797835620212941,
        0.05150826985448685,
        0.05707427473877165,
        -0.013752291607728074,
        0.10378073160703784,
        0.043238514706146404,
        0.10817038224708424,
        0.0013281797470912494,
        -0.04476911225056609,
        -0.10873780257386255,
        -0.18263613911617985,
        -0.04383277848142011,
        0.001731525399792425,
        -0.07716199832558775,
        -0.04667647517287376,
        -0.002466552565418519,
        0.08923989899553798,
        0.05108019691489365,
        0.0015506168651631587,
        0.05539108903133411,
        0.016456175635732803,
        0.0851164716993368,
        0.005186213650361185,
        0.07174715208770262,
        0.004049494201834059,
        0.08349875869063338,
        -0.03202422374676242,
        -0.07405143469216958,
        -0.1509254945157135,
        -0.1507949917587589,
        -0.10231774589759697,
        -0.02281505653309305,
        0.10697337980996248,
        0.31226790023254725,
        0.25966318555719553,
        0.327259594478129,
        0.12152484347401953,
        -0.01599227309449587,
        -0.19356755979146836,
        -0.11220581802672892,
        -0.15154368765302004,
        -0.09976886362992389,
        -0.02224310816155696,
        -0.045390501700041684,
        0.05922424657908463,
        0.026445035465663028,
        -0.1011653629937196,
        0.04582316882023917,
        0.0449291376401948,
        0.023607908605755214,
        -0.00037036873311057587,
        -0.030986255459382186,
        -0.05468680691714022,
        -0.04649792888220947,
        -0.18205698515744687,
        -0.2407224480982992,
        -0.3755301152889793,
        -0.30099084350429883,
        -0.2421481408332706,
        -0.03416295973572021,
        0.2794577997227998,
        0.25053980025229,
        0.4218882921496663,
        0.3890577769534167,
        0.23479216237123215,
        0.074830787091531,
        -0.13148751613520512,
        -0.13769319063187777,
        -0.0514087091328387,
        -0.20493250641443075,
        -0.1189884251972803,
        0.0020330959425433567,
        -0.04773450108929982,
        0.012754839193446258,
        -0.07187601068397702,
        0.039370046101669366,
        -0.04926253115022663,
        0.05955881840317347,
        0.0019806046917613764,
        -0.0019903557719444754,
        0.029870751455623082,
        -0.08110085454858447,
        -0.26094990143680297,
        -0.5061424517287887,
        -0.46654473984969336,
        -0.40312328219798355,
        -0.20573372443044943,
        0.17341014148671954,
        0.30846588401402264,
        0.44984383299066244,
        0.40549713113071495,
        0.29491316540275486,
        0.06133546125906626,
        -0.09901010966369801,
        -0.07843152639337887,
        -0.25206645514627585,
        -0.2301821834757665,
        -0.1445001046440834,
        0.0038385567452123453,
        -0.020787937995861996,
        -0.04085210614272045,
        -0.048118786727731185,
        -0.06076491257123311,
        -0.10104982203981759,
        0.05911521978384226,
        -0.04745228123761928,
        -0.05132658060665279,
        0.15384720783766095,
        -0.05183844105210287,
        -0.10776127800713105,
        -0.23176182146129018,
        -0.4089936842657266,
        -0.45130129856930445,
        -0.36250981927600423,
        -0.03946147905878958,
        0.2592287835712756,
        0.405163773538746,
        0.4142218868490779,
        0.2530834956186986,
        0.10726270016259555,
        -0.062424234033138994,
        -0.21452164904202867,
        -0.19372557024883538,
        -0.3039854769979023,
        -0.16876584167832556,
        -0.010160035197966674,
        -0.10988656963038236,
        -0.06843824837615452,
        0.03192288143943401,
        -0.0011970964022808173,
        -0.06713419867172339,
        -0.05620445167215513,
        0.0018709179361036284,
        0.026916446474630304,
        -0.07490787685413815,
        -0.13434636086210827,
        -0.0033201715415775387,
        -0.0648292100097841,
        -0.1220221998903329,
        -0.30309660279585704,
        -0.2991391202349143,
        -0.02374773230217736,
        0.10315728499216069,
        0.2526066013614782,
        0.22820677406503773,
        0.20821455222725574,
        0.04304585980032893,
        0.059053715633402844,
        -0.14190877571266833,
        -0.23087401046632863,
        -0.23581812769909619,
        -0.11362888329355557,
        -0.00832405044575277,
        -0.02789582165728033,
        -0.007259725813562671,
        -0.009352512326029126,
        -0.007054218488140901,
        0.013946708528927246,
        -0.03894212250515145,
        -0.0010293610214670732,
        0.0161082454829203,
        -0.015423604543964567,
        0.10284753434852313,
        -0.010445777963381976,
        -0.035008572104200254,
        -0.09110275628834923,
        -0.0262381004091874,
        0.006907604389989435,
        0.06181948095207678,
        0.09274139396894314,
        -0.009931628305243892,
        0.0702486238501019,
        0.031071339034621306,
        -0.050217886065350846,
        0.04035306620335439,
        0.0627045704229152,
        -0.07909233480653692,
        -0.1189052599569851,
        -0.15279111067824716,
        -0.13960148203312867,
        -0.05044732975643471,
        -0.02765567054486817,
        -0.09438730157251317,
        0.06176462784652269,
        -0.036964462781649894,
        0.0922476609433557,
        -0.0067530143039185924,
        0.019149683999225356,
        -0.03511290086477755,
        -0.07955206220092924,
        -0.014243378754529629,
        0.006742259816787411,
        -0.1176561394160039,
        -0.08013259110949834,
        0.07840600118935699,
        0.011650084547063051,
        0.12230300787760086,
        0.03368300768554509,
        -0.17969826096505484,
        -0.3071285547539139,
        -0.36324491080949495,
        -0.29634281510646376,
        -0.039594340834504145,
        0.2686518572053815,
        0.35779230350237545,
        0.17786867571239348,
        0.11512474276491176,
        0.06598815131741619,
        -0.023214455627916804,
        0.056386745423388125,
        0.01658426671528847,
        -0.02633007345799037,
        -0.06335598970338142,
        0.03634294822189827,
        -0.04347259235729269,
        0.08891124223271331,
        -0.0074605909524375425,
        0.03977345128952025,
        0.06531283695328836,
        0.031402402510985326,
        0.0690000478621277,
        -0.005896635530239009,
        -0.04230910499692484,
        -0.07508133006076072,
        0.0024679175790977676,
        -0.20675286201995782,
        -0.4669882094796366,
        -0.5729176222221674,
        -0.43898753357039755,
        -0.38663428714993764,
        -0.0957024328630963,
        0.23417179950748387,
        0.5234778424138373,
        0.40260623794840633,
        0.3350369394469558,
        0.08587012855523714,
        0.0830523441644007,
        -0.07433105708061817,
        0.010608788402133933,
        0.004320014560066636,
        -0.012246301473157839,
        -0.05790273945746822,
        -0.06114500328547985,
        0.029978150324402257,
        -0.09865289114942828,
        0.04420036512631193,
        0.11522268522927505,
        0.018086517470646785,
        -0.028854701526096205,
        -0.0653847820869649,
        -0.18792596914985185,
        -0.17344059427250383,
        -0.3973181293401258,
        -0.5828944767815233,
        -0.7477127647416081,
        -0.7433446713724633,
        -0.7480780252070297,
        -0.43870748721912334,
        -0.2109314433714002,
        0.15808580064807318,
        0.5485195343811797,
        0.39223210793320384,
        0.15326629382497906,
        0.09315824536024873,
        0.02569602342509556,
        -0.05546651792321341,
        -0.01618156429501383,
        -0.03452530197864918,
        0.011809240548090306,
        -0.06088486524805116,
        0.07433102383674518,
        0.026794604094471777,
        -0.006999627098428276,
        0.0188161029281112,
        0.000225141624072233,
        0.026206999833473167,
        0.020490281715866268,
        -0.0649903664564933,
        -0.26949160346507994,
        -0.40928503523487725,
        -0.7044745779970644,
        -0.7646488596361537,
        -0.8366929471727073,
        -0.890565607458696,
        -0.608426132797697,
        -0.42578461695089587,
        -0.09807580855144847,
        0.2413329169216521,
        0.5467517868366336,
        0.3132757464293319,
        0.15715227049211208,
        0.14475012413771296,
        -0.022268796990276826,
        -0.004549380593821334,
        0.004487228199169706,
        0.030256791934461187,
        -0.03639726577794406,
        -0.05117148529464741,
        -0.09644758291964871,
        0.028668686432101666,
        0.03794421103049599,
        0.11910423513824035,
        0.049524230511925345,
        0.041902835618312116,
        -0.05645606328963639,
        -0.15144009544267398,
        -0.36290582040007024,
        -0.5875282685229369,
        -0.6873278358379237,
        -0.8101160821981855,
        -0.8027897107032246,
        -0.6897335473679892,
        -0.5742448140738887,
        -0.2530084542194332,
        -0.11180688036857196,
        0.2343808711518113,
        0.41357107668730575,
        0.27398984970991574,
        0.10733443593517443,
        0.028990500300967316,
        -0.04778659407019816,
        -0.12410208812934961,
        -0.12382884275821243,
        -0.03543311278873131,
        -0.011272188918248485,
        -0.06557828918808976,
        -0.04215080959547927,
        -0.15974829823197315,
        0.025551571461681473,
        0.0748378494134428,
        0.09638373457875653,
        0.05213738592121362,
        0.012507338788894694,
        -0.17860742888288253,
        -0.3135345940926606,
        -0.5328058789654591,
        -0.6441658497441508,
        -0.787385286001599,
        -0.6134297510897714,
        -0.3336393303194421,
        -0.3108180460765169,
        -0.14215978613480443,
        0.10215583500383539,
        0.2965247471280024,
        0.25976213713313717,
        0.20881308334153034,
        -0.015526186790292175,
        0.02756279922263693,
        -0.1328470094336697,
        -0.055277872492721085,
        0.01668270543146097,
        -0.03711292574179261,
        -0.0032171122248661308,
        -0.034612203370109625,
        -0.03160192338273179,
        0.029761635424615435,
        0.027485083958676444,
        0.03222077683994966,
        0.0956673831628352,
        0.20605538163607975,
        0.05638185440872328,
        -0.1109331850560814,
        -0.12754687115179705,
        -0.3053900965304057,
        -0.39712801788167673,
        -0.36559231759422295,
        -0.2463650738803186,
        -0.12040300762475122,
        -0.010165227815939431,
        -0.004381966829914728,
        0.287860543324892,
        0.3010367955626553,
        0.2045885364336724,
        0.10404434439096487,
        -0.015258329333191578,
        -0.0074886823668804435,
        0.05660486106732384,
        -0.18767437457092015,
        -0.03953811357400699,
        -0.053312032743542924,
        -0.03180481155937032,
        0.02842704520229173,
        -0.0006900064457734164,
        -0.006083474917641304,
        -0.03714628167291733,
        0.1582028800606933,
        0.09579912208314172,
        0.12091544650078358,
        0.1536867480514532,
        0.0823258991426176,
        0.06942839166321545,
        0.023801495322512113,
        -0.1809592647813055,
        -0.07057805265692647,
        -0.057310550336741505,
        0.21059980048557528,
        0.15150658125106312,
        0.16903342744743435,
        0.1872409185427816,
        0.16360515334098893,
        0.046765447289713775,
        0.05772031231987149,
        0.002986405665885441,
        -0.06389678866755787,
        -0.025334566974140854,
        -0.03233688900813027,
        -0.11199086460559203,
        -0.05808747461195634,
        -0.008487293120241974,
        0.05401171363894492,
        -0.057984785275052596,
        0.07952249537806359,
        -0.03870450395074627,
        0.049299417064463565,
        0.1299575971930313,
        0.22173190718648741,
        0.1401994810642382,
        0.19967654912487207,
        0.1294968828155288,
        0.1876937745339087,
        0.10761429484793521,
        0.043540774811492315,
        0.08267374060621648,
        0.01975755399520402,
        -0.029148549114871317,
        0.1639364669770582,
        0.061905424351785,
        0.12238404218404854,
        -0.011189291716963303,
        0.04332393878241069,
        -0.0027016909262543936,
        -0.017188606646809275,
        -0.03632174061840256,
        -0.022194757708043723,
        0.0911540357083739,
        0.0008648142753778509,
        -0.03867388630792567,
        0.022318307951136297,
        0.003672630131839709,
        -0.06520553250488749,
        -0.033712568859049684,
        -0.06997965464304302,
        -0.008619707841076638,
        0.08691457747625835,
        0.07714963232585882,
        0.1334458085655314,
        0.12648961283637736,
        0.14432122306189704,
        0.18076908264149946,
        0.11570419532962938,
        0.07693269234463353,
        -0.018417888264051847,
        0.013560411087099976,
        0.020286821950489017,
        -0.03959955496991755,
        -0.023559067431407676,
        -0.1183960035475171,
        -0.005389615814097381,
        -0.07556344535962893,
        0.006373937293718492,
        -0.04481254979092405,
        0.028632119767832254,
        -0.0016129481643391678,
        -0.10351947070959915,
        0.05234318342649153,
        -0.04657751195895143,
        -0.008597849765140648,
        -0.07758230068942294,
        0.0285851619441164,
        0.02022410432450842,
        -0.017761728944990972,
        -0.0038209017931507363,
        0.08527024540762014,
        0.06018482174233124,
        0.06175227708513974,
        0.09662236747868953,
        0.15912860380851687,
        0.0975762730323367,
        0.05187628044512301,
        -0.029615530164714375,
        -0.007795972409367694,
        -0.047297992498106685,
        -0.12036860881874818,
        -0.049587097474602375,
        0.04873498485925453,
        -0.0021624051635958383,
        -0.1085550336449959,
        0.045632020112084955,
        -0.03478780514616812,
        -0.00015282718348871068,
        -0.03492390650233689,
        0.008910395916289173,
        -0.06688595189091086,
        -0.002342609928702907,
        0.0163361217089079,
        0.023421309612829892,
        -0.005640149876762034,
        0.031085565912804154,
        0.03312057527076389,
        0.025440978151396273,
        0.06107517314816946,
        -0.022199858009784974,
        0.10591106932516282,
        0.07825698434857688,
        0.09230217910590487,
        0.047017952528039524,
        0.03806181909331947,
        0.020076785517839972,
        0.0635256176108744,
        0.01171798347776142,
        0.057031318467068416,
        -0.020093067058100433,
        -0.029789486782852762,
        -0.09732798069488797,
        0.060312960343849524,
        -0.05017463665288235,
        -0.07168453704908552,
        0.014236866954102452,
        0.08814654831036732,
        0.007188279927581161,
        -0.014082349383787112,
        -0.05229034464223759,
        0.06100590400464693,
        0.027342942117991792,
        0.015244155817014186,
        -0.013666780778158786,
        0.04454376953038169,
        -0.08053382197518426,
        -0.036876125072765865,
        0.009464365473591715,
        0.010688825327066968,
        0.0014496203898917554,
        -0.07432360408425163,
        0.022478993470533358,
        0.037529108491369846,
        -0.04975303613987112,
        -0.1384979743914536,
        0.03080055481533262,
        0.05847255573511904,
        0.03758259445389032,
        -0.06541602905577613,
        -0.04654222609070203,
        0.053348413566752344,
        -0.025734698820492466,
        0.03448631606326286,
        0.05304915901261601,
        -0.04243933719404492,
        0.05618051286340137,
        -0.09327761239859582,
        -0.09066926796187379,
        -0.00457211561631513,
        0.010849898647798924,
        -0.09323997466253468,
        0.03933848419159527,
        0.049832383187575637,
        0.013662176777144071,
        0.017413720990074415,
        0.051763496779499395,
        -0.006114388169192852,
        0.016206528030898136,
        -0.052676196114096734,
        -0.023045646138046764,
        0.004730862155049492,
        -0.00726868552429561,
        0.049790323526322254,
        -0.05971535869627907,
        -0.06545837897587119,
        -0.026759085238137685,
        0.024411606629169955,
        -0.06555079711650984,
        -0.03383258806366809,
        -0.015584278330228176,
        0.0005676720398885871,
        0.08454331882776485,
        0.022256605264845665,
        -0.004921944104913248,
        -0.014551091425932904,
        0.015397286884676174
      ],
      [
        0.09339941646927755,
        0.08324960851443,
        0.17155242987687103,
        0.11356937876516832,
        0.12359387588712346,
        0.09821682888607944,
        0.08145902583122375,
        0.06043014675234085,
        0.068517719445087,
        0.027769327730596833,
        0.10495655999339176,
        0.10333763696045087,
        0.019596952830782385,
        0.07760229946939204,
        0.04598530591583228,
        0.05869425409031707,
        0.1088048215270506,
        0.11582176436977237,
        0.17383367031560787,
        0.070515507528957,
        0.05862131461880903,
        0.08850913551523029,
        0.15113332756278708,
        0.1025701796968484,
        0.1333122032607244,
        0.10338183283085928,
        0.2159280280646625,
        0.07913976131941658,
        0.12707479300740843,
        0.11733767894249023,
        0.03829462393553313,
        0.16097366723702822,
        0.0936150824613399,
        0.1368559761985052,
        0.14029975957323,
        0.13232799476426027,
        0.06661011539911288,
        0.12099861685048502,
        0.12028757231713089,
        0.025803230977145163,
        0.12775726229199164,
        0.15413863578217635,
        0.09738087860262568,
        0.14180946435738284,
        0.06604700777877479,
        0.10720701410590822,
        0.13643425972148343,
        0.12670799841512886,
        0.09008978815125751,
        0.010658340143359951,
        0.03232048710466995,
        0.14369838501353394,
        0.06690050026830477,
        0.10198915259526153,
        0.15839961619258275,
        0.09145360423495752,
        0.08081793996933295,
        0.09737810072080072,
        0.15657423457671743,
        0.11680649022468492,
        0.1511762571785582,
        0.08391871321822886,
        0.07175624591643825,
        0.12180487336344933,
        0.17753560380662609,
        0.13814478962505533,
        0.09604055528784289,
        0.031203299405249813,
        0.051715268202917976,
        0.07394746917820533,
        -0.018291232871009474,
        0.026019677662008963,
        0.039878931315279496,
        0.11736794322831781,
        0.028923162658433827,
        0.1650645198007606,
        0.08231107330215226,
        0.07106148591795519,
        -0.022113583285109827,
        0.08113396221400762,
        0.13241453571856676,
        0.11886828599065746,
        0.16421713755738415,
        0.1407004908310267,
        0.036149140174798026,
        0.041839765647734166,
        0.0789909786663224,
        0.0786743275270648,
        0.04551790300612684,
        0.12114258005408135,
        0.07395981610601274,
        0.11458857568856695,
        0.1134583913721123,
        -0.015433069199610757,
        0.05973256694340381,
        0.0009400036106777832,
        -0.10939232213235073,
        -0.05107697870235379,
        -0.10320985792944831,
        -0.08003846348080718,
        0.020856687115405784,
        -0.07180086073838285,
        -0.07702329269032127,
        0.06537612850699415,
        -0.018140391131403377,
        0.06748865250210306,
        0.09592738046859792,
        0.1200668370795504,
        0.05758272022280258,
        0.15138047341651095,
        0.11204445357116372,
        0.1291832116164724,
        0.09287432438467635,
        0.12693002030185022,
        0.23644732115825617,
        0.0597137781446589,
        0.07838442746316343,
        0.08184251191936243,
        0.08011449500076029,
        0.06005560736529506,
        0.05590548616030861,
        -0.07015991105000888,
        -0.07522526977919763,
        -0.093426656519362,
        -0.19275119263322743,
        -0.1571888766418038,
        -0.2046197689102227,
        -0.044685465149544114,
        0.02265057516169507,
        -0.0951393097987838,
        0.0678978226939368,
        0.09820593043591308,
        0.12135745904655268,
        0.12384665131191641,
        0.1244277094504895,
        0.18379025550995215,
        0.17858664761461335,
        0.07652236902438095,
        0.10957445490509282,
        0.1132952938849889,
        0.14349990655369704,
        0.1261609601939464,
        0.21321601182739008,
        0.19733988492830296,
        0.0312671875791122,
        0.17822972080986416,
        0.08902735483979604,
        0.011633917920662533,
        0.0028415448995782397,
        -0.09431292062743357,
        -0.06324286509911371,
        -0.1926336320600241,
        -0.221467372174447,
        -0.05194880415939573,
        -0.14252312392559485,
        -0.009445765990247022,
        0.18022825671036707,
        0.20509211869073035,
        0.3225652653651294,
        0.2527120328997431,
        0.17524097181816056,
        0.3071861566823937,
        0.12741621329437886,
        0.256254733107819,
        0.05286305652534024,
        0.07357675073177189,
        0.1483843536041502,
        0.06615279618902445,
        0.11620108910889154,
        0.12830800067523515,
        0.1653560847359541,
        0.08287749592071794,
        0.13239123857857482,
        0.05949604274289178,
        0.07061239736665695,
        -0.06413688472391339,
        -0.0473657990374989,
        -0.08921685316586589,
        -0.18664066084745562,
        -0.09892323205489767,
        -0.04290141201891084,
        0.015625935857663937,
        0.08323687966036619,
        0.23756268738828218,
        0.21067167961865402,
        0.17703164064982502,
        0.22101545987231058,
        0.31561616778869805,
        0.27366834360655257,
        0.2450834442068643,
        0.1614013884535319,
        0.15325460984688466,
        0.14298588508740306,
        0.06713811418059934,
        0.121052361958223,
        0.09240312479624857,
        0.08540244743812642,
        0.13165051511616882,
        0.12799009431321742,
        0.18210735817368606,
        0.07207558758528204,
        0.10484107764328787,
        0.10803177935780126,
        -0.1045759971079685,
        -0.06593131215973638,
        0.005619181387137306,
        -0.1752352452747991,
        -0.147209064518529,
        -0.03641506197941146,
        -0.003910455712050433,
        0.23370292979976331,
        0.08268033499016667,
        0.10487453518511866,
        0.22525640131551883,
        0.22464728193010075,
        0.3316697520698446,
        0.2417541363797028,
        0.35422028127632754,
        0.1917674279526274,
        0.15174761383960206,
        0.1353952961533375,
        0.11471833790063707,
        0.11355659943560234,
        0.1503877424917126,
        0.15573835982371786,
        0.15800467442496974,
        0.18232151770342814,
        0.09485396720653722,
        0.04362450954329725,
        -0.011397348805220864,
        0.01229222156911148,
        -0.05234189929745358,
        0.03195874732361633,
        -0.06528056509902519,
        -0.10309467081629523,
        -0.09891350663035467,
        -0.056920683145202135,
        0.011668387068232988,
        0.05485700069876236,
        -0.04921437071330407,
        -0.09266579579697587,
        -0.035210601717973924,
        0.06909637280502258,
        0.1467633812825641,
        0.36747613083642705,
        0.23826428741985112,
        0.26740046324503314,
        0.2325054674183556,
        0.28223525493656765,
        0.2323899553344403,
        0.1287509998818158,
        0.05441165522175225,
        0.12770651197509783,
        0.16345299321070184,
        0.07951591728029847,
        0.09972078760797312,
        0.10120059091251846,
        -0.03935493356029771,
        -0.0221701614401307,
        0.11488017665025879,
        0.04749845898532177,
        0.16445255846188156,
        0.01033898388083155,
        0.02546352367760241,
        0.03125480195911624,
        -0.03311624363160185,
        -0.14891024611697962,
        -0.1315353951654897,
        -0.2755715793517941,
        -0.055961820752237136,
        -0.027013562415134345,
        0.07879937300506953,
        0.32592204579441053,
        0.3684508233650625,
        0.3977374533990602,
        0.2230390456918988,
        0.20924321715067357,
        0.17926297655418738,
        0.10280586032210967,
        0.13110477663879888,
        -0.0607683123931982,
        0.1332261430599611,
        0.16848223798080958,
        0.11120972249290301,
        0.017405834110129314,
        0.15945281469701356,
        0.06798400602155844,
        0.13295688842908054,
        0.20842045901840134,
        0.35982970360123345,
        0.1548047405198883,
        0.06321197119351789,
        0.10663724737990579,
        0.07623982020333323,
        -0.0014216812725745603,
        -0.09596159741311652,
        -0.10162914197465397,
        -0.12658994580394067,
        -0.0242732870286277,
        0.1795297073132887,
        0.26993653084281993,
        0.3519616362145199,
        0.31143431940386623,
        0.3728415346549916,
        0.11705667389245894,
        0.18703443713698448,
        0.10208091070863834,
        0.13744468742546762,
        0.15952388651203736,
        0.10840590712905185,
        0.12723949427002082,
        0.07784176419955346,
        0.015633747423665217,
        0.14417110946519102,
        0.11187079002578862,
        0.21381352783777519,
        0.258957508322816,
        0.1692247632075926,
        0.10543576924531547,
        0.22992209650790046,
        0.10621777807808633,
        0.09827702353625128,
        0.0728389471174195,
        0.017372905221400548,
        0.014831404977005077,
        -0.07946962098865687,
        -0.07491652910470209,
        0.08501811250837216,
        0.1913193120759198,
        0.2539065840640238,
        0.11248857494203923,
        0.09786685812991888,
        0.09138942965733551,
        0.16316616733994183,
        0.05540422648874551,
        0.09984070683415502,
        0.05547925623838234,
        0.066687477709857,
        0.09788785210544043,
        0.13195314725117513,
        0.06041453637165394,
        0.16906115183279175,
        0.14158924636601272,
        0.24188765598640438,
        0.18022865424088969,
        0.21644303244316732,
        0.13641021998645592,
        0.23114500063675109,
        0.25731296463203246,
        0.2713813777494242,
        0.16303857590689885,
        0.22465825430074676,
        0.025176749871242857,
        -0.003966541153666578,
        0.0023879669627901367,
        0.006203335425093159,
        0.20977691745427401,
        0.19489421370930055,
        0.18755028015188496,
        0.16360491187490656,
        0.054353428963795115,
        0.03631523079281227,
        0.097945914513072,
        0.06488391415704933,
        0.030822875521994735,
        0.09509326342396945,
        0.14019085958798555,
        0.10897626875122232,
        0.06536528681417557,
        0.11947005223224097,
        0.1474463010411916,
        0.11691236215621117,
        0.012522049905176007,
        0.010438811153684306,
        0.0940010665697539,
        0.11971654414356378,
        0.21958197961560683,
        0.5122273557599559,
        0.4692574356724115,
        0.17353976350258676,
        -0.026591384796562135,
        -0.3537640397836611,
        -0.1970012480877369,
        -0.12544297601463894,
        -0.06044800459594626,
        0.05197713926246673,
        0.0060482870643082665,
        0.06557087952944946,
        0.07106606893357348,
        0.11972228162549362,
        0.06133829393000597,
        0.15799921162497593,
        0.17360433759067612,
        0.11835701271526769,
        0.07767876350720138,
        0.11252416690793574,
        0.13679342029659036,
        0.18307120218154155,
        0.04152865702463058,
        -0.012647495811642512,
        -0.08601849218251079,
        -0.10166208112499103,
        0.015345176516077514,
        0.20091229065081595,
        0.43373361921775233,
        0.5820682806105694,
        0.5707010456162073,
        0.07136477331982542,
        -0.24460657915258766,
        -0.3885385682580873,
        -0.42757968131198587,
        -0.3221828977604624,
        -0.2720622784914464,
        -0.13824338935958103,
        0.026637272248313453,
        0.014312247801484839,
        0.04063223651408005,
        0.11005952923660209,
        0.06753515758287837,
        0.10620596405169674,
        0.008352173809531651,
        0.2065485764678096,
        0.1411599480017951,
        0.09207569234093743,
        0.13007316915087053,
        0.12269183974805706,
        0.07522094846278968,
        -0.14143697871859673,
        -0.09366753736601927,
        -0.166860003399753,
        -0.0051695913187179005,
        0.15687291366304246,
        0.48924541249351006,
        0.5912312599235788,
        0.449038531492827,
        0.13172594596581255,
        -0.2978314397586477,
        -0.3836793835714293,
        -0.35899574911612997,
        -0.4578966860027489,
        -0.17639575642769745,
        -0.21805865619462894,
        -0.16841360488617424,
        -0.07669690295778722,
        0.18584918151740537,
        0.11053890515820286,
        0.10156879207075442,
        0.08951813793302302,
        0.11184841840642049,
        0.08013259348043136,
        0.05633471111996733,
        0.02575316017218968,
        0.016242641784352304,
        0.18227242796425702,
        0.06792307641427284,
        -0.06255719065716178,
        0.041602449043595745,
        -0.06148601795920234,
        0.08749452204779459,
        0.19144103297796838,
        0.4640734974897658,
        0.5281903167433017,
        0.348951164054112,
        0.037360512784796,
        -0.07323961366331322,
        -0.2229610252158164,
        -0.24235290893798184,
        -0.34582707081199704,
        -0.22959124336166764,
        -0.1022012699119485,
        -0.08121265823239798,
        -0.0016654539840766911,
        0.020870743066295983,
        -0.0023073145900718026,
        0.016875907011615805,
        0.047658685714797734,
        0.17718519888012796,
        0.14255189652352113,
        -0.005171971627005655,
        0.05906045040298943,
        0.10338539193469776,
        0.18447396620845102,
        0.08806137642252859,
        -0.07938133747018733,
        0.07427036989730967,
        0.02522816647615422,
        0.07874837892731829,
        0.2864466768391979,
        0.28251442380608177,
        0.3873992013973433,
        0.20761039975192436,
        0.004927681853050722,
        -0.12929076383572413,
        -0.14949242960097797,
        -0.3333053856753899,
        -0.28141841368652154,
        -0.34536581383475196,
        -0.19058896138790693,
        -0.012373971011662883,
        0.07156554203299051,
        0.013017738361626376,
        0.11151810273714935,
        0.04876276141741084,
        0.127455558764723,
        0.1801512220758661,
        0.03870247912620544,
        0.08356263701054922,
        0.058168393145185564,
        0.10731158712273045,
        0.12759236706400873,
        0.10201226575590719,
        0.16295467727291052,
        0.11943538998199507,
        0.14508476739017973,
        0.027094191745707066,
        0.22098641301266364,
        0.15799871887505346,
        0.17622025795003127,
        0.030172946162188446,
        -0.13791573278085179,
        -0.08301009459051198,
        -0.347085001076167,
        -0.37500820221580844,
        -0.2990553441663204,
        -0.15141596631965054,
        -0.06533084394864215,
        0.08701795850679139,
        0.07096624527581208,
        0.17950184405061448,
        0.04443007162752181,
        0.10570377031049485,
        0.13933568844774452,
        0.13968094723874902,
        0.12948636047944773,
        0.08925708461022189,
        0.15095863350487176,
        0.06434334421778612,
        0.10330928178094528,
        0.16126564311204822,
        0.20161037495410572,
        0.30351058036504674,
        0.11038319931644974,
        0.07664107740077825,
        -0.008356595327664945,
        -0.0005328066850052153,
        -0.030636383503334214,
        -0.15689790217567506,
        -0.1970310644060449,
        -0.1129473720171372,
        -0.2749697127491314,
        -0.3800433047567672,
        -0.28572830895694645,
        -0.08394519735593073,
        -0.10705262792044312,
        0.006976545952603736,
        0.16515413400441942,
        0.1091763961559031,
        0.1703652401656267,
        0.08539876116116552,
        0.0339397170230363,
        0.10975132589508049,
        0.06469585774377383,
        0.04028498512739597,
        0.07865765247358544,
        0.09771794730107689,
        0.06975186256544008,
        0.16715470823919465,
        0.17411200474982924,
        0.17656562304955026,
        0.21087783281884553,
        0.09679422777935134,
        -0.03700931423281687,
        -0.1905295135901085,
        -0.29941551785027676,
        -0.40893144171235185,
        -0.359879133870592,
        -0.29491800046245864,
        -0.35595517847974023,
        -0.25055620423131975,
        -0.20061081569307743,
        0.005587580145128113,
        -0.0969994333963119,
        -0.021946732109012147,
        0.15364886667746097,
        0.18967794577379288,
        -0.005698016597660685,
        0.13091979765472883,
        0.15461254620742115,
        0.02799142077395508,
        0.12861210378088897,
        -0.022985942761528873,
        0.05033145115628628,
        0.014457029722266833,
        0.08465529458147969,
        0.11275030548525605,
        0.16785076017354617,
        0.24731167443546917,
        0.2060905098218932,
        0.15879075045148627,
        0.0579155468842267,
        -0.10222891874222328,
        -0.23898987180431236,
        -0.23954604154348785,
        -0.23846874310834124,
        0.00629847988464651,
        -0.05363666568201987,
        0.05909273424043946,
        0.12576852843160125,
        0.09868746313515164,
        0.08380490335738974,
        0.09809633292224984,
        0.0871110395611234,
        0.11555561001936893,
        0.17102834458160854,
        0.09496841993937163,
        0.03138181526400792,
        0.17282559208686787,
        0.0846943836270729,
        0.1516027783696794,
        0.0713127290930207,
        -0.007380814298439562,
        -0.012650226735582262,
        -0.04943563660838366,
        0.04889312478178157,
        0.01691969338961698,
        0.15150308248503647,
        0.18712897353674307,
        0.25136218901854684,
        0.20264898968095924,
        0.21081609198793883,
        0.24489754328982066,
        0.3698028610949947,
        0.19016149810608596,
        0.21178365097923335,
        0.22785994029791384,
        0.1944726841866266,
        0.11621708556681457,
        -0.0024748856031698817,
        0.13189101843976986,
        0.1825857821325606,
        0.15947698426126788,
        0.08877182553239085,
        0.09165282999668023,
        0.11726990871721396,
        0.06417462771451293,
        0.15146858421327697,
        0.11549228804265993,
        0.18093316554605077,
        0.08414723058364154,
        0.04188990581182717,
        0.14014680156247156,
        0.0692980457312293,
        0.15299313696234423,
        0.06920286804943393,
        0.08837983555847137,
        0.2606782063505778,
        0.2259551716687544,
        0.27513493169982595,
        0.3800943872152305,
        0.4288387379583861,
        0.423899737052867,
        0.35849996065330736,
        0.21812775436948095,
        0.1320873344494911,
        0.09528903808042283,
        0.14899681313121016,
        0.12901801630127338,
        0.19964942577582168,
        0.21401242726278907,
        0.041718999288827295,
        0.13960061843245514,
        0.09506239299319388,
        0.09826340328093794,
        0.09975745192392954,
        0.125719830192298,
        0.04183354749655512,
        0.09884113045690274,
        0.06779517604424062,
        0.05971345131567995,
        0.09997981648107829,
        0.060141135256287316,
        0.05726512219164772,
        0.0666471399472672,
        0.014255161642969087,
        0.026152510849984562,
        0.16159303745971598,
        0.15749963388263438,
        0.18424478657763094,
        0.24761619105913257,
        0.04732601574058785,
        0.11845265215847603,
        0.13519611464134113,
        0.04545492155123699,
        0.07498466922678643,
        0.08822348362919316,
        0.09125699962474784,
        0.10894467801012128,
        0.1093409400649116,
        0.1356825648077939,
        0.025510351124463527,
        0.08946594065711613,
        0.09323276712889936,
        0.10055426948997309,
        0.19618399021904886,
        0.08702657947513176,
        0.09976126328074109,
        0.13187881733140566,
        0.06408986544905015,
        -0.029901419054396323,
        0.06515545043417939,
        -0.059917557434148234,
        -0.003496103559516687,
        -0.05071529776811829,
        0.03405966316188816,
        0.07293701546115358,
        0.03780376577644568,
        0.08855363298083926,
        0.11427203515556236,
        0.13504728287374507,
        0.0983220347168664,
        0.13200711313407076,
        0.13804335668726414,
        0.11879791598522269,
        0.12505009721008198,
        0.12145952889813733,
        0.18826833711914293,
        0.14046879759185327,
        0.18591832272124847,
        0.17421887447895323,
        0.11126255070614907,
        0.15126283485502046,
        0.05059161483379188,
        0.16726962449623084,
        0.10219307954119114,
        0.06796432787870876,
        0.07045797811850435,
        0.05131455187129139,
        0.141602413377665,
        0.11029129957336015,
        0.04274169708642619,
        -0.06159732321855571,
        0.04205070162740295,
        0.04752324734339971,
        0.06133752033869127,
        0.01759232306309846,
        0.038902860075801245,
        0.056925769085699206,
        0.14443117108751474,
        0.15348591369439601,
        0.05024339577202062,
        -0.008415260854940636,
        0.1106262064743539,
        0.12384079544206669,
        0.1917375218783277,
        0.15325499396107167,
        0.07409882071047905,
        0.09726785595685955,
        0.10170905130714145,
        0.15178907377061818,
        0.12158470052400819,
        0.11162325834047213,
        0.09171666308277107,
        0.061866512117029766,
        0.15722711193002753,
        0.11165668663378983,
        0.13222803997830967,
        0.10771076647343317,
        0.08133629528339234,
        0.05496246765306404,
        0.03497264829499535,
        0.14656909032110332,
        0.11401033365812477,
        0.05346479482627676,
        0.10157046261298061,
        0.04640498964263081,
        0.16025335123951723,
        0.007205577752844661,
        0.13445241752434606,
        0.09848402138534393,
        0.12867788543898775,
        0.10292381166448858,
        0.08300916435712147,
        0.09595309110925207,
        0.08770395376532883
      ],
      [
        -0.06659658744143104,
        -0.00046048737968496536,
        -0.018845487575557533,
        0.031411484045741435,
        -0.07465757878326684,
        0.038774042840785325,
        -0.011137867775383834,
        -0.10730322447113655,
        -0.07130486032436179,
        0.01138782791385883,
        0.037746362626464816,
        0.023586265882934096,
        -0.008981092362173178,
        -0.003596923373269085,
        -0.026181530459136133,
        0.046843986485397116,
        -0.06252543632072562,
        0.0021822651912237092,
        -0.10594395001163767,
        0.015582475979726637,
        -0.023116301675887012,
        0.07277797441234829,
        -0.007523138016819882,
        -0.037433217564527,
        -0.029135296254761682,
        -0.06930769254005292,
        0.040747258087791616,
        -0.036994598874421636,
        -0.021263954294643186,
        0.009080793794568453,
        0.04353791661192108,
        -0.06993074711988567,
        0.08026281917870987,
        0.04360804227468154,
        0.009224006331205906,
        -0.057489266863311,
        -0.015673423015442757,
        -0.02856123557974223,
        0.03487093926580975,
        -0.10253356046609771,
        0.003735624074191456,
        0.035763168440180085,
        -0.05998279287803618,
        -0.01704365039031263,
        -0.11277244265175682,
        -0.09926034026382055,
        0.04888561941577925,
        -0.07787239328120366,
        0.04048146281955188,
        0.009557115097036198,
        -0.0004967253346136021,
        -0.054980449127470216,
        0.01642567446516469,
        -0.004667701456159529,
        -0.025505778617043888,
        -0.06583347096685914,
        -0.09522186968037999,
        0.04760839107567033,
        -0.003268685778963663,
        -0.004490240995790806,
        0.029676425897004324,
        -0.07550151048751147,
        0.0032202230252681642,
        -0.09457545519484648,
        0.05294866726066226,
        -0.025335889478932352,
        0.020127418030383044,
        -0.016600828687380796,
        0.02742649080820387,
        -0.01886338507504389,
        -0.08866822745442798,
        -0.043595479851891036,
        0.03988408585916879,
        -0.015478969390433554,
        -0.000335036478168975,
        -0.053776512942213445,
        0.06006229375730343,
        -0.05730054950637342,
        -0.042952217436028256,
        -0.00298659583270259,
        -0.0024057464133158384,
        0.10959659381631759,
        -0.019990489628525197,
        0.0038284708532502305,
        -0.022596885902366214,
        -0.06547667213783788,
        -0.035148222797257114,
        -0.0005378350601537484,
        -0.011707488978387586,
        0.024288537707350344,
        -0.036654413660175286,
        -0.0024642248665600426,
        -0.0873890668582129,
        -0.017644770467782976,
        -0.034797382025672494,
        0.11950423751503947,
        0.12119902106657048,
        -0.02026272485224219,
        0.06105833019019233,
        0.037666975318164014,
        -0.022537049695564457,
        0.04541597718265522,
        -0.055161985105965025,
        -0.10525741271705671,
        -0.023336657328833853,
        0.01851273722698115,
        0.05826100684410282,
        0.03175119312868113,
        -0.05840469764578189,
        0.034072170997829165,
        -0.08748766533326335,
        -0.04428198737997212,
        -0.045203759602276114,
        0.05046858210087876,
        -0.029263446301814336,
        -0.077154409903922,
        0.03627472356396558,
        -0.07170748520672807,
        -0.0468195661404827,
        -0.02061254111440912,
        0.10823873480176124,
        -0.01678006651559013,
        0.01842918427580041,
        -0.04424535203464963,
        -0.09835852059882752,
        0.016916014156156792,
        0.07470566219533986,
        -0.13842771431747206,
        -0.07664610713138738,
        2.0892073071208056e-05,
        -0.059316150374565724,
        -0.10606288458322904,
        -0.15441212625926262,
        -0.040952312170180194,
        -0.028730247259181586,
        -0.0544896977384499,
        -0.022507776528849728,
        -0.10077270357457802,
        0.007258172642581463,
        -0.017131834341237204,
        0.04858705527484082,
        -0.04078670855170263,
        -0.060696141294674315,
        -0.05268665399290051,
        0.008705536378362213,
        -0.055720925911123625,
        0.04898222810589668,
        0.016552505306785533,
        0.09101348618584157,
        0.043002568760813806,
        0.08421871334879685,
        0.1615132948212011,
        0.05265866173163572,
        0.08075920173808179,
        0.1139791944973384,
        0.06976485367842,
        0.1545688877921683,
        0.08802941840970724,
        0.07045143198939566,
        -0.07899792966106697,
        0.11061689709886163,
        -0.05373573377672934,
        -0.058460706344128435,
        0.050144693492016,
        0.007025981054931566,
        -0.02616255595708227,
        -0.017220074397694386,
        -0.024765691627342677,
        0.03247746619393554,
        0.01953690391183427,
        -0.022164577196520686,
        -0.056184048288340976,
        -2.355798218744662e-05,
        0.028937958557455797,
        -0.01944959636616518,
        0.04473649176619572,
        0.12787073263771856,
        0.11500512733801108,
        0.20749847169742489,
        0.1290170229114467,
        0.10830465074493928,
        0.01363640358771047,
        -0.0864321034485821,
        0.04685286808203208,
        0.18092140157658945,
        0.12425321244092104,
        0.16495961771754,
        0.04298833491270872,
        0.06252109312992758,
        -0.07550134454296942,
        0.1103236122668505,
        0.0062739876530734295,
        -0.020489907056569036,
        0.008767154016884812,
        -0.036822928765851484,
        -0.10871212139260356,
        -0.040660088924208415,
        0.004061338231658062,
        -0.10476110515140952,
        -0.004760128182146837,
        -0.02395178159591979,
        -0.09447092060059983,
        0.035692042146954844,
        0.08983956101513119,
        0.09999215110341919,
        0.14348158413373993,
        0.23009309743039993,
        0.2778517197764745,
        0.15202841368552147,
        -0.03617688010725763,
        -0.13767109784210543,
        -0.12527882523976167,
        -0.061286656347405793,
        0.05765130115349736,
        0.18275049930073792,
        0.1456861467549477,
        0.15928795333944815,
        0.19738887688873166,
        0.1457778912293932,
        0.1259934687006362,
        -0.05320771096601058,
        -0.011205927660230623,
        -0.025020880610234046,
        -0.028185659467199302,
        -0.02039220472188917,
        -0.11333142785304265,
        -0.048289927820249115,
        0.07867870159377138,
        -0.05941849851654879,
        0.010389372932197759,
        -0.03166989388014442,
        0.11359955647417228,
        0.08767778252078717,
        0.22513447225506142,
        0.27202779057967225,
        0.30108085444480875,
        0.19583453758493538,
        -0.03230800770765102,
        -0.13544884604340343,
        -0.10629174291624213,
        -0.07252317195882498,
        -0.046670266706523564,
        0.30550321029144517,
        0.4578989965233467,
        0.27584857617925646,
        0.18499863061277985,
        0.06930118447087254,
        0.10865276742077135,
        0.09723227786304145,
        0.017634624594091257,
        0.02408178024540307,
        -0.11054357171181595,
        -0.07226195941974711,
        -0.04424579993510161,
        -0.02207649528811538,
        -0.04182776127569812,
        0.021529600850384842,
        0.03883383055803316,
        -0.01059030853437601,
        0.1082955526090239,
        0.20938440308276882,
        0.16019364251571414,
        0.23604583357960676,
        0.3274612180544821,
        0.17000775535819265,
        0.1042616190771852,
        -0.11816023605755309,
        -0.1909253267999069,
        -0.14051441076118018,
        0.101584749592008,
        0.2593622778403317,
        0.3186305475298429,
        0.327675035932819,
        0.2698888963265399,
        0.31794281053396944,
        0.13002088674048923,
        -0.0028081124160342693,
        -0.03532187238684238,
        -0.1302810556816524,
        -0.019554101748631827,
        0.001118299250272211,
        -0.004392939082175802,
        -0.08002109545406896,
        -0.07559990328618654,
        -0.016304281670019953,
        0.02645440633958538,
        0.019197998267693597,
        0.12208212726131651,
        0.1358920449068893,
        0.1724594430066548,
        0.16955153213146504,
        0.3193899640856169,
        0.258650100791339,
        -0.04997730159658746,
        -0.3690560101231998,
        -0.40463843098655844,
        -0.17224364274695667,
        0.09393541970826128,
        0.321150269781524,
        0.2935973611523999,
        0.34474330847569085,
        0.20626884570068357,
        0.058978901955133584,
        0.0677243414158704,
        0.023493271254149878,
        0.08036730611680673,
        -0.00914256892414043,
        -0.07031312200716197,
        -0.04820138849075678,
        -0.08257642732327503,
        -0.1078598786499961,
        0.001585208681520948,
        0.053954961460033604,
        -0.019435299636771562,
        0.08179015803097461,
        0.07449428106956558,
        -0.04445939037833031,
        0.1568230830145387,
        0.35774784004364485,
        0.4435317203008428,
        0.4490094921508658,
        0.01312531765071718,
        -0.539138961269079,
        -0.5832003290028032,
        -0.19612600087329032,
        0.12132830494441299,
        0.22073263003789048,
        0.1570287135454597,
        0.07055779505434143,
        0.15811712362820593,
        0.08994331486624008,
        0.057938343253911964,
        -0.08671906743466637,
        0.0031612010126793404,
        -0.014029712128354674,
        -0.03484507054844066,
        0.07839889526874105,
        -0.02146824463093077,
        -0.013626092395694114,
        -0.049079898064078406,
        0.005965186996621882,
        -0.08774421548827874,
        0.1172562844885501,
        0.07156792929905238,
        0.11424977509943982,
        0.29127565429771723,
        0.312184787693525,
        0.4290968150950304,
        0.4139619319327655,
        -0.09690493691937041,
        -0.7638444714406881,
        -0.6695124278343905,
        -0.24973278379492167,
        0.05344407144262156,
        0.06763980038390073,
        0.11644434181066154,
        0.1575065979006793,
        0.11676662083491221,
        0.1023781936524342,
        0.045777853586164347,
        -0.05229200519084014,
        -0.004076736953599038,
        -0.03386441552520163,
        -0.03285544544875582,
        -0.0017605646679672866,
        0.008405714843940763,
        -0.05997906649502856,
        0.06983599115564276,
        -0.033794111059117435,
        0.06729918119967576,
        0.04646836249927132,
        0.05140838464575451,
        0.11049474422272099,
        0.2302500917195506,
        0.3756178391387293,
        0.576620895868377,
        0.448471124552083,
        -0.42385174547511334,
        -0.7823390362925621,
        -0.6040270489480994,
        -0.08554736227802251,
        0.17088800692782494,
        -0.022862602298137392,
        0.035730023820493007,
        0.06891608149334583,
        0.06038746194655689,
        0.0750457063148798,
        0.11546073843626711,
        0.059009325924700484,
        -0.07608314399810134,
        -0.08923637219323483,
        0.006651496637814529,
        -0.006038234939766037,
        0.02348608303992618,
        -0.041157793133238224,
        -0.02334609580170984,
        -0.03999157360796056,
        0.07344364859793673,
        0.05599671479466757,
        0.14800272582643179,
        0.14984300150304533,
        0.24062622050505802,
        0.37857801849942435,
        0.5366280093248873,
        0.20513005018749877,
        -0.5484028264259504,
        -0.7298758050559638,
        -0.541414153194541,
        0.07981718107131035,
        0.10780500201170776,
        0.03508733627199327,
        0.08250113387060518,
        0.10616177967200277,
        0.1027345186234743,
        0.06096005495658309,
        0.02906597371384062,
        -0.01796482192063068,
        -0.06806265626019242,
        -0.002497651561189189,
        -0.01178051491640235,
        -0.0763516623799887,
        -0.041289763827259185,
        -0.012101967127774437,
        0.05152960337406921,
        -0.04582509910960325,
        0.024175048790624355,
        0.13749864848176777,
        0.06914906040129103,
        0.22306477886831946,
        0.1963433044956764,
        0.3878502524250336,
        0.28405420883884697,
        -0.05181909134501378,
        -0.6265958811303309,
        -0.6463887424036149,
        -0.3353903829263799,
        0.18320312884781012,
        0.1943425057605315,
        0.179565163077453,
        0.15871705292958269,
        0.20024329507714314,
        0.14962597821919557,
        0.13946270558644916,
        0.10683754473778997,
        0.006829314051612709,
        0.04850188111839754,
        -0.03518790887574244,
        -0.007169855037342305,
        0.0023842810841705267,
        -0.01202697962490733,
        0.02328278897463463,
        0.01188086461033414,
        -0.01730848846429072,
        0.013255777447867547,
        0.1256165081833995,
        0.18556466597326324,
        0.18637293045010153,
        0.29771102467962585,
        0.2721922017546912,
        0.10329741483472077,
        -0.34115886022995506,
        -0.6133089906208764,
        -0.6169861946119909,
        -0.030033341238968135,
        0.27901910188286716,
        0.27571110103107943,
        0.15183481453192363,
        0.16313436286688407,
        0.14819894368965106,
        0.10636063599019374,
        0.17414866659682068,
        0.04907818313417027,
        -0.02313933284255837,
        -0.10075554169216966,
        0.017338267650904647,
        -0.05328211133497503,
        -0.07618423519635126,
        0.022383423691781167,
        0.005258339692623075,
        -0.009749208183281977,
        0.1087121756757409,
        0.16215399749332252,
        0.20557747241285504,
        0.14121150268303975,
        0.2743361127404352,
        0.2048780928330484,
        0.24607016487897823,
        -0.08451343753952638,
        -0.37194046597135555,
        -0.5888084305233309,
        -0.44700580120352246,
        0.0023186331436129384,
        0.2973987037325163,
        0.2552858657991936,
        0.24686744110393696,
        0.2921884725300385,
        0.20838863481547878,
        0.18905697515749523,
        0.07612895665130257,
        0.04300701967392888,
        0.0918108748674124,
        0.018167189859151063,
        0.05722450902246545,
        0.09593746763754335,
        -0.00376468090768601,
        -0.04390033153899338,
        -0.05961054994200436,
        -0.15426654835488693,
        -0.0349610875927229,
        0.1437681840229574,
        0.21164581825875559,
        0.21520962903298943,
        0.2305585327575583,
        0.1581114803115591,
        -0.01015681372313026,
        -0.09451495003387032,
        -0.3900105135375737,
        -0.4661549492556747,
        -0.2657416509151926,
        0.04752246738450204,
        0.1494663362633666,
        0.29692008951656673,
        0.31158045864047146,
        0.1999078389612389,
        0.24990490374283036,
        0.13820543116376113,
        0.14056421461015647,
        0.017785150141050067,
        0.03669877419844868,
        -0.028215936821172315,
        0.024178955573039076,
        -0.01117392540694266,
        -0.026913287257615437,
        0.02913846724842266,
        -0.013322368226672843,
        -0.029776503434604307,
        0.027421730893961285,
        0.013061168996859265,
        0.25613227705044445,
        0.27820144968488125,
        0.29270947017057214,
        0.2751983965283395,
        0.08343910193700813,
        -0.07137662015468807,
        -0.3308260543579107,
        -0.4308587349603779,
        -0.08109554180252657,
        0.06020254951641922,
        0.22013939111811967,
        0.2305039452713966,
        0.2862220231043258,
        0.2983177629920591,
        0.22074548589490142,
        0.13780279325854292,
        0.05783239908805447,
        -0.04226737138631026,
        -0.01350007275692273,
        -0.06561381084136221,
        0.010612967199271186,
        -0.03887779578334527,
        -0.003343498818245758,
        0.04224097093774393,
        0.024616429578103588,
        -0.07614091455933697,
        0.008792165091725692,
        0.058741467786592394,
        0.10650218919136478,
        0.22126096956887717,
        0.385890005250268,
        0.2066307749739392,
        0.0060754723108425645,
        0.03775472470742793,
        -0.02677965007911485,
        -0.09497873698410705,
        -0.03471607494993817,
        0.049622722932377156,
        0.0464656242267483,
        0.22156525071628422,
        0.1136134691473859,
        0.23375604160404737,
        0.08393730964934595,
        0.03575291904628643,
        -0.024043161491797048,
        0.05505291816920864,
        -0.029994512845224447,
        -0.021091264852522836,
        -0.03682258852549586,
        -0.06001874647050222,
        -0.03712728783485639,
        0.04223163776323091,
        -0.02840844276450801,
        -0.03688058938709536,
        0.03262001081967842,
        -0.03941017045311128,
        0.07118700818823376,
        0.2488941045536165,
        0.18243152111305502,
        0.23464338326692677,
        0.12012913357649549,
        0.09852006811112998,
        0.18954086296163467,
        0.09663996195864549,
        0.05747374877966442,
        0.0611554831114179,
        0.12073117203454217,
        0.11158010462031578,
        0.08138228193813793,
        0.09328894799222345,
        0.104540080486693,
        -0.009480818792037502,
        0.01171877110514047,
        -0.06924785204906064,
        0.013028031807596334,
        -0.06956635180488177,
        -0.07070861867433115,
        -0.0023225617061938247,
        0.013281939069774344,
        0.05794283472582416,
        0.02926465621978739,
        0.05512444453963572,
        -0.07506747721086018,
        0.0496421303095165,
        0.07616829368138171,
        -0.03350114796732276,
        0.06718281387265582,
        0.07443481750307042,
        0.15873946073601566,
        0.3285310250012689,
        0.35796261190517914,
        0.31267860375080786,
        0.2365289813891918,
        0.06993948100810587,
        0.06806436120201854,
        0.15778405414383137,
        0.05749183024495065,
        0.03039526393466055,
        0.0167778022400814,
        0.059531321288568015,
        -0.0018801157966953867,
        0.022693459499981902,
        -0.10117021419547581,
        -0.06550294570422409,
        -0.0946240739719314,
        0.022347886319137034,
        -0.03581996634128154,
        -0.11297047612122726,
        -0.04641413773915615,
        -0.08973400427090106,
        -0.01666423627470083,
        -0.06549550058076055,
        0.06999518650504327,
        -0.023951772989648047,
        0.05637560228868079,
        0.047846143247693526,
        0.06954162384423308,
        0.13592995183771342,
        0.3368531984235082,
        0.16502569597187985,
        0.0771752508939268,
        0.06137500935127402,
        -0.03530710720278665,
        -0.04379418047005093,
        0.0302959360462903,
        0.009385743760356082,
        -0.01895203025629802,
        -0.15944764483828264,
        -0.1027236869613743,
        -0.003872598476724077,
        -0.0361105286575585,
        -0.048895235298552164,
        -0.12232784908490049,
        -0.05477416469324979,
        0.002429024028511462,
        -0.007898009389923822,
        -0.011904137009835674,
        0.01422453825828091,
        -0.028177638984798845,
        -0.06410454352425003,
        -0.060475634467142214,
        -0.05217568842777737,
        0.030269419788351133,
        0.1336371028965044,
        0.061249030767623114,
        0.13107504479246812,
        0.11536370441987945,
        0.1996321967985845,
        0.036992061037177754,
        0.005872400768166292,
        0.0021534072470518278,
        -0.10793074668977959,
        -0.07990627423090127,
        0.01408351499545756,
        0.036185435824569345,
        0.055148869911316484,
        0.046173694899417916,
        -0.10955108116752951,
        0.03861669438193528,
        0.050788910023202724,
        -0.07357028028530585,
        -0.02586741691898547,
        0.05006412659916025,
        -0.1138528215795177,
        0.025469530119433315,
        0.05246819149210437,
        -0.01635640385117968,
        -0.017700529243029957,
        0.012125687562407691,
        0.058176857044560035,
        0.022671211753197737,
        -0.0167405646969761,
        0.007787944015356864,
        -0.08410515755367337,
        0.07379894348225202,
        0.018971953056000933,
        -0.03007590708161422,
        0.011758733038011017,
        -0.004876637651283994,
        -0.06402117435326887,
        -0.14247355060561492,
        -0.12368299128699813,
        -0.08129783779977262,
        -0.06883079746099272,
        0.012994698965997623,
        -0.13470767001908726,
        -0.060416079677421596,
        -0.14874437948194577,
        -0.026640025416474686,
        -0.07202867847386724,
        -0.016015044994560287,
        0.045528225352485505,
        -0.05753755697802368,
        -0.003051006546563099,
        -0.09926750518530819,
        0.006876790876372306,
        -0.10974358697246087,
        0.02583105692067468,
        -0.05760100080843214,
        -0.013265688250748088,
        0.018368209671866365,
        -0.006941098580737389,
        -0.04002963833616992,
        -0.017394664132866812,
        -0.03293910292884264,
        -0.0021108019545855883,
        -0.0765488275555691,
        -0.11454419752970701,
        0.01792841753297291,
        -0.09254190427208778,
        -0.03366209654345413,
        0.01954774050755176,
        -0.03580335734790967,
        -0.07280493736036203,
        -0.02177641012471599,
        -0.0446580861473604,
        -0.07176936765136399,
        -0.05243263242161669,
        0.03827458155691009,
        -0.043757230661471413,
        0.028449103183570988,
        -0.08549185621739908,
        -0.008483637369566204,
        -0.10884355204309798,
        -3.6558596305528086e-05,
        0.009234240601051848,
        -0.027891739895956405,
        -0.0223257665934785,
        -0.018440569839518202,
        0.014155671210343947,
        0.03431710058468444,
        0.01803875342759445,
        0.04792912216313086,
        0.008570653803180794,
        -0.03681098284625914,
        -0.05064584645551436,
        0.051189570998925085,
        -0.01843558149570642,
        0.03835166105041633,
        -0.059645015321404135,
        -0.03461890164198926,
        -0.009185686589167874,
        0.032361683907705975,
        -0.02581619816780594,
        -0.06484667802757423,
        -0.06357012051902573
      ],
      [
        0.12136496011292451,
        0.0845502677319334,
        0.09099839982131777,
        0.14339969281706816,
        0.18593322930175335,
        0.06783488043864834,
        0.15031105325845726,
        -0.008193938008245825,
        0.15582110817433112,
        0.10657136667511886,
        0.15162582948370537,
        0.09306221299816421,
        0.15503407223829221,
        0.1236740600351487,
        0.15836967600621035,
        0.09824215723635248,
        0.06897359001723276,
        0.08006930959104301,
        0.088127790478665,
        0.04349952724722812,
        0.14115941421587713,
        0.15236302152996264,
        0.12416261610216968,
        0.08280728206963965,
        0.1376758274816031,
        0.039076135107438445,
        0.07724057104320316,
        0.024196799927450042,
        0.08768498029864795,
        0.10452298583278784,
        0.1329468096073151,
        0.09142722828847873,
        0.18934347774490626,
        0.10929591762971379,
        0.11563894846716354,
        0.08506795340244924,
        0.17106566604496184,
        0.1574940024317664,
        0.08058779069293694,
        0.12772837083552485,
        0.15418651813339015,
        0.12052087517043587,
        0.12116273194251838,
        0.18076375927743718,
        0.05296578823942581,
        0.10866532649998832,
        0.07912044826298499,
        0.08903723386109118,
        0.12718984365115918,
        0.04468746737245392,
        0.10867746921262585,
        0.1782402584496667,
        0.07325502870043361,
        0.1375715733454749,
        0.17061506459387185,
        0.10663443225357962,
        0.08857965493040616,
        0.2047618471923234,
        0.14539061802948258,
        0.168070082016232,
        0.08662681685017529,
        0.2327205742818704,
        0.07216540763081974,
        0.11445411441182178,
        -0.011957438095780905,
        0.11651793395063824,
        0.08636276697033744,
        0.1576962363799825,
        0.19143726213823334,
        0.1462387069003013,
        0.30443413908317035,
        0.21225117287741171,
        0.1549387008294519,
        0.25974434986737904,
        0.13210992324570517,
        0.12753806698318254,
        0.08430949590338517,
        0.0482193277318497,
        0.20085684773870063,
        0.1569842079738661,
        0.15945699819868672,
        0.04996340849475825,
        0.06883974307281444,
        0.10002393043851539,
        -0.023299388409395435,
        0.14447534164920192,
        0.08299482656768283,
        0.1505186499542075,
        0.12901571664413153,
        0.09758362265147273,
        0.1250245586505526,
        0.14013412183439952,
        0.1257714016268381,
        0.09134490709591328,
        0.03575256141794249,
        0.10384365694076832,
        0.24936234083537528,
        0.15031041698489003,
        0.2036412629904222,
        0.21604469723767336,
        0.23087609730723238,
        0.1464335598795511,
        0.2844785897507252,
        0.20042833136261565,
        0.1682353676696607,
        0.1161694260343036,
        0.12248669542591235,
        0.20317053315017694,
        0.03623551675609624,
        0.12584290306549625,
        0.08985275957771262,
        0.0951850993938856,
        0.15954264282949684,
        0.20336056674065459,
        0.12276105516236603,
        0.03295644479548457,
        0.06797060470619985,
        0.01664118302331018,
        0.0681298469825784,
        0.13824138410085698,
        0.07376149720637887,
        0.17096992202460218,
        0.06537949673272768,
        -0.0034172334618968354,
        0.06350485684704409,
        0.04501078955208952,
        -0.07655190161527937,
        0.10252589490374943,
        0.15387519243979758,
        0.23156126830618298,
        0.23018109409376278,
        0.0814744385978671,
        0.13733180003850862,
        0.24618689220109066,
        0.039094564564036566,
        0.09353756173528849,
        0.09101678242573052,
        0.10714110118992716,
        0.09138301697501112,
        0.1071388307112633,
        0.2368446407938329,
        0.07615903409464547,
        0.12198095560447937,
        0.06477892296032312,
        0.11070342464607673,
        0.04240724354388835,
        0.0649790556815922,
        0.0086211198335975,
        0.043526931408999575,
        -0.07745362842545277,
        -0.20481846587753097,
        -0.16146289955752788,
        -0.2028117731877612,
        -0.1148548708605351,
        -0.10466054000218293,
        -0.11954356917730294,
        -0.11633369851212531,
        -0.018031740652422513,
        -0.000960887341258557,
        -0.04292390574703704,
        -0.09373573199459055,
        -0.10083455581386878,
        -0.09932295183691205,
        0.022885378207356758,
        0.0645636280879113,
        0.054457738866415445,
        0.061953359506529235,
        0.06655040078623164,
        0.1297258895962168,
        0.1933578534179405,
        0.06584275591095631,
        0.1061540944963565,
        0.11607733787120507,
        0.07173825027661113,
        0.006750540454058554,
        -0.09896250436441074,
        -0.11933783965774478,
        -0.2904382616355305,
        -0.26679035839569437,
        -0.2753675772270457,
        -0.11465156712015014,
        0.049211802569231314,
        0.2005058018200814,
        0.11504461329594325,
        0.10171326199539622,
        -0.1024599705528356,
        -0.16008752951561958,
        -0.3064986973589447,
        -0.30548915420645345,
        -0.35501890362831917,
        -0.2822790137847468,
        -0.22795292314644358,
        -0.023624426370937413,
        0.11007396368282864,
        0.09637907450146031,
        0.09043338774778335,
        0.11006517255782296,
        0.01921458333786608,
        0.1633382742918759,
        0.14560268828426182,
        0.012532554010586366,
        0.0750631838072562,
        0.021446838121806377,
        -0.11144455844080178,
        -0.1645550828706899,
        -0.24928237988559257,
        -0.31444640650684225,
        -0.06413378383950372,
        0.011258934115804687,
        0.28051080803066647,
        0.43656437299029044,
        0.4995847955353157,
        0.46403916204392454,
        0.06517066719126476,
        -0.187491610068404,
        -0.3321634008046315,
        -0.3926771680531956,
        -0.16694110687980138,
        -0.18957714631259656,
        -0.31733920225755835,
        -0.1466943026561227,
        -0.02146547963036836,
        0.040409844334915096,
        0.07607311414926307,
        0.19775248327956194,
        0.14034409439179518,
        0.051205642436140314,
        0.03992886681508405,
        0.18119873488227753,
        -0.009585365200024669,
        -0.16333317227605051,
        -0.21333969942963368,
        -0.1719248119721121,
        -0.22059954856732847,
        0.005823657622041203,
        0.20153570081186586,
        0.405535501727414,
        0.4450282661297847,
        0.5520440061305454,
        0.5016190426398482,
        0.37076711629798415,
        0.036558685153502676,
        -0.13093409063581293,
        -0.29635111458648994,
        -0.16479742679677536,
        -0.283448924657326,
        -0.24659807461315994,
        -0.07568311078615961,
        -0.1616729088137139,
        0.0008588034665646763,
        0.07018769487696896,
        0.05240531868311679,
        0.04899570608759439,
        0.024860453180039644,
        0.05046881904047176,
        0.09729187192021375,
        -0.023177686326092063,
        0.035486819721818844,
        -0.004195389609471175,
        0.007819756875592514,
        -0.05684649088270512,
        0.08553402612522557,
        0.110463264182847,
        0.34006184662555855,
        0.21477985546917808,
        0.34333186839564095,
        0.2795949889868152,
        0.02019867268235052,
        0.06026037930497416,
        -0.14194945759210334,
        -0.2608733659112071,
        -0.29709744023691714,
        -0.15865454083523237,
        -0.08201414085071694,
        -0.0018126657279656359,
        -0.13415445148673177,
        -0.1304573785754977,
        0.04595534418435229,
        0.013811287369371587,
        0.1376688571297006,
        0.1373128893793432,
        0.08563007854591179,
        0.1845339741920116,
        0.05178618536143226,
        0.014043786571987817,
        0.13896778204234667,
        0.07544172596806545,
        0.15075321256859778,
        0.1874510970560502,
        0.18486252757112973,
        0.27727645923627237,
        0.2890812699849537,
        0.09286819360639259,
        0.04058322324976431,
        0.10762596277025317,
        -0.0027977343135381673,
        -0.08608265541620039,
        -0.21381775820999407,
        -0.19960358022277638,
        0.026993232850641553,
        0.05679741963830742,
        0.08731883432954117,
        0.09083753185604983,
        0.16426265035017204,
        0.0877229068446942,
        -0.022191874504607755,
        0.044925551814416986,
        0.07343122190486231,
        0.12244126552181782,
        0.038337903070206486,
        0.12155618296899774,
        0.08538359722128783,
        0.024089236405299228,
        0.10791618348686448,
        0.12460478530015119,
        0.19698956955920052,
        0.17525448514557676,
        0.23670917319785542,
        0.03441743173009207,
        -0.07703512286716933,
        -0.19577277690939668,
        -0.22699746580464328,
        -0.19166903406241534,
        -0.271883686783786,
        -0.24622130952940322,
        -0.0998369660358737,
        -0.07633486221599427,
        0.19098841716154683,
        0.3291486917608219,
        0.4311395742004505,
        0.31507052735782254,
        0.27946428898312764,
        0.11049802032064406,
        0.1296663395730482,
        -0.008822563836308427,
        0.07042460078621418,
        0.07522128520101312,
        0.06339926096242596,
        0.12293764328807984,
        0.06965487709823949,
        -0.01393991887828619,
        0.14470441951543722,
        0.10904672691034221,
        0.29133805021630305,
        0.3006577251477875,
        0.005447367549533011,
        -0.08735172467657186,
        -0.3370533580750045,
        -0.48588888301768524,
        -0.44251577518112734,
        -0.23347654316212665,
        -0.22891442207433413,
        -0.2613232698922605,
        -0.22620289643853678,
        0.09658433706054208,
        0.316494985163508,
        0.32100555187014773,
        0.42097282907429107,
        0.4007157399229792,
        0.2868462804742467,
        0.22954582530545362,
        0.11898806538106012,
        0.18171883689638332,
        0.10973161099091312,
        0.1463901814195398,
        0.21560788745350448,
        0.11810523652386191,
        0.1542777562420282,
        0.13131321867149157,
        0.17055505333553914,
        0.2639910406914304,
        0.33191254782647034,
        0.33445558735670106,
        0.11282697496602,
        -0.11519364899165142,
        -0.3847217446306856,
        -0.6265048986525092,
        -0.3834163748814399,
        -0.06517731048449221,
        -0.005248755224709271,
        -0.157043231612242,
        -0.11374630680603363,
        0.05040474997641191,
        0.1808472584353724,
        0.40879036323304524,
        0.4151396320519148,
        0.32802071978978403,
        0.42848552168688486,
        0.29660398211790656,
        0.18419802438477947,
        0.14686838002309635,
        0.13149198721113767,
        0.07573013312053146,
        0.020458471534416777,
        0.06186106291279676,
        0.1467914529672334,
        0.2326131013606846,
        0.18952196630057647,
        0.3651725299152389,
        0.3914477689435261,
        0.30812095812531987,
        0.24385474770965435,
        -0.004751373535251149,
        -0.2976637816676783,
        -0.5330759735644334,
        -0.13433639333361141,
        -0.038879917563989605,
        0.039220359144932715,
        -0.14537514944525384,
        -0.2280671968602759,
        0.06059862217490883,
        0.25409060173772735,
        0.295505022373105,
        0.4559668643523375,
        0.43045570447414644,
        0.34349089327823884,
        0.20784708131276988,
        0.07119047124285896,
        0.07666629396451706,
        0.13140891488734982,
        0.21238912014307862,
        0.16668564074669937,
        0.14014619705896647,
        0.08728281612807784,
        0.025638488981231822,
        0.22405832631651748,
        0.1851075963440996,
        0.2736230868069634,
        0.4503267095127019,
        0.440401615616034,
        0.2574666722232551,
        -0.019281119974310628,
        -0.20177539696191057,
        0.16301536950274942,
        0.07608973001629828,
        0.020365590456970863,
        -0.4110413097963925,
        -0.21098762677386443,
        -0.04935770177632941,
        -0.061721959010689366,
        0.20048847133105255,
        0.37921753168975963,
        0.2943336811255847,
        0.31196010809937097,
        0.1245723697573408,
        0.08422993088546028,
        0.08781423404033348,
        0.049389721631578634,
        0.11153252100305659,
        0.09112653612461852,
        0.12081435350004079,
        0.07941238840022262,
        0.04493595210263909,
        0.1035285451574511,
        0.25032407287862046,
        0.3593909596776936,
        0.39125405904614735,
        0.5588770994447575,
        0.4256927472880621,
        0.0731780532267031,
        0.10278386169610067,
        0.11575033877295159,
        -0.012776041057186282,
        -0.27204167324052325,
        -0.3971107130117619,
        -0.32505424073531114,
        -0.20249870398516315,
        0.015915932131750934,
        0.2607937082354723,
        0.3597376263572302,
        0.34372221674565745,
        0.2509232760828173,
        0.11056504408593597,
        0.0817023410893991,
        0.10152645572852624,
        0.10264882789740722,
        0.09214764351484243,
        0.042540340385474384,
        0.09219866420986832,
        0.11545419047570261,
        0.1310743029563075,
        0.16137889100193134,
        0.08235146004424639,
        0.3044685135811764,
        0.4161286405420979,
        0.44518812237381805,
        0.5061017143352923,
        0.3597110698062344,
        0.2069637745753611,
        0.14552004353349923,
        0.0031714121444022087,
        -0.23908968817760043,
        -0.1770682255228588,
        -0.14388272685314993,
        0.00012258621613875657,
        0.06434376623343627,
        0.1876548749601318,
        0.37868937232576244,
        0.2830807643567555,
        0.19511929927840396,
        0.1497839010150048,
        0.09526315109458945,
        0.1700743491236091,
        0.14195598407192248,
        0.1150828595879778,
        0.12024799324485692,
        0.13213941509704002,
        0.11902001002686614,
        0.014308436143006833,
        0.012992354595600587,
        0.02483509051610692,
        0.049353497373647956,
        0.3646259540339704,
        0.5113669350033072,
        0.5826016036175952,
        0.5564979171527203,
        0.36797959838982214,
        0.1864601767475438,
        0.1299413261384389,
        -0.02747489794245798,
        0.03635688506560475,
        0.10532012453936083,
        0.04396351819820046,
        0.216899231037916,
        0.25749878272267324,
        0.17149555450406143,
        0.14458937356166152,
        0.0839840568144892,
        0.21057203839647157,
        0.14075515511322392,
        0.128310090942638,
        0.05147876145920621,
        0.08826742810817916,
        0.1621645387729295,
        0.009572990726091316,
        0.07171756341382352,
        0.036588512488862565,
        -0.12568171167246103,
        -0.14139361801829328,
        -0.1336937448336103,
        -0.01866417453171718,
        0.2827788741683263,
        0.5004480332541925,
        0.5310729768303032,
        0.39111485854766953,
        0.3132706756138048,
        0.1310787151190171,
        0.12523394727574044,
        0.18883352597371214,
        0.1649267258544357,
        0.20118618188822326,
        -0.010494083209600977,
        -0.05769415721426981,
        -0.016026022154261254,
        0.06577547691456233,
        0.10414319794600417,
        0.07813390297924667,
        0.08178802070006129,
        0.13835215125782416,
        0.1351793465475042,
        0.1094493862870516,
        0.22878601531519585,
        0.07555055565609212,
        0.13165383026722577,
        0.042581200612920964,
        -0.05120464709263582,
        -0.14716182905350453,
        -0.24283005634434698,
        -0.049990973890203905,
        -0.08243077329506118,
        0.24399959767997528,
        0.38061116549735924,
        0.24238805942725014,
        0.3088162897116697,
        0.15698924331213235,
        0.11507964611962376,
        0.2795728395538611,
        0.1551248303488393,
        0.043643659510226585,
        -0.175657043950999,
        -0.11467493703139992,
        -0.0348145140864379,
        0.05284884511807157,
        0.12307932172036067,
        0.09508409320940005,
        0.021372862365950377,
        0.1394934690116247,
        0.024813168310863495,
        0.10457165755576812,
        0.1786602607457087,
        0.0755977837150437,
        0.13487329948941426,
        -0.039241424872231534,
        0.00048575139185957157,
        -0.14668810091170123,
        -0.4099162263306893,
        -0.34027710276079676,
        -0.22445007944671144,
        -0.18602981397426507,
        -0.02940109109856318,
        0.004197247486048273,
        0.02901879896777361,
        0.045810989441369174,
        0.055602350393574015,
        -0.05791531948711757,
        -0.12090463972472006,
        -0.12779924140102655,
        -0.1671050366808072,
        -0.10658210816405836,
        -0.043008508086385774,
        0.006641850213172484,
        0.17063950529214797,
        0.1340621948442293,
        0.18018259951099905,
        0.1646729111320351,
        0.022968493298458268,
        0.03860394074987558,
        0.13907526414878568,
        0.03738936505226402,
        0.12848627482016994,
        0.05153346655622969,
        0.0006595231054706477,
        -0.10181522582639062,
        -0.17073538536513141,
        -0.22767278427065138,
        -0.4121150032061966,
        -0.39252267535760693,
        -0.24252971296564138,
        -0.36626310538877355,
        -0.3082053464069959,
        -0.34793216684113265,
        -0.3013481918315513,
        -0.24514999560043024,
        -0.1901214990449259,
        -0.0911542013144165,
        -0.002256759497476261,
        -0.07445651661601123,
        0.07541656904370936,
        0.012702014258654568,
        0.10499586274048815,
        0.04566576887355024,
        0.11265372492187085,
        0.08190349312627473,
        0.08409904524656042,
        0.1818176441887894,
        0.2046418031556673,
        0.062225053356868315,
        0.09887113774135474,
        0.14826056822946868,
        0.08045341962058014,
        0.10049621744017648,
        -0.07319777066591894,
        -0.11689300271733577,
        -0.17824114866237642,
        -0.3503829897912983,
        -0.4002562956504169,
        -0.4030481170504821,
        -0.4202285859906814,
        -0.4144855615561234,
        -0.2366381204523876,
        -0.1046731235656387,
        -0.031162116544884835,
        0.002655281305039241,
        0.07312551719541684,
        0.0655049505371434,
        0.08633209090548165,
        0.0941056843677145,
        0.15059118170584385,
        0.168636529038684,
        0.11866496450093549,
        -0.023995360789375485,
        0.13381469942994945,
        0.11558164936761019,
        0.06131686914444823,
        0.13679800744270307,
        0.103796899876174,
        0.08118263750301975,
        0.015205700583323501,
        0.12061704231817998,
        0.012448660297619811,
        0.03361799617349746,
        -0.021805397692156867,
        -0.11794507292105749,
        -0.23576186450224265,
        -0.2767442044711757,
        -0.2235402846301289,
        -0.07224489727863208,
        0.12549119868390005,
        0.11546350301646875,
        0.21796645047562926,
        0.1468158257582015,
        0.096207802654545,
        0.07125131896722621,
        0.08164652471701775,
        0.13442526979940053,
        0.0749920280778239,
        0.07870729321866456,
        0.1805932418115361,
        0.03845219426749044,
        0.08604839385681964,
        0.1265467481802931,
        0.11066679429651798,
        0.14348129028283005,
        0.1357553160088838,
        0.13022120630973036,
        0.08654397464050784,
        0.15895890885119687,
        0.11103402281120804,
        0.07625507335002325,
        0.025901259855810484,
        0.04168732334879516,
        0.1481474884647072,
        0.1257065788123664,
        0.10460972169461552,
        0.2423138677132702,
        0.22110568890114182,
        0.29335366247342526,
        0.3027870014780046,
        0.2326509621255843,
        0.09678146748404444,
        0.08301226879768715,
        0.13388227868324004,
        0.17703818727307316,
        0.0943659497443662,
        0.1428900577614091,
        0.07925344067749503,
        0.0997771353083378,
        0.141076465493547,
        0.13786797471112522,
        0.05391253296953122,
        0.12947910571654203,
        0.05260991451999866,
        0.1128728959525654,
        0.03407788622603162,
        0.15224290883258926,
        0.17355584784907183,
        0.14340411050417964,
        0.11577838250900203,
        0.06810586083655042,
        0.17143585087595256,
        0.12552373108095938,
        0.15147314129317785,
        0.04250259027267926,
        0.14321771744611203,
        0.21874999357951616,
        0.27081241243910154,
        0.18081922504152378,
        0.07488253044705402,
        0.08683049996920901,
        0.11040825649642762,
        0.14583555380690424,
        0.10583406465021859,
        0.12271442318401886,
        0.1534919401713388,
        0.14319478047084974,
        0.1180583857820331,
        0.10497096809379249,
        0.018795406777918428,
        0.17156612704586313,
        0.08414769304593168,
        0.187612044890798,
        0.11542944359204667,
        0.13463876951575593,
        0.07937264428919828,
        0.11766053863642807,
        0.09844622520327102,
        0.15004596298398287,
        0.13882700521504596,
        0.15734496713968474,
        0.0750809019026311,
        0.06586977381744369,
        0.21034079273386078,
        0.13812290916648834,
        0.055990309417138284,
        0.06713773661925482,
        0.10167283307769608,
        0.10162594212095229,
        0.04938832923178918,
        0.11904475091821988,
        0.10905817500708849,
        0.07193979727023052,
        0.04657008226956204,
        0.14002701844971133,
        0.034194460888259136
      ],
      [
        0.022660713544931255,
        0.15490324804663677,
        0.02806906130314569,
        -0.0861172075152284,
        0.009195677815816214,
        0.003869234418509015,
        -0.012323661149051916,
        -0.009852248661135697,
        0.0022107239578391374,
        0.043714643726024946,
        -0.03917089176800452,
        0.05957228605224081,
        0.018281468802262595,
        0.05325569767055591,
        0.029101728222154438,
        -0.0024391046795823384,
        0.04570415128537547,
        0.00946373059615419,
        -0.09930987027063214,
        -0.04849152060617391,
        0.02335695739966535,
        0.0009516730347005132,
        -0.03553009585049551,
        -0.05061739532663627,
        -0.04187681070027577,
        -0.010767790566744246,
        0.02788312192101558,
        -0.056843162765547364,
        -0.048842538107480016,
        0.023376176220041258,
        -0.08751907332521032,
        0.047344745808035854,
        0.06352511870140069,
        -0.0033622685089722774,
        0.07061203451130442,
        0.006861956180514341,
        0.07926085588649819,
        -0.04762328414500182,
        -0.04660679710221252,
        0.033394572309055966,
        -0.10944779577052059,
        0.01603812988616535,
        -0.07011524669004825,
        -0.0032339460245297824,
        0.05247486216628805,
        -0.09976258755596461,
        -0.033637818097058694,
        -0.028080176820220747,
        0.016564123851071293,
        0.061219962204315116,
        0.006852183078338381,
        -0.02901315260541597,
        0.04718882796608885,
        -0.07648390518806607,
        0.04806049706096939,
        -0.012968640081386321,
        -0.02787645742471322,
        0.058179785792188826,
        0.08105484350374857,
        -0.05112724983732023,
        -0.04274997880675516,
        -0.010021755112738165,
        0.004767428514725097,
        -0.0024064167630754264,
        0.05779722166529443,
        0.008321386210529467,
        -0.11517285932052766,
        -0.06132697979182009,
        0.038844503789432716,
        -0.03361388718214638,
        -0.010991665882927418,
        0.035879224680428264,
        -0.08668869388837587,
        -0.057048910143306986,
        -0.0006137261806631431,
        0.024325150316401558,
        -0.06221135359129756,
        0.06238795913950039,
        0.032285845471391836,
        0.08158690958131494,
        0.019551745720488217,
        -0.07181994273960039,
        -0.019328201757640464,
        0.06902028179411011,
        -0.005423108102774552,
        0.014033897740152197,
        -0.05337869288976811,
        0.04682663904113464,
        0.097298633338003,
        0.010833552590803874,
        0.042499598430242466,
        0.00043925686357461775,
        0.0015508991954185961,
        -0.0581039919402882,
        -0.09983393234163128,
        0.026414978587824694,
        -0.12761603634177793,
        -0.13295106165591677,
        -0.20258518114035026,
        -0.11585056133211342,
        0.005026821299038623,
        -0.014724386010252557,
        -0.10326302783483148,
        0.0020384153566032496,
        -0.10475103399535306,
        0.04127705388159361,
        -0.020679777776674388,
        0.03243416064349616,
        0.0705715100180916,
        0.040468465892030556,
        0.002270394534447138,
        -0.008821355868118136,
        -0.02912127540369137,
        0.024548033185098985,
        0.03280217262567509,
        0.05007545076276819,
        -0.03252258091219302,
        0.07296574888067549,
        0.03945838591671125,
        -0.044169969218274,
        -0.08647653851839,
        -0.22382584328140967,
        -0.24986590500570643,
        -0.3072310018734553,
        -0.23382074720582854,
        -0.3120960029227551,
        -0.32436750734294895,
        -0.23833412414160757,
        -0.20883992540641685,
        -0.11513757539835666,
        -0.01224615872826325,
        0.004461179246061858,
        -0.015814299848435933,
        0.013233411845987576,
        0.08452593007854269,
        -0.030230181913239385,
        -0.07159668180768188,
        -0.1003876065315301,
        0.021609194705489217,
        -0.02776117512873105,
        0.02479487916783719,
        0.025669157997604487,
        -0.053798255512236826,
        -0.03016738272684489,
        0.018594668381494237,
        -0.020398604604135895,
        0.033412244618770105,
        -0.05296845745015932,
        -0.12451591955110243,
        -0.169141190866012,
        -0.35063170252333753,
        -0.2963519069228734,
        -0.3808968899025297,
        -0.34504556556250765,
        -0.35901917324082266,
        -0.3314808391067815,
        -0.3492447333515616,
        -0.09030237624996211,
        0.009387476585239743,
        0.0552631690384685,
        0.17828857590741973,
        0.20799377785739373,
        0.18207845809849274,
        0.20586477335778178,
        0.08886967594596308,
        -0.007656904090756497,
        9.871095588624096e-05,
        0.048267266979836354,
        0.005763958484399796,
        0.025064037745297845,
        0.01870994886657328,
        -0.052124161517829365,
        0.03403661500319062,
        -0.08217319574160299,
        -0.1433045458201256,
        -0.2104787342269823,
        -0.26439127864685164,
        -0.1599019758477164,
        -0.22109394780251504,
        -0.3360766322920893,
        -0.2870053272633207,
        -0.3194726894648581,
        -0.3138577948968472,
        -0.20478363190683344,
        -0.22209426499858373,
        -0.11602397276774513,
        -0.07935675768447141,
        0.02634495282274992,
        0.14167346534723105,
        0.3315701927170914,
        0.34455911668007355,
