{
  "columns": [
    784,
    64,
    10
  ],
  "activation_function": [
    "Sign",
    "Sign"
  ],
  "biases": [
    [
      [
        -0.011290763147422677
      ],
      [
        0.08953489361661493
      ],
      [
        -0.01202123445398822
      ],
      [
        -0.006268558642372732
      ],
      [
        0.0022694519157279787
      ],
      [
        0.0507111710441927
      ],
      [
        0.11716268527644931
      ],
      [
        -0.0918338888267647
      ],
      [
        -0.013334015223393156
      ],
      [
        -0.004960897815584391
      ],
      [
        0.008928085179715923
      ],
      [
        -0.09398237176066603
      ],
      [
        0.0036296200388620707
      ],
      [
        0.025001924475877905
      ],
      [
        0.010521768737762381
      ],
      [
        0.05378235102727905
      ],
      [
        -0.014573512667469538
      ],
      [
        0.005920450415944813
      ],
      [
        0.04372353134194128
      ],
      [
        0.08058394969752171
      ],
      [
        -0.007129050332532654
      ],
      [
        -0.005823725140209809
      ],
      [
        -0.0030776854609085996
      ],
      [
        0.0007826360467909292
      ],
      [
        0.004407841382405735
      ],
      [
        -0.057925700158282585
      ],
      [
        -0.006563785534347807
      ],
      [
        -0.04438709314028402
      ],
      [
        -0.0022933383713848645
      ],
      [
        0.006155120552587786
      ],
      [
        0.012766029462519904
      ],
      [
        -0.009718241656908036
      ],
      [
        -0.03468620549343431
      ],
      [
        0.07682803619371054
      ],
      [
        0.005114592915596221
      ],
      [
        0.06541919006447863
      ],
      [
        0.019905551044480333
      ],
      [
        -0.00887128985092091
      ],
      [
        -0.005769310477751148
      ],
      [
        -0.12150806464558252
      ],
      [
        0.00458032536319189
      ],
      [
        -0.0034402832838239207
      ],
      [
        0.011509604430948993
      ],
      [
        0.03986001793116237
      ],
      [
        -0.007572001863412485
      ],
      [
        -0.03509238767989507
      ],
      [
        0.05597095369183437
      ],
      [
        0.0028745829513482876
      ],
      [
        0.004702651776705184
      ],
      [
        0.007158767487033607
      ],
      [
        0.010833899690209713
      ],
      [
        0.012550051687433162
      ],
      [
        -0.004428736021042634
      ],
      [
        -0.09374935013577136
      ],
      [
        0.004270671562251957
      ],
      [
        -0.012449623043979285
      ],
      [
        -0.026664283025607628
      ],
      [
        0.11257216579364164
      ],
      [
        0.008748062385983146
      ],
      [
        0.012763093953943282
      ],
      [
        -0.006642890297025954
      ],
      [
        0.14775052844208156
      ],
      [
        0.018659789371494786
      ],
      [
        -0.002809536811441155
      ]
    ],
    [
      [
        -0.11400000000000009
      ],
      [
        -0.1400000000000001
      ],
      [
        -0.08800000000000006
      ],
      [
        -0.1320000000000001
      ],
      [
        -0.1560000000000001
      ],
      [
        -0.1300000000000001
      ],
      [
        -0.11000000000000008
      ],
      [
        -0.10600000000000008
      ],
      [
        -0.1360000000000001
      ],
      [
        -0.03800000000000002
      ]
    ]
  ],
  "weights": [
    [
      [
        -0.022932387333844274,
        -0.01591837591870902,
        -0.01513949005999056,
        -0.03710508357174434,
        0.10012650792560238,
        -0.02515050378547307,
        0.03377171147841403,
        -0.03495257370053344,
        0.11163698171467201,
        0.015809708991292432,
        0.06753424309431548,
        0.07672176230832206,
        0.01661324972383426,
        0.08076493249258601,
        -0.05469679425322737,
        -0.003771309075720922,
        0.05199930827102761,
        0.04987156924515587,
        -0.0206818064447726,
        -0.05513957590643182,
        -0.00508583220459629,
        0.0904017488541938,
        0.039098821197295026,
        0.0500495598528075,
        0.014262950349085743,
        -0.032410291340960073,
        0.02697473151328705,
        0.021781376191722244,
        -0.018260607916970675,
        0.09503450301004482,
        -0.016240924822163872,
        -0.01324525277087895,
        -0.0164393501828913,
        0.07489129885731499,
        0.08259627080638249,
        -0.016069088317646713,
        -0.06563734426609194,
        -0.010905812206989236,
        0.13818247742391915,
        -0.006885919284918054,
        0.021096325178290725,
        0.05919096701934819,
        -0.06155173288696858,
        0.09348720896961149,
        -0.02058727543008854,
        0.027128003808456803,
        0.008445521527570993,
        0.034886142427572285,
        -0.007099112055527621,
        -0.03519628466578335,
        0.1236275302847547,
        -0.04108734021449793,
        0.03042072597784459,
        -0.012324921905117914,
        -0.057650591106296466,
        0.012783974568045614,
        0.12829320002020353,
        -0.07554800984069479,
        -0.03465394952889378,
        -0.009651224518669968,
        0.01599535731722776,
        0.06090602021789889,
        0.06994396643200707,
        -0.001139612765055038,
        -0.048930654780590874,
        0.005226774248379692,
        -0.03245976887514383,
        -0.07537958744123843,
        0.07961785573417784,
        -0.049311604749895016,
        0.06082943006924157,
        0.078745583778188,
        -0.10607905483662827,
        0.01597146683311404,
        -0.014367762383906638,
        0.07783128011559151,
        0.01560447690874451,
        0.0966863799958409,
        0.02243266241261931,
        0.022801788381427854,
        0.004041994014301541,
        -0.032801515094020225,
        -0.03279575973477507,
        -0.036655979190309954,
        -0.04028813539264847,
        0.040013444840214504,
        0.08457479102081386,
        0.04602639699433338,
        0.004115102061381064,
        -0.06520093784936548,
        -0.0032340623953719507,
        0.00043292201634803065,
        -0.17945192189211273,
        -0.10416906759531558,
        -0.082876624154226,
        -0.06677760014387676,
        -0.049048660863560675,
        -0.13206408052943036,
        -0.0948473378838143,
        -0.11411764491909504,
        -0.08808654637944704,
        -0.08520063023890687,
        0.02554289754611253,
        0.022844508434620086,
        0.07676357657559765,
        0.003389682097124981,
        0.05863309736980403,
        0.07956772683896762,
        0.0552404439201844,
        0.032543954204045863,
        -0.004332466463723818,
        -0.02115071755654369,
        0.02901552294741948,
        0.018855304981970192,
        0.02003861143694075,
        0.0041615562623472605,
        -0.02067750452672808,
        0.012993274526202664,
        -0.05588448644211548,
        -0.08182777715223052,
        -0.13102648549883744,
        -0.23497822716008332,
        -0.23491156099199645,
        -0.15294503132243126,
        -0.1826490887976382,
        -0.19756661769853223,
        -0.1776987027505464,
        -0.11194372860807983,
        0.017488058328094764,
        -0.060459360370862705,
        -0.06678315206309027,
        -0.016670738404752247,
        -0.0173644280816599,
        0.008293940526419507,
        0.01498200541315129,
        0.039033369930113734,
        0.08988032312672356,
        -0.04233851697833907,
        -0.06026635700558714,
        0.08522787359977005,
        0.046110429350312496,
        -0.047787843809311226,
        -0.015114506846779271,
        -0.11585237095113707,
        0.07467168614155156,
        0.05423315538519716,
        -0.006777128903377813,
        -0.13946344892352158,
        -0.13715694162829378,
        -0.21178118812765406,
        -0.23185381932746707,
        -0.22559187597972225,
        -0.2739900657489094,
        -0.14404696595523608,
        -0.269670354347898,
        0.0060572636658799955,
        0.12052478241686723,
        0.04211154055254948,
        -0.07268208164007176,
        0.0404547624418542,
        0.01123203554159342,
        0.06491850465892574,
        0.05422588340984717,
        0.0425995166991372,
        0.11070001028437557,
        0.057590618756928516,
        0.03706884591203347,
        -0.00539704369801702,
        0.0653133151175112,
        -0.032936902171878085,
        -0.05354245704599089,
        0.011280482693430807,
        0.053052728922382275,
        0.05295765419408531,
        -0.10555587725688623,
        -0.10639585328752427,
        -0.15949280881242245,
        -0.05243274576061553,
        -0.09111480356804222,
        0.03805256701551757,
        -0.027688630918583538,
        -0.16229541010443865,
        -0.11957319457212781,
        -0.11420370612554273,
        -0.09787721923109613,
        0.029232298357648904,
        -0.16912293669137662,
        0.05809345170599285,
        0.09617776074119061,
        -0.03908967766676141,
        -0.01357571036481393,
        0.07152390126657004,
        0.014825406194546798,
        -0.001626908404332756,
        0.08084152604751166,
        0.013422677848660428,
        -0.02203736524013464,
        0.003711543223536802,
        0.05313971842368051,
        0.04699909539371164,
        0.01318100440144519,
        -0.05559062891594001,
        -0.06937080047503544,
        0.040951719373186674,
        0.01587015429169658,
        0.08697433080055572,
        -0.021068741291211324,
        -0.06330502904002488,
        0.0008295558761187768,
        -0.1076934375079584,
        -0.1337738820033802,
        -0.18441541071945766,
        -0.3167064025815881,
        -0.20144862025130122,
        0.010496280433660531,
        0.07021331648860638,
        0.04335466873671856,
        0.24316342712159153,
        0.06369874758428162,
        0.0189212007528,
        0.1422007703991559,
        0.08542274342043468,
        0.0030831192114251812,
        0.0016741322209284887,
        -0.020339174375510378,
        -0.018517210495323292,
        0.11521064758999172,
        -0.02077011601709097,
        -0.006819326047515703,
        -0.08494125736635735,
        0.06140451444934774,
        0.05985966495121653,
        0.08828234384000921,
        0.15051657984701544,
        0.14453740136060728,
        -0.07227909794667288,
        0.003958702743714409,
        -0.08513862523750798,
        -0.29315647038061404,
        -0.27852332585335743,
        -0.2787793146499029,
        -0.2544690285801017,
        0.006801429279524658,
        0.18140576314253432,
        0.22366567406532237,
        0.19058213792604795,
        0.2051814018296207,
        0.19857736683564847,
        0.161802707719792,
        -0.008854480216072585,
        -0.021140349414074732,
        0.11827981898090076,
        -0.00869588111459519,
        -0.016292597704574748,
        0.004067597163224782,
        0.034747752835068924,
        0.04991056177610596,
        0.08063806178999841,
        0.10227390252087024,
        0.1345047075000796,
        0.057716792352595116,
        0.24862023167362668,
        0.21235156016737056,
        0.2359255177986806,
        0.2377195643494171,
        -0.10987308288880278,
        -0.17561487787833036,
        -0.2305592505335755,
        -0.17663796412487565,
        -0.06557735581072202,
        0.11228077107415231,
        0.22861457585546108,
        0.3211689345271881,
        0.23285717300697678,
        0.16544216838289588,
        0.2121682221972196,
        0.1972246852557995,
        0.09836210774502424,
        -0.04373041105111247,
        -0.03089086091580349,
        -0.001701520543188131,
        -0.054820868771039304,
        0.0012404060311959023,
        -0.04766243100995221,
        -0.004666789916285597,
        -0.015712170726689696,
        0.08526712048080551,
        0.18886170219337461,
        0.18806209019892783,
        0.3753281113738306,
        0.4056559772395293,
        0.5361886137046993,
        0.4734143045666688,
        0.17874350413058637,
        0.009185583502666479,
        0.09918942459807983,
        0.00097840151136093,
        0.011164069941864554,
        0.18789543507440876,
        0.2584095529660254,
        0.11228890883116041,
        0.23160491167427832,
        0.20721808114535933,
        0.16562580605229732,
        0.08364725482105559,
        0.08663578997627433,
        0.0030426731041371976,
        -0.01332166289339859,
        -0.029921151940172672,
        -0.026281936963223933,
        0.007835649804277056,
        -0.03879523553894665,
        0.0678989261274453,
        -0.005207619221166181,
        0.1352112234233636,
        0.206700716928867,
        0.3121254570789377,
        0.40483759807967346,
        0.7370161717429685,
        0.7555785018384447,
        0.6997222039330864,
        0.5313246115529112,
        0.20946963751459108,
        0.10681151189295954,
        0.08632116867787801,
        0.10030433469664726,
        0.20814531794708263,
        0.022379298485719904,
        0.15560720643075032,
        0.24100880553578716,
        0.2300152117465446,
        0.147503938530431,
        0.13707146417193952,
        0.15237084152613584,
        0.07174546368319956,
        0.04130436463401026,
        0.004259995532078243,
        0.05106806967990436,
        -0.029116926891197503,
        0.014520152355770942,
        0.010867846308611661,
        0.09171582472666262,
        0.21507375476868745,
        0.1793317963948723,
        0.22329562226430355,
        0.45512470289920925,
        0.7000911179877976,
        0.8589924070814117,
        0.9961414055572028,
        0.6745310364722674,
        0.37358578295501466,
        0.2804398290286237,
        0.2539187784569729,
        0.21108470442315835,
        0.16077112367462731,
        0.17891584237211539,
        0.19615277467971637,
        0.19400874526533846,
        0.25668436885944773,
        0.09521617127466872,
        0.09224330026343999,
        0.08078181262731021,
        0.07053896726377648,
        -0.059821988803567455,
        0.025829858905513547,
        0.07921211179684434,
        0.04367826695370233,
        0.03302562154465858,
        -0.007470948719085736,
        0.06071373049355367,
        0.17551463699154102,
        0.1635227710714473,
        0.11443043831828847,
        0.2336406772528874,
        0.4506103988472999,
        0.7509415295755966,
        1.0078704063036117,
        0.727898406801748,
        0.281081695558405,
        0.3988673072003759,
        0.2698442495155991,
        0.1417496486878787,
        0.12551755574669696,
        -0.047115346798099186,
        0.10699370493485344,
        -0.012133028558205798,
        0.0426912414909074,
        0.0966734793061653,
        0.05068323124833314,
        0.0045356701056483,
        0.06222607008180228,
        -0.04431216051413468,
        0.04467078813044388,
        0.015285757525305737,
        0.011572043193751366,
        -0.11585493784918313,
        0.11207792918549817,
        0.060410281920903364,
        0.11077554780794094,
        0.015038020886866836,
        -0.015086662751997382,
        -0.062135761287839486,
        0.03417350412104912,
        0.3895162989097032,
        0.602735895990882,
        0.24408023595079348,
        0.27453945927605305,
        0.3252720870094624,
        0.16092178021484094,
        0.08365018403297939,
        0.04870149459467348,
        0.007324649715051699,
        -0.018684435840050164,
        0.03287723167935184,
        0.09779985983796455,
        0.12531421805354687,
        -0.03729936650399887,
        -0.021362430415303103,
        -0.1216883910027189,
        0.0437112674935734,
        0.005654535574096908,
        0.037364590261534464,
        -0.00996344529934336,
        -0.03261067321202127,
        -0.07202298241548225,
        -0.054017325161806115,
        0.06112450000375919,
        -0.10584167429771713,
        -0.17636481736977072,
        -0.18162567959766102,
        -0.0980481127686505,
        0.09915389364637484,
        0.14722186332738607,
        0.02297047905156586,
        -0.021200656801711817,
        0.1409346229823107,
        0.17358515017229464,
        0.07402874955500308,
        -0.0599105227100787,
        0.016693133287548238,
        0.05091907672052233,
        -0.0007283334884463915,
        0.18435804148485302,
        0.02837957692540095,
        -0.0071788980904701405,
        -0.02785594095358322,
        0.016792044715975146,
        0.007503019490601526,
        0.00017008857041106223,
        0.0627775555478692,
        0.04250598218088755,
        -0.060021606888169404,
        -0.09443832463631485,
        -0.03215611918900341,
        -0.043778398371025165,
        -0.1121810500150188,
        -0.03496645368099225,
        -0.15689782098534633,
        0.016963837721615846,
        0.10324486024375432,
        -0.019747033689301263,
        -0.3156685722403595,
        -0.13867302852853408,
        0.09115865128830403,
        0.06518300291183136,
        -0.02023500896577891,
        -0.06569180808928324,
        -0.06466430700618203,
        0.011548728880896475,
        -0.03339251988884429,
        -0.005759311763147219,
        0.003488190253330145,
        -0.049009711377138596,
        -0.09002719887885322,
        0.09813907397448876,
        0.06230680142434414,
        -0.016166914253932674,
        0.034343251985966515,
        0.019182813972471093,
        -0.0185818284960681,
        -0.0056147080737919165,
        -0.16536515894299636,
        -0.22497488485692574,
        -0.2176190046464968,
        -0.03983637882619781,
        0.023634851875848784,
        0.11444324813211107,
        0.08322602352656092,
        -0.10474940374541736,
        -0.10047849519423321,
        -0.28797922417773936,
        -0.0875078864090626,
        -0.17959602130902713,
        0.034079308556233597,
        -0.0234250059169638,
        -0.0011185218641195835,
        0.042978794714310375,
        -0.1316877743028143,
        -0.22868373064557912,
        -0.10098835093228153,
        -0.14680288100814576,
        0.03370105692650484,
        -0.022343135678092426,
        0.05589516136744388,
        0.0718339605365752,
        0.015575523847208245,
        0.030096733462814298,
        -0.05981653531154052,
        -0.06196052155408195,
        -0.1481505938807063,
        -0.15146629060301947,
        -0.0909891931719718,
        0.07332577148637276,
        0.12689495807980888,
        -0.009162471017178146,
        0.017106552294505462,
        -0.07411004052938844,
        -0.13053332975731338,
        -0.2937883839419215,
        -0.06195248666977744,
        -0.0706450328399881,
        -0.07150830605103997,
        -0.03271260090242654,
        0.023357182299124302,
        -0.24582162561338594,
        -0.13926521474933637,
        -0.13840624743019891,
        -0.31447594862089556,
        -0.17977931956084492,
        -0.06915162957778351,
        0.08229206547255172,
        0.016385667133677194,
        -0.0105832291960661,
        0.012231054617570118,
        0.042079165620756115,
        -0.004879347609707749,
        -0.209717907764555,
        -0.21293865636050424,
        -0.1258772495878854,
        -0.05890186134575954,
        -0.06536087898975132,
        -0.07842263667365437,
        -0.04256118059711144,
        -0.07412703220658173,
        -0.12932497469484347,
        -0.216556840577813,
        -0.27464965087519244,
        -0.22136725733759666,
        -0.02985410609822793,
        -0.10902373095672394,
        -0.25724028278988603,
        -0.1418126270237636,
        -0.3424323576219306,
        -0.25279976886103556,
        -0.34782807267367233,
        -0.233888399049913,
        -0.08448209829102105,
        -0.08056931275169668,
        -0.024353608608966303,
        -0.002151896126120058,
        0.0318533964568999,
        0.04812806355451593,
        -0.04867894386172447,
        -0.05696738344753202,
        -0.12367742177572609,
        -0.1892566735723819,
        -0.057842498485046294,
        -0.07843551003756859,
        -0.13032853762516725,
        -0.019535443333117092,
        -0.08987463869907576,
        -0.1797496559164518,
        -0.004225550184015792,
        -0.02194051192399663,
        -0.20099307536291172,
        -0.13472157465743306,
        -0.059350988944339926,
        -0.12740417263261145,
        -0.22473520799901447,
        -0.2591641399445729,
        -0.28633529485003384,
        -0.3967899228789219,
        -0.25126502694883623,
        -0.1291270231892145,
        -0.09116906907686809,
        -0.025511977961587804,
        -0.02168435217883145,
        -0.012352706268631934,
        0.0014325829095973052,
        0.06653236322206858,
        0.052624769115479614,
        -0.023652819524378522,
        -0.1262361104362534,
        -0.15919194626835953,
        -0.08486627646755526,
        -0.183983980054434,
        -0.10528820374181536,
        -0.09898778009980824,
        -0.031871234915225866,
        0.10870727215511264,
        0.08288434730675867,
        0.10681153737213572,
        -0.010193379739195822,
        0.01810534999810035,
        -0.08358218976289974,
        -0.09095704390826034,
        -0.08979871589385086,
        -0.12990617300367266,
        -0.1563964356715799,
        -0.1944924318184812,
        -0.2710926584011627,
        -0.03333585447243208,
        -0.06778963498732898,
        -0.03503462172191196,
        0.05027779111926682,
        -0.003014489068812013,
        -0.03889878002412575,
        0.03381877984230216,
        0.025324185376812993,
        -0.17281159006066643,
        -0.07204788992830093,
        -0.08912682777070605,
        -0.0588663356596562,
        -0.11279670819426021,
        -0.025381037728529034,
        -0.05117920432587782,
        0.0528097724671098,
        0.25231459789295807,
        0.4476666777710838,
        0.5291959933862217,
        0.27306896534261454,
        0.3543851695867023,
        0.1403810133537195,
        0.020480334730530122,
        0.12792463238539128,
        -0.029949430958630282,
        -0.0721763050719012,
        -0.042748122591693624,
        -0.07398456049470448,
        -0.11693317015731695,
        -0.01936529491070711,
        0.009691295260351784,
        0.04941504805028102,
        -0.04755482488722669,
        0.004339724675887895,
        -0.023532564013877506,
        0.029281706739060765,
        0.0785467249296439,
        0.014200709048072097,
        0.000902752946009715,
        -0.012003143588851871,
        0.051969259939429746,
        0.013743638695685657,
        0.13758030456012077,
        0.11272072488865467,
        0.4252075885054807,
        0.6061518610355917,
        0.5985858953285633,
        0.6904433291324297,
        0.5905985404105618,
        0.42442775785596376,
        0.1996393528945573,
        0.09694577172217411,
        0.04730226453821791,
        0.022132378443494475,
        -0.03990935939910449,
        -0.04746175881493522,
        0.06864172579108707,
        0.06725645916931723,
        -0.02573318287345511,
        -0.03630199452659401,
        -0.15027449942117116,
        0.060232258308820064,
        -0.03418904535711299,
        0.007143672764341804,
        0.05779885421101559,
        0.07185200606293524,
        0.04736744724220862,
        -0.07656210620897577,
        0.04848857836189034,
        0.06869470740040856,
        -0.019176476389792686,
        0.18814914543804045,
        0.14076390483136042,
        0.37875536138350496,
        0.3994470532980634,
        0.34131752497349177,
        0.32066441103876164,
        0.04893106316425866,
        0.11606704818290156,
        0.07794630018544235,
        0.06570995905642554,
        0.09308066301552245,
        0.09013421162899066,
        0.0036574614970203956,
        0.07411596703056136,
        -0.019500637073015064,
        0.05712478745149506,
        -0.03781861681550956,
        -0.06779756043923657,
        -0.022276014495788903,
        0.028147948478434753,
        -0.015337759439807593,
        0.04462449532722122,
        0.07674542006009552,
        0.05711781816273996,
        0.059725679298237605,
        0.08388328049463534,
        0.026919149139166456,
        0.04225708342544826,
        0.06314701093080864,
        -0.023966722935880248,
        -0.0978506262714165,
        0.0568007378792169,
        -0.04531834616022988,
        -0.035143090787861056,
        -0.05488080092242724,
        -0.004007346744900267,
        -0.06730510459946829,
        0.017220183729960946,
        -0.004129566560317035,
        -0.005832374273956782,
        0.0758513716951083,
        -0.03766526907634579,
        -0.06400308007923619,
        -0.07879911031650638,
        -0.10284182418576007,
        0.03881822397567788,
        0.011750372830750509,
        -0.01535484529943349,
        -0.05390503731445413,
        -0.0798045079598825,
        0.009010731237175714,
        -0.0025198830676616793,
        0.04181776318214511,
        0.029261056114106617,
        0.05684814868755704,
        0.02885213844468971,
        0.0037411620547601492,
        -0.007976877422451397,
        -0.039258080587400476,
        -0.0024541539853472423,
        0.05645272182146113,
        -0.05936036707698231,
        -0.04566145100159047,
        0.023033371748659815,
        -0.01658317025881657,
        0.05395794828423699,
        -0.006111293530041733,
        0.048593312784671425,
        -0.001951547516733989,
        -0.01916910995542666,
        0.05282210171498315,
        0.05329722358464191,
        -0.07990027842285854,
        -0.01671519981985001,
        0.005270525485289345,
        0.04823066617774971,
        -0.04508219343501148,
        0.06538464902100702,
        0.033180046841311844,
        0.011392729485395658,
        -0.004715120996535278,
        0.05049550280062426,
        0.015186549927602638,
        -0.018904224040322447,
        -0.04496585576156484,
        -0.014475359007653229,
        0.01401809074985872,
        -0.02633530991246646,
        -0.008089010312520389,
        0.015201523059217528,
        0.004402063841819096,
        0.05708170464608006,
        -0.040896263318182774,
        0.13569844325388625,
        0.08934408485051934,
        0.0447150895889144,
        -0.0013049436769405512,
        0.055291364772483934,
        0.018078497721968966,
        0.06416855414398763,
        -0.0020590783829401494,
        0.0449025697375776
      ],
      [
        -0.09978637444880284,
        -0.05832515718461457,
        -0.11164964614353262,
        -0.0915343859550162,
        -0.13746952698433418,
        -0.1271937232062521,
        -0.08977696422031878,
        -0.05281328521341227,
        -0.10559408267181386,
        -0.06996649469649746,
        -0.08479560739598083,
        -0.13470597857956307,
        -0.059868684448081626,
        -0.14065441127996436,
        -0.11184282574208126,
        -0.1409480486557328,
        -0.059676357828874385,
        -0.09120569132670006,
        -0.16209915673619113,
        -0.027465455617977284,
        -0.07112329714144974,
        -0.014746869400033282,
        -0.07969118354089327,
        -0.1621669731478111,
        -0.011631824977610008,
        -0.0659468751007381,
        -0.12885555883978772,
        -0.08531522224622104,
        -0.06827400572091674,
        -0.0625260017432566,
        -0.09034010252094607,
        -0.10892557337047085,
        -0.10032916067773892,
        -0.17054445546921732,
        -0.006937805328110726,
        -0.12266374786026323,
        -0.036114690789214456,
        -0.047194856130539635,
        -0.13482873409074703,
        -0.06520895685080855,
        -0.14131120827825994,
        -0.06300331161087791,
        -0.10961107540392309,
        -0.1842316377343166,
        -0.06565725483280835,
        -0.06593313704055173,
        -0.04256702342563146,
        -0.062460855233500236,
        -0.09716934581306905,
        -0.13070447000381347,
        -0.07726276457914222,
        -0.09187181809134282,
        -0.0026774599864053095,
        -0.05800342637799334,
        -0.1363731053380301,
        -0.04653421384669639,
        -0.07830596698732292,
        -0.05240206259449982,
        -0.04745285800952214,
        -0.1201418940856564,
        -0.0013419613678189082,
        -0.05469957983892159,
        -0.10426647770332986,
        -0.16777194554966224,
        -0.02961667582874933,
        -0.08965417098191394,
        -0.04896688768810519,
        -0.011367601852574212,
        -0.11635999329135223,
        -0.023154552988753452,
        -0.1526372754871123,
        -0.05211674532722458,
        -0.018988348549888314,
        -0.024626162508541712,
        -0.01286943792394458,
        -0.11886966954693542,
        -0.007112444858822196,
        -0.04226915369174087,
        0.035384194428275936,
        -0.05923040142810097,
        -0.20291471230829,
        -0.056149352520799486,
        -0.11353374998500868,
        -0.1622241072911162,
        -0.040845000454357454,
        -0.12877551299195084,
        -0.07743222730266652,
        -0.09255257511529472,
        -0.06858357512139332,
        -0.11249249204293438,
        0.05224555888086,
        -0.069101543141286,
        -0.08289767358742195,
        -0.1889389482576162,
        -0.10181745877426157,
        0.001978197253305435,
        -0.03594929005539082,
        -0.026734732586749504,
        0.07434458360740098,
        0.06393105280849623,
        0.027104481597256338,
        -0.026544453339752378,
        -0.011712475216583263,
        -0.04999577856328561,
        -0.004207442162792485,
        -0.10683409828355328,
        -0.08996430849834033,
        -0.01505737530847208,
        -0.1289861691342168,
        -0.08832802924336061,
        -0.10013795742325804,
        -0.05519877644751729,
        -0.14902671724466843,
        -0.20838173620493594,
        -0.12820598990334908,
        -0.022583970180564104,
        -0.08097118670417203,
        -0.24185930132797223,
        -0.04631940865214463,
        -0.11421000696221734,
        -0.0458196368183652,
        -0.006440567943275299,
        0.1140064210080935,
        0.09122809175944929,
        0.0185500278454073,
        -0.029151540355246253,
        0.011073479958166215,
        0.08942661807707561,
        0.05763686741069226,
        0.021632190992320336,
        0.064692622843751,
        0.02640085086261462,
        -0.10044460559579846,
        -0.2148717764926824,
        -0.14840499034916133,
        -0.12283775158689264,
        -0.10307699391220418,
        -0.05311923184318338,
        -0.17136307843942816,
        -0.05009799609936901,
        -0.016509951169617166,
        -0.126070276284943,
        -0.10926931659191705,
        -0.17526455202001395,
        -0.15786960278305778,
        -0.07028011962554412,
        -0.024220127217742856,
        0.07062706932535981,
        -0.11146302949668027,
        0.071877073815663,
        0.08867082073211491,
        0.051011500489045174,
        0.04984365912411475,
        0.037724004115467974,
        0.04434363568724265,
        -0.06251883028497282,
        -0.014785660898922472,
        0.03172560062372672,
        0.006344818279028792,
        -0.017579999712703322,
        -0.08089912874007979,
        -0.164584272454195,
        -0.23838528324536368,
        -0.21826302655465302,
        -0.14265795391549158,
        -0.17922593468688275,
        -0.13751022220669762,
        -0.12949565617702136,
        -0.07925162460185994,
        -0.048371705887000245,
        -0.07786615089238941,
        -0.13323984911761788,
        -0.054960029716996095,
        0.013317337591542728,
        -0.08780192146273916,
        -0.004700052013217396,
        0.08129836122088915,
        0.02717873862736372,
        -0.044259789353616415,
        -0.12131382430729934,
        -0.10692401320997702,
        0.0558687050771911,
        0.1981976596625447,
        0.1127110604203454,
        0.2060872039252039,
        0.06525549786549344,
        0.049526084976426965,
        -0.05812484447740058,
        -0.161304516664884,
        -0.2677913214608134,
        -0.25928194587049025,
        -0.3341674647410949,
        -0.10670450121273725,
        -0.1469333075735194,
        -0.025732859104585084,
        -0.019088594399174565,
        -0.0181257724358994,
        -0.1388299570606868,
        -0.05579186442461266,
        -0.11234685381961149,
        -0.06996236974656583,
        -0.014757855876140905,
        0.0125471494337957,
        0.05666778249745653,
        0.050900700173702955,
        -0.1277071475948114,
        -0.04110701169201963,
        0.007227647983256289,
        -0.025975968907713472,
        0.08008149702602585,
        0.1771453556596128,
        0.21323342500537634,
        0.25559687899743827,
        0.005405518536126372,
        0.0009153676465407704,
        -0.05329570883489085,
        -0.24261443095212942,
        -0.35173259531961026,
        -0.2898789452214341,
        -0.2313871243874498,
        -0.27852639418911757,
        -0.13798670495582316,
        -0.0576019872872123,
        -0.14948065269375632,
        -0.02770195993487239,
        -0.017680726115122402,
        -0.13572129864373733,
        -0.07459440622523492,
        0.016551082015644984,
        -0.07445220649131001,
        -0.07343951690227976,
        -0.09247535581767466,
        -0.1932776342219295,
        -0.13370573361600985,
        -0.09806334115140833,
        -0.1472429386698711,
        -0.03575393764115839,
        -0.023386296114000994,
        0.08210012145380599,
        0.1625904863454597,
        0.17121694911567392,
        0.10055385639122774,
        -0.0022995605747032745,
        -0.16663256995228837,
        -0.25024500229443897,
        -0.24051258879908233,
        -0.2880069818489304,
        -0.3295297061271734,
        -0.1699622186010818,
        -0.2033602500982734,
        -0.07560518067154887,
        -0.13516227989212481,
        -0.02723376008671771,
        -0.07632825776610405,
        -0.01406378712219838,
        -0.07480245278947784,
        -0.12123442825750026,
        -0.07456353275677968,
        -0.19173839230068257,
        -0.12207585121399055,
        -0.11592447420359195,
        -0.1861394607149497,
        -0.2106296259074174,
        -0.3010343020254258,
        -0.29362204445234585,
        -0.20275078439324884,
        -0.0712409955919602,
        0.24249077881959757,
        0.15995992023377492,
        0.017222787457241973,
        -0.008745019225960939,
        -0.13100073256081324,
        -0.3656642729581362,
        -0.28670454460132916,
        -0.32216798853184964,
        -0.30603945754146467,
        -0.30470701530426925,
        -0.23530148061900824,
        -0.1442944810422523,
        -0.025124958952314178,
        -0.10825806090610879,
        -0.046795392619001334,
        -0.13802754794241162,
        -0.16137327805789364,
        -0.17394285449953317,
        -0.08138276537278746,
        -0.15098283591452838,
        -0.2168230492344171,
        -0.23403467492960178,
        -0.3849036343360657,
        -0.42362124597814715,
        -0.4119758415799282,
        -0.43610137934555276,
        -0.2649581078615266,
        -0.06167495186434914,
        0.24675141604215128,
        0.09977183156045241,
        0.1991409187897284,
        0.013694921876042225,
        -0.14626385075804327,
        -0.2115939682131005,
        -0.19024012183254624,
        -0.19569460583145232,
        -0.26898366036336224,
        -0.22418669085855175,
        -0.159601035480193,
        -0.21902354256796402,
        -0.04790263510385478,
        -0.09261875563186892,
        -0.18221314062564886,
        -0.06655621234606979,
        -0.08276316354033078,
        -0.08096692168566247,
        -0.10481843700026297,
        -0.07580801195996775,
        -0.08529260249956849,
        -0.15811001532535385,
        -0.24521355322748994,
        -0.5042807307386001,
        -0.4611495074019844,
        -0.5037678104021148,
        -0.2143379776105107,
        0.0007873186062658623,
        0.35688299623112735,
        0.3264206765631063,
        0.24172851152178743,
        0.03693237517815248,
        -0.00885898049871577,
        -0.10288914526778617,
        -0.12175591727882358,
        -0.11839660474407787,
        -0.1614621853114253,
        -0.09296636034321351,
        -0.12336928479901381,
        -0.1834990347484008,
        -0.16213296830948548,
        -0.06509324749236392,
        -0.08980803062374715,
        -0.1497963245453785,
        -0.1509213870072672,
        -0.07762647752621762,
        -0.04897701094426484,
        -0.04157993586543055,
        -0.098131294170126,
        -0.10475567606323924,
        -0.15038051836111882,
        -0.3019366773978523,
        -0.37256335986833794,
        -0.3019974795454423,
        0.024594790131611702,
        0.2796612152673307,
        0.3175585906860778,
        0.19462307267410106,
        0.23098698272597468,
        0.13320515120303744,
        0.040132757657101656,
        -0.1595271931689236,
        -0.0785832564911389,
        0.002878714058407491,
        -0.06052454568077001,
        -0.10511579794804995,
        -0.11693985709125643,
        -0.011165296957457915,
        -0.10456909150784185,
        -0.04140630202764179,
        -0.06741230439701953,
        -0.12080146786309717,
        -0.10749675432987724,
        -0.1145077382937757,
        -0.10099727723486596,
        -0.10216684105332613,
        -0.04234712019090353,
        0.0721242263547171,
        -0.13297726449754055,
        -0.1455246987777828,
        -0.09643034673823803,
        0.029145521762319184,
        0.25485427648505465,
        0.4329664251668656,
        0.46103174985693024,
        0.3066023933984848,
        0.37740845564828923,
        0.23156089849123518,
        -0.048494685050950434,
        0.04116086244562834,
        0.12466506271407653,
        -0.126694708831448,
        -0.024353168445337758,
        -0.045474868213695334,
        -0.028781950306918106,
        -0.08446323416774751,
        -0.12062808080843715,
        -0.05226392757763818,
        -0.09773954624234685,
        -0.1481957419261803,
        -0.08491083557498952,
        -0.057483929578419475,
        -0.18944606187268304,
        -0.10119807705469536,
        0.006119844400923915,
        0.1994556817864469,
        0.20024352600625467,
        0.08696401270031115,
        0.04724354834831194,
        0.02481853314576171,
        0.3911417845644965,
        0.3817891659404191,
        0.4245453574747952,
        0.2563179680440724,
        0.33867175654498044,
        0.24284345780787908,
        0.07625868717693796,
        0.04976220249132574,
        0.06813620413303026,
        0.1322389997559933,
        -0.07548057856479712,
        -0.21603161330307302,
        -0.10671155198639684,
        -0.13706993322776373,
        -0.07621841417685735,
        -0.07892597033258045,
        -0.11758848262582632,
        -0.05743682081758796,
        -0.05080874255839427,
        -0.12951078561920015,
        -0.13908425295409232,
        -0.1092650630480256,
        0.21066820387161783,
        0.20010904149053166,
        0.27240276697609667,
        0.24398873177417263,
        0.16146575792405832,
        0.20062206497549395,
        0.40472262804466125,
        0.48748208724459424,
        0.20535958347379307,
        0.24675281007119665,
        0.18983591692740592,
        0.25492675271142595,
        0.14506702748719907,
        0.04868980401665459,
        0.10476972953480593,
        0.04429804549488366,
        0.053996191864292754,
        -0.006292715144128696,
        -0.11146292703709945,
        -0.032984233431246936,
        -0.04068190704777012,
        -0.06821937235803338,
        -0.07757828000010039,
        -0.06278311797164604,
        -0.044020566384417266,
        -0.020277263693188458,
        -0.02704985180235653,
        -0.09216168669988256,
        -0.00024953580834314606,
        0.03432082433025329,
        0.18530668506263576,
        0.14484628482803563,
        0.1750149996921339,
        0.13064691102047546,
        0.17643940269882574,
        0.2043185869803531,
        -0.013170802864610887,
        0.035929029024548705,
        0.10404943920388052,
        0.07044613049255977,
        -0.006634895391628551,
        0.13778229610695764,
        0.00830758281528741,
        0.08714990483129126,
        -0.05215381550412847,
        -0.1286711132026055,
        -0.12282927847166152,
        -0.06607760300145554,
        -0.08493826186819028,
        -0.17911295340014477,
        -0.09592050459664406,
        -0.08319675592952061,
        0.014788955702528616,
        -0.04719090636963751,
        -0.12941949817800852,
        -0.16317153556159086,
        -0.04550672932747148,
        -0.07707356344036972,
        -0.08670709900056026,
        -0.13152356568979492,
        -0.08487027359301727,
        -0.04113024176697427,
        -0.04367211465557288,
        -0.11321697192985394,
        -0.1059184093384872,
        -0.11092416629103063,
        -0.026674303146171915,
        -0.11628270972733146,
        0.10289822833423704,
        0.05056956538451945,
        0.13429003315349275,
        -0.09179188829084,
        -0.09211753223266625,
        -0.045929601430084725,
        -0.06577953854246343,
        -0.02108998027716859,
        -0.0540708770256213,
        -0.13634872533221337,
        -0.08374216342153545,
        -0.06055610507561909,
        0.0013804127859824195,
        -0.05676308837540404,
        -0.08570349288047605,
        -0.14124770036919593,
        -0.08597711400665603,
        -0.201629517011025,
        -0.08552238850257868,
        -0.22157550223483818,
        -0.2866929821550206,
        -0.3035174161964488,
        -0.2762672094361122,
        -0.10599029771213095,
        -0.07057580384093562,
        0.01871039710551751,
        0.02731060580739966,
        0.020247040690272607,
        0.27004682586659506,
        0.15734215850103095,
        -0.07233809439343447,
        -0.01645895894755309,
        -0.08215464795044136,
        -0.08629392772046776,
        -0.0756441029084507,
        -0.1171790219900852,
        -0.05272226087536946,
        -0.11316380253474864,
        -0.09992486945518814,
        -0.07308819062400174,
        -0.033033179891770244,
        -0.08211548924962164,
        -0.11440149347511233,
        -0.04775316259919486,
        -0.1365763016248866,
        -0.14293995317199193,
        -0.1849516618569027,
        -0.2433988183188715,
        -0.42544651855372045,
        -0.3276547711243871,
        -0.2557460081091096,
        0.02575921779798983,
        0.11642883329967099,
        0.15366986882721262,
        0.0490315461832505,
        0.17390263172027282,
        0.20180647784808453,
        0.12499213462207616,
        -0.013310420703090136,
        -0.0761622739942002,
        -0.061377469568026,
        -0.1358045570676844,
        -0.09031195743684559,
        -0.05006478129023805,
        -0.10433379590580541,
        0.006811221697843036,
        -0.059498991606945204,
        -0.026612474979705186,
        -0.022381474030801474,
        -0.021125767315634782,
        0.007614812788829455,
        0.0315477578622933,
        -0.1581777465119824,
        -0.1660673823990349,
        -0.15504315244704514,
        -0.2871876916328462,
        -0.07779603501369176,
        -0.14246811207812204,
        -0.1060280386512889,
        0.22423452917364445,
        0.2307329723313002,
        0.2064647783348763,
        0.20996627729706918,
        0.15314073151072716,
        0.03495669460757436,
        -0.08141411685724667,
        0.05558752516879219,
        -0.011441006673248095,
        -0.12549421025471286,
        -0.04376763484454125,
        -0.08001672093635323,
        -0.07348815926909641,
        -0.1364477529652539,
        -0.03842084965501454,
        -0.05412385394752788,
        -0.0943285783304347,
        -0.07289277401463026,
        0.06945086591908099,
        0.11509412927176588,
        -0.01995833628103569,
        0.04213885982029366,
        -0.07502901883497859,
        -0.09212768481856637,
        -0.21725376564244225,
        -0.1267001409872322,
        0.021200675137030358,
        0.05604511817237168,
        0.17102791112857824,
        0.21040973407625702,
        0.2875100941669744,
        0.12083239542885268,
        -0.04742154639593795,
        -0.031051501083648847,
        -0.1518325706213896,
        -0.05405612414219701,
        -0.08481965818391035,
        -0.094071195894387,
        0.007507366505822977,
        -0.15758301265509245,
        -0.08889847512755952,
        -0.14406013397269063,
        -0.1993034177571157,
        -0.1144395260817318,
        -0.11735459654369365,
        -0.1392264449547222,
        0.020318484742447986,
        0.006225138877664675,
        0.05324320318257935,
        -0.019189935944459797,
        0.029202198886375947,
        0.011789118502832313,
        -0.12321001583004935,
        -0.14605945813291654,
        -0.11712636379946895,
        0.00364535135386623,
        0.04465943027945623,
        0.013712144926055972,
        0.10299365333230123,
        -0.08645960497057642,
        -0.05369615694789855,
        -0.023695556542273923,
        -0.0702520395527497,
        -0.06485833111447631,
        -0.11079827579948179,
        -0.06645111483726818,
        -0.15372445440416993,
        -0.07032942729078767,
        -0.14029454387566315,
        -0.1752014451146074,
        -0.06679430215146342,
        -0.1380229116031958,
        -0.07504222587326312,
        -0.03815030877142712,
        -0.06941096893410764,
        -0.08642584417091939,
        -0.03730909838091687,
        -0.08119613935347458,
        -0.09486414394852011,
        -0.024085219424793077,
        0.08244047998268392,
        -0.06980596972134165,
        -0.17293963043921484,
        -0.10101967997554598,
        -0.17119800135244356,
        -0.1255017604861755,
        -0.1563776662134288,
        -0.14207440580714326,
        -0.12719199080678167,
        -0.08510025057229637,
        0.019392770913424156,
        -0.11014452216451873,
        -0.13324720183154865,
        -0.04636619779751424,
        -0.018933621701442718,
        -0.0627819504764604,
        -0.11200848064631114,
        -0.019193904458177615,
        -0.027957990689049337,
        -0.06955955249434984,
        -0.07788972435116304,
        -0.17725191563668796,
        -0.1321232535757002,
        -0.15717151049894668,
        -0.1074797139517813,
        -0.14418096068966607,
        -0.06575762591688405,
        -0.21879091566600317,
        -0.11210457976125757,
        -0.14101517404262864,
        -0.12340399951753013,
        -0.07277324457548376,
        -0.19462116104525173,
        -0.06355923460173293,
        -0.07780913364628853,
        -0.04005618178817721,
        -0.10059774333725893,
        -0.07733994377298853,
        -0.04537495974186558,
        -0.0929732724274139,
        -0.05351510617435056,
        -0.07397004901403748,
        -0.041321404703347865,
        -0.08678705396402323,
        0.003612493649522741,
        -0.11664386761102996,
        -0.1468958437507007,
        -0.008090731475118112,
        -0.1052658911955639,
        -0.11761845128420563,
        -0.17671754247756882,
        -0.11507772876648939,
        -0.08710286602644235,
        -0.07839692658199143,
        -0.15577690202723166,
        -0.014078482547453126,
        -0.0161976539074077,
        -0.1227358965031718,
        -0.07579198557104347,
        0.05635718521263564,
        -0.08820784130900042,
        -0.02918065761410293,
        -0.099205750089182,
        0.03937866164835128,
        -0.0021107585256080748,
        -0.08978177897482098,
        -0.10415803132289508,
        -0.05743918701543207,
        -0.04616782374227068,
        -0.005078074912543973,
        -0.05452391920475545,
        -0.12957495628265148,
        -0.10224667457332323,
        -0.04907639452044644,
        -0.09384465099391626,
        -0.1918506942678418,
        -0.1310221591130189,
        -0.08311672536420564,
        -0.06060962105121767,
        -0.18523921759178152,
        -0.1189301698225562,
        -0.11208205570186858,
        -0.15844474605293973,
        -0.13822978123275903,
        -0.02310525626838626,
        -0.1213015274422793,
        -0.03331544866564078,
        0.03504561980524766,
        -0.020253308637892282,
        -0.06769228725597387,
        -0.047816961206067064,
        -0.14581409488123226,
        -0.1588159521931693,
        -0.05628943086789655,
        -0.10152823669319164,
        -0.09810811649027723,
        -0.09498871953844062,
        -0.12426277370360324,
        -0.03653075045666932,
        -0.1667081076821172,
        0.0011723951119208824,
        -0.009611227508597239,
        -0.14063384828245906,
        -0.2060009117741558,
        -0.15436959170726244,
        -0.1334228207186402,
        -0.037773706466544564,
        -0.12833793588706127,
        -0.03254676275374702,
        -0.1340669864844085,
        -0.12161485725159141,
        -0.048001477214505435,
        -0.08774029259765329,
        -0.09759226530830614,
        -0.09388795266439862,
        -0.09723983733631206,
        -0.05706077708703119,
        -0.08411413633456172,
        -0.15220009478149027,
        -0.12255629940999442,
        -0.09156829601818961,
        -0.10557971669300545,
        -0.14473697258433343,
        -0.13263499180358573,
        -0.15894655679476577,
        -0.12233878917507078,
        -0.12173527213927332,
        -0.06456402763772937,
        -0.06099508892023192,
        -0.07996120178483282
      ],
      [
        0.0026502892168086866,
        -0.013659707042296517,
        0.021234092850276522,
        0.0916778647264173,
        0.033758465264428654,
        0.02180993891474455,
        -0.00660040547159572,
        -0.007350922617109199,
        0.06942743183218564,
        -0.08689476561260116,
        0.026587332093943077,
        -0.047135902500725003,
        -0.012797177265368078,
        0.06005651360663094,
        0.007451094808758127,
        -0.0632893845242625,
        0.11365270033730547,
        0.02602638535502551,
        0.04064050557964715,
        0.020875804671303327,
        -0.0020029012726080395,
        0.042782703213574615,
        -0.012130004624141544,
        -0.10161037508195016,
        -0.03952102920206355,
        -0.026789519421166082,
        0.022152094089085823,
        0.02325050051661388,
        -0.07922301275526973,
        -0.042696619718906086,
        -0.014525413095703099,
        -0.012115641937493447,
        0.03727916231525317,
        0.10578266065638363,
        -0.03674162175854712,
        0.09573900758906768,
        0.10370735164280946,
        -0.007035023262004377,
        0.02822704743030435,
        0.03340386366514713,
        0.0494158476974916,
        0.030575909903962615,
        0.13774428606616723,
        0.015680535054260276,
        0.037147139242475126,
        0.009340399607623312,
        0.028636650493576946,
        0.007296830721792601,
        0.0030798034275867246,
        0.14141206268559248,
        -0.01880682861968493,
        0.06448622910239114,
        -0.04017292268335861,
        -0.05756144094921648,
        -0.010302547573933937,
        0.013342431342837871,
        -0.05313177226308979,
        -0.044256567069221535,
        0.09277291445115778,
        -0.0009094205358880494,
        -0.01981664117875537,
        0.04268912056548652,
        -0.02195304146076642,
        -0.05353075179188375,
        -0.008842593473032893,
        0.0706196311391358,
        0.09080029259504922,
        0.07345943447670716,
        0.01165091042722833,
        0.05857464997947217,
        0.12966537311862666,
        0.1425584933491485,
        0.03860446021147682,
        0.1384508792472675,
        0.13170560705402554,
        0.09587417292860916,
        0.09688425584109354,
        0.06268881688551185,
        0.08027872553569713,
        0.12110371190484008,
        0.051798799644895664,
        0.09148012935413995,
        0.0733391857815028,
        -0.034928111692775134,
        0.02614899015938924,
        -0.005225931012960405,
        -0.03419899772399653,
        -0.03937477040409854,
        -0.06424975923434077,
        0.08158659463572866,
        -0.06502551080757142,
        0.01960808259397902,
        0.010845542651744877,
        0.04580387150963903,
        0.14273159059898677,
        0.02056667300839368,
        0.010512774495065075,
        0.017903594982830433,
        0.016015522398137864,
        0.12104393829529152,
        0.054453099841896245,
        0.16251560938516846,
        0.2288167536117664,
        0.12695829910291037,
        0.12941735099415502,
        0.20059668293613608,
        0.06475800508018638,
        -0.043223819587522895,
        0.004998052603055784,
        -0.037966957255075796,
        -0.00273574538945798,
        0.053565648147711385,
        -0.052275408053751284,
        -0.01643265149343124,
        -0.005412864297861976,
        0.02123500615035433,
        0.023747398953805555,
        -0.032861719778357834,
        0.057428726255210956,
        0.03527414859330386,
        0.005796534991705136,
        -0.0033227532498606507,
        -0.13450483088518633,
        -0.17375945166592227,
        -0.25008035386909666,
        -0.37559211499098105,
        -0.2393214198634478,
        -0.138910978268538,
        -0.07031325118003882,
        0.1331613453175405,
        0.12730672716343935,
        0.20669424379363188,
        0.17344439845873566,
        0.15937708288775249,
        0.21742132941444564,
        0.2173569517729957,
        0.1330760204646732,
        0.006555850182890121,
        -0.05801596625266269,
        -0.02312967920541011,
        0.05918696495055148,
        0.0013880862929459507,
        0.06251908870661078,
        0.10126690339762213,
        0.05151717638487927,
        -0.0075716919849473105,
        -0.09965567634189405,
        -0.06157854412970488,
        -0.08121330659859745,
        -0.193668976653516,
        -0.16425151778074365,
        -0.2207160310068133,
        -0.21575184518985396,
        -0.5524611438392238,
        -0.41653150748029016,
        -0.6359645608287697,
        -0.5193541688453736,
        -0.4155883850460818,
        -0.18635406101560908,
        0.04745640008899777,
        0.227807437717432,
        0.2232190852714916,
        0.292301249979064,
        0.20930220501790048,
        0.049794324167052796,
        -0.026645283246637803,
        0.045750801959589284,
        0.043189995682399694,
        0.0008155303757046688,
        -0.0009408444532285022,
        0.011875679922739898,
        -0.006693386065132977,
        0.043805903175068196,
        -0.06854907633744835,
        -0.16863764188141706,
        -0.15372974823599223,
        -0.07641655495624193,
        0.019867229493178224,
        -0.01184029585009792,
        -0.2755089744483629,
        -0.34853696270583384,
        -0.3794125412323633,
        -0.5013318690567992,
        -0.5461305308120885,
        -0.4267729867182099,
        -0.4571125584287086,
        -0.2567867668051561,
        -0.12352077207215843,
        0.04279747130547667,
        0.219704613182781,
        0.35433439477295275,
        0.2614026339238943,
        0.38140545698923095,
        0.0835133630417542,
        0.11704296296253049,
        0.014379479481597738,
        0.05180873062979214,
        0.041260813230234,
        0.024996458699577114,
        0.046142271655699556,
        -0.20109639478792884,
        -0.11258003984666225,
        -0.2022381948247317,
        -0.024446789268538934,
        -0.06061485000637435,
        -0.0029124137835800598,
        0.06619051698928012,
        0.039447485099283384,
        0.08522977225220178,
        -0.05051614074879617,
        -0.25290432698639986,
        -0.2421473658719085,
        -0.14826391016266982,
        0.002095116666164457,
        -0.15075101535715646,
        -0.28776097901634173,
        -0.022117345248572885,
        -0.0206910063165725,
        0.2348301938917746,
        0.46988254369183274,
        0.4123111101233999,
        0.1332329743223747,
        0.06958317724021207,
        0.0045799795879201246,
        -0.05853516793040003,
        0.07939571254734328,
        0.028271752622009084,
        -0.0008128609108201132,
        -0.10162253931327213,
        -0.0528463219880869,
        -0.04591624845369446,
        -0.022049827880562613,
        0.07346408536713671,
        0.05796068643495541,
        0.13682277268371762,
        0.10409886381546023,
        0.12405484613534581,
        0.2731295605104818,
        0.31033424805452653,
        0.023826193033778097,
        0.010047362145108343,
        -0.08393148800487675,
        -0.22061017284321488,
        -0.4784486898051455,
        -0.480767756098517,
        -0.1594138331358917,
        0.03126721056666141,
        0.19028968405423025,
        0.3960835938209238,
        0.24213755924938446,
        0.01066339048631752,
        0.075051208770072,
        0.17039639319574668,
        -0.07129889739257851,
        0.047416768131616126,
        -0.09799074095038184,
        -0.04373363657367573,
        -0.06786898080675537,
        -0.07728155279218492,
        -0.09593670814453446,
        -0.17030427860821062,
        -0.06716453110542707,
        0.29547769851289646,
        0.21073433560859384,
        0.31739515319106254,
        0.6070552685116087,
        0.3822738723016646,
        0.0609108399102481,
        -0.14794621367662458,
        -0.46792952561946294,
        -0.7570786648921103,
        -0.6693515127117061,
        -0.5916392418986246,
        -0.30297799233359696,
        -0.11427983586655792,
        0.10816134503296547,
        0.27317405955978064,
        0.21429971654264102,
        0.05809256449147628,
        0.03625167953285311,
        -0.04108901657267038,
        0.036736674138714405,
        0.08910327230210623,
        -0.059903985113391615,
        -0.0622905591229569,
        -0.008394974103413218,
        0.007308162092675745,
        0.1197681482137993,
        0.07061926136272285,
        0.11182452616013776,
        0.14825238772596716,
        0.21006952782808658,
        0.4565231607658014,
        0.6418886131810043,
        0.24114104485458826,
        -0.08998032135238941,
        -0.36389911049499407,
        -0.7483879347300054,
        -0.7367274960504436,
        -0.662304498011758,
        -0.7727211863858298,
        -0.4778455897919233,
        -0.2641314260656663,
        -0.11399518327736143,
        0.07546428794269437,
        0.11548311670583968,
        0.06192801888258041,
        0.06549208202269069,
        -0.031819220460427164,
        0.02033172377647235,
        0.020996631910676956,
        0.10209925193653384,
        0.0007547300946509766,
        -0.029451781719139248,
        0.0023305722734980492,
        0.17527900050206213,
        0.13743123979416877,
        0.27474160992919733,
        0.25806479558856404,
        0.3690642167886899,
        0.5528788958035168,
        0.5485515716846769,
        0.10033650356108768,
        -0.35301734366915366,
        -0.5954747070733458,
        -0.6965041894143903,
        -0.7471622950503646,
        -0.7022248504910197,
        -0.8961173038960185,
        -0.7409064054644544,
        -0.5080441565652087,
        -0.2046161632333619,
        -0.11092086389392615,
        -0.022720008559651336,
        -0.03809437201486753,
        0.017997358359629265,
        0.07626052884030275,
        0.04580637092463507,
        0.03603276044142107,
        0.09007274867583419,
        -0.03794447805855363,
        0.0086439297612467,
        0.17752392980674137,
        0.1414453255515189,
        0.32208762664188834,
        0.41406363944594143,
        0.7786177513106426,
        0.5370736426555199,
        0.5874521479062209,
        0.22256831678944938,
        0.13841849635002165,
        -0.254044358225201,
        -0.23579467895921913,
        -0.5122722903249746,
        -0.4256888466476784,
        -0.438841524304492,
        -0.6325283980712791,
        -0.3896666827292962,
        -0.26491975498493486,
        -0.11857365946326671,
        -0.06378148013650868,
        0.0034014051287745645,
        0.033384506987962005,
        -0.01639276112002725,
        -0.008262603287393942,
        -0.1212255941102073,
        0.04513727373235701,
        0.006577614116580008,
        0.08610008910120172,
        0.055573086942306386,
        0.059390087793761925,
        0.37594155944097224,
        0.4217394178657942,
        0.4352877151093279,
        0.5786127256039311,
        0.4655867238390649,
        0.028937902264851708,
        -0.14547902947817182,
        -0.22426538223148718,
        -0.2114681260304055,
        -0.09651545967032445,
        -0.25768755742742283,
        -0.20616180126234956,
        -0.10376039496219104,
        -0.1929745508783176,
        -0.23818527261065292,
        -0.17595603495319068,
        0.005561341435161546,
        -0.01586870495719511,
        -0.05356617860668874,
        0.05249428586909951,
        -0.008457902766024324,
        0.05924239759667657,
        0.04459246804528386,
        0.03834065641074997,
        -0.010704678653779175,
        0.00018922046920720904,
        0.007060906169230038,
        -0.05020118373509388,
        0.08029771491658429,
        0.23512389228223896,
        0.4284612468825279,
        0.5472120200836339,
        0.1628603608962731,
        -0.22452347366852532,
        -0.42308150366887826,
        -0.4225696728351394,
        -0.3386536876692831,
        -0.1451300326049772,
        0.028745085875319543,
        0.14240565456837842,
        0.04604453436175284,
        0.14191432618455557,
        0.06596986983574267,
        0.17117988239351672,
        0.07283085275698899,
        0.028082173815965814,
        0.06816980943951984,
        0.03216532702302161,
        0.055695162802788266,
        0.051323886800558376,
        -0.007822472588958962,
        0.08425362690168399,
        -0.009567353701419354,
        -0.015069421748830192,
        -0.028770403188259765,
        -0.19825202062448943,
        -0.26882118597371435,
        -0.10320951499354931,
        0.04325943597383542,
        0.014783438178527005,
        -0.19209592489646965,
        -0.6097951127868276,
        -0.8131507568785671,
        -0.5460800775273792,
        -0.3563980320718149,
        0.08483324142078093,
        0.012065258831866422,
        0.10228414633386575,
        0.13636816312886707,
        0.16371865217173254,
        0.15533092221078787,
        0.18830154600872195,
        0.06658414386586672,
        0.06130141748666064,
        -0.03596915637247438,
        -0.033902534563595925,
        -0.0391321830367943,
        0.0011732847707727504,
        0.06267847842104717,
        -0.038775652616173904,
        -0.10319453351524645,
        -0.158511069187589,
        -0.09755240174270723,
        -0.21398435647992553,
        -0.2870800300005109,
        -0.28607078096335586,
        -0.43559195113048094,
        -0.5358276524635828,
        -0.7847353837861281,
        -0.8734716351623993,
        -0.8045766189300635,
        -0.754370621969583,
        -0.5457814636033724,
        -0.22200322590249688,
        0.05701598222085454,
        0.2550306438707384,
        0.27157212106626255,
        0.10828276701753321,
        0.09818501085320476,
        -0.05366861319041435,
        0.003082877056049757,
        -0.004818244333677371,
        -0.05346366574057277,
        -0.02929182525026602,
        -0.05720314736148136,
        0.0030461246481469926,
        0.031562996167276425,
        -0.02298569198814233,
        -0.026152256289438045,
        0.1283576737233935,
        -0.1196620379767962,
        -0.0893185101435456,
        -0.24514703104646543,
        -0.4942035318608375,
        -0.8127387566754382,
        -0.9754305372059994,
        -0.9804206664770053,
        -0.881674209617059,
        -0.7761349953540947,
        -0.6695894163510937,
        -0.4802379895158177,
        -0.1599410886235001,
        -0.06672849744914718,
        0.2423197754688905,
        0.1335433438418841,
        0.17390249840447886,
        -0.03760812095393649,
        -0.10758236942599354,
        -0.0961615895210008,
        -0.04059775501864391,
        -0.09977615912711783,
        -0.04993962864134072,
        -0.06526052637767234,
        -0.004297515920918568,
        0.06580615860409707,
        0.03932754807295289,
        0.03757108372315144,
        -0.07962470212702459,
        -0.02343964534700563,
        -0.03780445577457573,
        -0.15735581119329928,
        -0.5198315042369992,
        -0.6802594208431644,
        -0.8305810487422384,
        -0.9091386921929497,
        -0.5821488908484802,
        -0.4292453450463471,
        -0.2344296623900169,
        -0.1279553377309961,
        -0.06627833890784317,
        0.014630261970806798,
        0.12521512178706276,
        0.1434722713806355,
        0.0822763929788579,
        -0.04419674138796941,
        -0.03326486883408139,
        -0.09308322988060157,
        -0.08624180964340773,
        -0.11068881270157484,
        0.021533877104545785,
        0.11058342687158619,
        -0.034771262048274694,
        -0.0009581496012703262,
        -0.07938093852310428,
        -0.09321446017900219,
        0.027365448597907637,
        0.030360143410160804,
        -0.05547103186013206,
        0.02412691793569886,
        -0.2763830147195629,
        -0.38959342941665215,
        -0.4601360208313023,
        -0.32495162215428713,
        -0.12152447593028083,
        0.058688235439822746,
        0.1062991292221671,
        0.16670223145005708,
        0.0004599165084325865,
        0.04481856238671864,
        0.07293339910292268,
        0.03434389174617263,
        0.1804127747831158,
        0.01908031423429322,
        -0.2116467904410556,
        -0.12793208717263607,
        -0.030860790735592083,
        -0.07833981778300313,
        -0.024548148198380162,
        0.057225158650906015,
        0.06804862442729685,
        -0.015913780558722702,
        -0.000592980275559896,
        0.022503577295875505,
        0.04647275663633597,
        -0.040977618122269126,
        -0.022668848098336244,
        -0.14091514971586144,
        -0.07283830117805697,
        -0.17706009700843217,
        -0.10929953578391878,
        0.0048745893448385045,
        0.03747173701066686,
        0.341963469236836,
        0.2909066337545509,
        0.24060268014132402,
        0.2860231395232195,
        0.09541223873938466,
        0.11843078942413585,
        0.05264328702955915,
        0.10253349672275668,
        -0.07777498656786465,
        -0.11187651767195202,
        -0.16673251846949771,
        -0.13705137217134045,
        0.03165099781947305,
        0.016511622796447894,
        0.003906641288364023,
        -0.026177123274368923,
        0.003827804140494288,
        0.01769815761016776,
        -0.020468342798461107,
        0.0030949370894836634,
        -0.054699029975478396,
        -0.10017405113466234,
        0.0342183473330945,
        -0.01670326638142115,
        -0.07525730303493271,
        -0.05281854137719633,
        -0.12949937331593275,
        0.14825741074099952,
        0.3518742964877812,
        0.42761489046233964,
        0.34236050645548294,
        0.08353211316426536,
        0.10000599696509631,
        -0.06000578314573444,
        -0.0628278161061027,
        -0.008939354727992632,
        -0.023291701354797887,
        -0.1711180731995618,
        -0.13265023510207263,
        -0.006972134265850266,
        -0.0034845012391224316,
        -0.022911559396010733,
        0.057182876029720685,
        0.006126989842949195,
        -0.04584661967752705,
        0.043011466545887965,
        0.0015965322449303515,
        -0.006490041167001681,
        -0.0638333664944145,
        -0.07935540025300584,
        0.08350742267308085,
        0.032286091042511046,
        -0.1260585746375031,
        -0.1115743631073354,
        -0.011929555705639267,
        -0.08775701880726224,
        -0.013708175017310184,
        -0.06616707706778184,
        -0.16564229921455975,
        -0.0498057329617163,
        -0.20242706596245763,
        -0.046773042689146206,
        -0.14977268660772564,
        -0.024957761614841405,
        -0.11100373804432122,
        -0.018768521884895768,
        -0.07758568461909827,
        -0.11783359953827666,
        0.003840281727301575,
        0.05685510901521127,
        0.05131223052091958,
        0.008730168750126704,
        -0.043494858302730095,
        -0.04115887941524491,
        -0.053229048990197016,
        0.011771783816987805,
        -0.08581119854413587,
        0.0063981828344929935,
        0.03092382733410708,
        -0.1260932381893413,
        -0.030453505801103297,
        -0.246562800934076,
        -0.4058389866951703,
        -0.3209660971827892,
        -0.16661387193314953,
        -0.2761844587866063,
        -0.3657907865223799,
        -0.25608237773292586,
        -0.08054324998337516,
        -0.18387050869991967,
        -0.09797360250212163,
        -0.13433717981896293,
        0.007245105805743403,
        -0.04938463492942758,
        -0.0036996256411225355,
        -0.0453587393501818,
        -0.01584620473951338,
        -0.07192313265506813,
        0.07867348274017984,
        0.0856021039833998,
        0.02555655892226463,
        -0.0015432826429950734,
        0.053682242225575834,
        0.03936127109603214,
        0.04564234345896696,
        -0.05216647608430839,
        -0.029347877343414024,
        0.17067877638023676,
        0.17014045311282738,
        0.05548162559943338,
        0.13506227439185814,
        -0.18818547500235777,
        -0.15236934515672945,
        -0.1649497170335446,
        -0.29655009819388317,
        -0.09991268578937039,
        -0.06409011474879374,
        -0.03266551759546868,
        0.022228461059067502,
        0.09886048761585632,
        -0.05286531010500287,
        0.011499905495661416,
        0.07416091607675422,
        -0.0505236205832486,
        -0.04078219350558165,
        -0.008004720828898585,
        0.06313757278852614,
        -0.06934113178697886,
        -0.044170323391163856,
        0.05157376211781108,
        -0.05595668216430059,
        0.04813148799954144,
        -0.016755862596982637,
        0.05473056636314556,
        0.04009859885695292,
        0.11475289427578007,
        0.16058239853914952,
        0.20217222105605454,
        0.21232426075451655,
        0.15271816952816025,
        0.1451208338894992,
        -0.060637655234638495,
        0.06034472478483663,
        -0.005806781109002249,
        -0.010688186502327342,
        0.0020465491648794356,
        -0.022737665682251194,
        0.01787557684111218,
        -0.0018761814773473342,
        -0.00037462109294713946,
        -0.030420743663823382,
        0.02232621308242898,
        -0.01670753006481115,
        0.03715672825222415,
        -0.0668832581211146,
        -0.013665068794566079,
        0.030681598679093352,
        0.009885148468678204,
        -0.03418984976792614,
        -0.0148195124247417,
        0.011196260577595547,
        -0.03759265814736407,
        0.06572150635291783,
        -0.045670450002632264,
        0.011425380096180333,
        0.08283112376819286,
        0.02898255091699536,
        0.019728791839190723,
        0.10617602176584294,
        0.005826169096717212,
        0.035710473412918005,
        -0.025153492474313376,
        0.01365469060621011,
        0.0003153516402870822,
        -0.044950830231066476,
        -0.00016600026119806353,
        0.031139800699391363,
        0.047507774677556895,
        -0.0028113027963094957,
        -0.042112506359547906,
        -0.052101826027206206,
        -0.03266593849992361,
        0.12211735659757773,
        0.11045590649043065,
        0.032520078217048255,
        -0.019956591586902047,
        0.057983549600280924,
        0.09999408560448635,
        0.01906659089201917,
        0.012348400358673042,
        -0.02047339314063139,
        0.07896074425757378,
        0.05066541274115336,
        -0.07724507087081382,
        0.07225826921064858,
        -0.0014391951024275824,
        -0.00037822886511594154,
        0.025345698019132386,
        -0.017148536733310977,
        -0.03644495065753454,
        0.0481133678097991,
        0.0026895609558973453,
        0.032787938844038834,
        0.08858927775538013,
        0.11033462931235287,
        0.0003794940357840001,
        0.06284579824530186,
        0.009901043633212557,
        -0.004735161349584747,
        -0.028183393039440372,
        0.03988197725392655
      ],
      [
        0.06480944820352547,
        -0.00018800100085135043,
        0.060482800981947825,
        -0.007861413280521973,
        -0.04125731230915903,
        -0.0135861286449567,
        0.08216614358985419,
        -0.04714188311012705,
        -0.03349623464910461,
        0.035747842167863315,
        -0.024153400813710264,
        0.036521357262926386,
        0.025140253944325987,
        0.02376518906117843,
        0.015951408380385338,
        0.06744533920487492,
        -0.11258332524459158,
        0.02782257575599742,
        -0.017917511312606008,
        0.0113374302735472,
        0.12954354705009874,
        0.05444515394467377,
        -0.021337029079686078,
        -0.025850004004920477,
        0.05571607935834919,
        0.045272829360791696,
        -0.025552101295384835,
        -0.00044683076940569216,
        0.04163038031921149,
        -0.007610311322405602,
        -0.007532367094305185,
        0.0121599692137107,
        -0.004869323873629185,
        0.059968650902801214,
        0.002658329783531737,
        -0.03388858987707064,
        -0.05317229998028709,
        0.0642900233336206,
        0.03362330215696193,
        0.027418505226904526,
        0.09075965462948432,
        0.005555921860774419,
        0.07268202552527442,
        0.07483721499716284,
        0.09209876045068585,
        -0.01565619561312792,
        0.02292237552494078,
        -0.08187082257886974,
        0.02489569106802298,
        -0.030930067461318406,
        0.09620153451689695,
        -0.048448330353525214,
        0.012079622812439654,
        -0.00934489169915313,
        0.026823559050399903,
        -0.03495104107859754,
        0.10178568232479984,
        0.08209506386008222,
        0.036478955247468574,
        0.03212658888262063,
        -0.00525417154396101,
        0.017110666516801737,
        -0.023386546546294025,
        0.043288606815089205,
        0.020612851847854864,
        0.05337957586090183,
        -0.04454323365981281,
        0.09531375984328949,
        0.11150019456323298,
        0.10002837544243781,
        0.03645494119521237,
        0.02667166544051367,
        0.003872873791294174,
        0.0014866983316192371,
        0.059101385099172614,
        0.028924937971277254,
        0.031313739640432756,
        0.0904688737612705,
        0.014587377603974766,
        0.08366876440006335,
        -0.04005677644476132,
        -0.01591037064422189,
        0.04550004651206548,
        0.009432681761012912,
        -0.031566050351546096,
        0.03742465268672695,
        -0.030353493767455896,
        -0.002956614075795198,
        -0.027693284345880934,
        0.03574604357736908,
        -0.07529623996027934,
        1.154954621674926e-05,
        0.060129825163108684,
        0.06320761546371666,
        -0.033401865984066144,
        0.018653459463851385,
        -0.034876664402590886,
        0.11936958823415217,
        0.08628729225151782,
        0.03714815477467245,
        -0.018483655073561877,
        0.1224089643139901,
        0.09443116739695087,
        0.136309640434486,
        -0.0013618336474190895,
        -0.031668231389059345,
        0.03880184350273457,
        0.038678648835209724,
        0.10108628583777571,
        -0.037679548593409835,
        -0.03165151307686802,
        0.07383303810437547,
        0.050376698114834396,
        -0.0472323740392702,
        0.002205276494441246,
        -0.0017014662681411094,
        0.005932718775758357,
        0.00489974582681949,
        -0.0005228678529182664,
        0.05570478404427177,
        0.12376963214716317,
        0.06655986202456426,
        0.09006972114682635,
        0.1205613229526456,
        0.09404710388979029,
        0.1624628282905955,
        0.02392916847488489,
        0.025215603061338604,
        -0.055563616264923184,
        0.0654678234825368,
        0.06128263594569032,
        0.09067464844430784,
        0.08042075533129509,
        -0.07996079368018705,
        0.047051886120609,
        -0.0040437549055153815,
        0.0067193962896259785,
        0.06647807401133948,
        -0.06019417992575072,
        0.025661613819704172,
        -0.04426068611737514,
        -0.005359530606965377,
        0.024051299274531396,
        -0.006929873472293202,
        0.07168287202700893,
        0.04062535498958466,
        0.02687823082544724,
        0.05886869573986229,
        0.008366925469411767,
        0.06623837708414379,
        0.15364687359199525,
        -0.0019787915924789363,
        0.041711115305268075,
        -0.046721480359212024,
        -0.07185299139245907,
        -0.03417201801664868,
        -0.08895577091618531,
        -0.046181887526912484,
        -0.12143055702291031,
        -0.09379395831070841,
        0.04763700718492086,
        0.003884881217327412,
        -0.07334783896346064,
        0.0031423127624665825,
        -0.022182443657224424,
        0.07025716785242209,
        -0.017344065257056406,
        -0.06812279208032115,
        0.07332205756426352,
        -0.00042247488037536657,
        0.057698253086721475,
        0.04831171226914572,
        0.010867398584267477,
        0.010126805074789089,
        -0.015398377376304099,
        0.16742174276989163,
        0.017966006708210417,
        0.03715030228924985,
        -0.06339899336816325,
        -0.028944896327347185,
        -0.004176810235177305,
        -0.09744958174269619,
        -0.07569245651799447,
        -0.15353165093196985,
        -0.19527798615322978,
        -0.08876779564041354,
        -0.05628216336717171,
        -0.05871528791795063,
        -0.011972846205502331,
        -0.12342333542983466,
        -0.08670404231970247,
        -0.0034246996194266088,
        -0.07891746943879635,
        -0.0899411538784323,
        -0.011118756776992795,
        0.015005849128835217,
        0.0070942762898279655,
        -0.09571333747989785,
        0.06505018021380796,
        0.1481849784740082,
        -0.0367533300808553,
        0.0032545219478641195,
        -0.012585605786181822,
        0.0526883225473738,
        0.0038567865360148853,
        -0.004101019757078839,
        -0.12485705143744037,
        -0.18201668663714454,
        -0.03456232698790012,
        -0.06241820361393062,
        -0.046213514855529804,
        -0.11222290283083383,
        -0.20111561257230315,
        -0.17121722212595147,
        -0.13377053275660544,
        0.0003841378079537649,
        -0.2112978637333897,
        -0.1868923788201296,
        -0.1413320880180386,
        -0.1596811915409709,
        -0.12193530663966265,
        -0.06070944025345402,
        0.02343354876611426,
        0.010724346781035425,
        -0.09338366031407569,
        -0.030291180209592188,
        -0.04047455039295312,
        -0.033301524095566484,
        0.04076815796639189,
        0.027906053821722614,
        0.11443674347025556,
        0.06375408356636178,
        0.058213635434814996,
        -0.05924458226725437,
        -0.06314275226161789,
        -0.10932560452219897,
        -0.18468625817568318,
        -0.12803294957765993,
        -0.0029953098521135965,
        -0.11111116982108823,
        -0.21171281597463382,
        -0.2543791032700983,
        -0.16432877345159194,
        -0.15682385976447114,
        -0.22182030661661917,
        -0.1576719833092652,
        -0.18524281878136858,
        -0.20036176643929945,
        -0.16045689912806707,
        -0.048158026333369054,
        -0.010510066943189298,
        0.0024983527723651993,
        -0.049384580295155474,
        -0.057539437302169434,
        -0.0009741466618144467,
        0.06116330993160976,
        -0.07187302296379636,
        0.06650362882631661,
        0.04107207385888407,
        -0.05834665031805524,
        0.0016075796767798807,
        -0.10225531937603863,
        -0.13688542406885187,
        -0.297361028489718,
        -0.20984094378862228,
        -0.09475717656194554,
        0.08398191826793652,
        0.0030434734827649293,
        0.029588766336107273,
        -0.04843024001469957,
        -0.19604095159681095,
        -0.23947983422896119,
        -0.24972594300088355,
        -0.34407595739651076,
        -0.16967117944130541,
        -0.25405544537040115,
        -0.1207112986057926,
        -0.08457591768015205,
        0.004163965355718369,
        0.03006997541694786,
        0.0043117642268697435,
        -0.0034340402658531288,
        0.024028737792815183,
        0.0012701636349900416,
        -0.0037497749966250503,
        0.04997073595582293,
        0.04718895174540098,
        -0.028993361585124364,
        -0.06516443702949931,
        -0.09464234872713734,
        -0.2031693929515418,
        -0.32954048754152276,
        -0.17813681514210528,
        -0.048634665776912285,
        0.11416259921141278,
        0.35746702605984004,
        0.13119578036719454,
        0.09317475879410775,
        -0.07272680962941314,
        -0.22235602905449264,
        -0.2635512381700887,
        -0.11786779899559963,
        -0.22868466561536965,
        -0.24346120077744415,
        -0.03160564358787639,
        -0.047097443740052126,
        -0.0913024914595417,
        0.01718202158805119,
        0.024516129410088322,
        -0.018907303992688355,
        0.05725442081022488,
        -0.007038288094419224,
        0.0003904474127116438,
        0.000731426186244698,
        0.035300759994738175,
        -0.02081149677938446,
        -0.08019229186826149,
        -0.23565526287583732,
        -0.3421220588811673,
        -0.2905036547024649,
        -0.18902477766046932,
        -0.05562442415463802,
        0.3158961446760181,
        0.47360756062704135,
        0.3892650006665652,
        0.21329646472927824,
        0.06958995490931286,
        -0.023633478113585044,
        -0.00519239810142594,
        0.06427661952388877,
        -0.04643554395485044,
        -0.07669851190215082,
        -0.038893635104368,
        -0.004188663687920547,
        -0.010818304029039721,
        4.848477752080778e-05,
        0.03323332399964136,
        -0.027611005777730353,
        -0.029205184855661735,
        -0.009632648876026944,
        -0.024568159055444003,
        -0.02542957072884701,
        -0.06071094842431015,
        -0.08745405511414414,
        -0.12154948339790819,
        -0.3193858708842754,
        -0.2921827140348263,
        -0.27920028290344145,
        -0.1848958527002125,
        0.15045381810960234,
        0.4497583595782897,
        0.5266849862976721,
        0.33927418002546894,
        0.21318931095098242,
        0.15006200913022233,
        -0.0020466087969734197,
        -0.0825044079510627,
        -0.05418150427940963,
        0.040937481683621844,
        -0.029399915011312408,
        0.014704326810251895,
        0.03657757490309763,
        0.042791524349651604,
        0.027414737004711046,
        -0.08955062156686941,
        0.0025047744308034662,
        0.04646629007927309,
        0.07554849819610082,
        -0.02919755142597143,
        -0.04400013105789987,
        -0.12290584137417046,
        -0.21141841918152904,
        -0.05840806181044609,
        -0.17240270383831446,
        -0.23719291933044784,
        -0.15611526598351178,
        -0.012788094886018264,
        0.3555448684536795,
        0.6705960677748928,
        0.6394856087882155,
        0.33201028403354904,
        0.26780449082571767,
        0.11076820933825529,
        0.015007413873824727,
        0.03603670726638123,
        0.035293645458458485,
        -0.12317676662432765,
        -0.07504094456942709,
        -0.03769682717728338,
        0.05280002839882838,
        0.033130590601835715,
        -0.07905125506762414,
        -0.0014588520382945193,
        -0.025494523504710515,
        0.10405068660174627,
        -0.023968225384303952,
        0.054114946043238334,
        -0.0031347794173763434,
        -0.08010697872157219,
        -0.19560264118823062,
        -0.08744443021443038,
        -0.2946471395340012,
        -0.17250103014685725,
        -0.11355477243485967,
        0.09071575998998405,
        0.4412374355238661,
        0.6958574467643903,
        0.6205751492907279,
        0.4586915365360599,
        0.29770360588983236,
        0.19506858526000587,
        0.047586028890998076,
        -0.051471681559385106,
        0.03602001833808841,
        -0.10086694767006657,
        -0.049289312192076946,
        -0.08257612673686807,
        -0.09000817223691907,
        0.07431586250366562,
        -0.0010008911674322517,
        0.02347302310016254,
        -0.03672555629070589,
        -0.06006127807599964,
        0.002171569898959461,
        0.00659544566822003,
        -0.13415951888762506,
        -0.06851840743592758,
        -0.12386162912171216,
        -0.04809392534604396,
        -0.21131314597310008,
        -0.1266533726063615,
        0.044618694806155844,
        0.22025373325538128,
        0.5386588434461298,
        0.5693287330584895,
        0.533039730337808,
        0.2641343252015026,
        0.15607110180791384,
        0.14495079358775242,
        0.010338214160872846,
        0.09094135707372938,
        0.08588461391700986,
        -0.0819570984031926,
        -0.029052340709067932,
        -0.10980969205700977,
        -0.056443837917933164,
        -0.0015547891897865396,
        0.04004410001477591,
        -0.017881082083329503,
        0.11125980208564559,
        0.05503168398584191,
        -0.06871821541504014,
        0.007153067183541605,
        -0.17045203986054,
        -0.012749301900040247,
        -0.09992928943939508,
        -0.13239401991014818,
        -0.15691642919752966,
        -0.09418747587341472,
        0.13135724983472527,
        0.252267730746903,
        0.5112549028940434,
        0.6282939492819579,
        0.37204580098613915,
        0.06089258972126857,
        0.06895914274001685,
        -0.02964695449605209,
        -0.03759842177701302,
        0.0796435658841359,
        0.04313534094833912,
        -0.12404358053720561,
        -0.03150342338432158,
        -0.07113227941185582,
        -0.028749137912291577,
        0.03990971125057286,
        -0.006997603883305349,
        -0.04717301549789033,
        -0.056993194076468044,
        -0.02229541541013777,
        0.04191055474876152,
        -0.010767951506610472,
        -0.12756875771127263,
        -0.15425501968224595,
        -0.05256621863478015,
        -0.20126409463749512,
        -0.10469381141654563,
        0.05216808873299845,
        0.11637553030943207,
        0.2899146603892684,
        0.3934722081384876,
        0.447011802502691,
        0.2470527848257998,
        -0.00903761812447921,
        -0.0568361892835584,
        -0.03191394851105176,
        0.07582058387037577,
        0.06900740755828957,
        0.00031376343697677665,
        -0.06344297849290803,
        -0.04028042289455084,
        -0.06080018463298153,
        0.003819904158337473,
        0.03246579177229784,
        -0.006933493898725418,
        -0.017073725035307245,
        0.10633121812871185,
        0.045135583241403564,
        -0.0019095449860150246,
        -0.033829763737058406,
        -0.05636612916187291,
        -0.13438134516367428,
        -0.1522450460058995,
        -0.17803753787625182,
        -0.07743023133984256,
        -0.0025726223718481244,
        0.23479431818041724,
        0.23527531080986225,
        0.2934593144300022,
        0.27550510466768857,
        0.0662176570125762,
        -0.06912094487235051,
        -0.0272508973845124,
        0.04650975378968169,
        0.020796048975156353,
        -0.003570850233257473,
        -0.03781009993612499,
        -0.01898492252862388,
        -0.004448791278772476,
        -0.016989889496040047,
        -0.010499238929981529,
        0.01928223488510527,
        0.02265998213525776,
        -0.018442274805356103,
        -0.017748073039622402,
        0.002025011773557996,
        0.009028844189985962,
        0.05415338581223402,
        -0.13138756443686017,
        -0.16579990822331372,
        -0.12902632740044329,
        -0.32161932473091115,
        -0.21631922524357922,
        0.03486269113011254,
        0.06403027662629603,
        0.2571034058942552,
        0.15968890977681702,
        0.05933574852593924,
        -0.07370620154393404,
        0.02914969336039199,
        -0.011005370466646203,
        0.04592430206952385,
        0.015025485682787958,
        -0.005941540676237381,
        -0.08711723007513156,
        -0.12546069701758172,
        -0.004907269559817103,
        0.004840041917973571,
        0.008951328644699833,
        0.0012016629403041104,
        -0.03506799318956797,
        0.029811262803829043,
        -0.007564472887343144,
        0.03203445470911717,
        0.03674063546649634,
        0.04722778271804159,
        -0.09614110250910363,
        -0.11519552812019027,
        -0.2088510326317729,
        -0.12341837825152835,
        -0.130589007924503,
        -0.09198376159596355,
        -0.023001754887445467,
        0.03560508231566387,
        0.20110902802797787,
        0.12917518001082304,
        0.1856307496214214,
        0.11092981982143846,
        0.22509328302868048,
        0.0695111009378595,
        -0.015684172426101796,
        -0.1038235911046051,
        0.014656609345438094,
        -0.02447060555575805,
        0.04056738718044744,
        -0.03162171263245464,
        -0.04613029051334499,
        0.020777518391138075,
        0.057917166711128475,
        -0.048310197868556067,
        0.07017996795620171,
        0.07535575493885052,
        0.03996748072517096,
        0.0401509551411424,
        0.002659676367083562,
        -0.02992972327194051,
        -0.09127572353305721,
        -0.1720940298878133,
        -0.13149131223204313,
        -0.16243520362911304,
        -0.057497222706058594,
        -0.04840154231114211,
        -0.01346668835227935,
        0.08751419671098393,
        0.14166155687662924,
        0.051635168757320056,
        0.07869245039908576,
        0.012737911736324698,
        -0.059201179816786235,
        -0.08192547580113332,
        -0.02540561826122071,
        0.06491934302393687,
        0.11814740574943441,
        -0.0005578941677612103,
        -0.022842116701894802,
        0.01621698562303713,
        -0.05818103890057435,
        -0.03524456233780538,
        0.033568381399680915,
        0.0012372132627387264,
        0.006785446158479277,
        -0.035238541026215396,
        -0.01480992892556806,
        0.004287373199712652,
        0.057677597856480474,
        -0.17889305454199256,
        0.0073291990550403835,
        -0.14064953814668987,
        -0.24296003066457544,
        -0.247016217065409,
        -0.2540954091168723,
        -0.039623635536654135,
        -0.07593651110198316,
        0.023938521961258362,
        -0.08467816774290399,
        -0.08773570741629455,
        -0.009897673734845883,
        -0.003696078123175657,
        -0.055041781673474725,
        -0.027242060303390436,
        -0.023922411447318326,
        -0.05691745474575604,
        0.018764029745360136,
        0.0782612319156605,
        -0.07832782069368094,
        -0.04464991167218254,
        0.045403029151010375,
        -0.043717394748041254,
        -0.00636239561270105,
        -0.04149310922888411,
        0.09713511560891477,
        0.07982738283248789,
        0.07114866085058333,
        -0.018427039768775987,
        -0.009312473568244358,
        -0.05115873986021909,
        -0.13666870806977868,
        -0.3747405888511688,
        -0.3589026183352111,
        -0.1601954382520206,
        -0.04448276253580521,
        -0.10057183643343179,
        0.0006207406490922241,
        -0.03548968312680744,
        -0.08995032207961631,
        0.03191088290612333,
        -0.0038827586518376165,
        0.0027006419068661986,
        -0.04185745357666034,
        0.004721093984856063,
        -0.039179212331396505,
        -0.08739364931674468,
        -0.021029015348921522,
        0.031983292545221184,
        -0.024658349653788457,
        0.08484548071264406,
        -0.00736091134620874,
        -0.03356660572986143,
        0.052456113985895274,
        0.012463571641523065,
        0.10473809479824336,
        0.06818356414438817,
        -0.008240648433893894,
        -0.08813996695941043,
        -0.04683553442721295,
        -0.025333474074786,
        -0.11767031389337335,
        -0.02551005222772025,
        -0.02649320174879794,
        0.10614991405712157,
        0.017349985179865867,
        -0.09664119060950443,
        0.04651740842799027,
        -0.0362689650266396,
        -0.00843792937532757,
        0.04521810469102019,
        -0.003309266140338267,
        0.028249554772785228,
        -0.10728164068748974,
        0.02566276785371937,
        0.02890862964077426,
        0.047206623770368654,
        0.016078762109888373,
        0.04983367575624915,
        0.04209789021567977,
        0.04432493654656645,
        -0.043798765385044784,
        0.04151076170743117,
        0.0037756669793465158,
        0.019125338511951154,
        -0.03372575868822981,
        0.0020520785810889592,
        -0.07712863886062718,
        -0.06803115868445869,
        -0.014660058364233237,
        0.06285826219538798,
        -0.026752217723324805,
        0.10493292592815692,
        -0.02027889494669815,
        0.082056053443505,
        0.007802569137215166,
        0.04600907907896814,
        0.0032591980981920895,
        0.018796186365112003,
        0.06743109802555738,
        -0.04360560951825846,
        0.045549749839599966,
        -0.13171052569927777,
        0.03128718067165902,
        -0.09504494684319639,
        0.021416936093558013,
        0.09577018687524794,
        -0.03578725930911147,
        0.02574353612333853,
        -0.05883019426396937,
        -0.02392068683429837,
        0.032978496245052315,
        -0.01136813074506971,
        0.003436086325464234,
        -0.07273432813294906,
        -0.06255707801315562,
        -0.024172169883646163,
        -0.05155235876573138,
        0.07233392695186278,
        0.0006769773331708082,
        0.005093830133811744,
        0.060297802720192424,
        0.004580225519359303,
        0.07241682612586109,
        0.039817854056836084,
        -0.02868247020264922,
        0.023182971795330895,
        -0.07076015397666977,
        -0.0055432940858778975,
        -0.0010648093702046145,
        0.008998550921511896,
        0.023785625109105417,
        0.06478383663487847,
        -0.019013594612100643,
        0.08575198688534608,
        0.0451397412457555,
        -0.02073469651704494,
        -0.060878087232025514,
        -0.01991015493298088,
        -0.03881343090873562,
        0.048052864391296364,
        -0.09987247944953043,
        0.014239262716166256,
        0.08042744834363458,
        0.06986743973804682,
        0.019878846248609083,
        -0.008565737393662691,
        -0.027466796071142795,
        0.07768588561775025,
        0.08953832703906364,
        0.04029073250948124,
        0.05185596488467565,
        0.12254104391946034,
        0.010031932222716556,
        0.04299952080792117,
        -0.12628376835429733,
        0.03772912254805797,
        -0.07063610106683316,
        -0.012119649671317652,
        0.01844515513399652
      ],
      [
        0.09955050733801753,
        0.06753984363912163,
        0.03565729227424681,
        -0.003676672421059591,
        -0.015119536219022057,
        0.04655702836477287,
        -0.042793767090772906,
        0.0022454511817350787,
        0.09030215702195736,
        -0.045245655058886634,
        -0.10200906767641933,
        0.017656805405679883,
        0.02341360836539528,
        -0.037926232081848955,
        -0.005172047764301669,
        -0.02462842932031277,
        -0.03503743291676441,
        0.04233889931585993,
        0.026538780529966832,
        0.0062064737223558415,
        0.00987579489632279,
        0.033677786871204624,
        0.021333246819590194,
        0.0015004165366565136,
        -0.042441183259681485,
        0.014664383930108162,
        0.028595449113320758,
        0.042560413373079316,
        -0.007024394663282063,
        -0.004190302876287805,
        -0.00381818666595746,
        -0.08017003483781678,
        -0.002814121214820269,
        -0.03951360641260645,
        0.11194595754338264,
        0.02513249937227372,
        0.00929230668900799,
        0.03385743242708763,
        0.029498855235317555,
        -0.008882858199380865,
        -0.06423845586924047,
        -0.03357339766386577,
        0.06329603589309199,
        0.09520009327089031,
        -0.016100764667651556,
        -0.0066291138155760996,
        -0.00964289673793873,
        -0.01437037597750991,
        -0.04712068964791239,
        -0.01820428910055366,
        -0.0655731271417772,
        -0.030335325747178378,
        0.03295655841315964,
        0.019704196848650116,
        0.04291947250718935,
        -0.05073463658464555,
        -0.012952578918551321,
        0.029824957471536823,
        -0.04167467173270303,
        -0.01144560790178699,
        -0.069963574140904,
        0.04950094956616214,
        0.11273251827499932,
        0.031191237931799752,
        0.04125147976929761,
        0.04901526638367853,
        0.027865097007460246,
        -0.046129284097629626,
        -0.08912791543030484,
        -0.07468954400110321,
        -0.1324903598762264,
        -0.12111738761763667,
        -0.015737010072836323,
        -0.055921415637920475,
        -0.10050196944763988,
        -0.12330673705758104,
        0.016567026146403895,
        -0.05453436475195824,
        0.07289853874837589,
        -0.001837992107077612,
        0.07539365840835872,
        -0.02408732769236433,
        -0.025592103750724376,
        -0.021180545306514205,
        0.023907729695907882,
        0.017753376021042294,
        0.036341729158486734,
        -0.012747328089427707,
        -0.0016598272473541012,
        -0.10338810506470834,
        0.11075732583074095,
        0.00045973364495917145,
        -0.010664801675865735,
        -0.11501672220709293,
        -0.06537774458519045,
        -0.02922169480113998,
        -0.13849873134593269,
        -0.10129964749946459,
        -0.09822018248368171,
        -0.05607176837429764,
        -0.05474664852724884,
        -0.03552201086646411,
        -0.06021081088089018,
        0.01138844637274087,
        0.06127150088380197,
        0.028126049327326125,
        0.051920987411992546,
        0.10104570944161438,
