{
  "columns": [
    984,
    64,
    2
  ],
  "activation_function": [
    "Sign",
    "Sign"
  ],
  "biases": [
    [
      [
        -0.1544050337937425
      ],
      [
        -0.03493749506563923
      ],
      [
        -0.29269797558733857
      ],
      [
        0.10581912295429395
      ],
      [
        0.13655904166893765
      ],
      [
        0.2594280403815421
      ],
      [
        -0.1576155412839435
      ],
      [
        -0.1293555542359327
      ],
      [
        -0.03179760779510726
      ],
      [
        0.02695658661469158
      ],
      [
        -0.031295089641476745
      ],
      [
        0.07269254241493281
      ],
      [
        -0.30173034474354393
      ],
      [
        -0.045009896515071535
      ],
      [
        -0.060292300546099103
      ],
      [
        0.2726684147021022
      ],
      [
        0.2412043777416654
      ],
      [
        0.039310870554249686
      ],
      [
        -0.16158996682815693
      ],
      [
        0.038187400676818084
      ],
      [
        -0.04774839254316257
      ],
      [
        -0.1537812469050702
      ],
      [
        0.015339878092105066
      ],
      [
        0.20491155910660525
      ],
      [
        -0.17240264836927643
      ],
      [
        -0.2780048682461006
      ],
      [
        0.1092898255780284
      ],
      [
        0.06260153348066608
      ],
      [
        -0.2088595485371502
      ],
      [
        -0.291694775693138
      ],
      [
        0.07988673480350401
      ],
      [
        0.23264490071380722
      ],
      [
        -0.15508814729797774
      ],
      [
        -0.11685344227461568
      ],
      [
        -0.0020163763082312134
      ],
      [
        -0.15488819072615245
      ],
      [
        0.03173294449869755
      ],
      [
        0.09471961097144575
      ],
      [
        -0.27094078129628624
      ],
      [
        -0.15579220590555068
      ],
      [
        0.21344162881921408
      ],
      [
        0.08075055277679356
      ],
      [
        0.05144900637535441
      ],
      [
        0.17856092331674223
      ],
      [
        0.26198930894253486
      ],
      [
        0.049694030131835175
      ],
      [
        0.22862191985729496
      ],
      [
        -0.11456681585838702
      ],
      [
        -0.19858438269525794
      ],
      [
        0.0676011139441935
      ],
      [
        -0.21137866041696646
      ],
      [
        -0.16067765252319952
      ],
      [
        0.186435997093099
      ],
      [
        0.22296041232729574
      ],
      [
        0.20538176615668355
      ],
      [
        0.29892495873163333
      ],
      [
        0.2175939192582307
      ],
      [
        0.2794259519671887
      ],
      [
        0.0012830435830810622
      ],
      [
        0.1838175826732482
      ],
      [
        0.03908114782374673
      ],
      [
        -0.16818219070701623
      ],
      [
        0.3075811024396015
      ],
      [
        -0.17204873717348668
      ]
    ],
    [
      [
        0.8825442420877916
      ],
      [
        -0.8593852280444872
      ]
    ]
  ],
  "weights": [
    [
      [
        -0.02433268683651443,
        -0.03552556075118354,
        0.06947108198453673,
        -0.04276775386349866,
        0.04445835931525211,
        0.05753743642617939,
        0.034292852086333696,
        0.001493758883688522,
        0.08471250276471148,
        -0.08118244724021192,
        -0.03268834255523683,
        -0.04426863997564311,
        -0.009255008004889369,
        -0.049901040615679175,
        0.03252911976712663,
        0.06470775994049832,
        0.08409736617449051,
        -0.02274321421866291,
        0.028528386657206462,
        0.050805200060636525,
        0.06371941200657243,
        -0.020874602639899664,
        0.01785270769117098,
        -0.057528457714439964,
        0.07516985051698447,
        0.07190151081858093,
        -0.006661719992640147,
        0.032998177116665105,
        0.023020736357820887,
        0.02050455392520178,
        -0.049531949641211305,
        -0.015683529699923714,
        -0.05556607732634807,
        -0.023046116583221452,
        0.07994113707965275,
        -0.06362579253263916,
        -0.01695866756843243,
        0.017441306379812813,
        -0.018640337023200382,
        0.06313102697664796,
        -0.0340480247331675,
        0.0812729476389494,
        -0.041126565418289594,
        0.0806534921483201,
        -0.016221271391035484,
        -0.032794298155733266,
        0.0560978687463571,
        -0.02040690666886096,
        0.002617254099166685,
        0.07555427711448415,
        0.06953248081123148,
        0.08481918410060654,
        0.0031605091253121263,
        -0.028129079216775068,
        -0.033966505104950355,
        -0.015913427726804954,
        0.037334688778754684,
        -0.06693438277646985,
        -0.05715849967087012,
        0.048864056745285496,
        -0.059858286174313984,
        -0.017156822417842298,
        -0.0034120972654248924,
        0.060120555438276733,
        0.07096229573192134,
        0.014741808914680393,
        -0.0505051822926715,
        -0.05267201443397793,
        0.0026786850958097426,
        -0.022149029269607007,
        0.06376738266845772,
        0.028152287218246624,
        0.04130824142042079,
        -0.02526679745338294,
        -0.016501935066033473,
        0.05234590198344457,
        0.06092696988560643,
        -0.03361740276246102,
        0.03408858141253939,
        -0.03400867860289528,
        -0.0034662355756058744,
        0.039551721431742716,
        0.03599199230487423,
        0.053934294878484106,
        0.013480401446755268,
        0.007093229141970152,
        0.035380251272843576,
        -0.06497340465070023,
        -0.0209327238994499,
        0.03548932089534442,
        -0.02122219192712189,
        0.06701079170731787,
        0.07310753998604899,
        -0.041545092283509714,
        0.012589599805152105,
        0.08377523148599056,
        0.041672802175700026,
        0.019942891232825066,
        -0.022295302690106152,
        -0.04305086135478633,
        -0.011393538048970978,
        4.1087807629963755e-05,
        0.002695307365796849,
        0.0740795040845744,
        0.04343764119454265,
        0.03386887091052319,
        0.06176198361392799,
        0.024489455359335412,
        -0.0219047704305842,
        0.10092579471512461,
        0.012306236241734811,
        -0.04614095454304775,
        -0.057657231046054726,
        -0.04299869274778006,
        0.09195671923965604,
        0.049433383115510286,
        -0.05869170163227914,
        0.03058532968972075,
        -0.058994349318203125,
        0.03266551536956181,
        -0.011484982608257224,
        -0.04105971811627523,
        0.08093013743939033,
        0.0055675630675979665,
        0.05189824266798216,
        0.06067850580568769,
        -0.03546718266498141,
        -0.05427207672112178,
        0.039454922687380885,
        -0.08168085931096417,
        0.017615047333872196,
        0.01936400472146754,
        -0.04636024406156721,
        -0.03631702281992704,
        -0.025774133889568524,
        -0.06079512660740231,
        -0.017301914914861088,
        -0.03286534040100831,
        -0.05883532386069545,
        0.02472271177646845,
        0.01473190848499131,
        0.05898025721953184,
        -0.04107682111417232,
        0.08925588863619835,
        -0.049218154925706144,
        0.000535032627709835,
        -0.052778842094570115,
        0.012967685197696893,
        -0.02587252589450616,
        0.004460955563762331,
        0.058439626989345954,
        -0.07601911649802384,
        0.05131242435598902,
        0.05543793236236393,
        -0.04956855979907474,
        -0.038307872863280086,
        -0.034552818319973665,
        -0.05404100733797484,
        0.025571537704863184,
        -0.010172826418253952,
        0.01919827197321924,
        -0.057796325005183315,
        -0.08323574749791635,
        -0.07961649507019325,
        -0.005755820352511067,
        -0.026959177950551232,
        -0.024889960821369458,
        -0.017455348147935073,
        -0.05382783099252559,
        -0.016488298068638288,
        0.09466192185283559,
        -0.03129273878141409,
        0.06039722493856419,
        -0.04582749536586026,
        -0.02193340842994151,
        0.011264516340740854,
        0.07809540682577071,
        -0.03649085036430242,
        -0.004296026479047664,
        -0.059238849747494354,
        0.01563411819392117,
        0.01811540110110776,
        0.032151737882146314,
        0.004945985718640694,
        0.05206395002361929,
        -0.05110069484666716,
        -0.013883613717332415,
        -0.0062931770068768225,
        0.029623574777851616,
        0.029490046878336673,
        0.04778643358827269,
        -0.02342603273848114,
        -0.044610087648496506,
        0.01286001541623209,
        -0.008810777815618336,
        -0.051793651492477034,
        0.03413653945695933,
        0.019027349994069766,
        0.007558337607099774,
        -0.02948466835080626,
        -0.08221826544962399,
        0.007619559394642427,
        -0.031816462223591545,
        0.07578133905367451,
        -0.0409762801200555,
        -0.050985849421237586,
        -0.044552148146382774,
        0.015876223360047625,
        0.05100586363726039,
        0.012067828022870798,
        -0.007324926015475478,
        0.04733248261233606,
        -0.02054012404164365,
        -0.01385081200003552,
        -0.0136947680136612,
        0.06216108342798848,
        0.023540270263839046,
        0.049803605302077135,
        -0.025086290818420846,
        0.07280647522309597,
        -0.016230890269108317,
        -0.07535385253845278,
        0.04846233816979124,
        0.053326240178812746,
        0.009790532004352936,
        -0.043971679163899345,
        0.0343284076672943,
        -0.017866489958648788,
        0.018625111710297303,
        0.027260764690641943,
        0.07392592461279858,
        -0.0933519834379691,
        -0.00916630757561723,
        -0.008759770003371435,
        -0.041802687236858684,
        -0.07878564835391988,
        0.08920889662657847,
        -0.009480948050340228,
        -0.009546312596681174,
        0.002546521096014918,
        -0.06434976908202425,
        -0.046070420521948645,
        -0.022399506577664072,
        -0.04440978714272122,
        -0.005977743174948233,
        -0.07007539808488938,
        -0.04133611829346875,
        -0.057703990644226245,
        -0.01778264925538373,
        9.331772995656643e-05,
        0.05138943680930317,
        0.014994612079751508,
        -0.006376912741846333,
        -0.03312791335177279,
        -0.0001382676721873632,
        -0.056284785243031606,
        -0.06147577862210231,
        -0.07289822072925052,
        -0.00388341250220903,
        0.013422478343691195,
        -0.004133363498129918,
        -0.0398058774779826,
        -0.02016617217205075,
        0.08586811444285905,
        -0.07418849607084954,
        0.029895549423630086,
        -0.02224212297950075,
        -0.00030535382150134434,
        -0.060738753235466805,
        0.03313914081718051,
        -0.04801487116086562,
        0.04758767562001027,
        -0.045674668368095854,
        0.05620779314540592,
        0.06100375306865968,
        -0.0067553247798668725,
        -0.03841116376584188,
        0.061339121290679574,
        -0.03132086443840061,
        -0.00730872635523442,
        0.020377742889403905,
        0.06631049754553806,
        -0.05096717626810667,
        0.05955151086599272,
        0.03172739203979866,
        -0.0033915248823019424,
        -0.018101539654591547,
        -0.06421319574039011,
        -0.029402946442775656,
        -0.036738524222804686,
        -0.08458358190850693,
        -0.027538711714105758,
        -0.033318341188937846,
        0.05734219347057527,
        -0.017398570086564,
        -0.01479783677754128,
        0.094461310154273,
        0.032266775387744,
        0.042294499467746494,
        -0.0239837833700037,
        0.02477085960019323,
        0.03194295108171564,
        0.02720932554207144,
        0.0637447255860698,
        0.028201198540841663,
        0.061816175571459735,
        0.043372151812312985,
        -0.06095765341719988,
        -0.04669790863236089,
        -0.046269490939487824,
        -0.0458731124317864,
        -0.036219856775366176,
        0.07082811170132805,
        0.006374448919952527,
        0.022185453520403384,
        0.028430955411205865,
        0.04919128315181051,
        0.0067971685397144495,
        -0.11178286077341529,
        -0.0526935715524059,
        -0.05792410044312533,
        0.019284175234536755,
        -0.08036548204454172,
        0.019969007943387063,
        -0.020532752247894095,
        -0.07540759549542138,
        -0.009107535214861417,
        -0.05099507404992119,
        -0.0254998968809691,
        0.05071691521789735,
        -0.0578348597005753,
        -0.03912586415560148,
        0.028111145951599633,
        -0.03971300703785264,
        0.06608133695681713,
        -0.028641491993488023,
        -0.012942477791277569,
        0.06670785829437573,
        -0.041267522493417606,
        -0.031101736364440843,
        0.0446715802317355,
        -0.06775614291039388,
        0.007996241215466871,
        0.044505621384394574,
        0.014854955716147054,
        -0.08403253138446037,
        -0.06961030515430547,
        0.013358574174259438,
        0.026870718610007314,
        0.005422548166660046,
        0.008962639124930342,
        -0.05418936353947126,
        0.02399115572105311,
        0.012142056156530537,
        0.07223206356452777,
        0.006967148330614877,
        0.06265721695855293,
        -0.0731077269741819,
        0.001132315909205713,
        0.015098490379338456,
        0.00894516182434147,
        0.019924189364987004,
        0.05319326809378828,
        0.0038492328837062603,
        0.035783821888175575,
        -0.04611189159357074,
        -0.0176420853852598,
        -0.029406908668698207,
        0.016331543010610752,
        0.014335911539428505,
        0.010246916611732375,
        -0.05651282224535873,
        -0.049449495048503524,
        0.016775974949995203,
        -0.035296288488568216,
        0.05500715223184843,
        0.052946537661224084,
        0.06598554069796045,
        0.04132526891887947,
        0.020075894793037122,
        -0.04478749602668577,
        -0.03029174258644725,
        0.013353852220172852,
        -0.025374068595665416,
        -0.11268535487990675,
        -0.030313150497830895,
        0.01794302647071866,
        -0.03688331785899195,
        -0.0026991983871967897,
        -0.0015779989764330522,
        0.058940726154509175,
        -0.006339224563379157,
        -0.05061397344567461,
        0.05176463906969838,
        0.07129988208658203,
        0.02758065642883337,
        0.06289963777937489,
        -0.03133006903475058,
        -0.04185255559544294,
        -0.03967950086756541,
        -9.482300694631376e-05,
        0.05373223188332409,
        -0.06691293817082472,
        -0.08249466788752247,
        -0.10408883821699091,
        -0.03811874751393901,
        -0.05206929601965104,
        -0.00980765498404182,
        0.014381048143768976,
        0.02778165778263945,
        0.07248718825646122,
        -0.010508889161454968,
        -0.06289959560642105,
        -0.019719475674773574,
        0.07349019508677326,
        -0.015350327037656541,
        -0.05957020998237889,
        -0.016638828411553647,
        -0.011620132892146647,
        -0.02758416277150443,
        -0.08496699950944755,
        -0.06482204563667729,
        -0.02406560053333594,
        -0.062483663223817265,
        -0.020980741005766173,
        -0.03520077979273258,
        -0.0006621081118460695,
        -0.04204729514488865,
        0.09271886546537064,
        -0.04129424168566169,
        0.038539514361942424,
        0.04698397056154533,
        -0.03298710849789789,
        0.06651047938083092,
        0.029668071186585883,
        0.006161313050113252,
        -0.009776455064748824,
        -0.08067242555775275,
        0.060259985752031724,
        -0.07872080691576494,
        -0.021033831118476145,
        0.03257645878759569,
        0.06856521265656718,
        -0.06193847250486369,
        -0.059079786391964394,
        0.05518183274443366,
        -0.055113840319177494,
        0.05445574902480691,
        -0.04573958248361069,
        -0.07373612369056637,
        -0.005485433146796783,
        0.043267853169898805,
        -0.047860472097642166,
        -0.04171072219130192,
        -0.05239392924384181,
        0.018845622368746626,
        -0.00853227048258336,
        -0.050914128076442404,
        -0.01862488727053479,
        0.00011977915931118488,
        -0.021809717107122126,
        0.06432720768267176,
        -0.009506300281892578,
        0.05577733865446866,
        0.0671756629084666,
        -0.09456619571107605,
        -0.007597199567735295,
        0.02925482894042692,
        0.029081163878116708,
        -0.04079145830441173,
        -0.015006065031260736,
        0.007679884430866898,
        0.00690689313754206,
        -0.004493292733735994,
        0.05781490009137676,
        -0.03270905824024576,
        0.08426731772151297,
        0.0011517980828783599,
        -0.03425428999586357,
        -0.040440035577592466,
        -0.049062218066091866,
        0.02179261496978002,
        0.015301898951036588,
        0.053425568890909984,
        0.008673921814347674,
        -0.01510894847304772,
        0.01027940508364076,
        0.046687417445846445,
        -0.013817264278265351,
        -0.030663606708689378,
        0.017158630332076364,
        -0.018605778085472115,
        0.026681269176268747,
        -0.010509548910637049,
        0.0037188166850642803,
        -0.05073485994080303,
        0.003064912553836199,
        0.009938603812395676,
        0.061428171052783226,
        -0.011111897716873972,
        -0.07580659963861963,
        0.028568940396867522,
        -0.06281710462345681,
        -0.0493943628639709,
        -0.015239221346031236,
        -0.017150641981482015,
        0.05902688678191342,
        0.014356106832839551,
        -0.032543924527459,
        0.020119823888304907,
        -0.017902472884439923,
        -0.005409364114461017,
        -0.027109042689656544,
        0.07846915227699208,
        -0.04731191552326453,
        0.004211398804718634,
        -0.037736855005316775,
        0.0695596530792459,
        0.06846807421829874,
        0.05347054493666386,
        -0.018533160256756453,
        0.08549214833400362,
        0.019424356357482943,
        -0.07383401295953053,
        -0.05513316622654633,
        -0.05916916951641758,
        -0.00969064138417193,
        0.08722196234158577,
        -0.028394060231844324,
        -0.057836774619015464,
        0.01889306989899837,
        0.07815972430970575,
        0.05444321817189179,
        0.07263427228384617,
        0.022063339959705486,
        0.01404222711293809,
        0.0006648722623872876,
        -0.0726079861466847,
        -0.06317925821342953,
        -0.041194630647160134,
        -0.050995892328468025,
        -0.06485789602871853,
        0.012383997588171856,
        -0.01793649861598375,
        0.020048202396375645,
        0.023965209937678134,
        -0.012706006150488981,
        0.027636105483317613,
        -0.035571372588080186,
        0.013879104587860212,
        0.05275981322808856,
        -0.10991347599469337,
        -0.05807912538934178,
        0.01658197010594732,
        -0.04414211774010742,
        -0.027475310417240873,
        -0.023023170699792605,
        -0.008373777152567874,
        0.03435875551079721,
        -0.05919504628769045,
        0.08234815507822674,
        -0.040352115538303916,
        -0.07616389270992946,
        0.04468533917213561,
        -0.05852803828566324,
        -0.06525411936069879,
        0.04052489245802381,
        0.03218367908519202,
        0.036550835578056044,
        -0.061959483804482324,
        0.021081637944827713,
        0.05039305869921098,
        0.050871445636055286,
        0.021565970112212937,
        0.03699477053133041,
        -0.07416748614624716,
        0.0005874574083639442,
        -0.07163176544872,
        -0.05631495028781983,
        -0.07846373332959847,
        0.010311194692698127,
        -0.03782965439132976,
        -0.06349210743548873,
        -0.03496626172664848,
        0.01834321165482063,
        0.002935522330459963,
        0.07219241795770556,
        -7.069683382882665e-05,
        -0.019979113037302914,
        -0.035893223473993686,
        0.06955299239728785,
        -0.011766989822600289,
        0.029240355905443053,
        0.07029954561673815,
        0.034412918056388915,
        -0.07277390280235707,
        -0.061808378760695636,
        0.04739329820810393,
        0.06593874210967318,
        -0.03539740973941365,
        -0.05329571235751757,
        0.03087868717595431,
        -0.011529479596980599,
        -0.06680896958527827,
        0.06040685386906217,
        -0.04040804199233134,
        -0.06007429558050636,
        0.03825924018481978,
        0.01085050250684897,
        0.007513642722406159,
        -0.05732388469503601,
        0.07403606169949092,
        0.015979895078304936,
        0.03254842540652166,
        0.036497496767346975,
        0.06827643772851827,
        0.027686930494893142,
        0.047457322892054156,
        -0.0034728396500554896,
        0.052394556889540374,
        -0.02328405836469141,
        -0.0055984976969199445,
        -0.005162133375226597,
        0.04688160333459416,
        0.037575624975047205,
        -0.07779603445580806,
        0.005164572917897401,
        -0.00564323718867895,
        -0.08704738488960032,
        -0.055505962794577555,
        0.03836001980593395,
        -0.10022078952964006,
        0.032216719104991916,
        0.0715601490451781,
        -0.06253629227327372,
        -0.0433480154417566,
        -0.043481621024393353,
        -0.013771296550155535,
        0.04222327522742283,
        -0.03725093906132817,
        -0.05084472075805225,
        -0.016136142490989894,
        -0.0182863348684494,
        0.03933243366431987,
        0.023337765381582925,
        0.03486438206884635,
        -0.04874390935493112,
        0.0326060707481468,
        0.0068676693840080665,
        0.03540310631750088,
        -0.05973010416496997,
        0.021087424952854417,
        0.024906439215261544,
        0.047372428807703974,
        -0.008019186449814706,
        0.01720683331058466,
        -0.010543545923745033,
        0.02492291715022363,
        -0.05271314898657776,
        0.052948748601069705,
        -0.028265051525348386,
        0.013579215330438116,
        -0.03867599124764303,
        0.011130419639294297,
        -0.03754048351928354,
        -0.060373789265658305,
        -0.037044356386789844,
        0.028195816259161437,
        0.0916979450088653,
        -0.04070635897550167,
        -4.014788987889711e-05,
        0.005458623669137767,
        0.07160583216945648,
        -0.016051370455805184,
        0.01635274104841363,
        0.02728091647949919,
        0.04888413817442721,
        -0.04452769787995509,
        0.04594297058416496,
        0.06132308172270054,
        0.012169490264775241,
        0.06809857027248625,
        -0.01479180408340745,
        0.06975349205330748,
        -0.015718732989855523,
        0.0444346145586025,
        -0.040407270783862574,
        -0.04788455962070557,
        0.00720036607758184,
        -0.06902728204981752,
        0.0583273768173553,
        0.016138512403803647,
        0.041867387538213084,
        0.018906508381619166,
        0.028539597262500414,
        0.05066957495520583,
        0.032893402898402785,
        0.04358027847152112,
        -0.056742291683707195,
        -0.06281775418507858,
        0.053343602249297926,
        0.02689426402843446,
        -0.05232422411745615,
        -0.0184550876987867,
        -0.05928597790654933,
        0.028347231408900903,
        0.0011961532031904251,
        0.08509091130024721,
        -0.005091771690934268,
        -0.03069484991696581,
        -0.06684201160544194,
        -0.055682191354622636,
        0.020537733883165158,
        -0.04389667712947647,
        -0.023403699488393204,
        -0.07551113635792717,
        0.0568188361818918,
        0.015074152106570853,
        -0.07431109406983818,
        0.06284101890933377,
        0.08169590302063912,
        0.04376436788555244,
        -0.05726569389592682,
        0.0016887606361152743,
        0.016753261559023833,
        0.06592364835824303,
        -0.05292834514014642,
        0.003725609723473142,
        0.07478671040328827,
        0.03862007897479435,
        0.023606284881877656,
        0.04970038493363873,
        -0.04039932688428214,
        -0.030706545983607142,
        0.011267477254562196,
        -0.022289452016491972,
        0.03336511500778232,
        0.09754655720134153,
        0.04198530983258058,
        0.055530968884471836,
        -0.08513166536684835,
        -0.01591227632643741,
        -0.05766245668321387,
        -0.05826400058126024,
        -0.03189773284139019,
        -0.048633365968000795,
        0.04419794118912453,
        -0.06415856430811101,
        -0.0009467582642688835,
        -0.029251078360701992,
        -0.05149689347520329,
        0.006930183821267562,
        0.07838581347280013,
        0.04628827313591372,
        -0.030704192817691586,
        -0.0057336734031463825,
        -0.027454209898457514,
        -0.04445615393496052,
        0.02499386962185608,
        0.039084497046537124,
        -0.008736118066183796,
        -0.019456721005991443,
        0.010227653273210631,
        0.08049619732884186,
        0.03446619598669098,
        0.08019724142956006,
        -0.04356450054700773,
        -0.008368596926194717,
        0.06946386963634799,
        0.011150838056479987,
        -0.06260719736505489,
        -0.006054697421536286,
        0.012160988518380815,
        0.08409230809903648,
        0.0267444395829113,
        -0.0383694889599391,
        -0.01963179545710669,
        0.07298562517062898,
        -0.022593832967989228,
        -0.046668355045634165,
        0.010353821294965228,
        0.022652612224092514,
        0.01570755109473197,
        -0.02137820622806959,
        -0.006287446205507162,
        -0.021311618678816962,
        0.04072471035798706,
        0.08565930160595697,
        0.06329236166886412,
        -0.06347615650219678,
        -0.04063050407418698,
        -0.014796663534286526,
        -0.040630812182926544,
        -0.011090356016424708,
        0.06780473047741586,
        -0.006478718966050831,
        -0.04357244168185421,
        0.0849564896691489,
        -0.0036200007303994657,
        -0.0583515157697694,
        0.0006355670875976367,
        0.10522661008431436,
        0.08900976405662847,
        0.05568855780713206,
        0.06664730463192928,
        -0.021679721871048833,
        0.0621579993460093,
        -0.03350522826743044,
        0.052430142677164136,
        0.06765022390236392,
        -0.0048021543000443725,
        0.0822097447923198,
        -0.05512315009760411,
        -0.024906480219382247,
        -0.02348140078163011,
        -0.031232130661030005,
        -0.05260655746607446,
        0.023686947138216365,
        -0.054851979562084034,
        0.020455524581864514,
        -0.0562131461681764,
        0.06499198236269074,
        -0.023398239003871713,
        -0.04733846256102658,
        -0.05699611633003295,
        -0.0327050051271492,
        -0.0624808288857506,
        -0.05856757622825395,
        0.03589916003641106,
        8.720795810689477e-05,
        0.08398274240744019,
        0.09510433174420686,
        -0.03719129093087798,
        0.047584109046893454,
        0.08099072517856176,
        0.018732800214628354,
        0.0636462426553437,
        0.01844715140472984,
        -0.04908841561190876,
        -0.05944164710286438,
        0.011470839382253347,
        0.04493656077468127,
        0.030378955202721318,
        0.009723987565503286,
        0.049672984018724824,
        -0.021717152573326983,
        0.05137412161215343,
        0.054712398866120664,
        0.07355252696762926,
        -0.0631666045733748,
        0.020140167640254027,
        0.09761765727024756,
        -0.01835404326386367,
        0.02959562791758063,
        0.0021836454681047448,
        0.0021608902392132225,
        -0.04927477918613319,
        -0.05696293375841328,
        0.05415187964149632,
        0.0792350466747288,
        -0.04851517530555328,
        0.1077255658231774,
        -0.022956122286221337,
        0.045583106808539754,
        -0.02093036961946818,
        0.018629122696572246,
        -0.04991084121121773,
        0.01161746141927052,
        -0.0671785269089063,
        -0.025246067878594448,
        0.055447653204368876,
        0.06990258781886977,
        0.043810942808400206,
        -0.0014497218901942206,
        -0.01240911299319596,
        0.05696102000629919,
        -0.03494368101299136,
        0.028172774432450764,
        -0.04452650410366996,
        -0.05460023027704445,
        0.005088236375721316,
        0.09618370861106115,
        0.04483620121004305,
        0.05244321788248656,
        0.002246298900664076,
        0.0373578498083968,
        0.012657338602986633,
        0.013409482450363129,
        -0.06025570632555611,
        0.0469500197794765,
        0.05076206649292409,
        -0.03231748984079275,
        -0.013515702337203759,
        0.07219657660413362,
        0.07246457424676406,
        0.04626511198165879,
        0.08189266321633698,
        0.05767405559696622,
        -0.06814741055063257,
        0.07075089354679284,
        0.012423356458380396,
        0.03384132071715645,
        -0.009827825531665318,
        0.015854519640240712,
        -0.05026565710954014,
        -0.012721115065720403,
        0.03663705675685077,
        0.07354168993783705,
        0.07412947058084407,
        -0.028242568912348224,
        -0.0015679815187917548,
        -0.014194620677254063,
        -0.01851329217433686,
        0.07054430842848616,
        -0.05472298288059669,
        -0.037455086256839056,
        0.02480899239158493,
        0.06534180441595881,
        0.07235394409363324,
        0.03569119121248921,
        0.052369111621032964,
        0.04614403135234979,
        0.06278129765042975,
        0.07079461456376954,
        0.06256708478118322,
        0.05166264620595858,
        -0.0365076818023431,
        0.04064214935951651,
        0.0721902631083352,
        -0.043531258387667214,
        -0.028498371599548714,
        0.030160316971370536,
        0.08180951785671392,
        0.007612330796332246,
        -0.002904907837192508,
        -0.0540756537088005,
        0.06277927322112375,
        0.007123685749678895,
        0.04796116551913777,
        -0.05135493011311359,
        -0.007691047168461491,
        0.07170175198367199,
        0.06154936618885268,
        -0.03611518793408076,
        0.05809444806343464,
        0.030157835143535427,
        0.029374643069385652,
        -0.026543889721585102,
        -0.04987562149834488,
        0.004748766607576865,
        0.0773712010821222,
        0.00892734337066449,
        -0.027001542039948066,
        0.04944350408879438,
        0.025342757858793377,
        0.006267669973783025,
        0.04935591053843572,
        -0.0030391294056828044,
        -0.03045242184768709,
        0.0031936653645942598,
        0.048426130720874004,
        0.060311694236440415,
        -0.0035611122054477777,
        0.030887071311101556,
        0.07917202928177133,
        -0.06466811257617804,
        -0.007570043922007455,
        0.07179402918159017,
        0.0041762183808721,
        -0.0031079746551731856,
        -0.04063659907357566,
        0.03952459779923793,
        -0.02498674927941832,
        -0.021678570203585903,
        0.05288608479839647,
        0.07587546057814049,
        0.07203851368122088,
        0.08736319363060752,
        -0.05958359514913567,
        -0.06536885510594134,
        -0.04207935170791719,
        -0.0014480007877333088,
        -0.05777620878046522,
        -0.05516828468168564
      ],
      [
        0.0368353575689503,
        0.0807602702110345,
        -0.015841547832894768,
        -0.005522414043332045,
        -0.01643854697798944,
        0.04913749618292343,
        0.049444844758455314,
        0.06784464045223602,
        -0.03893943173915872,
        0.10322023060005077,
        -0.03261049834005118,
        0.07739862075729066,
        -0.02052875587729613,
        -0.07155928966463394,
        0.09528424453009134,
        0.04444221578507222,
        -0.05621869336451052,
        0.008615276252574314,
        0.0019430900625729843,
        -0.03246555919051056,
        -0.00784813634559157,
        -0.09870138516736483,
        0.006504898152752685,
        -0.022389434606599697,
        0.015444028080010703,
        0.02560334736171774,
        -0.020709294889277394,
        -0.030052064289560598,
        0.040630847329433784,
        0.00696013962724674,
        0.056312900573170455,
        0.024743823755820186,
        0.09802364001434981,
        -0.02136848042555371,
        -0.02462870390560724,
        0.02985275950685246,
        0.1280375739235671,
        0.07672173024129574,
        0.03531172737636647,
        -0.04842809269217553,
        0.032481894519966824,
        0.11735180335061048,
        0.0750598269862111,
        0.04950941003833581,
        0.004048752807169509,
        -0.05217356179668417,
        0.043365874219972886,
        -0.016578187893913267,
        0.04421775058820826,
        -0.014108798838314725,
        -0.0860832439218447,
        0.0023680237064995107,
        0.0010205923159065538,
        0.034295641157885456,
        0.024281875024394318,
        0.05976453343236306,
        0.096292626368003,
        0.005538342239515169,
        0.07884493451793063,
        -0.003168302236969524,
        -0.04990649216842656,
        0.01095192395053086,
        -0.026029393554140873,
        -0.026984108586707283,
        0.025072650760027005,
        0.02556982880752808,
        0.07328175950691661,
        0.06777503657152323,
        -0.027535985647618843,
        0.00033592594800026286,
        0.0037826470719890923,
        0.0643842621436362,
        0.024385674139644428,
        -0.06435924188896483,
        0.08338013337313253,
        -0.007330278921238486,
        -0.0514489349545799,
        -0.024531750424335908,
        -0.04180638247051409,
        0.050625634820549756,
        0.09822513649061555,
        0.06658407544490101,
        -0.08511763619027764,
        0.08882519277076172,
        0.017076784985800352,
        -0.03243526153578517,
        0.015601773143362597,
        0.050483409485028524,
        0.08336921571185262,
        0.04504161347898768,
        -0.06555424844423655,
        -0.018880157197948774,
        -0.011355684211890331,
        0.011419761852704274,
        0.06831713702734003,
        0.037839233198812716,
        -0.05039509597577299,
        -0.006037619205282076,
        -0.0016473260925879167,
        0.03646252503536504,
        0.03531416987943005,
        0.046178023321640796,
        -0.03393254883224951,
        0.025630321988956598,
        0.03288199523210795,
        -0.020932821504613935,
        -0.015260006577990188,
        -0.011607488850092626,
        0.07659963879447514,
        -0.011080263800835528,
        -0.048554995544207794,
        0.004618355520434695,
        0.023002638999213582,
        -0.019982189367087778,
        -0.013952766107967774,
        0.013276678769520536,
        0.049107267717877684,
        -0.06384110202193638,
        -0.049214670646828065,
        -0.020162057664846845,
        0.030399644416669664,
        0.10090344601574248,
        0.029676662928317072,
        -0.016577761238327545,
        0.11649199888530777,
        -0.050608635571468955,
        0.10953357841810153,
        -0.04009050312545817,
        -0.051104550859627784,
        -0.051993262766381984,
        0.08122395859561633,
        0.07769431425105038,
        0.022840245108416295,
        0.013275565782951483,
        0.015681695122122967,
        -0.010799330119464634,
        0.05560042675989002,
        0.018870187718454234,
        -0.08384960286350378,
        -0.027810779953249553,
        -0.0625617606723606,
        -0.0039735173420173695,
        0.05648176711557469,
        -0.014486377977453304,
        0.088192019677983,
        -0.00032006658059049716,
        -0.01832069500155185,
        -0.0413471707868658,
        -0.014618741492449964,
        0.010491789296651765,
        -0.03966983422438894,
        0.016630079614341813,
        -0.04950034598142988,
        0.08957283108318481,
        0.010311476486261047,
        0.10769381918818795,
        0.019329305561586557,
        0.041987723330498855,
        0.023000069794488976,
        -0.029886692037334604,
        0.03125327722209512,
        -0.062410677095084265,
        0.046668334485263266,
        -0.044807421679298326,
        -0.10121541685049369,
        -0.030392356402250152,
        0.07462177776773211,
        0.08559090816414226,
        0.1409780055728869,
        0.0009001404004468513,
        0.06893784201409234,
        -0.01189046763858406,
        0.03154261271415835,
        -0.07827598593609493,
        -0.013997076935635325,
        -0.07983218075037922,
        -0.05271203155164912,
        0.07568321214999361,
        0.021797354500467606,
        -0.0355980171101624,
        0.06660660389870864,
        0.11741982359336565,
        0.011442385236595855,
        0.09683953566471702,
        -0.003759377125672593,
        0.007221704587321277,
        0.054432725988270106,
        0.08963941990161227,
        0.003252079032402342,
        0.04421358869206904,
        -0.05266470008479504,
        0.07382412737910306,
        0.05077488702112984,
        -0.00014899861665496463,
        0.07330787533115472,
        -0.010826210085240902,
        0.048856591289978296,
        -0.006846673668194972,
        -0.05156057274228719,
        0.03151571070276806,
        -0.026954866672545093,
        -0.0868423636944771,
        -0.0028855008381771905,
        -0.0904215506691354,
        0.05393753570613793,
        0.04222142722391456,
        0.02017759630273872,
        0.007092309245925463,
        0.03722631045517828,
        -0.015833438425719343,
        0.031054758049361558,
        0.0676475794123632,
        -0.00025457604558715955,
        0.040156142709115966,
        0.017331001341609333,
        0.06994150259030536,
        0.05258683243093869,
        -0.09726398832825524,
        0.026635825336648284,
        -0.012128627775493154,
        0.027445415317803697,
        0.06413342087718461,
        0.04931733889041606,
        -0.06122226473681477,
        -0.067958075148797,
        -0.03679514625390838,
        -0.04734388705013111,
        0.07412993562636093,
        0.012931831132334903,
        -0.01531136836469169,
        -0.07568286824673513,
        0.01653151322834694,
        0.009534428895300177,
        0.037546626134463315,
        0.06363340153867598,
        -0.06288247139137061,
        0.008082307029531447,
        -0.028383306009995574,
        0.0206955878637051,
        0.026873172704341714,
        0.01444579403438755,
        0.09164086901597647,
        0.018953667317772097,
        0.03303131363439158,
        0.06854613981327827,
        0.04652119174555589,
        0.037627594263028294,
        0.0524484569421073,
        0.05172896121636865,
        0.03484879249469451,
        0.017441657105308473,
        0.021004245295932405,
        0.029449435008180518,
        -0.028945049091447916,
        -0.07554909109764811,
        0.012761123674764887,
        0.04142876071747953,
        0.09956867236607765,
        -0.03982721487685931,
        0.06170035361043565,
        0.023062590689286917,
        -0.06280862912503961,
        -0.05920422996849107,
        -0.028168639408230178,
        0.04366683468598902,
        0.027467234062771875,
        0.03839952280614008,
        -0.0463345514533451,
        -0.017816350222760697,
        0.06373862540194158,
        -0.09023253651135246,
        -0.007085258632319895,
        0.010515970565870862,
        0.0350704373451568,
        -0.030096344192633306,
        -0.05371508135976519,
        0.05231420476893961,
        0.05075804938576327,
        0.051226029951293994,
        0.07236809843466112,
        -0.008599186848354158,
        -0.016771091917567444,
        -0.060214831381394794,
        0.04584043377429879,
        0.07204238512615989,
        0.01034660571304602,
        0.051090807637070204,
        -0.04417777912928969,
        0.062153804478274476,
        0.08769950557780883,
        -0.06113548948395934,
        0.0386234015494132,
        0.08239140691085373,
        0.05506624638334846,
        0.03943128343215241,
        0.013820472092072057,
        0.051459221641632344,
        -0.05140666287025601,
        -0.10455910946268064,
        -0.012106976907553925,
        -0.013391426867832094,
        -0.06396600861085143,
        -0.018849346726818417,
        0.005400801799774552,
        -0.013170330951704437,
        0.017028452592786746,
        -0.03130240954573682,
        -0.037808441737058884,
        -0.04023427117858089,
        -0.0016022382262948212,
        -0.007272031680140829,
        0.01720317976387297,
        -0.05754999647840131,
        -0.0010765108699160976,
        -0.055867640603737924,
        -0.01974773612229516,
        0.03696598056952122,
        -0.05913756714902185,
        0.08352335181016586,
        -0.044205662863908285,
        -0.010231120593181377,
        0.050989014055463106,
        -0.02539701348686577,
        0.020966118282703252,
        0.09776661251874812,
        -0.03585317028695524,
        -0.012588574345413333,
        -0.07926869780166239,
        -0.005853654617480895,
        -0.07346232495114309,
        0.07462003164765697,
        -0.04923732696176976,
        0.07337536864366016,
        -0.07824320592215762,
        -0.008398961157157268,
        -0.0011847423542673137,
        -0.06297679709898044,
        0.06848239915291716,
        -0.072030017966927,
        -0.0011929729623090328,
        -0.002042389084131689,
        -0.08118190352296419,
        -0.04049380777216044,
        0.043230282160480415,
        0.02537227813664902,
        -0.02590491721095516,
        0.0967440056114272,
        -0.03718860234566794,
        0.018244975106187594,
        -0.06970679692806254,
        0.08832271072008967,
        0.05480902195880431,
        0.020733702851685538,
        -0.030017075594449372,
        -0.061716459185815205,
        -0.18636947877146712,
        -0.09412343983870607,
        -0.028340182027323666,
        0.0063081126191292134,
        0.028480500320865163,
        0.04938180686306849,
        0.07263997581251085,
        0.05062886635524602,
        0.03282665867266223,
        -0.008551524259946488,
        0.0070313473102604695,
        -0.07782256183216558,
        0.04482308154100546,
        0.08458321952086435,
        -0.046918717377489455,
        0.09782310626942649,
        -0.06655695544334546,
        -0.031606635572331315,
        -0.07005735827811428,
        0.09410073211425639,
        -0.00832965963452439,
        -0.05939814830056078,
        0.05837321251492442,
        0.008799444991323494,
        0.02001981554977825,
        0.03489602150080539,
        0.006769013220241667,
        -0.04470933507100115,
        0.0018557257843776634,
        0.05385485085674924,
        0.014583081095108022,
        0.03293362822899518,
        0.05000419711694365,
        -0.006378890317627515,
        0.00934002539773427,
        -0.07002809234798622,
        -0.009685610434422549,
        0.06447495486274386,
        0.0020975744907502677,
        0.024680512857259546,
        0.05174170171609635,
        0.004595649022558679,
        -0.0654862417623429,
        0.09749305929968517,
        0.06719589671884617,
        0.030169985178504815,
        -0.09310319114240519,
        -0.042409276360097795,
        -0.0471253816546504,
        0.027356178685573596,
        0.010897410108834748,
        -0.07101732463115022,
        0.02559085800920202,
        -0.051051557418224855,
        -0.04336327009712202,
        0.00999410325233424,
        -0.004501122109530321,
        -0.04598630571193435,
        0.052503127050616674,
        -0.07858518161588503,
        0.031637678417022835,
        -0.00789812854042485,
        -0.05420655698623453,
        0.06218534671088023,
        0.06205889914410652,
        0.02757722429007699,
        0.057919209741865776,
        -0.02399589479655696,
        -0.055341123813561974,
        0.012826309656073004,
        -0.022926963629698562,
        0.06373228742789241,
        -0.0018102339708509418,
        -0.008825130575867477,
        0.01627671709039164,
        -0.04799403245733662,
        -0.020194654156351074,
        0.03889257557667465,
        0.029186124349352176,
        -0.06036717869959461,
        -0.001523493896560472,
        -0.03244524105972799,
        -0.01755961491536973,
        -0.08150108423441714,
        -0.09944534783972787,
        -0.031982163786878993,
        0.06433473846067249,
        0.05866112847159906,
        0.01198642502962176,
        0.01230330492436344,
        -0.02869947533154014,
        0.022654970615171594,
        -0.007072962489476564,
        0.07806662862003048,
        -0.006330664941729794,
        0.06929659746352586,
        0.05876632097304969,
        -0.021928044483149844,
        0.04384373639714746,
        -0.013994784013696053,
        -0.0747030435422743,
        -0.04808183788403239,
        0.0026475019315508734,
        -0.008215959844659509,
        0.02467545452145418,
        -0.042956439538497315,
        -0.06662527135084767,
        0.028378404725603375,
        0.0017819306848014516,
        0.026874670640430042,
        -0.08298370824853317,
        0.03087560227161777,
        -0.06735589922369635,
        -0.037273452679305555,
        0.06639011145517633,
        0.003275483336583287,
        0.043611887597413995,
        -0.040206371632006896,
        0.06846847468805232,
        -0.048569519894445176,
        -0.02361496752224272,
        0.03951492686006196,
        0.04319843894195857,
        -0.022677013957247274,
        0.05343111339650644,
        -0.018447414924774055,
        0.022852355787101552,
        0.05906016200680596,
        -0.07893346886994028,
        0.009985973986860212,
        0.05480638340632579,
        -0.023965352786369108,
        -0.034898233933773254,
        -0.03144409136160679,
        0.06292835747396278,
        -0.035425296136628336,
        0.04855161394987145,
        -0.0228346116073375,
        0.02254353475187092,
        -0.03537109262234586,
        0.04309342276872462,
        -0.029494041577723156,
        0.021352542663009812,
        0.04647938389273662,
        0.015469124423253053,
        0.10221076126250812,
        -0.06285293013472415,
        0.05743977290690319,
        -0.05747387323953884,
        -0.08810419471063098,
        -0.061925642430755566,
        0.05045981586241123,
        -0.0882000010869518,
        -0.06232624977652674,
        0.07042051535214279,
        0.07139210326062499,
        0.002584551194815535,
        0.05110843433876039,
        -0.048757679188052336,
        -0.0050839847121225456,
        0.01133071026561157,
        -0.0367629407790723,
        -0.09354253850667728,
        -0.013386916965801977,
        -0.06529130549847428,
        -0.050624013858819,
        0.06367730753358855,
        -0.07797859384961235,
        -0.026768242010701816,
        0.036545169123765694,
        0.07089694306991524,
        0.053378854466866466,
        -0.06123830918898498,
        -0.0343050084488611,
        0.017372626414679754,
        -0.07288464184677655,
        0.007617370523726884,
        0.009143102348666268,
        -0.011764538263102088,
        0.07029532000749024,
        0.06289502832982516,
        -0.0038825100944812206,
        0.031718127178955925,
        0.14164600734454796,
        -0.0193250536097235,
        -0.048977566549349816,
        0.10978594252814484,
        0.012038329126180176,
        -0.01891354945001077,
        -0.069015084818155,
        -0.05277385541413905,
        0.011697035819321027,
        -0.0254546258301557,
        0.1624390736038314,
        -0.038739526083193344,
        -0.06215832242671913,
        -0.02138607917646348,
        -0.007930920347091761,
        0.0036859194011966486,
        -0.04443342516177577,
        -0.07947034277121563,
        -0.02588550439459931,
        -0.10926976946547907,
        0.007381392189988448,
        -0.0014372535937499068,
        -0.005122307768842181,
        0.013714358667026227,
        0.11102610267197997,
        0.05113088925983844,
        -0.03117511221690028,
        -0.04095747368353796,
        0.017347707979666876,
        -0.05858287143470191,
        0.029557018169536906,
        -0.03665095205732154,
        0.06412993775330782,
        -0.030778223188818406,
        0.0029050627267819336,
        -0.06751768683075886,
        -0.05806147476943065,
        0.020769476908991374,
        0.14482617115572885,
        -0.024740633180833787,
        0.030130889163933524,
        0.07649076899876336,
        0.10378563492719435,
        0.07186667801938915,
        -0.03966476130873893,
        -0.01561697601665153,
        -0.019387045921285085,
        0.01478464797222336,
        -0.009069217067691785,
        -0.06660426428648253,
        0.12416768885503741,
        0.1467117615221954,
        0.047592855129407266,
        0.05019689707334979,
        0.05719796659805268,
        0.13612887603597615,
        0.07416963403693873,
        -0.013754000547890622,
        0.015424185273033944,
        0.054278717602743,
        -0.030417836867869988,
        -0.005806343186936063,
        -0.023430448201878024,
        0.01074670017952488,
        0.04677923462286942,
        0.11134799691082722,
        -0.002909073722535504,
        0.10353293295316618,
        -0.03194995088139557,
        0.06530236789829186,
        0.041462807301730034,
        0.022523634484137748,
        -0.03925324253672924,
        0.017994594348378228,
        -0.03193314473151056,
        0.05804802225703341,
        -0.0792142371236136,
        -0.0018751415052302997,
        0.04629481337407848,
        -0.018187488518049143,
        0.0244099628068733,
        -0.002298943885596216,
        0.01214114284446474,
        -0.025422888856655595,
        0.002591343662640738,
        0.03139681475004927,
        0.01355326265254121,
        0.03232470912277082,
        0.039266548349464914,
        -0.04209201627911105,
        0.06005580795233958,
        -0.010836484490763793,
        0.09357990208827882,
        -0.030295911081509082,
        0.007366699124356662,
        0.04284163267406162,
        0.01600153018245243,
        0.04455007780132432,
        -0.059506734642290525,
        0.04715073881978826,
        -0.06440268853997294,
        0.021889396505681755,
        -0.03583393066044503,
        -0.05685422598478089,
        0.025018487278024946,
        0.07348743483896587,
        -0.0691941979264077,
        0.06456227153849198,
        -0.031592405813808275,
        0.057374395344185314,
        0.012703803727268955,
        0.012786401080142779,
        -0.09265638824920595,
        0.02450014162372086,
        0.024889373215733656,
        0.04542674175907435,
        0.06233064194124222,
        0.03202443919295406,
        -0.03725011519458975,
        0.04259900355611862,
        0.06686989281294137,
        0.1002799315569206,
        0.023866968426801454,
        0.06366468089628016,
        0.014570137270302578,
        0.015150754701074636,
        -0.05319798851028308,
        0.061816676651952764,
        -0.08430763345826754,
        0.01770202238878037,
        -0.09056926611785303,
        -0.04702248198593731,
        0.0536522946039239,
        0.08180796013175866,
        -0.08873196910460408,
        -0.020686813654144525,
        0.02529369323828064,
        -0.029013418282534852,
        -0.08184281594931596,
        0.01248427314668592,
        -0.07162263389493549,
        -0.024340896032745817,
        0.058682757141117335,
        -0.005581114349817167,
        -0.048392092274762766,
        -0.05331825357361601,
        -0.06291276732604562,
        0.02000404895201745,
        0.10631981405196393,
        0.07758673276987614,
        -0.08250052154985053,
        -0.017936102423669737,
        -0.0036814692884368995,
        0.04712809284795612,
        -0.020954368090087477,
        0.05530910614594439,
        -0.07954761571339812,
        -0.07573836593010237,
        0.06787511967427302,
        -0.011812195041249805,
        0.037799384654607346,
        0.07491479100440777,
        0.013194181189262655,
        -0.010084621851154977,
        -0.03470036574227971,
        0.06067722935305393,
        -0.09010979152273897,
        -0.043455924070406216,
        0.029093318914934014,
        -0.07551865282414234,
        -0.1203408954174253,
        -0.05048347639351172,
        -0.014175863613497184,
        0.05549971048596268,
        -0.06795681092191891,
        0.03353886266920161,
        -0.08790772442388171,
        0.008178607465597293,
        0.020308087235127694,
        -0.016223480176357028,
        0.05929168662272033,
        0.017155070449251585,
        -0.07933120640527609,
        0.07699097918291346,
        0.012147052693487344,
        -0.008649201792770586,
        0.06426728430341373,
        -0.06478652836892874,
        0.01623430733535429,
        -0.05665868188901785,
        0.039929101632299846,
        0.0020093404528984215,
        -0.02620716086605562,
        -0.03743698003611835,
        -0.02790446701190755,
        0.007410394367292092,
        0.01494342962118955,
        0.009466072469810146,
        -0.0685170226783561,
        -0.004217972613150422,
        0.07335812131857959,
        0.021685721056114462,
        -0.021648725046939477,
        -0.05160903951484243,
        0.03250542888789131,
        -0.0658274986669077,
        -0.08536337988103594,
        0.03768682098168806,
        0.015734229148235378,
        0.09718080317245463,
        0.06179699192436767,
        0.044944549270749146,
        -0.08279844154558925,
        -0.0037755073506980535,
        0.05205962169666524,
        -0.012376005653490814,
        -0.05944603497505544,
        0.04645994057329639,
        0.03983094106570524,
        0.024913638334739908,
        -0.050901042797892176,
        0.06673284428257358,
        -0.059568935782879355,
        0.06481243037891517,
        -0.09640459205547584,
        0.020052629622613605,
        0.07756011879372228,
        0.024745886359001882,
        -0.08609237347963809,
        0.08004930531322703,
        -0.05277583008843664,
        0.0355945632746206,
        -0.08025745121790563,
        0.03753084999560649,
        0.09693368273102192,
        0.067641889359912,
        0.07714031453930086,
        0.031162456511558623,
        -0.047555142208069306,
        0.04330688065957744,
        -0.07140993987265336,
        -0.028403998772519288,
        -0.03799921831216577,
        0.03756956012389011,
        0.07674053895329981,
        -0.010174434026026214,
        -0.00837561547493374,
        -0.08756505861539866,
        0.026242391819633618,
        -0.0071980106259783416,
        -0.02733838991031332,
        -0.026146802261261214,
        -0.09498242893514285,
        0.08629346786678259,
        0.04427846355477483,
        0.025158297824376067,
        -0.03713982515175911,
        0.025262618546113325,
        -0.06857832338731486,
        -0.08185534328924023,
        -0.06794884026202898,
        -0.08016304508268206,
        -0.032051265113479124,
        0.0547824646213462,
        0.033070360423383134,
        -0.06085880850477567,
        0.01906494939933936,
        0.02664866289648832,
        0.011624170430016482,
        -0.08789012024775449,
        0.036007959327734,
        -0.04160188021004804,
        0.04998844274563495,
        0.12930461308732147,
        0.028211944681594412,
        -0.005554123215650588,
        -0.06090651139040754,
        -0.017120222314755983,
        -0.022474725046773582,
        -0.05188900068416964,
        -0.01827748041986495,
        -0.01599944859236337,
        -0.07548091206104458,
        0.13962490006329153,
        -0.06740467511259048,
        0.019646613846958583,
        -0.018397511986522497,
        0.023616928434099415,
        -0.07304279879227173,
        -0.03209667987415615,
        -0.0648370907058741,
        -0.016678469109274906,
        -0.042830705444966574,
        0.1460544280797474,
        -0.0725041420241007,
        0.011753749184003572,
        -0.09673624602006121,
        0.004067448040187069,
        -0.06463654720029365,
        0.02733464614147481,
        0.02687303586268423,
        0.0234464405111629,
        0.031035866935670103,
        0.14452699178099848,
        -0.01877092615753073,
        -0.06503504878303126,
        0.010731904109477301,
        0.0004769117624420302,
        -0.03789353134165464,
        -0.020938212512677034,
        0.029449377828290307,
        -0.08972812673853874,
        0.02690779005729998,
        0.05694923569447775,
        -0.035279422626840556,
        0.03421366181742584,
        -0.10505221530763188,
        -0.02462356451723317,
        -0.03481932628567244,
        -0.016745064916524287,
        0.021408827763842193,
        -0.09133286525553398,
        0.016388987093231843,
        0.01189477787085389,
        -0.08890490933594285,
        -0.09008631835514032,
        -0.04512602312888067,
        -0.04593131663254228,
        0.030781882006621745,
        -0.013127790086009642,
        -0.07138998294378575,
        0.016472256018314438,
        -0.06325488985928096,
        0.15183682094215822,
        -0.04168484341554768,
        -0.030275656801928032,
        -0.030076724347046387,
        -0.09002347713168622,
        0.03010245252943097,
        -0.031157252695095533,
        -0.08156025924637013,
        0.0011083607970017641,
        -0.07931682935719307,
        0.07160502520732086,
        -0.030632322424737915,
        0.016604529085554126,
        -0.03949697861376343,
        0.03013058788846645,
        -0.05696930172018712,
        -0.06755136539830976,
        0.05151957568222584,
        -0.10124358164843165,
        0.04033099876211872,
        0.059514135917162155,
        -0.023089609403624808,
        -0.06445948324830994,
        -0.06964909360432009,
        0.00946061166271923,
        -0.07331512459615912,
        -0.07519916174721993,
        0.02568461632478412,
        0.02295937526810576,
        -0.08428528046851282,
        0.10968227589640722,
        -0.08048437091491685,
        0.03232210234593296,
        -0.06542564449258544,
        0.013416007074955915,
        -0.08224221045416451,
        0.0345172474334169,
        0.016932849901216712,
        0.020864176063823316,
        -0.06775643161210922,
        0.15449979095540312,
        -0.09440721216623456,
        -0.06193694335881023,
        -0.054905233632511256,
        -0.06539529890979878,
        -0.1010206415300287,
        -0.08839227483579397,
        0.002915039333465474,
        -0.018949758330361808,
        0.005288678306183238,
        0.1625041309351153,
        0.041471214326295594,
        0.0024492923731229813,
        -0.01973794506420898,
        -0.08145802646094645,
        -0.0565587245012792,
        0.0002641887974679006,
        -0.07485764421681095,
        -0.029741901818613897,
        0.035684662207055295,
        0.04495133032902891,
        -0.04504390450793952,
        -0.030155751157864032,
        -0.05206533744961821,
        -0.09929150824898166,
        -0.08673091122676009,
        0.04754310902358784,
        -0.06958325887320106,
        -0.03979068186721377,
        -0.09477998488924401,
        0.1429087542165552,
        0.028941822679579437,
        -0.07068678313401165,
        -0.02395322179531702,
        0.039315800313474036,
        -0.04319059703106591,
        0.04535961619052303,
        -0.0013778310662305548,
        0.02086181695149,
        0.02964711482565453,
        0.13977400757378394,
        0.0001700550252461976,
        -0.02640894942486462,
        -0.044466412789082865,
        -0.0696678058262468,
        0.013224643077445765,
        -0.040844359084871454,
        0.04029272949079184,
        0.011147476410541963,
        0.03412527440556243,
        0.06096742782906214,
        -0.0663683269688179,
        0.01752276403784833,
        -0.08397241191389511,
        -0.09913810625174031,
        -0.09903299432018912,
        -0.00227913345803231,
        -0.06489799310109959,
        0.02711206361399107,
        -0.002525103830369585,
        0.16150852253348902,
        -0.07416152828299348,
        -0.0913194284520399,
        -0.010551893751041383,
        -0.07843290951698716,
        -0.037180362949702464,
        -0.05610857584495274,
        -0.09511139649193999,
        -0.007655933938593705,
        -0.03249879074636246,
        0.05274364766205565,
        -0.08137172380877632,
        -0.018232702760471366
      ],
      [
        -0.024799908567434123,
        0.04827035765057484,
        -0.039523190101743426,
        -0.06845471752693887,
        -0.059223528517754566,
        0.031807253725204036,
        0.022248798473420733,
        -0.046894780442507715,
        -0.06708627382525349,
        0.01845006225442422,
        -0.020279900550195983,
        0.05554404086638647,
        -0.007450216281838211,
        -0.057319982115850356,
        -0.05263938670204776,
        -0.00394622389195527,
        -0.06677048324156169,
        0.0028409808679234747,
        0.0008406202734444646,
        -0.03829885799712412,
        -0.008589043475112251,
        0.021040696559653467,
        -0.02881120547832905,
        -0.005030196125521511,
        0.06847101438080216,
        0.000442151049584022,
        0.010422716731557693,
        -0.02811517014706516,
        0.0654359432985064,
        -0.010101764309676695,
        -0.05819821159447019,
        0.05734627398967294,
        -0.05037462948819265,
        0.026109737507584142,
        0.023591977145424846,
        -0.014642542419384908,
        0.05972169786981416,
        -1.1846582347193886e-05,
        0.015515380320679879,
        0.051408271727671394,
        -0.04576763428575555,
        -0.07913641725055189,
        -0.05324416047130911,
        -0.06332511564700632,
        -0.034143939383300924,
        0.03132125865084318,
        0.011517914459065049,
        -0.03209142174005334,
        0.007682684206232804,
        0.05708362854283564,
        -0.07330183305317328,
        -0.05437606364584457,
        0.04648614383323694,
        0.0016545756623110234,
        0.020415640585338207,
        0.03210322013856944,
        -0.03482493891776916,
        -0.05887058824890532,
        0.04950989014945612,
        0.038126862986935454,
        -0.05790180518653087,
        0.02365049685679329,
        0.06413295191320383,
        -0.022906834346468813,
        0.05808726805875971,
        -0.06008060806448725,
        0.00797102415905598,
        0.0666330480790025,
        -0.0230604629132643,
        0.027773807975502544,
        -0.012420793986842092,
        -0.057599935660985195,
        0.05181986028839863,
        -0.051729870880554314,
        0.0045200821849185205,
        -0.025040785020389693,
        0.012965471114194828,
        -0.04158506281113702,
        0.004732802800148014,
        0.05395082926463158,
        -0.08193518285535327,
        -0.04259853186025129,
        0.06282294065785848,
        -0.02783431609694325,
        0.04838427813985171,
        0.02442678242341121,
        -0.053725397797803866,
        0.04655743933455345,
        -0.01927297403029502,
        0.03225626162392703,
        -0.02553057055497842,
        0.018540039686268932,
        -0.01106805913756967,
        -0.07480700732348318,
        -0.019450300237203684,
        -0.014293301497368864,
        0.011390828975191268,
        -0.0639352588570688,
        -0.04836824883081688,
        -0.07639579428460579,
        0.010783040959531065,
        0.026029428803921957,
        -0.023905358955251317,
        -0.07056916425079282,
        -0.06778888610353814,
        -0.032235912864950235,
        -0.03484067292265353,
        -0.05337773001710374,
        0.024601941097523103,
        -0.07863479340051152,
        -0.07969173328694466,
        0.0026299161524310903,
        0.008057160177362164,
        -0.020336380989383805,
        0.009252228877047962,
        -0.016470187084350385,
        0.05844146495134497,
        -0.062461895438116484,
        -0.0758758351562608,
        0.006063926165793554,
        0.00168768358722539,
        0.08684835186048745,
        0.034933031954191764,
        -0.0020567664574775153,
        0.062302878595109405,
        0.05944975313305869,
        0.005981584399498576,
        8.474949683907597e-05,
        -0.06865848227858558,
        0.062292796905330634,
        0.02849040559565591,
        0.06546481306841753,
        0.04088324350097281,
        0.05222531282996868,
        -0.009113690748913593,
        0.005707380340749396,
        -0.0445138336607085,
        -0.02792755866700556,
        -0.0528502908862807,
        0.011016971328414336,
        -0.07425829970068985,
        0.01704164461108193,
        -0.006946076237226171,
        -0.06531771626583951,
        -0.07813450153418744,
        0.033500984333637907,
        -0.021548312580355222,
        0.02413101525691412,
        0.050116686681766213,
        0.05432613038616289,
        -0.05513836668272131,
        -0.01234396339680409,
        0.04295735082948298,
        -0.059093578017786745,
        0.05939215121387295,
        0.07729899813823492,
        -0.006346311658755459,
        0.0015669606973215838,
        -0.0011662003514173525,
        -0.07983388536186858,
        0.0029159241662441286,
        0.011334950797721564,
        0.028013988382948225,
        -0.01409104936368223,
        0.06317644830306704,
        0.016220260609738836,
        -0.03228202760284423,
        -0.04448513271288413,
        -0.06815476662136469,
        -0.046376397079021504,
        0.020232510514499952,
        0.008754956763664523,
        -0.020040945713295663,
        -0.03267342239365354,
        -0.003936284481011426,
        0.00835882452420659,
        -0.02382052544537725,
        0.07755177953430603,
        -0.012228046244296227,
        0.029852179757667244,
        -0.005299693580272927,
        -0.005856312385306483,
        -0.018600485132272495,
        0.05788392285462445,
        0.0007038097707692803,
        0.05373470705356068,
        -0.03773054243165216,
        0.05242689104022639,
        0.036251890755784784,
        0.018393370398107962,
        0.046510483079924426,
        -0.05378458190551171,
        -0.08105965039541231,
        0.04645202671953382,
        0.05584378881811767,
        -0.05607292492166357,
        -0.04650963464753947,
        0.03975638737630512,
        -0.07502614362306209,
        0.06044261169327912,
        0.03937314041805056,
        0.051083586970703,
        0.005023694736320663,
        -0.026447066577170393,
        -0.011130430330324516,
        0.009015872876455468,
        -0.0015745706519625562,
        -0.06470812010648101,
        -0.003984399003335667,
        -0.1129837456233852,
        -0.004831593692320912,
        -0.05926340782482759,
        0.039251664374976784,
        -0.08058578103967604,
        0.11841359374065791,
        -0.011213182741888707,
        0.07765192021336847,
        -0.0686387819042665,
        -0.028287669328181983,
        0.0244131620096567,
        -0.041179957072548644,
        0.025191295534944078,
        0.0668514725184253,
        0.030511667001505916,
        0.006426360785560852,
        -0.055162882628592876,
        -0.044963805921070986,
        0.05575634402205743,
        -0.04395983515412818,
        0.051954272313698154,
        0.042179163630638984,
        -0.04973555470742875,
        -0.04103109316395429,
        0.0031222608686833435,
        0.02066616095652877,
        0.05607253191181366,
        -0.05431671707338628,
        -0.03832657346926068,
        -0.05464039246721444,
        0.06277132176369168,
        -0.06851975889184583,
        0.0417282463326113,
        -0.009846568579951824,
        0.0702159170890314,
        -0.06774251321004689,
        0.0439421978235034,
        -0.032423571853131876,
        -0.003532186894400498,
        0.052111242288850355,
        -0.0763811438145693,
        -0.0009296559720053802,
        -0.003936931251018175,
        -0.02682404398589068,
        0.052837716805714814,
        0.027288318548520284,
        0.05315985209663623,
        -0.03284167402735289,
        0.0653139955782975,
        -0.05187973970297142,
        0.023607599042309302,
        -0.010066592153901063,
        0.032138879961046425,
        0.02445926982947416,
        0.01971169902698658,
        0.1092048131890249,
        -0.004157194272071146,
        -0.03806709418188769,
        -0.04660646705166956,
        0.07713230799065969,
        0.005783390905471488,
        -0.04570647157520768,
        0.04829426790040702,
        -0.08009260508546995,
        -0.01379969923736673,
        0.0026726363502455612,
        0.03931619805514814,
        -0.024527164488579688,
        -0.05987078892096343,
        0.03135196511175906,
        0.0007330586025999389,
        0.0010574446597308833,
        -0.0525467736628207,
        0.006298347794942532,
        0.03649396765405543,
        0.02041634490489007,
        -0.029159638180636625,
        0.037639012349919516,
        -0.020771086692124296,
        0.021701015452638,
        0.04668882640395677,
        -0.04444382427015229,
        0.04432845244788405,
        -0.02819689504032399,
        0.04520035188019552,
        -0.06476193342285103,
        -0.12951377028951488,
        0.07020934202041351,
        -0.03474944840124571,
        0.030980023205093674,
        -0.08421933967920565,
        0.038910376688370475,
        0.0012818351919022162,
        -0.03832704779077525,
        0.07174425756971203,
        0.020532652581864604,
        -0.02226124254001923,
        -0.003944943702770769,
        0.06604841595099686,
        0.05412749025175786,
        0.029103937459758304,
        -0.059201520948110965,
        -0.03894426150159607,
        0.07852847669969862,
        0.03468972148130791,
        -0.01006627495823883,
        0.005892845094133146,
        0.03329983867090182,
        -0.03863079804675857,
        -0.028818631937947873,
        -0.01944845062227043,
        0.0010148839571683206,
        0.0386818911015032,
        0.06648977666399614,
        -0.04731591927080434,
        0.05331108126371122,
        0.03335867040297268,
        0.008039868882662954,
        -0.037674665546302215,
        -0.03222246929414445,
        0.07529048350582998,
        -0.007098433173401558,
        0.0312721172695905,
        0.0656625091099865,
        0.0299593903949936,
        -0.058408834402387984,
        -0.0696285760557999,
        0.02897299729974804,
        -0.06599860245648728,
        -0.07160596027410852,
        -0.044899547091382434,
        -0.01823764537809068,
        0.021801026787056046,
        -0.04407364886275802,
        -0.05258068345218735,
        -0.04432119402694893,
        -0.05807622528348511,
        0.001966176243765784,
        -0.001273426202804851,
        -0.021346250562262525,
        0.058319539805777906,
        -0.004582314474493031,
        5.046165293456846e-05,
        -0.07476270264724125,
        0.11803749909533033,
        -0.026042983689824765,
        0.008042102923865027,
        0.037889610058057015,
        0.0673461357554162,
        -0.07178003438108381,
        0.051799160501056755,
        0.027778367105136932,
        0.005800841928736336,
        -0.07658395968999165,
        -0.05751153870112761,
        -0.08095497172568483,
        -0.055020091270960865,
        -0.020457299285887992,
        -0.07332810357504697,
        -0.009526674166643026,
        -0.01463612342652179,
        -0.041850014062845324,
        0.08539898661311751,
        0.01736452670727303,
        0.03399169825237389,
        0.10181343031104945,
        0.058182866859787685,
        -3.545392883331041e-05,
        -0.03279838863197359,
        0.009927560345861437,
        0.10346674242206605,
        0.022853635878835106,
        0.010004683599444788,
        0.02522116143278838,
        -0.06171482184159082,
        0.021572206524131353,
        -0.025218261339557388,
        -0.07114669366794198,
        -0.06908918026035799,
        0.06251687940756114,
        0.05597778731652713,
        0.023818342624383516,
        0.026151283746884087,
        -0.021962955109781024,
        -0.04932321168809107,
        0.04808061283739543,
        -0.0037318580228637853,
        0.016708708025826326,
        -0.0378117246505184,
        0.03736858965920261,
        0.07270349941566746,
        0.018036311983921017,
        -0.03973547740048138,
        -0.007220828086800391,
        -0.03429665283059188,
        0.01785929958516045,
        -0.03424572254566347,
        0.07832225193453116,
        0.048997381880243975,
        -0.02199643949054792,
        -0.04344744543537207,
        -0.0566774814219085,
        -0.009473902801106092,
        -0.04639232067558243,
        0.02897276271849249,
        -0.08149917138566229,
        -0.059889575850184056,
        -0.01132367176092467,
        0.004402020275958669,
        -0.06534088332344345,
        -0.06671132438320139,
        -0.06496858023047838,
        0.013810129800130322,
        -0.054732277119236415,
        -0.04372947486421907,
        -0.01955362610400946,
        0.045777326714249784,
        -0.044271983030077115,
        -0.03420688733072932,
        0.04293368763980238,
        -0.07975445349553983,
        0.025973008136881304,
        -0.07715912552947496,
        -0.006090401141692118,
        -0.020649329785952027,
        -0.023187008174901567,
        -0.07859305425499043,
        0.0091839178116034,
        -0.09583488306268165,
        0.07092631398954699,
        -0.10293815849405669,
        0.05313381903754689,
        -0.07628131165449442,
        0.019937497742429873,
        0.03801695021959434,
        0.0017860413699972593,
        0.06570702259440889,
        0.04026477476572029,
        0.0052993962783388264,
        0.016201054317138364,
        -0.047932521458947754,
        -0.07513884612390384,
        0.061250149639693496,
        0.011640004873879619,
        -0.013289677379375251,
        -0.032005549989170885,
        -0.002572925707659344,
        -0.055484513182835364,
        0.08955852885655721,
        0.0432451759237232,
        0.04192563678251562,
        -0.07860272977366134,
        0.10216459998442473,
        -0.08920668517251933,
        -0.04019884317468272,
        -0.02083415458257454,
        -0.061554431146191996,
        0.010130043365616603,
        0.05686875738711821,
        0.04709238347109957,
        -0.020071570027808502,
        -0.039103959266122056,
        0.0515984572274498,
        0.027970636965858033,
        0.014015021045855365,
        -0.07743756193373118,
        -0.04137131173527813,
        0.027458659985887472,
        -0.004370464103965926,
        0.018767811446663438,
        -0.03867374131062563,
        -0.008301192182798909,
        -0.04065748091425644,
        -0.017047352904309462,
        0.04401994379186714,
        -0.044971950867302095,
        -0.021813889352418167,
        -0.04964513487451975,
        -0.024168071418410327,
        0.11510126516620608,
        0.040497269305601706,
        -0.013556906928129967,
        -0.09128207964078165,
        0.05491815859114812,
        0.04572918197632781,
        0.006112697015673411,
        0.029454516440978063,
        -0.04655202809553493,
        0.03586454098690308,
        -0.0052302934629236625,
        -0.07500659423267766,
        -0.06912880365631754,
        -0.015762650998400667,
        0.05233259286546279,
        -0.08551761905984204,
        0.04712739258314901,
        -0.06882601448847826,
        -0.0453444190188556,
        0.013225092285815076,
        -0.07558647406947361,
        -0.03092083396877682,
        -0.0412825534828345,
        -0.01237619460594226,
        0.033842501974163504,
        0.017613043013099846,
        0.10771206234253522,
        -0.0018032898654633774,
        -0.013992411807563629,
        -0.057935991731840726,
        -0.02155919788528033,
        0.015595456626179177,
        -0.035325112440189384,
        0.11554166049463038,
        0.07553326968300189,
        0.08207947512570501,
        0.01929504680396411,
        0.028333337962436443,
        0.050397210814720865,
        -0.018228609008787255,
        -0.050141701389663985,
        -0.060659844636116546,
        -0.055760295056077054,
        0.04322090348438907,
        -0.06817701596761043,
        -0.07975989647616724,
        0.03502441540210379,
        -0.045600887130178465,
        0.042727629254339115,
        0.06103840161078042,
        0.012158389023137353,
        0.018035301665908055,
        0.07256932806137141,
        0.09849375482751463,
        -0.00976679449986498,
        0.06258494076368798,
        -0.09232730098769341,
        -0.0008474875159704208,
        -0.04803553506458937,
        -0.0214951141430417,
        0.09265503880903224,
        -0.010202790973373043,
        -0.023574161058924584,
        -0.04211986937646544,
        0.06915440763001181,
        -0.0768150287552013,
        -0.04202570765828934,
        0.041920250172658095,
        -0.0680509490496674,
        -0.04699733310693802,
        -0.08930445089602247,
        0.008961490853684325,
        0.06237014846243697,
        0.028445407873602828,
        -0.012944583363150108,
        -0.03756105181918223,
        0.06055725141689089,
        0.013180197234775112,
        0.04229672085383903,
        0.07377625843833646,
        -0.015336842520500306,
        -0.0303973836120938,
        0.06610463738103056,
        -0.06724393708018105,
        -0.009410892439199849,
        -0.06809126348387108,
        0.013254401109423638,
        -0.022496359183102617,
        0.0931648034593679,
        0.08053986354878787,
        0.07920218099736108,
        0.019897312994413996,
        -0.03721627324944388,
        0.06649943670487612,
        0.05743985382395702,
        0.06641896495537056,
        -0.021247882192124194,
        0.059172634630142,
        -0.051103138068045166,
        0.052847936161229285,
        -0.07240464107476782,
        0.028768844803622136,
        0.021052839201551522,
        0.05844834671462471,
        0.023242596041376018,
        0.00018242582407961117,
        0.0344577179583268,
        0.01005574013483866,
        0.04722494008627864,
        0.07721318206711628,
        -0.04752201932790288,
        -0.05561971651025268,
        -0.026914962575318446,
        0.04412455447382884,
        -0.016692278737744225,
        0.07479815567619721,
        -0.0288875799391077,
        -0.0255460310802604,
        0.015464079123605331,
        0.007775708866598615,
        0.019639796869827468,
        0.07614626118645879,
        0.06738683491236,
        -0.04107570377498971,
        -0.007966045003297452,
        0.048062242873562026,
        0.012179069083502825,
        -0.07493022016304986,
        0.02846116508443928,
        -0.06096013732927947,
        -0.08319866180495603,
        0.0480855049619471,
        -0.03126637324878538,
        -0.003839275070605709,
        -0.058608018805248914,
        -0.018765929343441047,
        0.014873710642838258,
        -0.031845082928320674,
        0.08830466697712089,
        -0.04764097526945318,
        -0.021132980318259553,
        0.04045985989285982,
        0.06495425134246327,
        0.0699397822900445,
        0.020215252151608146,
        -0.013779019482268803,
        -0.02719506794599088,
        -0.036440841139702966,
        -0.07944940454678685,
        -0.07023502504885135,
        -0.03628458071000205,
        0.029588313201627532,
        0.06441984631465515,
        0.06369167976120088,
        0.04927417878381413,
        0.06024914043276553,
        0.0438850392061659,
        0.016675568052974304,
        -0.0600055141879817,
        -0.03790785293617447,
        -0.005077141300010653,
        -0.06789020159956136,
        -0.0548679760938054,
        0.01973168922246335,
        0.09145445873138877,
        0.08165198148828287,
        -0.02659986432396893,
        -0.04702710749127453,
        0.033522431913273754,
        -0.04147047720056215,
        0.032508453083934845,
        0.07573031785440998,
        -0.061025072886067,
        0.12135326883291135,
        0.013375951010487235,
        0.008117530346915536,
        0.05767661858351191,
        -0.0266180342372849,
        0.050201196636218824,
        0.0588033278057827,
        -0.04705059069921006,
        0.06402957083051249,
        0.07254453357137347,
        -0.001086224311631802,
        0.00860077613391878,
        0.0175866383207576,
        -0.005530805115514153,
        -0.01279658003069657,
        0.023895941127175246,
        0.04720989636998387,
        -0.0006652595134466106,
        -0.01905835813552262,
        -0.028136121136272653,
        0.007505054611523926,
        0.08168754609908464,
        -0.06802717247407672,
        0.026837805618937553,
        0.06782233398354931,
        0.011281870931848426,
        -0.040060180481674375,
        0.006707888451091129,
        0.0308588369266781,
        0.0667254815833909,
        -0.015456180494283881,
        0.044039279619671585,
        0.0016547639133831205,
        0.04273544620453667,
        -0.028696149312990034,
        -0.057499350739695525,
        -0.010302910647686061,
        0.0023348533321882474,
        0.03561549258285613,
        -0.021090060475663856,
        -0.0530896027029704,
        0.0015482323353960777,
        0.006484884001896867,
        -0.06448441711126275,
        0.009911115433458557,
        -0.02482731889477243,
        0.0055323442993991815,
        -0.06895119254892751,
        0.01741023545847101,
        0.059120919329693926,
        0.059126859487520174,
        -0.10120606047184362,
        0.0017990218921351817,
        0.003855739926746375,
        0.03891545198150039,
        0.04872853151864399,
        0.0024640580455643373,
        -0.012200103025121355,
        -0.05999511202589663,
        0.03491979273059786,
        0.019970567653895925,
        -0.021877223256848717,
        -0.056034802349937456,
        -0.027690411592298535,
        -0.0515884698531039,
        -0.04827336672925251,
        0.03674999749259155,
        -0.04592786501355171,
        0.016570703007190792,
        -0.03891403943227179,
        -0.04997612041415569,
        0.012354326138097118,
        -0.07470982396361263,
        -0.02115934801452629,
        -0.07834782614264603,
        -0.012651907142424453,
        -0.0449070625458543,
        0.0748631368754959,
        0.10866544923842489,
        -0.05002816856025368,
        -0.055334294627701223,
        0.06857107654488129,
        -0.02311832140897261,
        -0.004207467136556171,
        -0.0888472606678098,
        0.009488924234932831,
        -0.059473577920194726,
        -0.06480474982433614,
        0.004222304516650108,
        0.06743635025581937,
        0.01626255591074896,
        0.033159542632318836,
        -0.07318498007322331,
        0.013228927982198201,
        -0.010368466106562156,
        0.008849936501470467,
        -0.025880475251645024,
        -0.06274409719323873,
        0.048467075030865746,
        -0.011321794916538059,
        -0.06486931094415159,
        -0.0749658579391065,
        -0.05672934532543835,
        0.03382456639406415,
        -0.06909439384838438,
        -0.025189428696672275,
        -0.0200371057003656,
        -0.02972054903088849,
        -0.06795092178647176,
        -0.0764092318533895,
        0.07832951087576065,
        0.011592469945338442,
        0.02602139711152377,
        -0.031314183537037035,
        0.05129566230540893,
        -0.06230608100799071,
        -0.06145407836196507,
        0.04530508950060496,
        0.059140699797202496,
        0.03785922542382545,
        -0.00998976224864183,
        -0.03401121769086079,
        -0.0701502932463837,
        0.034524666055799666,
        0.08205846388323446,
        0.04540153397128755,
        -0.04991805880829011,
        -0.05199211876219708,
        -0.07661929319496609,
        -0.008098893370074215,
        -0.10677187751178345,
        0.047176599010762994,
        -0.0357857576712522,
        0.0674920933713038,
        0.08148699351382396,
        0.0010666116513451545,
        0.011980173208679333,
        -0.013556802958019662,
        0.011681847385178206,
        -0.02749518321576104,
        -0.15612594090243545,
        0.03026155314167284,
        -0.014031723174121347,
        -0.03790166046710244,
        -0.01556107708928024,
        0.0873031496990572,
        -0.057944020549117216,
        -0.018270174511925558,
        -0.05332212619591608,
        -0.003384114806976327,
        -0.05911977363867141,
        0.05392973223789197,
        0.018476317036466353,
        -0.0021625766825807548,
        -0.04243683089999337,
        0.06626575622779977,
        0.020925046688112833,
        -0.04922253332287566,
        -0.07750723543040984,
        -0.06943955998459186,
        -0.1339835464041994,
        0.017273025464017617,
        0.03318045097921601,
        -0.041273586336226346,
        0.06531533587667467,
        0.08204753524009639,
        0.06389002212054092,
        0.07854772855478423,
        0.0040514730684119305,
        0.07379092598043557,
        -0.112543445767324,
        0.004533733238066892,
        0.04045243524018902,
        -0.007922747679650599,
        0.07423149757957767,
        0.07339987631930266,
        0.005592125364276924,
        -0.021790960209909116,
        -0.00548536318854127,
        0.039802074321544416,
        -0.06022072271391885,
        0.001336146381071167,
        0.07410892978043723,
        -0.01440575735485075,
        0.08011253143469624,
        0.0847652550291547,
        0.046180983001893945,
        -0.0636932286531352,
        -0.006655313678115934,
        0.020334238279783416,
        -0.021735946871963258,
        -0.06305489761059789,
        0.04967700594533588,
        0.022976453249584396,
        0.06078231678838091,
        -0.01775709279224129,
        -0.0018696633665834497,
        -0.03379501548160286,
        0.01651084461597813,
        -0.037229676218862466,
        -0.08840119626047432,
        0.04093343496398721,
        0.0009614579768495426,
        0.008605329508218478,
        0.051197003880289325,
        -0.033540327850798836,
        0.04145461362105326,
        -0.005300037331094476,
        -0.05621670032802433,
        -0.04621144000864364,
        -0.02131281615460548,
        0.051511471819294045,
        0.004894439943643923,
        0.07654204486778601,
        -0.06361857633014469,
        0.05716581286132472,
        0.0728709576244681,
        0.02930423936187912,
        0.006286263251702535,
        0.05399584498101729,
        -0.16193512124367418,
        -0.0317215997302661,
        0.019137514369933377,
        0.04493567514436999,
        -0.01874596919127356,
        0.08690541410864924,
        0.055508944556412594,
        0.07963122357040864,
        -0.02029433942503058,
        -0.026841436072772264,
        -0.11847561459066248,
        0.06982335223121433,
        -0.05831594159674095,
        0.010097847350261828,
        0.03852014455486045,
        0.008238890910739854,
        -0.028731831167395125,
        -0.015960922954920565,
        0.05321716399205457,
        -0.005008834378943546,
        -0.07751614166793902,
        -0.0013683714993036435,
        -0.02505179899223478,
        0.022301927880669946,
        -0.008239896407271258,
        0.005739175363320606,
        -0.05494345376024203,
        -0.023668755000376372,
        -0.010166819913618607,
        0.02579185185015377,
        -0.022376380292946974,
        0.022385849109140654,
        -0.003901734826157456,
        0.0506806415757031,
        0.06634037741216535,
        0.061444707390462844,
        0.08212648605631989,
        -0.0595736334161641,
        -0.04429017024667698,
        0.004695870842429118,
        -0.12748593695331883,
        0.05939455974887011,
        -0.05237230445789704,
        0.05744629465672534,
        -0.04426093271620541,
        -0.015869592302445164,
        -0.019527502985908836,
        0.07201061761267286,
        0.02748476738843949,
        -0.0038005487500809222,
        -0.06573784202046702,
        0.019242412072309374,
        -0.02262585488494486,
        -0.018627081534536523,
        -0.03167941519377064,
        0.0693273365754201,
        0.03819634095531154,
        0.06291115875515355,
        -0.04234012017605892,
        0.025490293070901074,
        -0.06437375803147237,
        -0.03503136921262181,
        -0.0017417378765567516,
        -0.021021396995978457,
        -0.04614530088767047,
        0.017737628566474574,
        -0.01419078572610413,
        -0.05596316143860206,
        0.01716941310627144,
        0.0326761875608246,
        -0.05345516956837464,
        -0.04174599146571511,
        -0.043066538803798855,
        0.04928401972717792,
        -0.013342385092244514,
        0.05749272923050985,
        -0.0323083138326852,
        0.04081404846779849,
        0.043331279630862814,
        0.05121725806779485,
        -0.12390565650855259,
        0.08004549182884993,
        -0.018731214598088512,
        0.042298614973688774,
        0.059702783024769605,
        0.047555771903586834,
        0.0672013000779895,
        -0.011456513659458498,
        0.007510089188066085,
        -0.0274761916140554,
        -0.06085604627843209,
        0.06351984868427507,
        -0.022780557624124974,
        0.05878441846772326,
        0.02588328987106077,
        -0.04800187747469028,
        -0.01874143711129806,
        0.042801828701517976,
        -0.07177726809213714,
        0.066377096032846,
        -0.06677467375143221,
        0.07892240084931829,
        0.06795450649404515
      ],
      [
        0.0534782084137253,
        -0.06288476282211862,
        0.016389030608271845,
        0.04676515212802092,
        -0.02696073194630894,
        -0.07513320225795832,
        -0.06052970926081607,
        -0.09223076884889915,
        0.0012026606383381518,
        0.0269552425582942,
        -0.04379250755198856,
        -0.06478553911513435,
        -0.028553352905250757,
        0.041807042780466805,
        0.018807664237795042,
        -0.026178446594172615,
        0.04362702697748923,
        -0.009086956336264117,
        -0.023097113897484825,
        -0.07263938839654939,
        -0.018639185649021443,
        -0.021310535459306876,
        -0.04517570202381324,
        -0.0809404937319846,
        -0.043332061673216016,
        0.047360577214420524,
        -0.010460781470613953,
        0.027048504560458233,
        0.011906351229174394,
        -0.014920719767050842,
        0.009323199982480674,
        0.035212240134107446,
        -0.08279007636471176,
        0.005798684509025059,
        -0.06737837234480222,
        0.021472114394979515,
        -0.07532731557315935,
        0.0066858108768214275,
        -0.05845918642901512,
        -0.05879538826156881,
        -0.04669599692066427,
        -0.07421793845195966,
        0.026122226045495536,
        0.0031716830282813397,
        0.01450197439666661,
        -0.01931406144574227,
        -0.08648158035628135,
        0.019040600500277886,
        0.03855545283840628,
        0.01660449227099964,
        -0.02397184866665604,
        -0.09143265349963693,
        0.040951600389520684,
        -0.059423618531360925,
        -0.06174345751075427,
        0.04654113530078571,
        -0.10275853297145625,
        -0.06531200250454192,
        0.0361685924281446,
        0.05545409136665372,
        -0.07711203580412822,
        -0.07376698964915739,
        0.04331936205411936,
        0.036997484593571175,
        0.0037285521302757403,
        -0.05711887300229766,
        0.06081697973719069,
        -0.053095547458911416,
        -0.04936335610614123,
        -0.07267217363441437,
        0.014073529174815518,
        -0.008016737798134714,
        -0.007391617793140078,
        -0.08453519679762787,
        -0.07838044672795559,
        -0.05124380392379259,
        0.04671527944970055,
        -0.045448825575388804,
        0.02385942161126981,
        -0.03131539705043282,
        0.037992244153170096,
        -0.006390456315882435,
        0.04077565619109827,
        -0.029725736510035107,
        0.02435730864033333,
        0.04508610643977225,
        -0.03525460506476518,
        -0.000962580109757436,
        -0.015545339549912777,
        0.001299880269694389,
        0.01704378475603952,
        -0.06519654381970055,
        -0.08532507949137165,
        -0.08211402644462167,
        0.021881856215757584,
        0.010917185068832679,
        -0.06181570635029895,
        -0.03676773830274656,
        0.0015934759846676313,
        -0.017402386846339848,
        0.044681444559076175,
        -0.0010678925731869198,
        -0.07583695962486721,
        0.004079753832509802,
        -0.03695185319188031,
        -0.034097853074908646,
        -0.05979725388973034,
        -0.08449407131145069,
        0.04632145041883991,
        -0.0471585223079662,
        -0.0689633422637408,
        -0.04799964483767871,
        -0.07347817833082985,
        0.027322040605732213,
        -0.06977697494155473,
        0.002647498527219236,
        0.026977354467384675,
        -0.10570696040974996,
        -0.02739402827722572,
        -0.04968907719874148,
        -0.005638703430610995,
        0.04344413709624974,
        0.07961410656836125,
        -0.002604847394683276,
        -0.039477215720721784,
        0.03939790425567655,
        0.10986251137101156,
        0.029787503498044564,
        -0.05872298117874813,
        0.08890114222651964,
        0.07754809640665956,
        0.05742606300207144,
        -0.047090659108475735,
        -0.006696603174854825,
        0.027694989919673736,
        -0.0366258287013814,
        -0.06169003835275391,
        -0.08504090163614157,
        0.05537846575454099,
        0.0210237836266967,
        -0.0643463199103294,
        -0.017726741283130194,
        -0.05869841984940032,
        -0.06826456948026625,
        -0.06133728730367781,
        -0.07894318047206193,
        -0.07280851787149982,
        -0.0631578452610225,
        0.06297761976419704,
        -0.036351633837442957,
        -0.06363802311899586,
        -0.009538500722696831,
        0.016970489305386246,
        0.11611137490105154,
        0.030087514082945473,
        0.07658892149673745,
        -0.006001470910343776,
        -0.013032360434201768,
        -0.011829874367761724,
        0.040747006797010876,
        0.016647899875786732,
        0.01483654070499615,
        0.063594497814911,
        0.04251228680035321,
        -0.09599338936819386,
        0.016391710021182237,
        0.04590556816255366,
        -0.050653221824287886,
        0.03178700970877163,
        0.04462471514666526,
        -0.0031457882390804586,
        0.015614276929270744,
        -0.08769073993943859,
        -0.004758411693529014,
        -0.02416444836528256,
        0.05219727982712043,
        0.02180461917116805,
        0.10416989560875271,
        -0.02289171591619316,
        -0.012252160878032287,
        0.026528895803860048,
        0.05747018456765608,
        -0.01368937866185033,
        0.04365160923104336,
        0.015994456151061136,
        -0.006434092773365817,
        0.10846793318435334,
        -0.0071050027449422815,
        0.05376077816142387,
        -0.0025254551177254386,
        0.008701938196233116,
        0.025474271620088314,
        0.011461037362921707,
        0.05706063552751746,
        -0.06261647750295433,
        -0.009437601159008761,
        0.017615773452625338,
        0.03604951820571288,
        0.059853913626313406,
        0.02774311296608032,
        0.05161701582300103,
        0.033181250322371195,
        -0.07229954420420837,
        -0.02318441730480852,
        0.004058461012267297,
        -0.06198291115065447,
        -0.10775847196118056,
        0.03997836525555168,
        -0.005604079176368193,
        -0.00731209105893075,
        -0.05691431660401638,
        0.01229720551923676,
        0.002097099752645402,
        0.07724481858421431,
        0.1339393751499729,
        0.03138131322600083,
        -0.0579554152114143,
        0.014748058415579537,
        -0.08110589160070796,
        0.0334415732992025,
        0.020805794476501688,
        0.0009201131333751731,
        -0.010676476917607047,
        -0.09533920487355994,
        -0.062350060863848415,
        -0.03861658638685278,
        -0.03297354227428094,
        -0.06859662024411002,
        -0.012514043995610204,
        0.035820272541776624,
        -0.013525650945220635,
        0.0007979666906650336,
        0.004276059767854412,
        -0.08591831857301546,
        0.008445646922758333,
        -0.07169348216605528,
        -0.11820912232916415,
        0.019268676124321912,
        0.04098537366660294,
        0.05140162891573964,
        0.010464875875805184,
        0.0032404175049786706,
        -0.04376924788663431,
        -0.04677958875721539,
        0.026396847174894097,
        0.04227781040791177,
        -0.02929760243981169,
        -0.00048463948270162805,
        0.05023416630010462,
        0.054508057616785344,
        -0.04667409746614762,
        -0.017318001927406578,
        -0.012629421605485702,
        -0.08301565175317728,
        -0.003514320736324194,
        0.06546418419984497,
        -0.07404906590909006,
        -0.016772122586996296,
        -0.04653652725352211,
        -0.00470254316101495,
        0.0808228532069628,
        0.0851430367978276,
        0.03414418037977989,
        0.03692119488056612,
        0.047112132051706,
        -0.06354892213020534,
        0.09170767326505723,
        0.023201466411346076,
        -0.07999230348288183,
        -0.07322385077559891,
        -0.01281379884009411,
        -0.03918726209784074,
        0.09000036758865353,
        0.0845518786611789,
        0.003857320722192412,
        0.047205500165504816,
        -0.03433281364228207,
        0.01731793734759363,
        -0.08257530193089734,
        0.049332886199497675,
        -0.06359167509066606,
        -0.03821492049445867,
        0.03735953456964533,
        0.06127321921481217,
        -0.09850064216351949,
        0.028046903745705763,
